FANN_FLO_2.1
num_layers=3
learning_rate=0.700000
connection_rate=1.000000
network_type=0
learning_momentum=0.000000
training_algorithm=1
train_error_function=1
train_stop_function=0
cascade_output_change_fraction=0.010000
quickprop_decay=-0.000100
quickprop_mu=1.750000
rprop_increase_factor=1.200000
rprop_decrease_factor=0.500000
rprop_delta_min=0.000000
rprop_delta_max=50.000000
rprop_delta_zero=0.100000
cascade_output_stagnation_epochs=12
cascade_candidate_change_fraction=0.010000
cascade_candidate_stagnation_epochs=12
cascade_max_out_epochs=150
cascade_min_out_epochs=50
cascade_max_cand_epochs=150
cascade_min_cand_epochs=50
cascade_num_candidate_groups=2
bit_fail_limit=3.49999994039535522461e-01
cascade_candidate_limit=1.00000000000000000000e+03
cascade_weight_multiplier=4.00000005960464477539e-01
cascade_activation_functions_count=10
cascade_activation_functions=3 5 7 8 10 11 14 15 16 17 
cascade_activation_steepnesses_count=4
cascade_activation_steepnesses=2.50000000000000000000e-01 5.00000000000000000000e-01 7.50000000000000000000e-01 1.00000000000000000000e+00 
layer_sizes=257 129 5 
scale_included=0
neurons (num_inputs, activation_function, activation_steepness)=(0, 0, 0.00000000000000000000e+00) (0, 0, 0.00000000000000000000e+00) (0, 0, 0.00000000000000000000e+00) (0, 0, 0.00000000000000000000e+00) (0, 0, 0.00000000000000000000e+00) (0, 0, 0.00000000000000000000e+00) (0, 0, 0.00000000000000000000e+00) (0, 0, 0.00000000000000000000e+00) (0, 0, 0.00000000000000000000e+00) (0, 0, 0.00000000000000000000e+00) (0, 0, 0.00000000000000000000e+00) (0, 0, 0.00000000000000000000e+00) (0, 0, 0.00000000000000000000e+00) (0, 0, 0.00000000000000000000e+00) (0, 0, 0.00000000000000000000e+00) (0, 0, 0.00000000000000000000e+00) (0, 0, 0.00000000000000000000e+00) (0, 0, 0.00000000000000000000e+00) (0, 0, 0.00000000000000000000e+00) (0, 0, 0.00000000000000000000e+00) (0, 0, 0.00000000000000000000e+00) (0, 0, 0.00000000000000000000e+00) (0, 0, 0.00000000000000000000e+00) (0, 0, 0.00000000000000000000e+00) (0, 0, 0.00000000000000000000e+00) (0, 0, 0.00000000000000000000e+00) (0, 0, 0.00000000000000000000e+00) (0, 0, 0.00000000000000000000e+00) (0, 0, 0.00000000000000000000e+00) (0, 0, 0.00000000000000000000e+00) (0, 0, 0.00000000000000000000e+00) (0, 0, 0.00000000000000000000e+00) (0, 0, 0.00000000000000000000e+00) (0, 0, 0.00000000000000000000e+00) (0, 0, 0.00000000000000000000e+00) (0, 0, 0.00000000000000000000e+00) (0, 0, 0.00000000000000000000e+00) (0, 0, 0.00000000000000000000e+00) (0, 0, 0.00000000000000000000e+00) (0, 0, 0.00000000000000000000e+00) (0, 0, 0.00000000000000000000e+00) (0, 0, 0.00000000000000000000e+00) (0, 0, 0.00000000000000000000e+00) (0, 0, 0.00000000000000000000e+00) (0, 0, 0.00000000000000000000e+00) (0, 0, 0.00000000000000000000e+00) (0, 0, 0.00000000000000000000e+00) (0, 0, 0.00000000000000000000e+00) (0, 0, 0.00000000000000000000e+00) (0, 0, 0.00000000000000000000e+00) (0, 0, 0.00000000000000000000e+00) (0, 0, 0.00000000000000000000e+00) (0, 0, 0.00000000000000000000e+00) (0, 0, 0.00000000000000000000e+00) (0, 0, 0.00000000000000000000e+00) (0, 0, 0.00000000000000000000e+00) (0, 0, 0.00000000000000000000e+00) (0, 0, 0.00000000000000000000e+00) (0, 0, 0.00000000000000000000e+00) (0, 0, 0.00000000000000000000e+00) (0, 0, 0.00000000000000000000e+00) (0, 0, 0.00000000000000000000e+00) (0, 0, 0.00000000000000000000e+00) (0, 0, 0.00000000000000000000e+00) (0, 0, 0.00000000000000000000e+00) (0, 0, 0.00000000000000000000e+00) (0, 0, 0.00000000000000000000e+00) (0, 0, 0.00000000000000000000e+00) (0, 0, 0.00000000000000000000e+00) (0, 0, 0.00000000000000000000e+00) (0, 0, 0.00000000000000000000e+00) (0, 0, 0.00000000000000000000e+00) (0, 0, 0.00000000000000000000e+00) (0, 0, 0.00000000000000000000e+00) (0, 0, 0.00000000000000000000e+00) (0, 0, 0.00000000000000000000e+00) (0, 0, 0.00000000000000000000e+00) (0, 0, 0.00000000000000000000e+00) (0, 0, 0.00000000000000000000e+00) (0, 0, 0.00000000000000000000e+00) (0, 0, 0.00000000000000000000e+00) (0, 0, 0.00000000000000000000e+00) (0, 0, 0.00000000000000000000e+00) (0, 0, 0.00000000000000000000e+00) (0, 0, 0.00000000000000000000e+00) (0, 0, 0.00000000000000000000e+00) (0, 0, 0.00000000000000000000e+00) (0, 0, 0.00000000000000000000e+00) (0, 0, 0.00000000000000000000e+00) (0, 0, 0.00000000000000000000e+00) (0, 0, 0.00000000000000000000e+00) (0, 0, 0.00000000000000000000e+00) (0, 0, 0.00000000000000000000e+00) (0, 0, 0.00000000000000000000e+00) (0, 0, 0.00000000000000000000e+00) (0, 0, 0.00000000000000000000e+00) (0, 0, 0.00000000000000000000e+00) (0, 0, 0.00000000000000000000e+00) (0, 0, 0.00000000000000000000e+00) (0, 0, 0.00000000000000000000e+00) (0, 0, 0.00000000000000000000e+00) (0, 0, 0.00000000000000000000e+00) (0, 0, 0.00000000000000000000e+00) (0, 0, 0.00000000000000000000e+00) (0, 0, 0.00000000000000000000e+00) (0, 0, 0.00000000000000000000e+00) (0, 0, 0.00000000000000000000e+00) (0, 0, 0.00000000000000000000e+00) (0, 0, 0.00000000000000000000e+00) (0, 0, 0.00000000000000000000e+00) (0, 0, 0.00000000000000000000e+00) (0, 0, 0.00000000000000000000e+00) (0, 0, 0.00000000000000000000e+00) (0, 0, 0.00000000000000000000e+00) (0, 0, 0.00000000000000000000e+00) (0, 0, 0.00000000000000000000e+00) (0, 0, 0.00000000000000000000e+00) (0, 0, 0.00000000000000000000e+00) (0, 0, 0.00000000000000000000e+00) (0, 0, 0.00000000000000000000e+00) (0, 0, 0.00000000000000000000e+00) (0, 0, 0.00000000000000000000e+00) (0, 0, 0.00000000000000000000e+00) (0, 0, 0.00000000000000000000e+00) (0, 0, 0.00000000000000000000e+00) (0, 0, 0.00000000000000000000e+00) (0, 0, 0.00000000000000000000e+00) (0, 0, 0.00000000000000000000e+00) (0, 0, 0.00000000000000000000e+00) (0, 0, 0.00000000000000000000e+00) (0, 0, 0.00000000000000000000e+00) (0, 0, 0.00000000000000000000e+00) (0, 0, 0.00000000000000000000e+00) (0, 0, 0.00000000000000000000e+00) (0, 0, 0.00000000000000000000e+00) (0, 0, 0.00000000000000000000e+00) (0, 0, 0.00000000000000000000e+00) (0, 0, 0.00000000000000000000e+00) (0, 0, 0.00000000000000000000e+00) (0, 0, 0.00000000000000000000e+00) (0, 0, 0.00000000000000000000e+00) (0, 0, 0.00000000000000000000e+00) (0, 0, 0.00000000000000000000e+00) (0, 0, 0.00000000000000000000e+00) (0, 0, 0.00000000000000000000e+00) (0, 0, 0.00000000000000000000e+00) (0, 0, 0.00000000000000000000e+00) (0, 0, 0.00000000000000000000e+00) (0, 0, 0.00000000000000000000e+00) (0, 0, 0.00000000000000000000e+00) (0, 0, 0.00000000000000000000e+00) (0, 0, 0.00000000000000000000e+00) (0, 0, 0.00000000000000000000e+00) (0, 0, 0.00000000000000000000e+00) (0, 0, 0.00000000000000000000e+00) (0, 0, 0.00000000000000000000e+00) (0, 0, 0.00000000000000000000e+00) (0, 0, 0.00000000000000000000e+00) (0, 0, 0.00000000000000000000e+00) (0, 0, 0.00000000000000000000e+00) (0, 0, 0.00000000000000000000e+00) (0, 0, 0.00000000000000000000e+00) (0, 0, 0.00000000000000000000e+00) (0, 0, 0.00000000000000000000e+00) (0, 0, 0.00000000000000000000e+00) (0, 0, 0.00000000000000000000e+00) (0, 0, 0.00000000000000000000e+00) (0, 0, 0.00000000000000000000e+00) (0, 0, 0.00000000000000000000e+00) (0, 0, 0.00000000000000000000e+00) (0, 0, 0.00000000000000000000e+00) (0, 0, 0.00000000000000000000e+00) (0, 0, 0.00000000000000000000e+00) (0, 0, 0.00000000000000000000e+00) (0, 0, 0.00000000000000000000e+00) (0, 0, 0.00000000000000000000e+00) (0, 0, 0.00000000000000000000e+00) (0, 0, 0.00000000000000000000e+00) (0, 0, 0.00000000000000000000e+00) (0, 0, 0.00000000000000000000e+00) (0, 0, 0.00000000000000000000e+00) (0, 0, 0.00000000000000000000e+00) (0, 0, 0.00000000000000000000e+00) (0, 0, 0.00000000000000000000e+00) (0, 0, 0.00000000000000000000e+00) (0, 0, 0.00000000000000000000e+00) (0, 0, 0.00000000000000000000e+00) (0, 0, 0.00000000000000000000e+00) (0, 0, 0.00000000000000000000e+00) (0, 0, 0.00000000000000000000e+00) (0, 0, 0.00000000000000000000e+00) (0, 0, 0.00000000000000000000e+00) (0, 0, 0.00000000000000000000e+00) (0, 0, 0.00000000000000000000e+00) (0, 0, 0.00000000000000000000e+00) (0, 0, 0.00000000000000000000e+00) (0, 0, 0.00000000000000000000e+00) (0, 0, 0.00000000000000000000e+00) (0, 0, 0.00000000000000000000e+00) (0, 0, 0.00000000000000000000e+00) (0, 0, 0.00000000000000000000e+00) (0, 0, 0.00000000000000000000e+00) (0, 0, 0.00000000000000000000e+00) (0, 0, 0.00000000000000000000e+00) (0, 0, 0.00000000000000000000e+00) (0, 0, 0.00000000000000000000e+00) (0, 0, 0.00000000000000000000e+00) (0, 0, 0.00000000000000000000e+00) (0, 0, 0.00000000000000000000e+00) (0, 0, 0.00000000000000000000e+00) (0, 0, 0.00000000000000000000e+00) (0, 0, 0.00000000000000000000e+00) (0, 0, 0.00000000000000000000e+00) (0, 0, 0.00000000000000000000e+00) (0, 0, 0.00000000000000000000e+00) (0, 0, 0.00000000000000000000e+00) (0, 0, 0.00000000000000000000e+00) (0, 0, 0.00000000000000000000e+00) (0, 0, 0.00000000000000000000e+00) (0, 0, 0.00000000000000000000e+00) (0, 0, 0.00000000000000000000e+00) (0, 0, 0.00000000000000000000e+00) (0, 0, 0.00000000000000000000e+00) (0, 0, 0.00000000000000000000e+00) (0, 0, 0.00000000000000000000e+00) (0, 0, 0.00000000000000000000e+00) (0, 0, 0.00000000000000000000e+00) (0, 0, 0.00000000000000000000e+00) (0, 0, 0.00000000000000000000e+00) (0, 0, 0.00000000000000000000e+00) (0, 0, 0.00000000000000000000e+00) (0, 0, 0.00000000000000000000e+00) (0, 0, 0.00000000000000000000e+00) (0, 0, 0.00000000000000000000e+00) (0, 0, 0.00000000000000000000e+00) (0, 0, 0.00000000000000000000e+00) (0, 0, 0.00000000000000000000e+00) (0, 0, 0.00000000000000000000e+00) (0, 0, 0.00000000000000000000e+00) (0, 0, 0.00000000000000000000e+00) (0, 0, 0.00000000000000000000e+00) (0, 0, 0.00000000000000000000e+00) (0, 0, 0.00000000000000000000e+00) (0, 0, 0.00000000000000000000e+00) (0, 0, 0.00000000000000000000e+00) (0, 0, 0.00000000000000000000e+00) (0, 0, 0.00000000000000000000e+00) (0, 0, 0.00000000000000000000e+00) (0, 0, 0.00000000000000000000e+00) (0, 0, 0.00000000000000000000e+00) (0, 0, 0.00000000000000000000e+00) (0, 0, 0.00000000000000000000e+00) (0, 0, 0.00000000000000000000e+00) (0, 0, 0.00000000000000000000e+00) (0, 0, 0.00000000000000000000e+00) (0, 0, 0.00000000000000000000e+00) (0, 0, 0.00000000000000000000e+00) (257, 4, 5.00000000000000000000e-01) (257, 4, 5.00000000000000000000e-01) (257, 4, 5.00000000000000000000e-01) (257, 4, 5.00000000000000000000e-01) (257, 4, 5.00000000000000000000e-01) (257, 4, 5.00000000000000000000e-01) (257, 4, 5.00000000000000000000e-01) (257, 4, 5.00000000000000000000e-01) (257, 4, 5.00000000000000000000e-01) (257, 4, 5.00000000000000000000e-01) (257, 4, 5.00000000000000000000e-01) (257, 4, 5.00000000000000000000e-01) (257, 4, 5.00000000000000000000e-01) (257, 4, 5.00000000000000000000e-01) (257, 4, 5.00000000000000000000e-01) (257, 4, 5.00000000000000000000e-01) (257, 4, 5.00000000000000000000e-01) (257, 4, 5.00000000000000000000e-01) (257, 4, 5.00000000000000000000e-01) (257, 4, 5.00000000000000000000e-01) (257, 4, 5.00000000000000000000e-01) (257, 4, 5.00000000000000000000e-01) (257, 4, 5.00000000000000000000e-01) (257, 4, 5.00000000000000000000e-01) (257, 4, 5.00000000000000000000e-01) (257, 4, 5.00000000000000000000e-01) (257, 4, 5.00000000000000000000e-01) (257, 4, 5.00000000000000000000e-01) (257, 4, 5.00000000000000000000e-01) (257, 4, 5.00000000000000000000e-01) (257, 4, 5.00000000000000000000e-01) (257, 4, 5.00000000000000000000e-01) (257, 4, 5.00000000000000000000e-01) (257, 4, 5.00000000000000000000e-01) (257, 4, 5.00000000000000000000e-01) (257, 4, 5.00000000000000000000e-01) (257, 4, 5.00000000000000000000e-01) (257, 4, 5.00000000000000000000e-01) (257, 4, 5.00000000000000000000e-01) (257, 4, 5.00000000000000000000e-01) (257, 4, 5.00000000000000000000e-01) (257, 4, 5.00000000000000000000e-01) (257, 4, 5.00000000000000000000e-01) (257, 4, 5.00000000000000000000e-01) (257, 4, 5.00000000000000000000e-01) (257, 4, 5.00000000000000000000e-01) (257, 4, 5.00000000000000000000e-01) (257, 4, 5.00000000000000000000e-01) (257, 4, 5.00000000000000000000e-01) (257, 4, 5.00000000000000000000e-01) (257, 4, 5.00000000000000000000e-01) (257, 4, 5.00000000000000000000e-01) (257, 4, 5.00000000000000000000e-01) (257, 4, 5.00000000000000000000e-01) (257, 4, 5.00000000000000000000e-01) (257, 4, 5.00000000000000000000e-01) (257, 4, 5.00000000000000000000e-01) (257, 4, 5.00000000000000000000e-01) (257, 4, 5.00000000000000000000e-01) (257, 4, 5.00000000000000000000e-01) (257, 4, 5.00000000000000000000e-01) (257, 4, 5.00000000000000000000e-01) (257, 4, 5.00000000000000000000e-01) (257, 4, 5.00000000000000000000e-01) (257, 4, 5.00000000000000000000e-01) (257, 4, 5.00000000000000000000e-01) (257, 4, 5.00000000000000000000e-01) (257, 4, 5.00000000000000000000e-01) (257, 4, 5.00000000000000000000e-01) (257, 4, 5.00000000000000000000e-01) (257, 4, 5.00000000000000000000e-01) (257, 4, 5.00000000000000000000e-01) (257, 4, 5.00000000000000000000e-01) (257, 4, 5.00000000000000000000e-01) (257, 4, 5.00000000000000000000e-01) (257, 4, 5.00000000000000000000e-01) (257, 4, 5.00000000000000000000e-01) (257, 4, 5.00000000000000000000e-01) (257, 4, 5.00000000000000000000e-01) (257, 4, 5.00000000000000000000e-01) (257, 4, 5.00000000000000000000e-01) (257, 4, 5.00000000000000000000e-01) (257, 4, 5.00000000000000000000e-01) (257, 4, 5.00000000000000000000e-01) (257, 4, 5.00000000000000000000e-01) (257, 4, 5.00000000000000000000e-01) (257, 4, 5.00000000000000000000e-01) (257, 4, 5.00000000000000000000e-01) (257, 4, 5.00000000000000000000e-01) (257, 4, 5.00000000000000000000e-01) (257, 4, 5.00000000000000000000e-01) (257, 4, 5.00000000000000000000e-01) (257, 4, 5.00000000000000000000e-01) (257, 4, 5.00000000000000000000e-01) (257, 4, 5.00000000000000000000e-01) (257, 4, 5.00000000000000000000e-01) (257, 4, 5.00000000000000000000e-01) (257, 4, 5.00000000000000000000e-01) (257, 4, 5.00000000000000000000e-01) (257, 4, 5.00000000000000000000e-01) (257, 4, 5.00000000000000000000e-01) (257, 4, 5.00000000000000000000e-01) (257, 4, 5.00000000000000000000e-01) (257, 4, 5.00000000000000000000e-01) (257, 4, 5.00000000000000000000e-01) (257, 4, 5.00000000000000000000e-01) (257, 4, 5.00000000000000000000e-01) (257, 4, 5.00000000000000000000e-01) (257, 4, 5.00000000000000000000e-01) (257, 4, 5.00000000000000000000e-01) (257, 4, 5.00000000000000000000e-01) (257, 4, 5.00000000000000000000e-01) (257, 4, 5.00000000000000000000e-01) (257, 4, 5.00000000000000000000e-01) (257, 4, 5.00000000000000000000e-01) (257, 4, 5.00000000000000000000e-01) (257, 4, 5.00000000000000000000e-01) (257, 4, 5.00000000000000000000e-01) (257, 4, 5.00000000000000000000e-01) (257, 4, 5.00000000000000000000e-01) (257, 4, 5.00000000000000000000e-01) (257, 4, 5.00000000000000000000e-01) (257, 4, 5.00000000000000000000e-01) (257, 4, 5.00000000000000000000e-01) (257, 4, 5.00000000000000000000e-01) (257, 4, 5.00000000000000000000e-01) (257, 4, 5.00000000000000000000e-01) (257, 4, 5.00000000000000000000e-01) (0, 0, 0.00000000000000000000e+00) (129, 4, 5.00000000000000000000e-01) (129, 4, 5.00000000000000000000e-01) (129, 4, 5.00000000000000000000e-01) (129, 4, 5.00000000000000000000e-01) (0, 0, 0.00000000000000000000e+00) 
connections (connected_to_neuron, weight)=(0, -4.34152781963348388672e-02) (1, 8.42851176857948303223e-02) (2, 3.54800149798393249512e-02) (3, 7.06136152148246765137e-02) (4, -3.23565378785133361816e-02) (5, -6.62304162979125976562e-02) (6, -3.22378426790237426758e-03) (7, 7.61188566684722900391e-03) (8, -2.91421115398406982422e-02) (9, 3.96826937794685363770e-02) (10, 8.57791975140571594238e-02) (11, 7.72978439927101135254e-02) (12, 7.43277147412300109863e-02) (13, -3.85784506797790527344e-02) (14, 8.12385901808738708496e-02) (15, -9.45925712585449218750e-02) (16, 3.97025272250175476074e-02) (17, -1.46882385015487670898e-02) (18, 9.88870188593864440918e-02) (19, -3.93326953053474426270e-02) (20, -4.67941910028457641602e-03) (21, 6.12710937857627868652e-02) (22, -2.06978321075439453125e-02) (23, -3.59407067298889160156e-02) (24, 7.93061181902885437012e-02) (25, 3.35570052266120910645e-02) (26, -4.69093881547451019287e-02) (27, 7.51049891114234924316e-02) (28, 6.47234395146369934082e-02) (29, -5.62637373805046081543e-02) (30, 6.95004239678382873535e-02) (31, -7.86918476223945617676e-02) (32, -7.19786137342453002930e-02) (33, 4.98043000698089599609e-03) (34, 9.19217541813850402832e-02) (35, -4.33515012264251708984e-03) (36, 3.87500151991844177246e-02) (37, -1.13020241260528564453e-02) (38, -9.67232733964920043945e-02) (39, -9.03920978307723999023e-02) (40, -7.16193392872810363770e-02) (41, 8.90559330582618713379e-02) (42, 8.69057402014732360840e-02) (43, -9.72916409373283386230e-02) (44, -4.95225191116333007812e-02) (45, 6.81443288922309875488e-02) (46, -9.18842107057571411133e-02) (47, 9.01799872517585754395e-02) (48, -4.65439036488533020020e-02) (49, -9.29972007870674133301e-02) (50, -4.91526983678340911865e-02) (51, 4.87766787409782409668e-02) (52, 6.82738944888114929199e-02) (53, 3.01494672894477844238e-02) (54, -8.71640294790267944336e-02) (55, 4.75800111889839172363e-02) (56, -3.62935215234756469727e-02) (57, -3.40734124183654785156e-02) (58, 2.26849913597106933594e-02) (59, -7.15700834989547729492e-02) (60, 9.66285169124603271484e-03) (61, -7.81458616256713867188e-03) (62, -5.02619333565235137939e-02) (63, 3.76842394471168518066e-02) (64, 9.71658453345298767090e-02) (65, -5.83401732146739959717e-02) (66, -6.66509121656417846680e-02) (67, 3.59158590435981750488e-02) (68, 3.03578004240989685059e-02) (69, -6.33741915225982666016e-02) (70, 4.55237701535224914551e-02) (71, 5.87384626269340515137e-02) (72, -7.43182599544525146484e-02) (73, 3.24295088648796081543e-02) (74, 6.14468231797218322754e-02) (75, -2.38407775759696960449e-02) (76, 5.73836266994476318359e-04) (77, 6.95626214146614074707e-02) (78, -3.36607843637466430664e-02) (79, 5.40299341082572937012e-02) (80, 7.65654221177101135254e-02) (81, 1.71865224838256835938e-02) (82, 2.80661880970001220703e-03) (83, 4.48393151164054870605e-02) (84, -5.26640079915523529053e-02) (85, 1.56425833702087402344e-02) (86, -7.58067518472671508789e-03) (87, 1.10424757003784179688e-02) (88, 8.15691724419593811035e-02) (89, -8.48956778645515441895e-02) (90, 3.94723936915397644043e-02) (91, -8.76797735691070556641e-03) (92, 7.28974491357803344727e-03) (93, 8.92104580998420715332e-02) (94, -7.10837393999099731445e-02) (95, 4.45558875799179077148e-03) (96, -6.91297203302383422852e-02) (97, -6.98473006486892700195e-02) (98, -2.22399923950433731079e-02) (99, -1.09214857220649719238e-01) (100, 4.04222868382930755615e-02) (101, 5.28730213642120361328e-01) (102, 5.99143445491790771484e-01) (103, 3.88264268636703491211e-01) (104, 1.23089563846588134766e+00) (105, -7.81462490558624267578e-02) (106, -4.29259389638900756836e-01) (107, -4.35334205627441406250e-01) (108, 1.69808983802795410156e-01) (109, -1.00549340248107910156e-01) (110, 5.05120992660522460938e-01) (111, 5.01125931739807128906e-01) (112, -1.83048531413078308105e-01) (113, -1.34401142597198486328e-01) (114, 5.46960055828094482422e-01) (115, 1.99495106935501098633e-01) (116, 9.72139835357666015625e-01) (117, -2.83069103956222534180e-01) (118, 1.26252651214599609375e-01) (119, -1.60503372550010681152e-01) (120, -4.50201854109764099121e-02) (121, 1.37686446309089660645e-01) (122, -9.55117166042327880859e-01) (123, 8.71940925717353820801e-02) (124, -2.86808311939239501953e-02) (125, -6.90485537052154541016e-03) (126, -8.35032016038894653320e-03) (127, 2.18944251537322998047e-03) (128, 5.98769187927246093750e-02) (129, 3.95188815891742706299e-02) (130, -3.77713322639465332031e-01) (131, -4.21517863869667053223e-02) (132, -3.23842391371726989746e-02) (133, -4.95632216334342956543e-02) (134, 7.94362723827362060547e-02) (135, -1.27487286925315856934e-01) (136, -3.46207469701766967773e-02) (137, 7.98582136631011962891e-02) (138, -4.48604188859462738037e-02) (139, 1.75717025995254516602e-02) (140, -4.92518953979015350342e-02) (141, -7.16340020298957824707e-02) (142, 4.45083081722259521484e-02) (143, -6.67130947113037109375e-02) (144, 4.67209750786423683167e-03) (145, 1.59882400184869766235e-02) (146, -3.69593910872936248779e-02) (147, -4.52962424606084823608e-03) (148, 8.13355892896652221680e-02) (149, -9.37693938612937927246e-02) (150, -3.18723097443580627441e-02) (151, -3.96001040935516357422e-02) (152, -1.18989562615752220154e-02) (153, -1.35113328695297241211e-01) (154, -5.20983338356018066406e-02) (155, -9.17518436908721923828e-02) (156, -7.39901661872863769531e-02) (157, 4.04125675559043884277e-02) (158, -3.75316739082336425781e-02) (159, 8.10565650463104248047e-02) (160, -8.34068655967712402344e-02) (161, 2.50184219330549240112e-02) (162, -6.35482594370841979980e-02) (163, 8.94754827022552490234e-02) (164, 7.53504037857055664062e-03) (165, -8.58672186732292175293e-02) (166, -8.81297215819358825684e-02) (167, 5.93305304646492004395e-02) (168, 1.13119538873434066772e-02) (169, -2.93982744216918945312e-01) (170, -2.56344564259052276611e-02) (171, -5.94195760786533355713e-02) (172, 9.20888502150774002075e-03) (173, -6.85793310403823852539e-02) (174, -2.90909111499786376953e-02) (175, -8.76429378986358642578e-02) (176, 5.57480193674564361572e-02) (177, 3.60462106764316558838e-02) (178, 1.38991707935929298401e-02) (179, -1.21181979775428771973e-01) (180, 4.33868244290351867676e-02) (181, 8.68183895945549011230e-02) (182, 9.06593054533004760742e-02) (183, -7.24509656429290771484e-02) (184, 1.78847741335630416870e-02) (185, -6.29109442234039306641e-02) (186, 7.05430433154106140137e-02) (187, 2.42919661104679107666e-02) (188, -7.15608596801757812500e-02) (189, -4.78151477873325347900e-02) (190, 3.05554177612066268921e-02) (191, -5.11957295238971710205e-02) (192, 6.91582188010215759277e-02) (193, 4.92258891463279724121e-02) (194, -6.47047907114028930664e-02) (195, -6.41252815723419189453e-01) (196, -3.22706818580627441406e-01) (197, -7.60156989097595214844e-01) (198, -5.09742647409439086914e-02) (199, 5.64594641327857971191e-02) (200, 4.12791445851325988770e-02) (201, 3.71316149830818176270e-02) (202, 9.64826419949531555176e-02) (203, -5.00910393893718719482e-02) (204, 6.85522779822349548340e-02) (205, -3.26082780957221984863e-02) (206, -3.76580618321895599365e-02) (207, 1.56684517860412597656e-02) (208, 6.13293983042240142822e-03) (209, 1.13178446888923645020e-01) (210, -5.67198395729064941406e-02) (211, 3.92855629324913024902e-02) (212, 4.56972792744636535645e-02) (213, -6.87082260847091674805e-02) (214, 6.50153681635856628418e-02) (215, -4.62546460330486297607e-02) (216, -3.31026241183280944824e-02) (217, 4.92891743779182434082e-02) (218, 8.71951654553413391113e-02) (219, -5.82533441483974456787e-02) (220, 9.42964181303977966309e-02) (221, 1.40718370676040649414e-03) (222, -1.21392682194709777832e-02) (223, 6.34546354413032531738e-02) (224, -4.93669286370277404785e-02) (225, 2.31559425592422485352e-02) (226, -5.98520971834659576416e-02) (227, -8.63026008009910583496e-02) (228, 8.38733240962028503418e-02) (229, -1.08263641595840454102e-02) (230, 7.01568648219108581543e-02) (231, 2.51524522900581359863e-02) (232, -7.36947581171989440918e-02) (233, 6.66394904255867004395e-02) (234, 7.50614181160926818848e-02) (235, 9.48575213551521301270e-02) (236, -6.59687817096710205078e-02) (237, -6.25966489315032958984e-02) (238, 1.05259642004966735840e-02) (239, -6.51881843805313110352e-02) (240, -9.26408916711807250977e-02) (241, 5.38061335682868957520e-02) (242, 7.40973874926567077637e-02) (243, 5.30563667416572570801e-02) (244, 8.50979015231132507324e-02) (245, 3.91127541661262512207e-02) (246, -9.31982696056365966797e-02) (247, -4.80047240853309631348e-02) (248, -1.15980803966522216797e-02) (249, 9.39968898892402648926e-02) (250, -6.25807046890258789062e-03) (251, -1.73016637563705444336e-02) (252, -4.59592789411544799805e-03) (253, 8.16026553511619567871e-02) (254, -5.38470260798931121826e-02) (255, 4.60371449589729309082e-02) (256, -1.98177978396415710449e-01) (0, -1.36991217732429504395e-02) (1, 5.97345456480979919434e-02) (2, -1.13680809736251831055e-02) (3, 7.54745081067085266113e-02) (4, 2.98914089798927307129e-02) (5, -8.62156227231025695801e-02) (6, -9.82202365994453430176e-02) (7, -3.46909463405609130859e-03) (8, 8.88457968831062316895e-02) (9, 9.66372862458229064941e-02) (10, 3.05621251463890075684e-02) (11, -7.37508535385131835938e-02) (12, 7.16324895620346069336e-03) (13, 6.53739348053932189941e-02) (14, -6.63917511701583862305e-02) (15, -3.90306301414966583252e-02) (16, 3.94713208079338073730e-02) (17, 8.66646245121955871582e-02) (18, -5.39327301084995269775e-02) (19, -2.14159265160560607910e-02) (20, 9.34663489460945129395e-02) (21, -1.93745642900466918945e-03) (22, 6.69859871268272399902e-02) (23, 8.74632522463798522949e-02) (24, 9.18044820427894592285e-02) (25, -5.03156743943691253662e-02) (26, -1.71326845884323120117e-02) (27, 7.34071359038352966309e-02) (28, -4.16269898414611816406e-03) (29, -7.10955411195755004883e-02) (30, -2.18342617154121398926e-02) (31, 8.21381881833076477051e-02) (32, 8.86390134692192077637e-02) (33, 6.67976662516593933105e-02) (34, 5.76126947999000549316e-02) (35, 1.85304135084152221680e-02) (36, 8.05820301175117492676e-02) (37, 5.93924596905708312988e-02) (38, -8.49386826157569885254e-02) (39, 6.94278255105018615723e-02) (40, 5.60297444462776184082e-02) (41, 4.56234440207481384277e-02) (42, 9.56769660115242004395e-02) (43, -3.68070155382156372070e-02) (44, 1.09973773360252380371e-02) (45, -7.07147717475891113281e-02) (46, 2.41623520851135253906e-02) (47, -4.95312921702861785889e-02) (48, -8.40501487255096435547e-02) (49, 7.02296271920204162598e-02) (50, 2.90527865290641784668e-02) (51, -9.05837863683700561523e-02) (52, -3.17078232765197753906e-02) (53, -3.96122783422470092773e-03) (54, 9.68794599175453186035e-02) (55, -3.99033501744270324707e-02) (56, 4.57230880856513977051e-02) (57, -2.02532261610031127930e-02) (58, -6.64962083101272583008e-02) (59, -5.84396012127399444580e-02) (60, 8.65124166011810302734e-03) (61, 1.16695314645767211914e-02) (62, -7.63014182448387145996e-02) (63, -2.70974636077880859375e-03) (64, -2.15328112244606018066e-02) (65, 8.13112780451774597168e-02) (66, -8.41793343424797058105e-02) (67, -4.09507751464843750000e-02) (68, 4.07037362456321716309e-02) (69, -6.91180080175399780273e-02) (70, -7.15229511260986328125e-02) (71, -3.26652824878692626953e-03) (72, 7.65054300427436828613e-02) (73, -7.58459791541099548340e-02) (74, 5.99264577031135559082e-02) (75, -1.24971866607666015625e-02) (76, -4.65607531368732452393e-02) (77, -1.59111768007278442383e-02) (78, 3.79715189337730407715e-02) (79, -3.06109040975570678711e-02) (80, -4.56815548241138458252e-02) (81, -3.29757034778594970703e-02) (82, -2.11946815252304077148e-02) (83, 2.26106271147727966309e-02) (84, 6.30630627274513244629e-02) (85, -2.43152230978012084961e-02) (86, 8.27072784304618835449e-02) (87, 8.78616422414779663086e-03) (88, 5.54315522313117980957e-02) (89, -8.37889313697814941406e-02) (90, 5.03465607762336730957e-02) (91, -3.59172075986862182617e-02) (92, 2.78806015849113464355e-02) (93, 7.40451440215110778809e-02) (94, 6.13730475306510925293e-02) (95, -9.36522111296653747559e-02) (96, 5.53564205765724182129e-02) (97, -5.39995431900024414062e-02) (98, 1.39867648482322692871e-01) (99, -1.97486296296119689941e-01) (100, -1.02182716131210327148e-01) (101, -4.99974489212036132812e-01) (102, 8.85576963424682617188e-01) (103, 6.76241934299468994141e-01) (104, 1.95309901237487792969e+00) (105, 5.32011464238166809082e-02) (106, -3.37517380714416503906e-01) (107, -8.31832736730575561523e-02) (108, -3.54509323835372924805e-01) (109, -1.83199673891067504883e-01) (110, 2.10049867630004882812e-01) (111, 9.42818641662597656250e-01) (112, -5.18358349800109863281e-01) (113, -2.83155918121337890625e-01) (114, 1.12166851758956909180e-01) (115, -3.16861599683761596680e-01) (116, 8.36339175701141357422e-01) (117, -9.18100535869598388672e-01) (118, -9.62623804807662963867e-02) (119, 2.16498181223869323730e-01) (120, -1.89640581607818603516e-01) (121, 6.48640275001525878906e-01) (122, -8.25922310352325439453e-01) (123, 4.05369475483894348145e-02) (124, -2.66792923212051391602e-02) (125, 7.62339308857917785645e-02) (126, 4.68847379088401794434e-02) (127, -7.13228657841682434082e-02) (128, 9.52139049768447875977e-02) (129, -1.82480141520500183105e-02) (130, -1.45064741373062133789e-01) (131, 9.48333069682121276855e-02) (132, -3.26405018568038940430e-02) (133, -7.50564113259315490723e-02) (134, 5.15786856412887573242e-02) (135, -9.73439440131187438965e-02) (136, -2.41788327693939208984e-02) (137, -7.89838358759880065918e-02) (138, 9.56512615084648132324e-02) (139, 2.37246286123991012573e-02) (140, -3.32811921834945678711e-02) (141, -6.07428736984729766846e-02) (142, 1.09246410429477691650e-01) (143, 2.74980906397104263306e-02) (144, 6.43480941653251647949e-02) (145, -8.52269530296325683594e-02) (146, 5.09407222270965576172e-02) (147, 5.42200766503810882568e-02) (148, -8.34505483508110046387e-02) (149, 5.26798935607075691223e-03) (150, 2.29406356811523437500e-03) (151, -7.89730697870254516602e-02) (152, 1.01863577961921691895e-01) (153, -1.09656311571598052979e-01) (154, 6.43543004989624023438e-02) (155, -1.44111856818199157715e-01) (156, -1.16480956785380840302e-03) (157, 1.93825177848339080811e-02) (158, 1.19883660227060317993e-02) (159, -5.04793897271156311035e-02) (160, -1.26477912068367004395e-01) (161, -7.14349299669265747070e-02) (162, -7.80604854226112365723e-02) (163, -7.03566968441009521484e-02) (164, 3.79171445965766906738e-02) (165, 5.71084432303905487061e-02) (166, -8.49901214241981506348e-02) (167, -1.22446089982986450195e-01) (168, -1.49486973881721496582e-01) (169, -8.03147137165069580078e-01) (170, -2.22602337598800659180e-02) (171, -9.37951281666755676270e-02) (172, -1.13241747021675109863e-02) (173, 1.34154707193374633789e-02) (174, 6.10037147998809814453e-03) (175, -6.20172061026096343994e-02) (176, 1.05580955743789672852e-01) (177, -2.36989129334688186646e-02) (178, 1.49214640259742736816e-01) (179, -6.35665804147720336914e-02) (180, 9.13268998265266418457e-02) (181, 9.59296301007270812988e-02) (182, 7.94538632035255432129e-02) (183, 5.62805049121379852295e-02) (184, 1.74203352071344852448e-03) (185, 3.01221106201410293579e-02) (186, -7.84526094794273376465e-02) (187, 8.96681100130081176758e-03) (188, -1.50285527110099792480e-01) (189, 6.87679350376129150391e-02) (190, 2.02600345015525817871e-01) (191, 7.04458430409431457520e-02) (192, 2.25803703069686889648e-02) (193, 5.88887706398963928223e-02) (194, 7.23673775792121887207e-02) (195, -1.43062973022460937500e+00) (196, -2.84618914127349853516e-01) (197, -6.33596539497375488281e-01) (198, -3.13342884182929992676e-02) (199, -1.41340941190719604492e-02) (200, -2.98411399126052856445e-02) (201, 8.38938578963279724121e-02) (202, -1.33373886346817016602e-02) (203, 5.33879175782203674316e-02) (204, -2.69067287445068359375e-03) (205, 9.27629843354225158691e-02) (206, 9.27864387631416320801e-02) (207, -7.73498788475990295410e-02) (208, 9.24812972545623779297e-01) (209, 4.85227823257446289062e-01) (210, 5.63615038990974426270e-02) (211, 9.02322605252265930176e-02) (212, -2.30905264616012573242e-02) (213, 1.10998302698135375977e-02) (214, 2.98057273030281066895e-02) (215, -1.27270221710205078125e-02) (216, -7.25979804992675781250e-02) (217, 3.63509729504585266113e-02) (218, 9.10253599286079406738e-02) (219, -4.78471629321575164795e-02) (220, -6.14548735320568084717e-02) (221, 4.15942445397377014160e-02) (222, 9.76340249180793762207e-02) (223, 6.11255094408988952637e-02) (224, 4.83013689517974853516e-04) (225, 7.00013861060142517090e-02) (226, -7.83769637346267700195e-02) (227, -8.62238630652427673340e-02) (228, 9.34388861060142517090e-02) (229, -9.71125066280364990234e-03) (230, -3.57955694198608398438e-04) (231, -3.64022627472877502441e-02) (232, -2.58173942565917968750e-02) (233, 8.63046571612358093262e-02) (234, -8.30143392086029052734e-02) (235, 7.14919343590736389160e-02) (236, 7.90676400065422058105e-02) (237, -9.02279093861579895020e-02) (238, 9.41420570015907287598e-02) (239, -7.66225084662437438965e-02) (240, 9.34730246663093566895e-02) (241, 5.05035594105720520020e-02) (242, -8.63902568817138671875e-02) (243, -2.96175032854080200195e-02) (244, -3.83966229856014251709e-02) (245, 4.34154644608497619629e-02) (246, 5.76554760336875915527e-02) (247, -1.09945982694625854492e-02) (248, -2.02335715293884277344e-02) (249, 4.86808344721794128418e-02) (250, 4.11582365632057189941e-02) (251, 1.83115601539611816406e-02) (252, -9.72492992877960205078e-03) (253, 3.87922599911689758301e-02) (254, -2.05629318952560424805e-02) (255, 9.07580927014350891113e-02) (256, -4.01275344192981719971e-02) (0, 1.06010586023330688477e-03) (1, -9.54657793045043945312e-02) (2, 2.23252922296524047852e-03) (3, 9.13488492369651794434e-02) (4, 4.17627394199371337891e-03) (5, 6.58302679657936096191e-02) (6, -3.44685465097427368164e-02) (7, -9.51907783746719360352e-03) (8, 8.28159376978874206543e-02) (9, -6.29766136407852172852e-02) (10, -3.04514393210411071777e-02) (11, 9.25880149006843566895e-02) (12, -6.88345655798912048340e-02) (13, -7.07395374774932861328e-03) (14, 8.60610380768775939941e-02) (15, 8.16689953207969665527e-02) (16, 6.53579086065292358398e-03) (17, -4.35564629733562469482e-02) (18, -5.67276291549205780029e-02) (19, -5.00487387180328369141e-02) (20, -8.59009921550750732422e-02) (21, 3.22777703404426574707e-02) (22, 2.97176912426948547363e-02) (23, 6.27798363566398620605e-02) (24, -2.65639871358871459961e-02) (25, -5.19707500934600830078e-02) (26, -4.69450913369655609131e-02) (27, -8.77717286348342895508e-02) (28, 2.74663195013999938965e-02) (29, -5.61870001256465911865e-02) (30, 2.10219174623489379883e-02) (31, -7.14735835790634155273e-02) (32, -5.16527779400348663330e-02) (33, -7.67455548048019409180e-02) (34, -8.01247358322143554688e-02) (35, 5.25235012173652648926e-02) (36, 8.90847221016883850098e-02) (37, -1.45932808518409729004e-02) (38, -5.69955818355083465576e-02) (39, 7.19006434082984924316e-02) (40, 2.24300995469093322754e-02) (41, 1.25529766082763671875e-02) (42, 6.44886717200279235840e-02) (43, 5.35955503582954406738e-02) (44, -9.45209786295890808105e-02) (45, 5.05497083067893981934e-02) (46, 3.52645292878150939941e-02) (47, 1.20148211717605590820e-02) (48, -9.30067524313926696777e-02) (49, 7.85369053483009338379e-02) (50, 6.19660839438438415527e-02) (51, -7.89077430963516235352e-02) (52, 1.08146816492080688477e-02) (53, -8.31622630357742309570e-03) (54, 8.38720872998237609863e-02) (55, 8.42506960034370422363e-02) (56, 3.97130325436592102051e-02) (57, -6.30729943513870239258e-02) (58, 9.64789614081382751465e-02) (59, -3.28206568956375122070e-02) (60, -1.92599967122077941895e-02) (61, 1.75008922815322875977e-02) (62, -4.29423898458480834961e-03) (63, 2.90872380137443542480e-02) (64, 4.07553389668464660645e-02) (65, 1.55810266733169555664e-02) (66, -1.83892771601676940918e-02) (67, 2.98400595784187316895e-02) (68, -9.90122556686401367188e-02) (69, 2.46151462197303771973e-02) (70, 1.74069404602050781250e-03) (71, 2.34178528189659118652e-02) (72, -6.28318935632705688477e-02) (73, -3.37706357240676879883e-02) (74, -2.29866057634353637695e-02) (75, -5.73528669774532318115e-02) (76, -8.32209289073944091797e-02) (77, -8.77220854163169860840e-02) (78, 5.46619519591331481934e-02) (79, -7.62276798486709594727e-02) (80, 9.08148214221000671387e-02) (81, 1.66280418634414672852e-02) (82, -5.51354251801967620850e-02) (83, 1.62950903177261352539e-03) (84, -9.16881859302520751953e-02) (85, -7.12633281946182250977e-02) (86, -1.41198039054870605469e-02) (87, 4.80248406529426574707e-02) (88, -3.43363210558891296387e-02) (89, -1.76408365368843078613e-02) (90, -8.47958177328109741211e-02) (91, 4.64036837220191955566e-02) (92, 9.98600497841835021973e-02) (93, 1.09099522233009338379e-02) (94, -2.45090872049331665039e-02) (95, 4.06153872609138488770e-02) (96, -7.35090225934982299805e-02) (97, -3.99095356464385986328e-01) (98, -5.94434380531311035156e-01) (99, -2.22309753298759460449e-01) (100, -2.37689957022666931152e-01) (101, 1.55108797550201416016e+00) (102, -1.00011408329010009766e+00) (103, -1.01263725757598876953e+00) (104, -3.03833317756652832031e+00) (105, -8.88057827949523925781e-01) (106, 1.04839727282524108887e-01) (107, -5.71116328239440917969e-01) (108, 9.60482358932495117188e-01) (109, -1.51371538639068603516e-01) (110, -4.11095410585403442383e-01) (111, -2.18404054641723632812e+00) (112, 5.17256617546081542969e-01) (113, 6.22732400894165039062e-01) (114, 6.02254904806613922119e-02) (115, 7.65176475048065185547e-01) (116, -5.32745122909545898438e-01) (117, 1.98209977149963378906e+00) (118, 6.29328489303588867188e-01) (119, -1.28991496562957763672e+00) (120, 2.26294010877609252930e-01) (121, -1.81810200214385986328e+00) (122, -1.39000654220581054688e-01) (123, 7.31624662876129150391e-04) (124, 1.52728185057640075684e-02) (125, -5.98636157810688018799e-02) (126, -5.86530007421970367432e-02) (127, 4.17637899518013000488e-02) (128, 1.31619974970817565918e-01) (129, 6.93732872605323791504e-02) (130, 4.72133792936801910400e-02) (131, 6.60785939544439315796e-03) (132, -3.15023995935916900635e-02) (133, -1.16743445396423339844e-02) (134, 1.02568700909614562988e-01) (135, 2.75573115795850753784e-02) (136, 5.26305101811885833740e-02) (137, 6.16325624287128448486e-02) (138, 7.76285901665687561035e-02) (139, 1.02045163512229919434e-01) (140, 8.47102981060743331909e-03) (141, -4.10730652511119842529e-02) (142, -7.14636370539665222168e-02) (143, 2.68691461533308029175e-02) (144, 8.76162573695182800293e-02) (145, 5.41327334940433502197e-02) (146, 5.42304888367652893066e-02) (147, 3.54177877306938171387e-02) (148, 7.75536224246025085449e-02) (149, 4.82473708689212799072e-02) (150, 5.12668266892433166504e-02) (151, -2.87441611289978027344e-02) (152, 5.01410067081451416016e-02) (153, -3.31767313182353973389e-02) (154, 7.43298903107643127441e-02) (155, -8.32312479615211486816e-02) (156, 6.08289204537868499756e-02) (157, -7.71615356206893920898e-02) (158, -8.55819135904312133789e-02) (159, 5.56794479489326477051e-02) (160, 3.24412494897842407227e-01) (161, 7.64915719628334045410e-02) (162, -5.57756647467613220215e-02) (163, -8.84657353162765502930e-02) (164, -1.05386897921562194824e-02) (165, -6.75200149416923522949e-02) (166, 1.03180170059204101562e-01) (167, 1.39210596680641174316e-02) (168, 5.29637694358825683594e-01) (169, 1.49347925186157226562e+00) (170, -3.87646759918425232172e-05) (171, -3.01978532224893569946e-02) (172, 7.05790147185325622559e-02) (173, -5.50130382180213928223e-02) (174, 7.34061971306800842285e-02) (175, 4.88267019391059875488e-02) (176, 1.64138704538345336914e-01) (177, 4.40620444715023040771e-02) (178, 2.77262367308139801025e-02) (179, 3.72600108385086059570e-02) (180, 4.01440262794494628906e-03) (181, 1.58861186355352401733e-02) (182, -4.02994044125080108643e-02) (183, -8.16101729869842529297e-02) (184, 1.22964471578598022461e-01) (185, -7.79057443141937255859e-02) (186, -1.93858351558446884155e-02) (187, 1.24083369970321655273e-01) (188, -8.76860022544860839844e-02) (189, 1.84862148016691207886e-02) (190, 8.37461873888969421387e-02) (191, 6.97842985391616821289e-02) (192, -6.76311925053596496582e-02) (193, -1.19785591959953308105e-02) (194, 5.80931529402732849121e-02) (195, 2.49888586997985839844e+00) (196, -1.00303232669830322266e-01) (197, -2.31725707650184631348e-01) (198, 5.93404844403266906738e-02) (199, 7.55544006824493408203e-03) (200, 9.88406613469123840332e-02) (201, 8.50877985358238220215e-02) (202, 7.25739374756813049316e-02) (203, 6.46341666579246520996e-02) (204, -6.99252411723136901855e-02) (205, 4.59801331162452697754e-02) (206, 1.08745843172073364258e-02) (207, -7.30664134025573730469e-02) (208, 7.96016931533813476562e-01) (209, 4.26301985979080200195e-01) (210, 9.41766723990440368652e-02) (211, 3.05157825350761413574e-02) (212, -7.93277099728584289551e-02) (213, -6.73244073987007141113e-02) (214, 3.51667776703834533691e-02) (215, 6.71168640255928039551e-02) (216, -5.68380281329154968262e-02) (217, 9.81336906552314758301e-02) (218, -3.03898900747299194336e-02) (219, -3.30171883106231689453e-02) (220, -3.88197191059589385986e-02) (221, 2.53900662064552307129e-02) (222, -8.40594694018363952637e-02) (223, -6.45090639591217041016e-03) (224, -8.65884944796562194824e-02) (225, 7.40336850285530090332e-02) (226, -8.46207961440086364746e-02) (227, 3.15141007304191589355e-02) (228, -3.63136902451515197754e-02) (229, 7.47196897864341735840e-02) (230, -6.09304681420326232910e-02) (231, -3.74730229377746582031e-02) (232, 5.98074868321418762207e-02) (233, -8.83565321564674377441e-02) (234, -7.28388577699661254883e-02) (235, 8.98822471499443054199e-02) (236, 5.76236024498939514160e-02) (237, 3.80357280373573303223e-02) (238, -8.31841677427291870117e-02) (239, -7.34685510396957397461e-02) (240, 2.81757637858390808105e-02) (241, -8.90074968338012695312e-02) (242, 5.70472255349159240723e-02) (243, 4.88480404019355773926e-02) (244, -5.63319027423858642578e-02) (245, -7.78599828481674194336e-03) (246, 1.59649103879928588867e-02) (247, -1.31699293851852416992e-02) (248, -9.65231657028198242188e-03) (249, 8.55750218033790588379e-02) (250, 5.38128837943077087402e-02) (251, 5.15279695391654968262e-02) (252, 1.09650939702987670898e-02) (253, 6.97534158825874328613e-02) (254, -5.49229495227336883545e-02) (255, 2.43766084313392639160e-02) (256, 2.72297933697700500488e-02) (0, -3.95437441766262054443e-02) (1, -4.41092960536479949951e-02) (2, -9.25265848636627197266e-02) (3, -6.48240596055984497070e-02) (4, -5.03976643085479736328e-03) (5, -2.99996137619018554688e-02) (6, 9.49834361672401428223e-02) (7, 6.60370290279388427734e-03) (8, -2.83847004175186157227e-03) (9, 8.48656818270683288574e-02) (10, -3.57726961374282836914e-02) (11, -6.48027360439300537109e-02) (12, -9.83184874057769775391e-02) (13, -9.24124568700790405273e-03) (14, 6.33730217814445495605e-02) (15, -8.73259902000427246094e-02) (16, -5.21940253674983978271e-02) (17, 1.22210755944252014160e-02) (18, -4.36578877270221710205e-02) (19, 4.00199815630912780762e-02) (20, -7.18140229582786560059e-02) (21, 4.31721881031990051270e-02) (22, -6.96323364973068237305e-02) (23, -8.62389951944351196289e-02) (24, -3.01493704319000244141e-03) (25, 8.18956270813941955566e-02) (26, 2.47261077165603637695e-02) (27, -3.32615226507186889648e-02) (28, -7.30273276567459106445e-02) (29, -5.08972965180873870850e-02) (30, -8.94744172692298889160e-02) (31, -1.25710666179656982422e-02) (32, 4.99340146780014038086e-03) (33, -8.20010006427764892578e-02) (34, 2.26048678159713745117e-02) (35, 9.99536439776420593262e-02) (36, -1.20006129145622253418e-02) (37, 1.75883024930953979492e-02) (38, 6.55734539031982421875e-03) (39, 8.51609185338020324707e-02) (40, 2.45399773120880126953e-03) (41, 7.07846507430076599121e-02) (42, -7.96418190002441406250e-02) (43, 4.13550436496734619141e-03) (44, -3.84565964341163635254e-02) (45, 8.37311968207359313965e-02) (46, 1.68095082044601440430e-02) (47, 9.34938341379165649414e-03) (48, -4.04772907495498657227e-03) (49, 7.31516256928443908691e-02) (50, -5.06306402385234832764e-02) (51, 2.41382494568824768066e-02) (52, 1.63238048553466796875e-02) (53, -2.02629715204238891602e-02) (54, 3.78992632031440734863e-02) (55, -8.66911262273788452148e-02) (56, -3.83673571050167083740e-02) (57, -3.73746380209922790527e-02) (58, -1.99526473879814147949e-02) (59, -1.13946795463562011719e-02) (60, 1.17280632257461547852e-02) (61, -9.42706316709518432617e-03) (62, 7.60342553257942199707e-02) (63, -8.32785367965698242188e-02) (64, 8.57193768024444580078e-03) (65, -1.36087089776992797852e-03) (66, -8.33248943090438842773e-02) (67, 9.65713188052177429199e-02) (68, -8.37725624442100524902e-02) (69, 2.32324451208114624023e-02) (70, 8.17322358489036560059e-02) (71, 1.86814293265342712402e-02) (72, -5.98289817571640014648e-03) (73, -9.79095846414566040039e-02) (74, -7.71830677986145019531e-02) (75, 5.55605068802833557129e-02) (76, 8.58216211199760437012e-02) (77, 3.96264418959617614746e-02) (78, -3.50901037454605102539e-02) (79, -1.82261019945144653320e-02) (80, 1.27780809998512268066e-02) (81, 1.42792612314224243164e-02) (82, -9.40878540277481079102e-02) (83, -7.08981156349182128906e-02) (84, 9.40162762999534606934e-02) (85, 4.38114032149314880371e-02) (86, -5.75892440974712371826e-02) (87, -4.43510785698890686035e-02) (88, -9.35632362961769104004e-02) (89, 2.24580988287925720215e-02) (90, 4.42542508244514465332e-02) (91, 1.81648284196853637695e-02) (92, -8.69689658284187316895e-02) (93, 2.02885046601295471191e-02) (94, 3.48862931132316589355e-02) (95, 2.16029658913612365723e-02) (96, -8.10723677277565002441e-02) (97, 1.38929545879364013672e-01) (98, -1.62904765456914901733e-02) (99, -1.65803506970405578613e-01) (100, 6.34875819087028503418e-02) (101, 9.50085639953613281250e-01) (102, 4.11987006664276123047e-01) (103, 2.48752504587173461914e-01) (104, 5.94317257404327392578e-01) (105, 4.72139865159988403320e-02) (106, -2.46505901217460632324e-01) (107, -3.96892964839935302734e-01) (108, 5.00681579113006591797e-01) (109, 7.05012306571006774902e-02) (110, 5.54851293563842773438e-01) (111, 2.34649375081062316895e-01) (112, -6.84132650494575500488e-02) (113, 9.47742909193038940430e-02) (114, 5.33643722534179687500e-01) (115, 5.45891761779785156250e-01) (116, 8.44997107982635498047e-01) (117, 2.47511819005012512207e-01) (118, 2.52928912639617919922e-01) (119, -3.69588494300842285156e-01) (120, -5.32704442739486694336e-02) (121, -1.34725108742713928223e-01) (122, -8.82071435451507568359e-01) (123, -6.39402717351913452148e-02) (124, -8.22314471006393432617e-02) (125, 7.88039043545722961426e-02) (126, 5.76627030968666076660e-02) (127, -6.33038207888603210449e-02) (128, 2.96291662380099296570e-03) (129, -6.97713717818260192871e-02) (130, -4.18306022882461547852e-01) (131, -1.16740189492702484131e-01) (132, 2.96137426048517227173e-02) (133, -2.04622521996498107910e-01) (134, 7.03234225511550903320e-02) (135, -1.03758282959461212158e-01) (136, -1.01331964135169982910e-01) (137, -3.49252857267856597900e-03) (138, 6.55590072274208068848e-02) (139, 7.67729477956891059875e-03) (140, -3.77762764692306518555e-02) (141, 3.33283022046089172363e-02) (142, 4.04151380062103271484e-02) (143, 7.66006335616111755371e-02) (144, 5.24259591475129127502e-03) (145, -9.59664210677146911621e-02) (146, -1.48611059412360191345e-02) (147, -7.18070194125175476074e-02) (148, 9.96346469037234783173e-04) (149, -6.52387514710426330566e-02) (150, 5.57248666882514953613e-02) (151, 2.94381007552146911621e-02) (152, 3.40417362749576568604e-02) (153, -5.58695793151855468750e-02) (154, 6.36924058198928833008e-02) (155, -8.47041830420494079590e-02) (156, 7.48261883854866027832e-02) (157, 1.59302800893783569336e-02) (158, 8.31081569194793701172e-02) (159, 7.00732506811618804932e-03) (160, 1.06182597577571868896e-01) (161, -3.96292023360729217529e-02) (162, 4.94837574660778045654e-03) (163, 7.29619190096855163574e-02) (164, -8.53008031845092773438e-03) (165, -1.38622932136058807373e-02) (166, -4.59681898355484008789e-02) (167, -8.20330716669559478760e-03) (168, 9.83937457203865051270e-02) (169, -3.71097251772880554199e-02) (170, -8.52377787232398986816e-02) (171, -2.97010242938995361328e-02) (172, 4.95794899761676788330e-02) (173, 6.01111426949501037598e-02) (174, -3.49112972617149353027e-02) (175, -3.55079062283039093018e-02) (176, 1.31692104041576385498e-02) (177, 3.75230163335800170898e-02) (178, -4.44654375314712524414e-02) (179, -1.78704380989074707031e-01) (180, 6.56461492180824279785e-02) (181, -1.17940448224544525146e-01) (182, -1.14523947238922119141e-01) (183, 2.43486277759075164795e-02) (184, -1.10901027917861938477e-01) (185, 5.81897608935832977295e-02) (186, -4.11274470388889312744e-02) (187, -9.90160182118415832520e-02) (188, -1.75139948725700378418e-01) (189, -5.72854205965995788574e-02) (190, -6.36167228221893310547e-02) (191, -2.69478298723697662354e-02) (192, 5.22492304444313049316e-02) (193, -4.95838709175586700439e-02) (194, -3.58056351542472839355e-02) (195, -1.18392199277877807617e-01) (196, -3.15118849277496337891e-01) (197, -6.44357562065124511719e-01) (198, 3.75302508473396301270e-02) (199, 2.46393308043479919434e-02) (200, 3.47162857651710510254e-02) (201, 4.99623939394950866699e-02) (202, 9.85445603728294372559e-02) (203, -1.20918005704879760742e-02) (204, 1.00735276937484741211e-02) (205, -3.63667383790016174316e-02) (206, 5.17561957240104675293e-02) (207, -2.39765048027038574219e-02) (208, -7.28134989738464355469e-01) (209, -3.18403005599975585938e-01) (210, 4.83828857541084289551e-02) (211, -8.66825059056282043457e-02) (212, -4.87882643938064575195e-03) (213, 5.01803532242774963379e-02) (214, 4.86188754439353942871e-02) (215, 4.43085506558418273926e-02) (216, 1.74756646156311035156e-02) (217, -5.88449947535991668701e-02) (218, 7.19422772526741027832e-02) (219, -9.20685082674026489258e-02) (220, 2.76220515370368957520e-02) (221, 8.38764756917953491211e-03) (222, -2.61516124010086059570e-03) (223, -2.01287120580673217773e-02) (224, 5.88037893176078796387e-02) (225, 6.15792050957679748535e-02) (226, 2.35904455184936523438e-02) (227, -2.83924490213394165039e-03) (228, -2.17449814081192016602e-02) (229, -3.88793125748634338379e-02) (230, -7.81999081373214721680e-02) (231, -8.70286971330642700195e-02) (232, -8.89169201254844665527e-02) (233, -7.96553418040275573730e-02) (234, 8.79503786563873291016e-04) (235, 2.11566090583801269531e-02) (236, -1.60220712423324584961e-02) (237, -4.73643019795417785645e-02) (238, 9.71801057457923889160e-02) (239, 1.46023184061050415039e-03) (240, -1.78804248571395874023e-03) (241, 4.55629900097846984863e-02) (242, 1.47777348756790161133e-02) (243, 9.33331325650215148926e-02) (244, -4.25666570663452148438e-03) (245, -3.66033911705017089844e-02) (246, 3.76416966319084167480e-02) (247, -8.67810025811195373535e-02) (248, 4.55161184072494506836e-03) (249, 9.58397239446640014648e-03) (250, -7.88495093584060668945e-02) (251, -6.78263232111930847168e-02) (252, -8.20283740758895874023e-02) (253, 1.85353383421897888184e-02) (254, 1.20449662208557128906e-02) (255, 7.67754241824150085449e-02) (256, -2.47341990470886230469e-01) (0, -6.43645823001861572266e-02) (1, -2.60638296604156494141e-02) (2, 5.83695694804191589355e-02) (3, -3.24389338493347167969e-03) (4, -4.26373630762100219727e-03) (5, 7.13408663868904113770e-02) (6, 7.83918797969818115234e-03) (7, 1.60809159278869628906e-02) (8, -2.77796238660812377930e-02) (9, -7.10041970014572143555e-02) (10, -9.99411568045616149902e-02) (11, 2.48560756444931030273e-02) (12, -7.38240927457809448242e-02) (13, 1.51906907558441162109e-03) (14, -7.69319683313369750977e-02) (15, 7.17388913035392761230e-02) (16, -8.37031975388526916504e-02) (17, -8.35988372564315795898e-02) (18, -3.25177758932113647461e-02) (19, -2.03065872192382812500e-02) (20, 5.40428534150123596191e-02) (21, -1.92987769842147827148e-02) (22, 8.42450335621833801270e-02) (23, -3.63731756806373596191e-02) (24, 1.85171514749526977539e-03) (25, -8.35812985897064208984e-02) (26, -1.84015482664108276367e-02) (27, -7.96129480004310607910e-02) (28, 2.84636691212654113770e-02) (29, -4.16261330246925354004e-02) (30, 5.01595437526702880859e-04) (31, 6.40990808606147766113e-02) (32, 3.23100313544273376465e-02) (33, -4.11288440227508544922e-02) (34, -3.91448102891445159912e-02) (35, -7.19536989927291870117e-02) (36, -6.97879716753959655762e-02) (37, 6.86943754553794860840e-02) (38, 4.41272333264350891113e-02) (39, 2.43240594863891601562e-03) (40, 9.76901724934577941895e-02) (41, 4.41860631108283996582e-02) (42, -7.27115198969841003418e-02) (43, -7.61339142918586730957e-02) (44, -5.42948618531227111816e-02) (45, -4.96434941887855529785e-02) (46, 9.56049785017967224121e-02) (47, -3.79980579018592834473e-02) (48, -3.32423299551010131836e-02) (49, -3.69127988815307617188e-02) (50, 4.16953638195991516113e-02) (51, -7.91994780302047729492e-02) (52, 4.37884256243705749512e-02) (53, 2.59403809905052185059e-02) (54, -1.55726522207260131836e-02) (55, -5.43598607182502746582e-02) (56, 4.23590913414955139160e-02) (57, 6.60258010029792785645e-02) (58, -3.39728072285652160645e-02) (59, -2.91772335767745971680e-02) (60, -7.56003409624099731445e-02) (61, 6.65287896990776062012e-02) (62, -6.50781467556953430176e-02) (63, 5.67096993327140808105e-02) (64, -7.46000558137893676758e-02) (65, -4.22295182943344116211e-03) (66, 8.47560092806816101074e-02) (67, -4.43880259990692138672e-02) (68, -3.55285704135894775391e-02) (69, 2.88832262158393859863e-02) (70, 5.80443814396858215332e-02) (71, -3.78383956849575042725e-02) (72, -2.69307121634483337402e-02) (73, 8.53328630328178405762e-02) (74, -1.39723047614097595215e-02) (75, 1.87744274735450744629e-02) (76, -6.43106400966644287109e-02) (77, -1.83673277497291564941e-02) (78, 8.07763710618019104004e-02) (79, 2.44703143835067749023e-03) (80, 4.47198823094367980957e-02) (81, 2.24717259407043457031e-02) (82, 2.32475623488426208496e-02) (83, -1.14917010068893432617e-02) (84, -5.15878871083259582520e-02) (85, -9.23250988125801086426e-02) (86, 3.41484472155570983887e-02) (87, 9.07712057232856750488e-02) (88, 7.37007036805152893066e-02) (89, -9.98243689537048339844e-02) (90, -3.84060256183147430420e-02) (91, 9.81003716588020324707e-02) (92, 6.67044147849082946777e-02) (93, -3.48417460918426513672e-03) (94, 5.48100546002388000488e-02) (95, 9.21043679118156433105e-02) (96, 9.22928825020790100098e-02) (97, 4.89684827625751495361e-02) (98, 1.80935040116310119629e-02) (99, -4.60174679756164550781e-02) (100, -2.47545037418603897095e-02) (101, -3.71381342411041259766e-01) (102, 1.67380094528198242188e-01) (103, 1.80549621582031250000e-01) (104, 5.14405190944671630859e-01) (105, -2.82803475856781005859e-02) (106, -5.56532666087150573730e-02) (107, -1.28830038011074066162e-02) (108, -1.80411860346794128418e-01) (109, -5.60486353933811187744e-02) (110, 4.52423617243766784668e-02) (111, 1.89638733863830566406e-01) (112, -3.91718558967113494873e-02) (113, -1.35586053133010864258e-01) (114, -1.58149618655443191528e-02) (115, -2.41790398955345153809e-01) (116, 1.73039585351943969727e-02) (117, -3.64387691020965576172e-01) (118, -1.78863987326622009277e-01) (119, 9.01703611016273498535e-02) (120, -7.91964381933212280273e-02) (121, 1.96861773729324340820e-01) (122, -6.39371871948242187500e-02) (123, -7.91570544242858886719e-02) (124, 6.08342215418815612793e-02) (125, 8.67635682225227355957e-02) (126, -8.70526954531669616699e-02) (127, 5.31270876526832580566e-02) (128, 2.76063177734613418579e-02) (129, -3.72888259589672088623e-02) (130, -8.10960456728935241699e-02) (131, 9.57572236657142639160e-02) (132, -3.26949469745159149170e-02) (133, 3.14651727676391601562e-02) (134, 3.64565737545490264893e-02) (135, -4.04642894864082336426e-02) (136, 3.39447781443595886230e-02) (137, 9.66425091028213500977e-02) (138, -1.56991034746170043945e-02) (139, -7.91396722197532653809e-02) (140, -6.13048933446407318115e-02) (141, -8.64471569657325744629e-02) (142, -4.80488538742065429688e-02) (143, -9.81934517621994018555e-02) (144, -3.37833426892757415771e-02) (145, 7.15298652648925781250e-02) (146, -8.66701677441596984863e-02) (147, 2.62328963726758956909e-02) (148, -7.43375942111015319824e-02) (149, -8.38333144783973693848e-02) (150, 6.00140020251274108887e-02) (151, -2.04207748174667358398e-02) (152, -1.95911172777414321899e-02) (153, 9.49391722679138183594e-02) (154, 5.00419875606894493103e-04) (155, -5.62025122344493865967e-02) (156, 7.89067819714546203613e-02) (157, 1.36486804112792015076e-02) (158, 9.45747196674346923828e-02) (159, 5.12807955965399742126e-03) (160, 3.05060576647520065308e-02) (161, -9.57286879420280456543e-02) (162, 1.71325518749654293060e-04) (163, -5.94546422362327575684e-02) (164, 3.28669175505638122559e-02) (165, -6.38409629464149475098e-02) (166, -1.24905910342931747437e-02) (167, -4.37043718993663787842e-02) (168, -1.31770610809326171875e-01) (169, -1.35721206665039062500e-01) (170, -2.39062719047069549561e-02) (171, -2.94904187321662902832e-02) (172, 9.59829315543174743652e-02) (173, 3.86584177613258361816e-02) (174, -2.84117311239242553711e-02) (175, -3.86095717549324035645e-02) (176, 1.24284084886312484741e-02) (177, -1.45868463441729545593e-02) (178, 8.96631479263305664062e-02) (179, 3.87439392507076263428e-02) (180, 1.47162296343594789505e-03) (181, 5.10324984788894653320e-02) (182, -8.42349752783775329590e-02) (183, 8.13510194420814514160e-02) (184, 4.25818376243114471436e-02) (185, 1.59794092178344726562e-02) (186, -7.69368037581443786621e-02) (187, 7.81245902180671691895e-03) (188, -6.72503933310508728027e-02) (189, -8.20664018392562866211e-02) (190, -7.19423368573188781738e-02) (191, -9.63433682918548583984e-02) (192, -7.99432098865509033203e-02) (193, 2.35893279314041137695e-02) (194, -5.65615482628345489502e-02) (195, -3.15016418695449829102e-01) (196, 6.64869397878646850586e-02) (197, 5.39720132946968078613e-02) (198, -8.04384350776672363281e-02) (199, 9.24539193511009216309e-02) (200, 2.36902460455894470215e-02) (201, 6.55661523342132568359e-03) (202, -3.71587350964546203613e-02) (203, 1.94974541664123535156e-02) (204, -5.47849722206592559814e-02) (205, 3.44295278191566467285e-02) (206, 8.13130810856819152832e-02) (207, 5.53512647747993469238e-02) (208, -5.32544888556003570557e-02) (209, 8.08580145239830017090e-02) (210, -9.07181203365325927734e-03) (211, 1.97928324341773986816e-02) (212, 1.72800570726394653320e-02) (213, 6.08434528112411499023e-03) (214, 6.10664486885070800781e-04) (215, -4.27619628608226776123e-02) (216, -7.83373117446899414062e-02) (217, 2.24596261978149414062e-02) (218, 7.59270861744880676270e-02) (219, -4.93894927203655242920e-02) (220, 3.84668037295341491699e-02) (221, 9.96768251061439514160e-02) (222, -4.64085452258586883545e-02) (223, 5.85236027836799621582e-02) (224, 2.32661589980125427246e-02) (225, -2.97009199857711791992e-03) (226, 1.14473104476928710938e-02) (227, -1.70074477791786193848e-02) (228, -6.15561902523040771484e-02) (229, 3.10088768601417541504e-02) (230, -2.45535299181938171387e-02) (231, 6.21340498328208923340e-02) (232, -6.24345019459724426270e-02) (233, 3.82877364754676818848e-02) (234, -1.83684900403022766113e-02) (235, -1.72194689512252807617e-02) (236, -2.72827297449111938477e-02) (237, -3.70554029941558837891e-02) (238, -6.18682168424129486084e-02) (239, -8.11082124710083007812e-03) (240, -6.77658319473266601562e-02) (241, 2.90599688887596130371e-02) (242, -8.83179903030395507812e-02) (243, 4.95142266154289245605e-02) (244, -6.48556798696517944336e-02) (245, 1.22926682233810424805e-02) (246, -9.32477414608001708984e-02) (247, -4.31929901242256164551e-02) (248, -6.52477145195007324219e-02) (249, 8.26793387532234191895e-02) (250, 7.41751492023468017578e-03) (251, 7.32190981507301330566e-02) (252, 8.23561772704124450684e-02) (253, 6.10089674592018127441e-02) (254, 3.17426994442939758301e-02) (255, 5.62232732772827148438e-03) (256, -3.09055536985397338867e-01) (0, -5.68099953234195709229e-02) (1, 8.86148884892463684082e-02) (2, -3.51731479167938232422e-03) (3, 7.41988942027091979980e-02) (4, -3.59386503696441650391e-02) (5, -4.13832627236843109131e-02) (6, -8.82356166839599609375e-02) (7, -9.76509153842926025391e-02) (8, 4.02482524514198303223e-02) (9, -5.45509159564971923828e-03) (10, -2.49336436390876770020e-02) (11, -9.68071520328521728516e-02) (12, 3.26767042279243469238e-02) (13, 6.69555291533470153809e-02) (14, -6.45729899406433105469e-02) (15, -3.82633320987224578857e-02) (16, 7.86375477910041809082e-02) (17, 8.49412307143211364746e-02) (18, -3.11900675296783447266e-03) (19, -9.06978547573089599609e-03) (20, 9.16934981942176818848e-02) (21, 5.36879971623420715332e-02) (22, 2.56825014948844909668e-02) (23, 7.43728354573249816895e-02) (24, -3.88944856822490692139e-02) (25, -1.09840929508209228516e-03) (26, 5.67290261387825012207e-02) (27, -7.78855159878730773926e-02) (28, -6.93557113409042358398e-02) (29, -3.76486480236053466797e-02) (30, -1.98466330766677856445e-02) (31, -2.61657088994979858398e-02) (32, -4.90337684750556945801e-02) (33, 7.66360536217689514160e-02) (34, -5.19668273627758026123e-02) (35, 1.50275826454162597656e-02) (36, -6.47472143173217773438e-02) (37, -4.02024462819099426270e-02) (38, 1.73766762018203735352e-02) (39, 7.55010470747947692871e-02) (40, 5.43424710631370544434e-02) (41, 9.24430415034294128418e-02) (42, 7.86938890814781188965e-02) (43, -1.29808336496353149414e-02) (44, 5.93985691666603088379e-02) (45, -8.58790948987007141113e-02) (46, 4.87558320164680480957e-02) (47, 3.80361154675483703613e-02) (48, 9.90621522068977355957e-02) (49, -5.43631799519062042236e-02) (50, -7.10336789488792419434e-02) (51, 9.07556489109992980957e-02) (52, 9.93248298764228820801e-02) (53, 5.46488240361213684082e-02) (54, 6.51284828782081604004e-02) (55, -3.95696647465229034424e-02) (56, -4.64495792984962463379e-02) (57, 2.18575000762939453125e-02) (58, -1.74551755189895629883e-02) (59, -1.58052891492843627930e-02) (60, 8.42088535428047180176e-02) (61, 6.26981928944587707520e-02) (62, 5.80290034413337707520e-02) (63, -6.48249089717864990234e-02) (64, 3.93342450261116027832e-02) (65, -9.39378291368484497070e-02) (66, 5.02026751637458801270e-02) (67, 7.45870247483253479004e-02) (68, -3.41402739286422729492e-02) (69, -3.24206426739692687988e-02) (70, 5.00880703330039978027e-02) (71, -7.97978043556213378906e-02) (72, -3.99776101112365722656e-02) (73, 2.87819579243659973145e-02) (74, 7.22136348485946655273e-03) (75, -8.05790424346923828125e-02) (76, 4.29028794169425964355e-02) (77, -4.40228097140789031982e-02) (78, 5.74570670723915100098e-02) (79, 4.19650152325630187988e-02) (80, 1.61401182413101196289e-03) (81, 8.64234045147895812988e-02) (82, 3.27206626534461975098e-02) (83, 9.38832759857177734375e-04) (84, 4.10722121596336364746e-02) (85, -2.15084850788116455078e-03) (86, 6.13691732287406921387e-02) (87, 9.46226343512535095215e-02) (88, -8.02933424711227416992e-02) (89, -5.60860037803649902344e-02) (90, -2.11826488375663757324e-02) (91, -9.60844904184341430664e-02) (92, -9.33878198266029357910e-02) (93, -6.31536543369293212891e-02) (94, -6.09093941748142242432e-02) (95, 4.59464266896247863770e-02) (96, -5.70914857089519500732e-02) (97, 2.74306505918502807617e-01) (98, 2.39519089460372924805e-01) (99, 2.14401274919509887695e-01) (100, -7.16615188866853713989e-03) (101, -1.22448348999023437500e+00) (102, -3.27361449599266052246e-02) (103, 1.45207166671752929688e-01) (104, 3.41867774724960327148e-01) (105, 3.23413103818893432617e-01) (106, 3.21387529373168945312e-01) (107, 6.14096939563751220703e-01) (108, -7.24248051643371582031e-01) (109, 1.14309690892696380615e-01) (110, -2.91408658027648925781e-01) (111, 4.91023153066635131836e-01) (112, -6.09157793223857879639e-02) (113, -2.63018995523452758789e-01) (114, -5.07706701755523681641e-01) (115, -7.65825152397155761719e-01) (116, -5.80115377902984619141e-01) (117, -8.06992173194885253906e-01) (118, -4.23590481281280517578e-01) (119, 8.11146020889282226562e-01) (120, -8.38045924901962280273e-02) (121, 6.43324613571166992188e-01) (122, 9.89677608013153076172e-01) (123, 6.61718845367431640625e-03) (124, 3.15550044178962707520e-02) (125, 7.75539651513099670410e-02) (126, -4.74363937973976135254e-02) (127, 7.44635090231895446777e-02) (128, 5.55715374648571014404e-02) (129, 5.41755855083465576172e-02) (130, 3.33406120538711547852e-01) (131, -8.53644832968711853027e-02) (132, -2.19137221574783325195e-03) (133, 5.32612353563308715820e-02) (134, 3.90488840639591217041e-02) (135, 6.68799504637718200684e-03) (136, -5.31060732901096343994e-02) (137, -2.38053053617477416992e-02) (138, 8.54284092783927917480e-02) (139, 3.60208041965961456299e-02) (140, 5.97942657768726348877e-02) (141, -3.10631301254034042358e-02) (142, 3.12749221920967102051e-02) (143, -5.51832094788551330566e-02) (144, -1.57043077051639556885e-02) (145, -7.16872140765190124512e-02) (146, -2.93986517935991287231e-02) (147, -9.92742404341697692871e-02) (148, -1.72379724681377410889e-02) (149, -1.51366777718067169189e-02) (150, 3.60808596014976501465e-02) (151, 8.51638689637184143066e-02) (152, 8.04024413228034973145e-02) (153, 1.54019743204116821289e-01) (154, -8.98945797234773635864e-03) (155, 1.74982219934463500977e-01) (156, -4.94939498603343963623e-02) (157, 4.11689989268779754639e-02) (158, -1.60087980329990386963e-02) (159, -8.18618088960647583008e-02) (160, -7.21641108393669128418e-02) (161, 6.96264579892158508301e-02) (162, -6.13331720232963562012e-02) (163, 6.03684186935424804688e-02) (164, 8.42214897274971008301e-02) (165, 8.24730172753334045410e-02) (166, -1.16665929555892944336e-01) (167, -8.99295508861541748047e-02) (168, -1.70519232749938964844e-01) (169, -3.54194253683090209961e-01) (170, 5.09770177304744720459e-02) (171, -7.06685632467269897461e-02) (172, -4.21816222369670867920e-02) (173, 7.52447545528411865234e-03) (174, -1.81844383478164672852e-02) (175, 4.48579750955104827881e-02) (176, 1.43796354532241821289e-02) (177, 4.69762198626995086670e-02) (178, 3.16929817199707031250e-02) (179, 7.85144716501235961914e-02) (180, -7.23712667822837829590e-02) (181, -4.43598330020904541016e-02) (182, -1.00134856998920440674e-01) (183, -7.97007605433464050293e-02) (184, 3.30395177006721496582e-02) (185, -5.14431903138756752014e-03) (186, 4.96844612061977386475e-02) (187, -1.28655433654785156250e-01) (188, 9.37284901738166809082e-02) (189, -9.03332754969596862793e-02) (190, -1.12940534949302673340e-01) (191, 5.36321029067039489746e-02) (192, 9.99449416995048522949e-02) (193, -2.80305817723274230957e-02) (194, 2.16427817940711975098e-02) (195, -5.08350908756256103516e-01) (196, 3.69818627834320068359e-01) (197, 8.01043927669525146484e-01) (198, -8.32180827856063842773e-02) (199, 1.54608637094497680664e-02) (200, 1.56358331441879272461e-02) (201, 8.99604037404060363770e-02) (202, 4.63760122656822204590e-02) (203, 7.50463679432868957520e-02) (204, -2.51511484384536743164e-03) (205, -7.18084275722503662109e-02) (206, 2.11486965417861938477e-02) (207, -6.59227967262268066406e-02) (208, -1.91060990095138549805e-01) (209, -1.42032474279403686523e-01) (210, -4.41716089844703674316e-02) (211, -7.57787525653839111328e-02) (212, 5.25002852082252502441e-02) (213, -3.72565537691116333008e-02) (214, -5.09646907448768615723e-02) (215, 1.07607245445251464844e-02) (216, 6.14395514130592346191e-02) (217, 8.81734117865562438965e-02) (218, 2.11193710565567016602e-02) (219, -9.55196693539619445801e-02) (220, -8.39009508490562438965e-02) (221, 5.04234507679939270020e-02) (222, 6.49628266692161560059e-02) (223, -8.39560106396675109863e-02) (224, -7.76071324944496154785e-02) (225, -1.33944004774093627930e-02) (226, -9.97895821928977966309e-02) (227, -2.23574489355087280273e-02) (228, -8.74692872166633605957e-02) (229, -8.30076560378074645996e-02) (230, 9.31034162640571594238e-02) (231, 2.81665548682212829590e-02) (232, -9.30472537875175476074e-02) (233, 3.94794270396232604980e-02) (234, 3.21290642023086547852e-03) (235, 4.43764030933380126953e-03) (236, 6.76710084080696105957e-02) (237, -7.56383910775184631348e-02) (238, 3.85148450732231140137e-02) (239, 4.98472079634666442871e-02) (240, -6.85434043407440185547e-03) (241, 9.43432375788688659668e-02) (242, 7.40684643387794494629e-02) (243, -5.43540567159652709961e-02) (244, -4.29133251309394836426e-02) (245, -7.68962353467941284180e-02) (246, 5.64066693186759948730e-02) (247, -8.14737752079963684082e-02) (248, -8.87228250503540039062e-02) (249, -2.24739685654640197754e-02) (250, -7.69934430718421936035e-02) (251, -7.26237744092941284180e-02) (252, -7.20505192875862121582e-02) (253, 8.79693850874900817871e-02) (254, -5.65797798335552215576e-02) (255, -4.96576540172100067139e-02) (256, 3.09796463698148727417e-02) (0, -5.63693605363368988037e-02) (1, 2.79848948121070861816e-02) (2, -1.28943026065826416016e-02) (3, -3.93770150840282440186e-02) (4, 2.10883170366287231445e-02) (5, -8.47277492284774780273e-02) (6, -3.24242636561393737793e-02) (7, -3.94322685897350311279e-02) (8, 1.84851661324501037598e-02) (9, 7.20133706927299499512e-02) (10, -7.17612728476524353027e-02) (11, 4.28467616438865661621e-02) (12, 1.05282068252563476562e-02) (13, 7.80859515070915222168e-02) (14, -6.40075728297233581543e-02) (15, 4.87145036458969116211e-03) (16, 5.21543994545936584473e-02) (17, -1.83616280555725097656e-02) (18, 6.19581267237663269043e-02) (19, 7.52581730484962463379e-02) (20, -6.19549602270126342773e-02) (21, 8.04843530058860778809e-02) (22, 8.65353420376777648926e-02) (23, 1.55710726976394653320e-02) (24, -9.65090915560722351074e-02) (25, -8.60884264111518859863e-02) (26, 4.35205623507499694824e-02) (27, 9.14602950215339660645e-02) (28, -4.26682047545909881592e-02) (29, 9.38628986477851867676e-02) (30, -3.39647158980369567871e-02) (31, 9.62436199188232421875e-04) (32, 2.18477994203567504883e-02) (33, 5.31409904360771179199e-02) (34, 6.15854337811470031738e-02) (35, -5.70638962090015411377e-02) (36, 6.84132352471351623535e-02) (37, -7.08388388156890869141e-02) (38, 3.50383669137954711914e-03) (39, -1.31016075611114501953e-02) (40, -9.88254770636558532715e-02) (41, 3.17425802350044250488e-02) (42, -7.02548399567604064941e-02) (43, 1.17027387022972106934e-02) (44, 9.82850790023803710938e-03) (45, -3.42624112963676452637e-02) (46, -8.34258198738098144531e-02) (47, -3.80170941352844238281e-02) (48, 4.73759546875953674316e-02) (49, 7.85323008894920349121e-02) (50, -6.27589225769042968750e-02) (51, 8.54210034012794494629e-02) (52, 5.90166524052619934082e-02) (53, -7.62235820293426513672e-02) (54, 9.92074608802795410156e-04) (55, 6.25075772404670715332e-02) (56, -6.23120032250881195068e-02) (57, -5.54873719811439514160e-02) (58, 5.39678707718849182129e-02) (59, -4.98020648956298828125e-03) (60, -6.16244748234748840332e-02) (61, -7.99968540668487548828e-02) (62, 9.59822311997413635254e-02) (63, 6.02233335375785827637e-02) (64, 7.31441304087638854980e-02) (65, 5.75676634907722473145e-02) (66, -9.68405753374099731445e-02) (67, 4.15573641657829284668e-02) (68, 8.67288187146186828613e-02) (69, 6.66326284408569335938e-03) (70, -7.15442448854446411133e-02) (71, 8.79033431410789489746e-02) (72, -6.15941695868968963623e-02) (73, -4.17990945279598236084e-02) (74, -3.93927097320556640625e-04) (75, 4.82343509793281555176e-02) (76, 2.39384919404983520508e-02) (77, 1.61802619695663452148e-02) (78, -8.97827520966529846191e-02) (79, -2.86855474114418029785e-02) (80, -5.28743118047714233398e-03) (81, -5.25416731834411621094e-02) (82, -4.32645455002784729004e-02) (83, -4.62707765400409698486e-02) (84, -2.87652462720870971680e-02) (85, 5.77275231480598449707e-02) (86, -8.37632045149803161621e-02) (87, 8.92274081707000732422e-03) (88, -9.77598428726196289062e-02) (89, 7.02046677470207214355e-02) (90, -9.60574597120285034180e-02) (91, -5.93843162059783935547e-02) (92, 9.02078077197074890137e-02) (93, 9.99247804284095764160e-02) (94, -9.91609916090965270996e-02) (95, 6.33519366383552551270e-02) (96, 5.74924424290657043457e-02) (97, -3.01459342241287231445e-01) (98, -9.88992396742105484009e-03) (99, -1.77818179130554199219e-01) (100, -3.29663604497909545898e-02) (101, 2.57660597562789916992e-01) (102, 4.92321640253067016602e-01) (103, 3.05959731340408325195e-01) (104, 1.03560066223144531250e+00) (105, -2.89922416210174560547e-01) (106, -3.12152177095413208008e-01) (107, -3.45599830150604248047e-01) (108, 2.00670942664146423340e-01) (109, -1.17336280643939971924e-01) (110, 3.26369196176528930664e-01) (111, 2.40453630685806274414e-01) (112, -2.13744819164276123047e-01) (113, -1.40994176268577575684e-01) (114, 3.09450507164001464844e-01) (115, 7.15015009045600891113e-02) (116, 5.58437824249267578125e-01) (117, -2.10150659084320068359e-01) (118, 1.08765967190265655518e-01) (119, -3.78442347049713134766e-01) (120, -3.54364179074764251709e-02) (121, 8.27591344714164733887e-02) (122, -9.20511066913604736328e-01) (123, -2.69980281591415405273e-02) (124, 3.90022620558738708496e-02) (125, -5.50232715904712677002e-02) (126, -6.36461004614830017090e-02) (127, -3.50530445575714111328e-03) (128, -1.53197972103953361511e-02) (129, 1.00723877549171447754e-01) (130, -3.02925050258636474609e-01) (131, 8.81672352552413940430e-02) (132, -7.26908221840858459473e-02) (133, -4.39308099448680877686e-02) (134, 1.34416809305548667908e-02) (135, -7.08430185914039611816e-02) (136, -9.06824395060539245605e-02) (137, -9.16178449988365173340e-02) (138, 8.16986337304115295410e-02) (139, 6.67543858289718627930e-02) (140, 4.67094182968139648438e-02) (141, 7.08730220794677734375e-02) (142, 1.04630574584007263184e-01) (143, -1.24804899096488952637e-02) (144, -8.08089151978492736816e-02) (145, -6.15626154467463493347e-03) (146, -5.47622388694435358047e-04) (147, -8.42943266034126281738e-02) (148, -8.88330116868019104004e-02) (149, -6.06903284788131713867e-02) (150, -8.31241980195045471191e-02) (151, -1.31580457091331481934e-02) (152, 7.60503038763999938965e-02) (153, -1.94491714239120483398e-01) (154, 6.22083097696304321289e-02) (155, -1.29322066903114318848e-01) (156, 1.07162380591034889221e-02) (157, 1.05681329965591430664e-01) (158, -8.13934057950973510742e-02) (159, 5.73179312050342559814e-02) (160, -2.17598723247647285461e-03) (161, -4.77685332298278808594e-02) (162, 2.64157410711050033569e-02) (163, -8.55588391423225402832e-02) (164, -8.20190757513046264648e-02) (165, -7.43414014577865600586e-02) (166, -3.19465808570384979248e-02) (167, -8.29404443502426147461e-02) (168, -1.33231386542320251465e-01) (169, -2.50007539987564086914e-01) (170, 6.46115317940711975098e-02) (171, 4.75783497095108032227e-02) (172, -6.67953565716743469238e-02) (173, 7.01397731900215148926e-02) (174, -8.86587500572204589844e-02) (175, -5.97312375903129577637e-02) (176, 3.04749440401792526245e-02) (177, 2.73908618837594985962e-02) (178, 3.85233457200229167938e-03) (179, -1.59703806042671203613e-01) (180, 7.60196819901466369629e-02) (181, 5.87713457643985748291e-02) (182, 7.38034695386886596680e-02) (183, 1.91133245825767517090e-02) (184, 1.10211387276649475098e-01) (185, 2.42010019719600677490e-02) (186, -7.92202800512313842773e-02) (187, -3.31677719950675964355e-02) (188, -9.79151800274848937988e-02) (189, -2.57619079202413558960e-02) (190, 2.23346695303916931152e-01) (191, -3.26169803738594055176e-02) (192, -3.76715064048767089844e-02) (193, 7.37254321575164794922e-03) (194, -4.19201627373695373535e-02) (195, -5.18562495708465576172e-01) (196, -3.32213163375854492188e-01) (197, -6.42236471176147460938e-01) (198, 2.86152213811874389648e-03) (199, 5.99922016263008117676e-02) (200, 9.63453575968742370605e-02) (201, -2.21042782068252563477e-02) (202, 2.83060222864151000977e-03) (203, -7.51550346612930297852e-02) (204, -5.19645027816295623779e-02) (205, 1.41718536615371704102e-02) (206, -3.45835313200950622559e-02) (207, 9.63356345891952514648e-03) (208, 7.62908697128295898438e-01) (209, 3.63806486129760742188e-01) (210, 7.52794221043586730957e-02) (211, 5.61345145106315612793e-02) (212, 9.01427939534187316895e-02) (213, 2.77672484517097473145e-02) (214, -3.90316359698772430420e-02) (215, 2.19573825597763061523e-02) (216, -5.99010251462459564209e-02) (217, -2.62680128216743469238e-02) (218, 5.97622320055961608887e-02) (219, 4.86285462975502014160e-02) (220, -9.07991826534271240234e-03) (221, 5.25324866175651550293e-02) (222, 9.46191176772117614746e-02) (223, 5.32485768198966979980e-02) (224, -4.00949679315090179443e-02) (225, -4.73010428249835968018e-02) (226, -6.64420127868652343750e-02) (227, 9.05842706561088562012e-02) (228, 8.90622362494468688965e-02) (229, 3.64195182919502258301e-02) (230, 5.05764707922935485840e-02) (231, 8.54076072573661804199e-02) (232, -8.56847763061523437500e-02) (233, -4.65929284691810607910e-02) (234, -8.97474363446235656738e-02) (235, -3.76492738723754882812e-02) (236, 6.75789192318916320801e-02) (237, -2.43309661746025085449e-02) (238, 7.19842985272407531738e-02) (239, 8.78070965409278869629e-02) (240, 9.50107648968696594238e-02) (241, 4.72637191414833068848e-02) (242, 4.39416095614433288574e-02) (243, 8.51535573601722717285e-02) (244, -2.49690413475036621094e-02) (245, -9.50900316238403320312e-02) (246, 7.11093842983245849609e-03) (247, 1.51299387216567993164e-02) (248, -2.13580355048179626465e-02) (249, -3.31268310546875000000e-02) (250, -3.62415239214897155762e-02) (251, 6.95620402693748474121e-02) (252, -8.05943384766578674316e-02) (253, -4.16224077343940734863e-02) (254, 2.28106006979942321777e-02) (255, -2.06893086433410644531e-02) (256, -1.24597989022731781006e-01) (0, 5.63685968518257141113e-02) (1, -3.01050394773483276367e-02) (2, 1.38796865940093994141e-04) (3, -7.21190124750137329102e-03) (4, -7.95285627245903015137e-02) (5, -1.44536048173904418945e-02) (6, 7.10333883762359619141e-03) (7, -2.61214822530746459961e-02) (8, -4.20103967189788818359e-03) (9, 6.94540664553642272949e-02) (10, -5.85425607860088348389e-02) (11, 7.14680030941963195801e-02) (12, 4.14383485913276672363e-02) (13, -7.07354694604873657227e-02) (14, 6.64787515997886657715e-02) (15, -1.12979263067245483398e-02) (16, 7.32061341404914855957e-02) (17, 5.16323223710060119629e-02) (18, 6.37330338358879089355e-02) (19, 7.81161263585090637207e-02) (20, -4.12567369639873504639e-02) (21, -2.11370438337326049805e-02) (22, -4.32419255375862121582e-02) (23, 2.56164297461509704590e-02) (24, 4.26214411854743957520e-02) (25, -7.36798867583274841309e-02) (26, 4.50220927596092224121e-02) (27, -9.90009680390357971191e-02) (28, 4.91307303309440612793e-02) (29, -7.56672173738479614258e-02) (30, 1.20755881071090698242e-02) (31, 5.49931824207305908203e-03) (32, -5.77224791049957275391e-03) (33, -8.77856239676475524902e-02) (34, 9.82874110341072082520e-02) (35, 1.46991834044456481934e-02) (36, -2.23922729492187500000e-03) (37, 5.39074838161468505859e-03) (38, 8.85776951909065246582e-02) (39, 9.35597345232963562012e-02) (40, -2.51551941037178039551e-02) (41, -6.99648633599281311035e-02) (42, 6.50277212262153625488e-02) (43, -8.37168395519256591797e-02) (44, -4.07003276050090789795e-02) (45, 3.15064862370491027832e-02) (46, 4.98523563146591186523e-03) (47, -6.74941837787628173828e-02) (48, -1.68611928820610046387e-02) (49, -3.12817394733428955078e-02) (50, -8.93780738115310668945e-02) (51, 4.18820604681968688965e-02) (52, 4.75812181830406188965e-02) (53, -3.26199978590011596680e-02) (54, -3.25015038251876831055e-02) (55, -9.79734212160110473633e-03) (56, -6.29987567663192749023e-03) (57, -8.74794051051139831543e-02) (58, -8.79831612110137939453e-03) (59, -5.71691617369651794434e-02) (60, -6.31466209888458251953e-02) (61, -9.67227295041084289551e-02) (62, 4.83301505446434020996e-02) (63, 3.10811325907707214355e-02) (64, -8.45083445310592651367e-02) (65, 4.66175749897956848145e-02) (66, -5.42196854948997497559e-02) (67, 1.32524222135543823242e-02) (68, -4.79916743934154510498e-02) (69, -6.56419843435287475586e-02) (70, 6.81215524673461914062e-03) (71, 2.68531367182731628418e-02) (72, -3.56068462133407592773e-02) (73, -2.81601175665855407715e-02) (74, 4.31363061070442199707e-02) (75, 2.36928313970565795898e-02) (76, -9.66536328196525573730e-02) (77, -5.18784709274768829346e-02) (78, 5.61986491084098815918e-02) (79, -1.35148316621780395508e-02) (80, 1.68397873640060424805e-02) (81, 6.68205693364143371582e-02) (82, -7.16327577829360961914e-02) (83, -3.55789884924888610840e-02) (84, -6.57994151115417480469e-02) (85, -4.13426011800765991211e-03) (86, 5.46236708760261535645e-02) (87, 2.79007032513618469238e-02) (88, 8.38632881641387939453e-03) (89, -5.41746430099010467529e-02) (90, 7.07315430045127868652e-02) (91, 4.52397093176841735840e-02) (92, -5.08973710238933563232e-02) (93, 1.90616995096206665039e-02) (94, -2.36791595816612243652e-02) (95, -3.54057103395462036133e-02) (96, -3.43207269906997680664e-02) (97, 1.35887324810028076172e-01) (98, 1.30741938948631286621e-01) (99, 2.54425466060638427734e-01) (100, 3.94700951874256134033e-02) (101, -8.48106861114501953125e-01) (102, -5.95502197742462158203e-01) (103, -3.52690845727920532227e-01) (104, -9.32039499282836914062e-01) (105, 3.01465153694152832031e-01) (106, 4.49916988611221313477e-01) (107, 5.97589373588562011719e-01) (108, -5.26595652103424072266e-01) (109, 1.12567372620105743408e-01) (110, -5.33820450305938720703e-01) (111, -2.96079665422439575195e-01) (112, 1.95588216185569763184e-01) (113, 5.04749361425638198853e-03) (114, -6.89493179321289062500e-01) (115, -4.90045189857482910156e-01) (116, -9.35481965541839599609e-01) (117, 8.30102153122425079346e-03) (118, -2.72641539573669433594e-01) (119, 4.87592637538909912109e-01) (120, -9.19022262096405029297e-02) (121, 1.23130623251199722290e-02) (122, 1.11501634120941162109e+00) (123, -3.33889871835708618164e-02) (124, 1.94589123129844665527e-02) (125, 5.10141253471374511719e-04) (126, 3.12053039669990539551e-02) (127, 8.51381942629814147949e-02) (128, -9.16527360677719116211e-02) (129, -1.47616723552346229553e-02) (130, 4.28630858659744262695e-01) (131, 6.76487609744071960449e-02) (132, 1.59629955887794494629e-01) (133, 2.19083577394485473633e-01) (134, 9.80371162295341491699e-02) (135, 1.27475455403327941895e-01) (136, 3.31379100680351257324e-02) (137, 4.35328297317028045654e-02) (138, 1.00547298789024353027e-02) (139, 6.51058629155158996582e-02) (140, -6.81523978710174560547e-02) (141, 5.54551705718040466309e-02) (142, 1.96634922176599502563e-02) (143, 5.15156099572777748108e-03) (144, -7.17602670192718505859e-02) (145, 3.96046750247478485107e-02) (146, -8.73445570468902587891e-02) (147, -9.93247181177139282227e-02) (148, 9.34685673564672470093e-03) (149, -5.96228018403053283691e-02) (150, -1.94045826792716979980e-02) (151, 2.97312214970588684082e-02) (152, -5.82674629986286163330e-02) (153, 2.23420962691307067871e-01) (154, 9.53678935766220092773e-02) (155, 2.59630143642425537109e-01) (156, -9.65869277715682983398e-02) (157, 2.37131137400865554810e-02) (158, 4.34496104717254638672e-02) (159, -7.30643793940544128418e-02) (160, -4.88604791462421417236e-02) (161, -5.08556142449378967285e-02) (162, -9.78131443262100219727e-02) (163, -7.06601515412330627441e-02) (164, 9.93934050202369689941e-02) (165, -9.40711051225662231445e-02) (166, 8.47085714340209960938e-02) (167, 3.67324426770210266113e-02) (168, 7.53100961446762084961e-02) (169, 6.80945888161659240723e-02) (170, 9.15337167680263519287e-03) (171, 9.46973785758018493652e-02) (172, -5.49626722931861877441e-02) (173, -7.12404847145080566406e-02) (174, 9.35532897710800170898e-03) (175, -2.22789477556943893433e-02) (176, 4.16347719728946685791e-02) (177, 1.52930011972784996033e-02) (178, -4.03185710310935974121e-02) (179, 1.72427758574485778809e-01) (180, 5.15184476971626281738e-02) (181, 2.50286776572465896606e-02) (182, -9.73434150218963623047e-02) (183, -9.30061042308807373047e-02) (184, -6.63971826434135437012e-02) (185, -9.71645712852478027344e-02) (186, 8.91967192292213439941e-02) (187, -4.29498627781867980957e-02) (188, 2.18390569090843200684e-01) (189, 3.09757934883236885071e-03) (190, -5.42148649692535400391e-02) (191, 6.31574019789695739746e-02) (192, 7.79981538653373718262e-02) (193, 5.24592399597167968750e-03) (194, -9.79469567537307739258e-02) (195, 4.06704425811767578125e-01) (196, 5.16954064369201660156e-01) (197, 1.02665472030639648438e+00) (198, 1.18284970521926879883e-02) (199, -3.64872366189956665039e-02) (200, -2.68522128462791442871e-02) (201, -8.28924402594566345215e-02) (202, -3.99080701172351837158e-02) (203, 2.01075524091720581055e-02) (204, -5.41329197585582733154e-02) (205, 6.94472566246986389160e-02) (206, 9.81498733162879943848e-02) (207, -8.48335921764373779297e-02) (208, -3.45529168844223022461e-01) (209, -1.60445705056190490723e-01) (210, -3.31141054630279541016e-03) (211, -3.85530367493629455566e-02) (212, -6.18784390389919281006e-02) (213, 7.94197618961334228516e-03) (214, -2.58457884192466735840e-02) (215, 3.18983942270278930664e-03) (216, 1.55375972390174865723e-02) (217, -4.90756221115589141846e-02) (218, 7.35529735684394836426e-02) (219, -4.93192747235298156738e-02) (220, 7.68956467509269714355e-02) (221, -2.81777232885360717773e-02) (222, -7.75766223669052124023e-02) (223, 5.48937842249870300293e-02) (224, 7.70682170987129211426e-02) (225, -7.55235776305198669434e-02) (226, 3.22853401303291320801e-02) (227, -1.07864290475845336914e-02) (228, -9.29505303502082824707e-02) (229, -5.58861680328845977783e-02) (230, 5.27263358235359191895e-02) (231, -1.98027417063713073730e-02) (232, -3.87786105275154113770e-02) (233, -8.71817469596862792969e-02) (234, -9.96951982378959655762e-02) (235, 7.08846747875213623047e-03) (236, 8.22655186057090759277e-02) (237, 9.84546765685081481934e-02) (238, 2.22548842430114746094e-02) (239, -2.43907719850540161133e-02) (240, -2.37073153257369995117e-02) (241, -8.10565352439880371094e-02) (242, 3.70562002062797546387e-02) (243, 1.44142508506774902344e-02) (244, 2.68854424357414245605e-02) (245, -8.87895897030830383301e-02) (246, -8.23959112167358398438e-02) (247, -5.75769655406475067139e-02) (248, -3.78652177751064300537e-02) (249, 9.11570712924003601074e-02) (250, -6.89624249935150146484e-03) (251, -6.09695762395858764648e-02) (252, -3.70206534862518310547e-02) (253, 1.55271440744400024414e-02) (254, 9.39242169260978698730e-02) (255, -5.99524490535259246826e-02) (256, 2.41208467632532119751e-02) (0, 2.62095406651496887207e-02) (1, 2.92611196637153625488e-02) (2, 4.70530465245246887207e-02) (3, 7.03233703970909118652e-02) (4, -1.80125534534454345703e-02) (5, -7.27497115731239318848e-02) (6, -6.84552341699600219727e-02) (7, -5.19429892301559448242e-03) (8, -7.24449008703231811523e-02) (9, 3.86332347989082336426e-02) (10, -2.29287818074226379395e-02) (11, -7.39902257919311523438e-02) (12, -3.91118824481964111328e-02) (13, 5.26804551482200622559e-02) (14, 2.30245292186737060547e-03) (15, -2.01684162020683288574e-02) (16, -1.02633535861968994141e-02) (17, -8.32832977175712585449e-02) (18, -9.32829752564430236816e-02) (19, 9.47058200836181640625e-04) (20, -6.56792148947715759277e-02) (21, -5.08599393069744110107e-02) (22, 6.30818381905555725098e-02) (23, -7.45221450924873352051e-02) (24, 4.22438159584999084473e-02) (25, -9.78877320885658264160e-02) (26, -1.15428045392036437988e-02) (27, -4.22290377318859100342e-02) (28, 9.60364863276481628418e-02) (29, 2.85047516226768493652e-02) (30, 9.77745279669761657715e-02) (31, 2.22460180521011352539e-02) (32, -4.22341302037239074707e-02) (33, 4.48275581002235412598e-02) (34, -7.43060559034347534180e-03) (35, 3.97533252835273742676e-02) (36, 7.20778480172157287598e-02) (37, 2.41141542792320251465e-02) (38, -6.54409825801849365234e-02) (39, 9.96329411864280700684e-02) (40, -3.72526124119758605957e-02) (41, 1.16302371025085449219e-02) (42, -7.43572860956192016602e-02) (43, 2.36355066299438476562e-02) (44, -3.56893092393875122070e-02) (45, 2.79451683163642883301e-02) (46, -9.65329110622406005859e-02) (47, 5.40473535656929016113e-02) (48, 4.46618720889091491699e-02) (49, -8.98158848285675048828e-02) (50, -4.50056008994579315186e-02) (51, 7.89826586842536926270e-02) (52, -4.06758189201354980469e-02) (53, -8.19237604737281799316e-02) (54, -9.55394878983497619629e-02) (55, -9.84320044517517089844e-02) (56, -7.98114910721778869629e-02) (57, -7.08229094743728637695e-03) (58, -4.06610369682312011719e-02) (59, -8.37750136852264404297e-02) (60, -7.85775408148765563965e-02) (61, -4.28865142166614532471e-02) (62, 3.84710058569908142090e-02) (63, -2.08116620779037475586e-02) (64, -9.80589538812637329102e-02) (65, -6.89596086740493774414e-02) (66, -8.10583531856536865234e-02) (67, 7.40189030766487121582e-02) (68, 5.51545545458793640137e-02) (69, -4.64993380010128021240e-02) (70, 7.36518576741218566895e-02) (71, -8.20980593562126159668e-02) (72, 6.51308968663215637207e-02) (73, 9.92945656180381774902e-02) (74, 4.15374562144279479980e-02) (75, -7.05584064126014709473e-02) (76, 2.72397324442863464355e-02) (77, 4.50045391917228698730e-02) (78, 8.34889486432075500488e-02) (79, -2.80983895063400268555e-02) (80, 5.51886633038520812988e-02) (81, -6.15166686475276947021e-02) (82, -4.91157360374927520752e-02) (83, -8.54871645569801330566e-02) (84, -4.34404276311397552490e-02) (85, -4.46552224457263946533e-02) (86, -8.39191675186157226562e-02) (87, -2.32519209384918212891e-02) (88, 4.82624843716621398926e-02) (89, -2.45802029967308044434e-02) (90, -7.02693313360214233398e-03) (91, 6.96849450469017028809e-02) (92, 3.25332954525947570801e-02) (93, -6.85559362173080444336e-02) (94, -5.11267185211181640625e-02) (95, 3.44743207097053527832e-02) (96, -3.75155396759510040283e-02) (97, 3.31098198890686035156e-01) (98, 1.72123968601226806641e-01) (99, 1.07930444180965423584e-01) (100, 1.71123519539833068848e-01) (101, -1.70041590929031372070e-01) (102, 2.30847280472517013550e-02) (103, 1.57473966479301452637e-01) (104, 3.32184463739395141602e-01) (105, 5.01165747642517089844e-01) (106, 1.38517096638679504395e-01) (107, 1.89036726951599121094e-01) (108, -1.68716296553611755371e-01) (109, 1.50364607572555541992e-01) (110, 1.33036747574806213379e-01) (111, 5.00408113002777099609e-01) (112, 6.57518282532691955566e-02) (113, -6.17866478860378265381e-02) (114, 2.15295396628789603710e-04) (115, 1.47292693145573139191e-03) (116, 1.00212015211582183838e-01) (117, -2.81862437725067138672e-01) (118, -1.52491465210914611816e-01) (119, 4.42378252744674682617e-01) (120, 4.45370338857173919678e-02) (121, 4.70190286636352539062e-01) (122, 4.11431610584259033203e-01) (123, 1.58183425664901733398e-02) (124, 9.55851599574089050293e-02) (125, 5.36307319998741149902e-02) (126, -4.97073233127593994141e-02) (127, -4.19303886592388153076e-02) (128, -1.36110454797744750977e-01) (129, -3.72873619198799133301e-02) (130, -5.38678746670484542847e-03) (131, -3.35455266758799552917e-03) (132, -3.60767133533954620361e-02) (133, 5.72452060878276824951e-02) (134, -7.84682333469390869141e-02) (135, 1.07726119458675384521e-02) (136, -1.93635616451501846313e-02) (137, 4.12690453231334686279e-02) (138, 3.10499742627143859863e-02) (139, -1.12616561353206634521e-01) (140, -1.09346248209476470947e-01) (141, -9.22606885433197021484e-02) (142, -2.76886653155088424683e-02) (143, 5.16015999019145965576e-02) (144, 3.15787009894847869873e-02) (145, 7.55743458867073059082e-02) (146, 6.90772011876106262207e-02) (147, 2.60594431310892105103e-02) (148, -2.42023747414350509644e-02) (149, -6.74658268690109252930e-02) (150, -3.50212901830673217773e-02) (151, -2.93827205896377563477e-02) (152, -9.94888469576835632324e-02) (153, 1.42637714743614196777e-01) (154, 8.25445279479026794434e-02) (155, -3.09900902211666107178e-02) (156, 1.56687945127487182617e-02) (157, -7.86623284220695495605e-02) (158, -5.73521144688129425049e-02) (159, 4.09763492643833160400e-02) (160, 4.52293716371059417725e-02) (161, 2.98910457640886306763e-02) (162, -3.16566526889801025391e-02) (163, -6.74428641796112060547e-02) (164, -4.73247431218624114990e-02) (165, 1.29325175657868385315e-02) (166, 4.73939068615436553955e-02) (167, 2.18828152865171432495e-02) (168, -1.07452720403671264648e-01) (169, -2.42302179336547851562e-01) (170, 3.98101732134819030762e-02) (171, -1.33998389355838298798e-03) (172, -6.19403878226876258850e-03) (173, -6.09033368527889251709e-02) (174, -1.13164409995079040527e-02) (175, -5.55891618132591247559e-02) (176, -1.92839935421943664551e-01) (177, -6.91305249929428100586e-02) (178, -6.20528543367981910706e-03) (179, 4.80260625481605529785e-02) (180, -5.21734692156314849854e-02) (181, -2.02738538384437561035e-01) (182, 4.18953262269496917725e-02) (183, 2.36390437930822372437e-03) (184, -2.17647299170494079590e-01) (185, 4.37208674848079681396e-02) (186, 2.31433217413723468781e-03) (187, -4.49119992554187774658e-02) (188, 1.11048541963100433350e-01) (189, 6.54994975775480270386e-03) (190, -2.34000548720359802246e-01) (191, 6.05848766863346099854e-02) (192, 4.02104333043098449707e-02) (193, 6.49672374129295349121e-02) (194, -6.83635473251342773438e-02) (195, -2.32786983251571655273e-01) (196, 1.58193185925483703613e-01) (197, 4.20207232236862182617e-01) (198, 3.38889136910438537598e-02) (199, 4.36262413859367370605e-02) (200, -1.96819603443145751953e-02) (201, -1.46969333291053771973e-02) (202, -5.00234626233577728271e-02) (203, 8.18147733807563781738e-02) (204, 2.43997350335121154785e-02) (205, 3.86601015925407409668e-02) (206, -7.35922977328300476074e-02) (207, 4.29633334279060363770e-02) (208, -1.46041774749755859375e+00) (209, -6.56633675098419189453e-01) (210, -5.11408373713493347168e-02) (211, 1.74547880887985229492e-02) (212, -5.96153289079666137695e-02) (213, -7.46277272701263427734e-02) (214, -5.71249686181545257568e-02) (215, -5.04013411700725555420e-02) (216, 8.83210077881813049316e-02) (217, 7.59427174925804138184e-02) (218, 8.21795538067817687988e-02) (219, 8.79980549216270446777e-02) (220, 7.47274532914161682129e-02) (221, -4.04270291328430175781e-02) (222, 8.31893160939216613770e-02) (223, 1.49378776550292968750e-02) (224, -7.54597857594490051270e-02) (225, -8.51742401719093322754e-02) (226, 7.82354921102523803711e-03) (227, 6.28902018070220947266e-03) (228, -9.47219878435134887695e-02) (229, -5.82875311374664306641e-02) (230, -5.00847473740577697754e-02) (231, -1.44039466977119445801e-02) (232, 2.70155295729637145996e-02) (233, -1.08204782009124755859e-04) (234, -3.25891748070716857910e-02) (235, -4.85847368836402893066e-02) (236, -6.14481121301651000977e-02) (237, -6.18147104978561401367e-03) (238, 9.43785980343818664551e-02) (239, -5.73512725532054901123e-02) (240, -5.27463853359222412109e-03) (241, -5.67622296512126922607e-02) (242, 6.01035282015800476074e-02) (243, 3.51100340485572814941e-02) (244, -3.13899591565132141113e-02) (245, -9.70214530825614929199e-02) (246, 8.47086980938911437988e-02) (247, -4.30689528584480285645e-02) (248, 7.89212659001350402832e-02) (249, 6.68882355093955993652e-02) (250, -5.50708994269371032715e-02) (251, 5.36487177014350891113e-02) (252, -7.35387876629829406738e-02) (253, -7.18815922737121582031e-02) (254, -3.14134135842323303223e-02) (255, -4.89985756576061248779e-02) (256, -1.56389102339744567871e-01) (0, 7.64101371169090270996e-02) (1, 5.72904422879219055176e-02) (2, -5.17778135836124420166e-02) (3, -8.18773955106735229492e-02) (4, -9.27943065762519836426e-02) (5, 3.38182523846626281738e-02) (6, 4.51381430029869079590e-02) (7, 7.09749758243560791016e-03) (8, -9.87709313631057739258e-02) (9, 9.65534076094627380371e-02) (10, 4.56493720412254333496e-02) (11, -4.95240092277526855469e-03) (12, 9.09320190548896789551e-02) (13, 8.82981047034263610840e-02) (14, 8.97729620337486267090e-02) (15, -6.58302158117294311523e-02) (16, 4.84016314148902893066e-02) (17, 2.48829945921897888184e-02) (18, 2.77982652187347412109e-03) (19, 5.13801798224449157715e-02) (20, 9.59168374538421630859e-03) (21, 5.97108826041221618652e-02) (22, 3.03014442324638366699e-02) (23, -2.35200673341751098633e-02) (24, -9.53600183129310607910e-02) (25, -1.60498470067977905273e-02) (26, 2.94113159179687500000e-03) (27, -6.72416090965270996094e-02) (28, 5.25367483496665954590e-02) (29, 5.39425686001777648926e-02) (30, -2.42974311113357543945e-02) (31, 2.89468839764595031738e-02) (32, 1.12330093979835510254e-02) (33, 2.39247530698776245117e-02) (34, 4.70694974064826965332e-02) (35, 1.84386968612670898438e-02) (36, -4.22570072114467620850e-02) (37, -7.79236108064651489258e-03) (38, -7.44638070464134216309e-02) (39, -4.10279408097267150879e-02) (40, -1.12389475107192993164e-02) (41, 7.11855664849281311035e-02) (42, 5.40196672081947326660e-02) (43, -2.03069299459457397461e-02) (44, 5.94836845993995666504e-02) (45, 4.37926128506660461426e-02) (46, 1.38628631830215454102e-02) (47, 7.88529962301254272461e-03) (48, -3.13243791460990905762e-02) (49, -8.33573117852210998535e-02) (50, -4.07345183193683624268e-02) (51, 7.82673135399818420410e-02) (52, 7.63535723090171813965e-02) (53, 8.95669236779212951660e-02) (54, -4.52527664601802825928e-02) (55, 8.09935554862022399902e-02) (56, -2.64829248189926147461e-02) (57, 5.76883628964424133301e-02) (58, -8.62480476498603820801e-02) (59, -7.39461779594421386719e-02) (60, 1.16309300065040588379e-02) (61, -1.05454772710800170898e-02) (62, 5.50007149577140808105e-02) (63, -7.71360620856285095215e-02) (64, -8.66207182407379150391e-02) (65, 2.07020342350006103516e-03) (66, 4.13026288151741027832e-02) (67, -2.88777202367782592773e-02) (68, 9.42778363823890686035e-02) (69, 6.68388232588768005371e-02) (70, 3.00943329930305480957e-02) (71, -1.69611126184463500977e-02) (72, 3.80244031548500061035e-02) (73, -1.58860012888908386230e-02) (74, 6.27319589257240295410e-02) (75, -2.49192118644714355469e-03) (76, -7.20933824777603149414e-02) (77, -2.34051868319511413574e-02) (78, -9.46066156029701232910e-02) (79, -3.41776758432388305664e-03) (80, -6.76249712705612182617e-03) (81, -3.53411287069320678711e-02) (82, -2.51504555344581604004e-02) (83, -3.04089188575744628906e-02) (84, -4.57742102444171905518e-02) (85, 2.95967832207679748535e-02) (86, -4.94153611361980438232e-02) (87, 2.77428701519966125488e-02) (88, -1.27148479223251342773e-02) (89, -3.56634035706520080566e-02) (90, 5.37966862320899963379e-02) (91, 9.89160910248756408691e-02) (92, 5.37911131978034973145e-02) (93, 8.79739224910736083984e-03) (94, -7.82199800014495849609e-02) (95, 6.71704038977622985840e-02) (96, -8.91324058175086975098e-02) (97, -6.67046085000038146973e-02) (98, -1.16185061633586883545e-01) (99, -2.76635646820068359375e-01) (100, 1.74896977841854095459e-02) (101, 6.03722989559173583984e-01) (102, 3.31079185009002685547e-01) (103, 1.26155510544776916504e-01) (104, 5.60785412788391113281e-01) (105, -2.48312622308731079102e-01) (106, -2.14525133371353149414e-01) (107, -4.03716951608657836914e-01) (108, 3.41317951679229736328e-01) (109, -2.44687125086784362793e-02) (110, 3.61121445894241333008e-01) (111, 7.99485370516777038574e-02) (112, -2.22495213150978088379e-01) (113, -5.93756921589374542236e-02) (114, 3.74513596296310424805e-01) (115, 3.07264417409896850586e-01) (116, 7.26838648319244384766e-01) (117, 1.03566221892833709717e-01) (118, 6.06477707624435424805e-02) (119, -4.09570842981338500977e-01) (120, -8.50469395518302917480e-02) (121, -4.73910681903362274170e-02) (122, -8.57882261276245117188e-01) (123, 5.90520277619361877441e-02) (124, -1.99310407042503356934e-02) (125, -1.05825513601303100586e-02) (126, 2.62224301695823669434e-02) (127, -9.06344503164291381836e-03) (128, -3.26026305556297302246e-02) (129, 8.93687456846237182617e-02) (130, -2.87094503641128540039e-01) (131, 9.43752080202102661133e-02) (132, -1.28107545897364616394e-02) (133, -3.36674004793167114258e-02) (134, -4.76307459175586700439e-02) (135, 3.53986434638500213623e-02) (136, -6.28083348274230957031e-02) (137, -8.31580758094787597656e-02) (138, -3.41892465949058532715e-02) (139, 6.86401724815368652344e-02) (140, 1.00581385195255279541e-01) (141, -5.61817139387130737305e-02) (142, 8.74232277274131774902e-02) (143, -6.99094235897064208984e-02) (144, -2.36959545873105525970e-03) (145, -2.52240709960460662842e-02) (146, 1.38993300497531890869e-02) (147, -2.29247473180294036865e-02) (148, -8.22966247797012329102e-02) (149, 3.33525277674198150635e-02) (150, 4.47975471615791320801e-02) (151, -8.00328031182289123535e-02) (152, 3.64169897511601448059e-03) (153, -2.38947704434394836426e-01) (154, 8.00359398126602172852e-02) (155, -5.44273369014263153076e-02) (156, 3.84554732590913772583e-03) (157, 9.22821462154388427734e-03) (158, -2.23622526973485946655e-02) (159, 5.53665421903133392334e-02) (160, -3.50450165569782257080e-02) (161, 7.07380697131156921387e-02) (162, 4.17627356946468353271e-02) (163, -9.63280051946640014648e-02) (164, 5.20073100924491882324e-02) (165, 8.81547555327415466309e-02) (166, 8.63795131444931030273e-02) (167, 8.75057876110076904297e-02) (168, -1.06154844164848327637e-01) (169, -7.51772075891494750977e-02) (170, 4.84496057033538818359e-02) (171, 9.16599184274673461914e-02) (172, -1.33325695060193538666e-03) (173, 3.33259031176567077637e-02) (174, -8.81930440664291381836e-02) (175, 9.14459750056266784668e-02) (176, -6.40724897384643554688e-02) (177,