FANN_FLO_2.1
num_layers=3
learning_rate=0.700000
connection_rate=1.000000
network_type=0
learning_momentum=0.000000
training_algorithm=1
train_error_function=1
train_stop_function=0
cascade_output_change_fraction=0.010000
quickprop_decay=-0.000100
quickprop_mu=1.750000
rprop_increase_factor=1.200000
rprop_decrease_factor=0.500000
rprop_delta_min=0.000000
rprop_delta_max=50.000000
rprop_delta_zero=0.100000
cascade_output_stagnation_epochs=12
cascade_candidate_change_fraction=0.010000
cascade_candidate_stagnation_epochs=12
cascade_max_out_epochs=150
cascade_min_out_epochs=50
cascade_max_cand_epochs=150
cascade_min_cand_epochs=50
cascade_num_candidate_groups=2
bit_fail_limit=3.49999994039535522461e-01
cascade_candidate_limit=1.00000000000000000000e+03
cascade_weight_multiplier=4.00000005960464477539e-01
cascade_activation_functions_count=10
cascade_activation_functions=3 5 7 8 10 11 14 15 16 17 
cascade_activation_steepnesses_count=4
cascade_activation_steepnesses=2.50000000000000000000e-01 5.00000000000000000000e-01 7.50000000000000000000e-01 1.00000000000000000000e+00 
layer_sizes=257 129 5 
scale_included=0
neurons (num_inputs, activation_function, activation_steepness)=(0, 0, 0.00000000000000000000e+00) (0, 0, 0.00000000000000000000e+00) (0, 0, 0.00000000000000000000e+00) (0, 0, 0.00000000000000000000e+00) (0, 0, 0.00000000000000000000e+00) (0, 0, 0.00000000000000000000e+00) (0, 0, 0.00000000000000000000e+00) (0, 0, 0.00000000000000000000e+00) (0, 0, 0.00000000000000000000e+00) (0, 0, 0.00000000000000000000e+00) (0, 0, 0.00000000000000000000e+00) (0, 0, 0.00000000000000000000e+00) (0, 0, 0.00000000000000000000e+00) (0, 0, 0.00000000000000000000e+00) (0, 0, 0.00000000000000000000e+00) (0, 0, 0.00000000000000000000e+00) (0, 0, 0.00000000000000000000e+00) (0, 0, 0.00000000000000000000e+00) (0, 0, 0.00000000000000000000e+00) (0, 0, 0.00000000000000000000e+00) (0, 0, 0.00000000000000000000e+00) (0, 0, 0.00000000000000000000e+00) (0, 0, 0.00000000000000000000e+00) (0, 0, 0.00000000000000000000e+00) (0, 0, 0.00000000000000000000e+00) (0, 0, 0.00000000000000000000e+00) (0, 0, 0.00000000000000000000e+00) (0, 0, 0.00000000000000000000e+00) (0, 0, 0.00000000000000000000e+00) (0, 0, 0.00000000000000000000e+00) (0, 0, 0.00000000000000000000e+00) (0, 0, 0.00000000000000000000e+00) (0, 0, 0.00000000000000000000e+00) (0, 0, 0.00000000000000000000e+00) (0, 0, 0.00000000000000000000e+00) (0, 0, 0.00000000000000000000e+00) (0, 0, 0.00000000000000000000e+00) (0, 0, 0.00000000000000000000e+00) (0, 0, 0.00000000000000000000e+00) (0, 0, 0.00000000000000000000e+00) (0, 0, 0.00000000000000000000e+00) (0, 0, 0.00000000000000000000e+00) (0, 0, 0.00000000000000000000e+00) (0, 0, 0.00000000000000000000e+00) (0, 0, 0.00000000000000000000e+00) (0, 0, 0.00000000000000000000e+00) (0, 0, 0.00000000000000000000e+00) (0, 0, 0.00000000000000000000e+00) (0, 0, 0.00000000000000000000e+00) (0, 0, 0.00000000000000000000e+00) (0, 0, 0.00000000000000000000e+00) (0, 0, 0.00000000000000000000e+00) (0, 0, 0.00000000000000000000e+00) (0, 0, 0.00000000000000000000e+00) (0, 0, 0.00000000000000000000e+00) (0, 0, 0.00000000000000000000e+00) (0, 0, 0.00000000000000000000e+00) (0, 0, 0.00000000000000000000e+00) (0, 0, 0.00000000000000000000e+00) (0, 0, 0.00000000000000000000e+00) (0, 0, 0.00000000000000000000e+00) (0, 0, 0.00000000000000000000e+00) (0, 0, 0.00000000000000000000e+00) (0, 0, 0.00000000000000000000e+00) (0, 0, 0.00000000000000000000e+00) (0, 0, 0.00000000000000000000e+00) (0, 0, 0.00000000000000000000e+00) (0, 0, 0.00000000000000000000e+00) (0, 0, 0.00000000000000000000e+00) (0, 0, 0.00000000000000000000e+00) (0, 0, 0.00000000000000000000e+00) (0, 0, 0.00000000000000000000e+00) (0, 0, 0.00000000000000000000e+00) (0, 0, 0.00000000000000000000e+00) (0, 0, 0.00000000000000000000e+00) (0, 0, 0.00000000000000000000e+00) (0, 0, 0.00000000000000000000e+00) (0, 0, 0.00000000000000000000e+00) (0, 0, 0.00000000000000000000e+00) (0, 0, 0.00000000000000000000e+00) (0, 0, 0.00000000000000000000e+00) (0, 0, 0.00000000000000000000e+00) (0, 0, 0.00000000000000000000e+00) (0, 0, 0.00000000000000000000e+00) (0, 0, 0.00000000000000000000e+00) (0, 0, 0.00000000000000000000e+00) (0, 0, 0.00000000000000000000e+00) (0, 0, 0.00000000000000000000e+00) (0, 0, 0.00000000000000000000e+00) (0, 0, 0.00000000000000000000e+00) (0, 0, 0.00000000000000000000e+00) (0, 0, 0.00000000000000000000e+00) (0, 0, 0.00000000000000000000e+00) (0, 0, 0.00000000000000000000e+00) (0, 0, 0.00000000000000000000e+00) (0, 0, 0.00000000000000000000e+00) (0, 0, 0.00000000000000000000e+00) (0, 0, 0.00000000000000000000e+00) (0, 0, 0.00000000000000000000e+00) (0, 0, 0.00000000000000000000e+00) (0, 0, 0.00000000000000000000e+00) (0, 0, 0.00000000000000000000e+00) (0, 0, 0.00000000000000000000e+00) (0, 0, 0.00000000000000000000e+00) (0, 0, 0.00000000000000000000e+00) (0, 0, 0.00000000000000000000e+00) (0, 0, 0.00000000000000000000e+00) (0, 0, 0.00000000000000000000e+00) (0, 0, 0.00000000000000000000e+00) (0, 0, 0.00000000000000000000e+00) (0, 0, 0.00000000000000000000e+00) (0, 0, 0.00000000000000000000e+00) (0, 0, 0.00000000000000000000e+00) (0, 0, 0.00000000000000000000e+00) (0, 0, 0.00000000000000000000e+00) (0, 0, 0.00000000000000000000e+00) (0, 0, 0.00000000000000000000e+00) (0, 0, 0.00000000000000000000e+00) (0, 0, 0.00000000000000000000e+00) (0, 0, 0.00000000000000000000e+00) (0, 0, 0.00000000000000000000e+00) (0, 0, 0.00000000000000000000e+00) (0, 0, 0.00000000000000000000e+00) (0, 0, 0.00000000000000000000e+00) (0, 0, 0.00000000000000000000e+00) (0, 0, 0.00000000000000000000e+00) (0, 0, 0.00000000000000000000e+00) (0, 0, 0.00000000000000000000e+00) (0, 0, 0.00000000000000000000e+00) (0, 0, 0.00000000000000000000e+00) (0, 0, 0.00000000000000000000e+00) (0, 0, 0.00000000000000000000e+00) (0, 0, 0.00000000000000000000e+00) (0, 0, 0.00000000000000000000e+00) (0, 0, 0.00000000000000000000e+00) (0, 0, 0.00000000000000000000e+00) (0, 0, 0.00000000000000000000e+00) (0, 0, 0.00000000000000000000e+00) (0, 0, 0.00000000000000000000e+00) (0, 0, 0.00000000000000000000e+00) (0, 0, 0.00000000000000000000e+00) (0, 0, 0.00000000000000000000e+00) (0, 0, 0.00000000000000000000e+00) (0, 0, 0.00000000000000000000e+00) (0, 0, 0.00000000000000000000e+00) (0, 0, 0.00000000000000000000e+00) (0, 0, 0.00000000000000000000e+00) (0, 0, 0.00000000000000000000e+00) (0, 0, 0.00000000000000000000e+00) (0, 0, 0.00000000000000000000e+00) (0, 0, 0.00000000000000000000e+00) (0, 0, 0.00000000000000000000e+00) (0, 0, 0.00000000000000000000e+00) (0, 0, 0.00000000000000000000e+00) (0, 0, 0.00000000000000000000e+00) (0, 0, 0.00000000000000000000e+00) (0, 0, 0.00000000000000000000e+00) (0, 0, 0.00000000000000000000e+00) (0, 0, 0.00000000000000000000e+00) (0, 0, 0.00000000000000000000e+00) (0, 0, 0.00000000000000000000e+00) (0, 0, 0.00000000000000000000e+00) (0, 0, 0.00000000000000000000e+00) (0, 0, 0.00000000000000000000e+00) (0, 0, 0.00000000000000000000e+00) (0, 0, 0.00000000000000000000e+00) (0, 0, 0.00000000000000000000e+00) (0, 0, 0.00000000000000000000e+00) (0, 0, 0.00000000000000000000e+00) (0, 0, 0.00000000000000000000e+00) (0, 0, 0.00000000000000000000e+00) (0, 0, 0.00000000000000000000e+00) (0, 0, 0.00000000000000000000e+00) (0, 0, 0.00000000000000000000e+00) (0, 0, 0.00000000000000000000e+00) (0, 0, 0.00000000000000000000e+00) (0, 0, 0.00000000000000000000e+00) (0, 0, 0.00000000000000000000e+00) (0, 0, 0.00000000000000000000e+00) (0, 0, 0.00000000000000000000e+00) (0, 0, 0.00000000000000000000e+00) (0, 0, 0.00000000000000000000e+00) (0, 0, 0.00000000000000000000e+00) (0, 0, 0.00000000000000000000e+00) (0, 0, 0.00000000000000000000e+00) (0, 0, 0.00000000000000000000e+00) (0, 0, 0.00000000000000000000e+00) (0, 0, 0.00000000000000000000e+00) (0, 0, 0.00000000000000000000e+00) (0, 0, 0.00000000000000000000e+00) (0, 0, 0.00000000000000000000e+00) (0, 0, 0.00000000000000000000e+00) (0, 0, 0.00000000000000000000e+00) (0, 0, 0.00000000000000000000e+00) (0, 0, 0.00000000000000000000e+00) (0, 0, 0.00000000000000000000e+00) (0, 0, 0.00000000000000000000e+00) (0, 0, 0.00000000000000000000e+00) (0, 0, 0.00000000000000000000e+00) (0, 0, 0.00000000000000000000e+00) (0, 0, 0.00000000000000000000e+00) (0, 0, 0.00000000000000000000e+00) (0, 0, 0.00000000000000000000e+00) (0, 0, 0.00000000000000000000e+00) (0, 0, 0.00000000000000000000e+00) (0, 0, 0.00000000000000000000e+00) (0, 0, 0.00000000000000000000e+00) (0, 0, 0.00000000000000000000e+00) (0, 0, 0.00000000000000000000e+00) (0, 0, 0.00000000000000000000e+00) (0, 0, 0.00000000000000000000e+00) (0, 0, 0.00000000000000000000e+00) (0, 0, 0.00000000000000000000e+00) (0, 0, 0.00000000000000000000e+00) (0, 0, 0.00000000000000000000e+00) (0, 0, 0.00000000000000000000e+00) (0, 0, 0.00000000000000000000e+00) (0, 0, 0.00000000000000000000e+00) (0, 0, 0.00000000000000000000e+00) (0, 0, 0.00000000000000000000e+00) (0, 0, 0.00000000000000000000e+00) (0, 0, 0.00000000000000000000e+00) (0, 0, 0.00000000000000000000e+00) (0, 0, 0.00000000000000000000e+00) (0, 0, 0.00000000000000000000e+00) (0, 0, 0.00000000000000000000e+00) (0, 0, 0.00000000000000000000e+00) (0, 0, 0.00000000000000000000e+00) (0, 0, 0.00000000000000000000e+00) (0, 0, 0.00000000000000000000e+00) (0, 0, 0.00000000000000000000e+00) (0, 0, 0.00000000000000000000e+00) (0, 0, 0.00000000000000000000e+00) (0, 0, 0.00000000000000000000e+00) (0, 0, 0.00000000000000000000e+00) (0, 0, 0.00000000000000000000e+00) (0, 0, 0.00000000000000000000e+00) (0, 0, 0.00000000000000000000e+00) (0, 0, 0.00000000000000000000e+00) (0, 0, 0.00000000000000000000e+00) (0, 0, 0.00000000000000000000e+00) (0, 0, 0.00000000000000000000e+00) (0, 0, 0.00000000000000000000e+00) (0, 0, 0.00000000000000000000e+00) (0, 0, 0.00000000000000000000e+00) (0, 0, 0.00000000000000000000e+00) (0, 0, 0.00000000000000000000e+00) (0, 0, 0.00000000000000000000e+00) (0, 0, 0.00000000000000000000e+00) (0, 0, 0.00000000000000000000e+00) (0, 0, 0.00000000000000000000e+00) (0, 0, 0.00000000000000000000e+00) (0, 0, 0.00000000000000000000e+00) (0, 0, 0.00000000000000000000e+00) (0, 0, 0.00000000000000000000e+00) (0, 0, 0.00000000000000000000e+00) (0, 0, 0.00000000000000000000e+00) (257, 4, 5.00000000000000000000e-01) (257, 4, 5.00000000000000000000e-01) (257, 4, 5.00000000000000000000e-01) (257, 4, 5.00000000000000000000e-01) (257, 4, 5.00000000000000000000e-01) (257, 4, 5.00000000000000000000e-01) (257, 4, 5.00000000000000000000e-01) (257, 4, 5.00000000000000000000e-01) (257, 4, 5.00000000000000000000e-01) (257, 4, 5.00000000000000000000e-01) (257, 4, 5.00000000000000000000e-01) (257, 4, 5.00000000000000000000e-01) (257, 4, 5.00000000000000000000e-01) (257, 4, 5.00000000000000000000e-01) (257, 4, 5.00000000000000000000e-01) (257, 4, 5.00000000000000000000e-01) (257, 4, 5.00000000000000000000e-01) (257, 4, 5.00000000000000000000e-01) (257, 4, 5.00000000000000000000e-01) (257, 4, 5.00000000000000000000e-01) (257, 4, 5.00000000000000000000e-01) (257, 4, 5.00000000000000000000e-01) (257, 4, 5.00000000000000000000e-01) (257, 4, 5.00000000000000000000e-01) (257, 4, 5.00000000000000000000e-01) (257, 4, 5.00000000000000000000e-01) (257, 4, 5.00000000000000000000e-01) (257, 4, 5.00000000000000000000e-01) (257, 4, 5.00000000000000000000e-01) (257, 4, 5.00000000000000000000e-01) (257, 4, 5.00000000000000000000e-01) (257, 4, 5.00000000000000000000e-01) (257, 4, 5.00000000000000000000e-01) (257, 4, 5.00000000000000000000e-01) (257, 4, 5.00000000000000000000e-01) (257, 4, 5.00000000000000000000e-01) (257, 4, 5.00000000000000000000e-01) (257, 4, 5.00000000000000000000e-01) (257, 4, 5.00000000000000000000e-01) (257, 4, 5.00000000000000000000e-01) (257, 4, 5.00000000000000000000e-01) (257, 4, 5.00000000000000000000e-01) (257, 4, 5.00000000000000000000e-01) (257, 4, 5.00000000000000000000e-01) (257, 4, 5.00000000000000000000e-01) (257, 4, 5.00000000000000000000e-01) (257, 4, 5.00000000000000000000e-01) (257, 4, 5.00000000000000000000e-01) (257, 4, 5.00000000000000000000e-01) (257, 4, 5.00000000000000000000e-01) (257, 4, 5.00000000000000000000e-01) (257, 4, 5.00000000000000000000e-01) (257, 4, 5.00000000000000000000e-01) (257, 4, 5.00000000000000000000e-01) (257, 4, 5.00000000000000000000e-01) (257, 4, 5.00000000000000000000e-01) (257, 4, 5.00000000000000000000e-01) (257, 4, 5.00000000000000000000e-01) (257, 4, 5.00000000000000000000e-01) (257, 4, 5.00000000000000000000e-01) (257, 4, 5.00000000000000000000e-01) (257, 4, 5.00000000000000000000e-01) (257, 4, 5.00000000000000000000e-01) (257, 4, 5.00000000000000000000e-01) (257, 4, 5.00000000000000000000e-01) (257, 4, 5.00000000000000000000e-01) (257, 4, 5.00000000000000000000e-01) (257, 4, 5.00000000000000000000e-01) (257, 4, 5.00000000000000000000e-01) (257, 4, 5.00000000000000000000e-01) (257, 4, 5.00000000000000000000e-01) (257, 4, 5.00000000000000000000e-01) (257, 4, 5.00000000000000000000e-01) (257, 4, 5.00000000000000000000e-01) (257, 4, 5.00000000000000000000e-01) (257, 4, 5.00000000000000000000e-01) (257, 4, 5.00000000000000000000e-01) (257, 4, 5.00000000000000000000e-01) (257, 4, 5.00000000000000000000e-01) (257, 4, 5.00000000000000000000e-01) (257, 4, 5.00000000000000000000e-01) (257, 4, 5.00000000000000000000e-01) (257, 4, 5.00000000000000000000e-01) (257, 4, 5.00000000000000000000e-01) (257, 4, 5.00000000000000000000e-01) (257, 4, 5.00000000000000000000e-01) (257, 4, 5.00000000000000000000e-01) (257, 4, 5.00000000000000000000e-01) (257, 4, 5.00000000000000000000e-01) (257, 4, 5.00000000000000000000e-01) (257, 4, 5.00000000000000000000e-01) (257, 4, 5.00000000000000000000e-01) (257, 4, 5.00000000000000000000e-01) (257, 4, 5.00000000000000000000e-01) (257, 4, 5.00000000000000000000e-01) (257, 4, 5.00000000000000000000e-01) (257, 4, 5.00000000000000000000e-01) (257, 4, 5.00000000000000000000e-01) (257, 4, 5.00000000000000000000e-01) (257, 4, 5.00000000000000000000e-01) (257, 4, 5.00000000000000000000e-01) (257, 4, 5.00000000000000000000e-01) (257, 4, 5.00000000000000000000e-01) (257, 4, 5.00000000000000000000e-01) (257, 4, 5.00000000000000000000e-01) (257, 4, 5.00000000000000000000e-01) (257, 4, 5.00000000000000000000e-01) (257, 4, 5.00000000000000000000e-01) (257, 4, 5.00000000000000000000e-01) (257, 4, 5.00000000000000000000e-01) (257, 4, 5.00000000000000000000e-01) (257, 4, 5.00000000000000000000e-01) (257, 4, 5.00000000000000000000e-01) (257, 4, 5.00000000000000000000e-01) (257, 4, 5.00000000000000000000e-01) (257, 4, 5.00000000000000000000e-01) (257, 4, 5.00000000000000000000e-01) (257, 4, 5.00000000000000000000e-01) (257, 4, 5.00000000000000000000e-01) (257, 4, 5.00000000000000000000e-01) (257, 4, 5.00000000000000000000e-01) (257, 4, 5.00000000000000000000e-01) (257, 4, 5.00000000000000000000e-01) (257, 4, 5.00000000000000000000e-01) (257, 4, 5.00000000000000000000e-01) (257, 4, 5.00000000000000000000e-01) (257, 4, 5.00000000000000000000e-01) (257, 4, 5.00000000000000000000e-01) (0, 0, 0.00000000000000000000e+00) (129, 4, 5.00000000000000000000e-01) (129, 4, 5.00000000000000000000e-01) (129, 4, 5.00000000000000000000e-01) (129, 4, 5.00000000000000000000e-01) (0, 0, 0.00000000000000000000e+00) 
connections (connected_to_neuron, weight)=(0, 1.26744136214256286621e-02) (1, 9.90533605217933654785e-02) (2, 5.33910095691680908203e-03) (3, -9.22997146844863891602e-02) (4, 1.01730003952980041504e-02) (5, 7.23125040531158447266e-03) (6, -9.42895933985710144043e-02) (7, 7.09977522492408752441e-02) (8, 7.08018615841865539551e-02) (9, -1.05991959571838378906e-02) (10, 8.92989262938499450684e-02) (11, -2.92473584413528442383e-02) (12, 3.51083278656005859375e-03) (13, 4.03478741645812988281e-04) (14, 9.05147939920425415039e-03) (15, -2.43218988180160522461e-02) (16, -8.72725844383239746094e-02) (17, 1.09903663396835327148e-02) (18, -2.34003588557243347168e-02) (19, 7.89678618311882019043e-02) (20, -4.30033169686794281006e-02) (21, 5.30006214976310729980e-02) (22, -8.66958200931549072266e-02) (23, -1.82145759463310241699e-02) (24, -1.21588185429573059082e-02) (25, 3.34178134799003601074e-02) (26, 3.84467169642448425293e-02) (27, -1.17905437946319580078e-04) (28, -9.10799503326416015625e-02) (29, 8.69308784604072570801e-02) (30, -8.66969674825668334961e-02) (31, 2.15944647789001464844e-02) (32, 8.59842374920845031738e-02) (33, 1.86421275138854980469e-02) (34, 2.92947515845298767090e-02) (35, -3.84275615215301513672e-03) (36, -7.41266235709190368652e-02) (37, 3.50051596760749816895e-02) (38, -3.28450053930282592773e-02) (39, 9.66752395033836364746e-02) (40, -7.55940377712249755859e-02) (41, -4.35460805892944335938e-02) (42, -3.25721129775047302246e-02) (43, 2.79167965054512023926e-02) (44, 5.68573996424674987793e-02) (45, 7.64793828129768371582e-02) (46, -9.64051038026809692383e-02) (47, 6.95848092436790466309e-02) (48, -1.25302523374557495117e-02) (49, -1.98054611682891845703e-02) (50, 4.85526695847511291504e-02) (51, 4.44664433598518371582e-02) (52, -6.68048411607742309570e-02) (53, 6.18568584322929382324e-02) (54, -7.37481489777565002441e-02) (55, 2.10363417863845825195e-02) (56, -4.72533702850341796875e-03) (57, 6.46985694766044616699e-02) (58, -7.90815651416778564453e-02) (59, 4.19471412897109985352e-03) (60, 5.16294613480567932129e-02) (61, -6.57785385847091674805e-02) (62, -7.42108151316642761230e-02) (63, 3.76136973500251770020e-02) (64, 5.28636053204536437988e-02) (65, 5.50839379429817199707e-02) (66, -6.62290602922439575195e-02) (67, 7.87369683384895324707e-02) (68, -9.91090387105941772461e-03) (69, 9.25935804843902587891e-04) (70, 7.54122212529182434082e-02) (71, 1.44950523972511291504e-02) (72, 5.73798492550849914551e-02) (73, -5.71599006652832031250e-02) (74, -5.75881451368331909180e-02) (75, 1.42372474074363708496e-02) (76, -8.06805267930030822754e-02) (77, -5.39932474493980407715e-02) (78, -1.61779373884201049805e-02) (79, 6.78922235965728759766e-03) (80, 2.62013003230094909668e-02) (81, -6.76252692937850952148e-02) (82, -4.87443506717681884766e-02) (83, 5.93964532017707824707e-02) (84, 9.42315831780433654785e-02) (85, -2.24924981594085693359e-02) (86, -1.95672139525413513184e-02) (87, -1.04937553405761718750e-02) (88, -5.77939301729202270508e-02) (89, 1.35122239589691162109e-03) (90, 9.37009528279304504395e-02) (91, 9.38355252146720886230e-02) (92, 3.55727002024650573730e-02) (93, -8.05098563432693481445e-02) (94, 3.14492210745811462402e-02) (95, -1.15637183189392089844e-02) (96, 7.45740756392478942871e-02) (97, 5.03233551979064941406e-01) (98, 3.99109899997711181641e-01) (99, 2.19407290220260620117e-01) (100, 1.36547714471817016602e-01) (101, -1.45177137851715087891e+00) (102, 5.27938783168792724609e-01) (103, 5.05791842937469482422e-01) (104, 1.53910732269287109375e+00) (105, 6.56087279319763183594e-01) (106, 2.31680601835250854492e-01) (107, 6.69957756996154785156e-01) (108, -9.62817072868347167969e-01) (109, 1.19952492415904998779e-01) (110, -2.66345571726560592651e-02) (111, 1.43034994602203369141e+00) (112, -3.11867207288742065430e-01) (113, -4.35239851474761962891e-01) (114, -2.50490128993988037109e-01) (115, -8.44560265541076660156e-01) (116, -5.19712083041667938232e-02) (117, -1.50986552238464355469e+00) (118, -4.39817070960998535156e-01) (119, 1.20812714099884033203e+00) (120, -1.25577539205551147461e-01) (121, 1.30334258079528808594e+00) (122, 8.70960474014282226562e-01) (123, -2.94687226414680480957e-02) (124, 5.08889034390449523926e-02) (125, 7.78821855783462524414e-03) (126, 5.89675679802894592285e-02) (127, 2.54629924893379211426e-02) (128, -6.93432018160820007324e-02) (129, -1.44646778702735900879e-01) (130, 3.12777608633041381836e-01) (131, 5.17028803005814552307e-03) (132, 1.56009402126073837280e-02) (133, 1.82790249586105346680e-01) (134, 5.69652318954467773438e-02) (135, 8.52081999182701110840e-02) (136, 8.51695686578750610352e-02) (137, -2.35980376601219177246e-03) (138, -4.11031208932399749756e-02) (139, -5.85552789270877838135e-02) (140, -1.80356018245220184326e-02) (141, -3.24270613491535186768e-02) (142, -5.91840855777263641357e-02) (143, 5.33057115972042083740e-02) (144, 2.45555713772773742676e-02) (145, -9.73673462867736816406e-02) (146, -8.15800428390502929688e-02) (147, -2.93628126382827758789e-02) (148, -6.96744844317436218262e-02) (149, 5.03114946186542510986e-02) (150, -4.39781025052070617676e-02) (151, 7.39499554038047790527e-02) (152, -1.53486756607890129089e-02) (153, 8.55958834290504455566e-02) (154, -5.83738349378108978271e-02) (155, 7.88745731115341186523e-02) (156, 3.43866124749183654785e-02) (157, -1.08025588095188140869e-01) (158, 5.22979237139225006104e-02) (159, -8.96885991096496582031e-02) (160, -2.70318865776062011719e-01) (161, 5.10899834334850311279e-02) (162, 3.78649011254310607910e-02) (163, -4.57344809547066688538e-03) (164, 2.90393158793449401855e-02) (165, 1.21006323024630546570e-02) (166, -9.48739945888519287109e-02) (167, -3.32335233688354492188e-02) (168, -3.76357465982437133789e-01) (169, -9.74076867103576660156e-01) (170, 2.90568303316831588745e-02) (171, 3.17021980881690979004e-02) (172, 7.59847611188888549805e-02) (173, -6.94655105471611022949e-02) (174, 1.34534612298011779785e-02) (175, 1.30966883152723312378e-02) (176, -1.46544098854064941406e-01) (177, 1.18872718885540962219e-02) (178, 2.90193855762481689453e-02) (179, 9.54387560486793518066e-02) (180, -5.09652532637119293213e-02) (181, -1.60282045602798461914e-01) (182, -7.69194141030311584473e-02) (183, 7.58446976542472839355e-02) (184, -1.16842694580554962158e-01) (185, -2.08891946822404861450e-02) (186, -7.55904540419578552246e-02) (187, -1.86437070369720458984e-01) (188, 9.46451053023338317871e-02) (189, -1.61444649100303649902e-01) (190, -2.26329058408737182617e-01) (191, 8.48210125695914030075e-04) (192, 6.63383677601814270020e-02) (193, 8.25364664196968078613e-02) (194, -7.53046944737434387207e-02) (195, -1.53927159309387207031e+00) (196, 3.56538236141204833984e-01) (197, 6.48323595523834228516e-01) (198, -8.47285464406013488770e-02) (199, 1.29646286368370056152e-02) (200, 8.85276272892951965332e-02) (201, 9.35965254902839660645e-02) (202, -4.95706908404827117920e-02) (203, 7.03233554959297180176e-02) (204, -7.58689939975738525391e-02) (205, 6.38827756047248840332e-02) (206, -1.46598666906356811523e-02) (207, -3.99505086243152618408e-02) (208, -1.00960254669189453125e+00) (209, -4.38076138496398925781e-01) (210, 3.49593386054039001465e-02) (211, -9.89714935421943664551e-02) (212, 1.84324160218238830566e-02) (213, 8.38191583752632141113e-02) (214, 9.38173457980155944824e-02) (215, 9.53503921627998352051e-02) (216, -2.28398218750953674316e-02) (217, -6.92280083894729614258e-02) (218, -8.75825136899948120117e-02) (219, 7.39500001072883605957e-02) (220, -6.26445710659027099609e-02) (221, -5.73579519987106323242e-02) (222, 3.29419970512390136719e-04) (223, -9.63062047958374023438e-02) (224, -7.48214796185493469238e-02) (225, 2.50247195363044738770e-02) (226, -9.28513705730438232422e-04) (227, 2.27072983980178833008e-02) (228, -9.78122428059577941895e-02) (229, 1.43429413437843322754e-02) (230, -6.43280744552612304688e-02) (231, 9.07153859734535217285e-02) (232, 7.93945789337158203125e-03) (233, -1.38987675309181213379e-02) (234, 6.10387399792671203613e-02) (235, 3.20704653859138488770e-02) (236, -5.00159971415996551514e-02) (237, -5.36211244761943817139e-02) (238, 9.21199545264244079590e-02) (239, 5.15005663037300109863e-02) (240, 2.02542096376419067383e-02) (241, 2.70793065428733825684e-02) (242, 5.25290742516517639160e-02) (243, -6.13133832812309265137e-02) (244, 1.08984559774398803711e-02) (245, 4.63464334607124328613e-02) (246, -6.59629851579666137695e-02) (247, 8.80586430430412292480e-02) (248, 7.71184191107749938965e-02) (249, -5.35454899072647094727e-02) (250, 6.20086267590522766113e-02) (251, -8.55261534452438354492e-02) (252, -1.09034404158592224121e-02) (253, -3.76619473099708557129e-02) (254, -8.18323567509651184082e-02) (255, 1.42750740051269531250e-02) (256, 1.04806907474994659424e-01) (0, 1.72391310334205627441e-02) (1, -6.30176365375518798828e-02) (2, 8.95505473017692565918e-02) (3, -6.84179365634918212891e-02) (4, -2.73457020521163940430e-02) (5, 8.02659317851066589355e-02) (6, 3.95215228199958801270e-02) (7, 5.87555244565010070801e-02) (8, 4.13046702742576599121e-02) (9, -2.84080058336257934570e-02) (10, -9.12604704499244689941e-02) (11, 8.76835659146308898926e-02) (12, -3.62880453467369079590e-02) (13, 6.02400973439216613770e-02) (14, 7.93775171041488647461e-03) (15, 9.07912626862525939941e-02) (16, 1.27691775560379028320e-02) (17, 4.66243699193000793457e-02) (18, 1.68971717357635498047e-03) (19, -4.08844016492366790771e-02) (20, 8.06613937020301818848e-02) (21, -1.02516561746597290039e-02) (22, -6.37659877538681030273e-02) (23, -7.28840902447700500488e-02) (24, -4.82430160045623779297e-02) (25, -4.92921434342861175537e-02) (26, 1.62124633789062500000e-02) (27, 1.40950456261634826660e-02) (28, -3.11244949698448181152e-02) (29, -6.95124566555023193359e-02) (30, 1.45782530307769775391e-03) (31, 8.61146375536918640137e-02) (32, -3.25300842523574829102e-02) (33, -8.99163633584976196289e-03) (34, -8.23033004999160766602e-02) (35, 4.01242002844810485840e-02) (36, -2.87257134914398193359e-02) (37, 5.72182163596153259277e-02) (38, -1.12026184797286987305e-03) (39, -8.74210372567176818848e-02) (40, -7.11897835135459899902e-02) (41, 7.61927664279937744141e-03) (42, -9.97374877333641052246e-02) (43, -7.47783482074737548828e-03) (44, -3.21406275033950805664e-02) (45, 8.20027291774749755859e-03) (46, -1.66865736246109008789e-02) (47, 8.06285515427589416504e-02) (48, -4.51753549277782440186e-02) (49, 8.50031450390815734863e-02) (50, -6.02558515965938568115e-02) (51, -6.45139589905738830566e-02) (52, -2.52485126256942749023e-02) (53, -2.40218341350555419922e-02) (54, -3.73980551958084106445e-02) (55, 2.65084728598594665527e-02) (56, 2.66860201954841613770e-02) (57, 7.88144096732139587402e-02) (58, -5.93964904546737670898e-02) (59, 9.55615267157554626465e-02) (60, -9.06980410218238830566e-02) (61, 4.20613363385200500488e-02) (62, 8.16761627793312072754e-02) (63, -2.32281237840652465820e-02) (64, -6.69303089380264282227e-02) (65, 9.93728563189506530762e-02) (66, -8.31039249897003173828e-02) (67, 4.34398651123046875000e-03) (68, 5.65910711884498596191e-02) (69, 1.57758221030235290527e-02) (70, 1.69229507446289062500e-02) (71, 8.54012891650199890137e-02) (72, -7.66049101948738098145e-02) (73, 1.71854645013809204102e-02) (74, -2.20765471458435058594e-02) (75, -8.74553620815277099609e-03) (76, -7.46142640709877014160e-02) (77, 6.12368807196617126465e-02) (78, -2.81169861555099487305e-02) (79, -1.97896137833595275879e-02) (80, 4.62400242686271667480e-02) (81, 1.16271749138832092285e-02) (82, 1.56964287161827087402e-02) (83, -7.90084898471832275391e-02) (84, 8.76053348183631896973e-02) (85, 7.82983824610710144043e-02) (86, 4.74999770522117614746e-02) (87, 1.42913609743118286133e-02) (88, 5.71128055453300476074e-02) (89, 8.81034955382347106934e-02) (90, 9.85288619995117187500e-03) (91, 6.64147511124610900879e-02) (92, 3.01648303866386413574e-02) (93, -8.47095996141433715820e-03) (94, -5.68133741617202758789e-02) (95, 6.32345154881477355957e-02) (96, -9.09810513257980346680e-03) (97, -2.41105064749717712402e-01) (98, -9.27937626838684082031e-02) (99, -3.81373614072799682617e-02) (100, -4.88636381924152374268e-02) (101, -4.88838791847229003906e-01) (102, -4.41132128238677978516e-01) (103, -1.60635367035865783691e-01) (104, -7.66179203987121582031e-01) (105, -1.44421696662902832031e-01) (106, 1.65761366486549377441e-01) (107, 2.03509271144866943359e-01) (108, -2.68015235662460327148e-01) (109, 2.25090272724628448486e-02) (110, -5.31464338302612304688e-01) (111, -6.11774682998657226562e-01) (112, 6.42756074666976928711e-02) (113, 7.83584192395210266113e-02) (114, -5.00255584716796875000e-01) (115, -3.68606328964233398438e-01) (116, -6.75156772136688232422e-01) (117, 1.31095916032791137695e-01) (118, -2.35074805095791816711e-03) (119, 5.75125999748706817627e-02) (120, 8.41126218438148498535e-02) (121, -1.52484789490699768066e-01) (122, 4.26387786865234375000e-01) (123, 5.05443662405014038086e-03) (124, 7.72968903183937072754e-02) (125, -3.20079699158668518066e-02) (126, -3.17110493779182434082e-02) (127, -3.18012088537216186523e-02) (128, 6.41578137874603271484e-02) (129, 9.59349423646926879883e-02) (130, 2.97659248113632202148e-01) (131, 3.27748358249664306641e-02) (132, 4.79764044284820556641e-02) (133, 1.31780073046684265137e-01) (134, 7.97858182340860366821e-03) (135, -1.47465001791715621948e-02) (136, -3.58072444796562194824e-02) (137, 9.61005464196205139160e-02) (138, 4.91284951567649841309e-02) (139, 4.58651073276996612549e-02) (140, 8.96814167499542236328e-02) (141, 5.88076263666152954102e-02) (142, 5.93680664896965026855e-02) (143, -5.06743639707565307617e-02) (144, -1.34302098304033279419e-02) (145, 9.14446488022804260254e-02) (146, -3.47872008569538593292e-03) (147, 8.30685123801231384277e-02) (148, 8.30529406666755676270e-02) (149, -2.27866880595684051514e-02) (150, -6.09404705464839935303e-02) (151, 5.07147982716560363770e-02) (152, 6.05766363441944122314e-02) (153, 5.82746155560016632080e-02) (154, -4.18378412723541259766e-02) (155, 1.18331447243690490723e-01) (156, 3.66249494254589080811e-02) (157, 3.36502939462661743164e-02) (158, 1.13232225179672241211e-01) (159, -3.76751907169818878174e-02) (160, -9.80692636221647262573e-03) (161, 2.17702239751815795898e-02) (162, 7.57952332496643066406e-02) (163, 8.26941952109336853027e-02) (164, -3.68157848715782165527e-02) (165, -3.05641256272792816162e-02) (166, -9.05066281557083129883e-02) (167, 3.45460660755634307861e-02) (168, 2.93261907063424587250e-03) (169, 1.90874040126800537109e-01) (170, -3.89656871557235717773e-02) (171, -7.83809274435043334961e-02) (172, 1.26756485551595687866e-02) (173, -9.62008088827133178711e-02) (174, -5.30627816915512084961e-02) (175, 8.71644467115402221680e-02) (176, 1.62517383694648742676e-01) (177, 6.02420791983604431152e-02) (178, 1.18407957255840301514e-01) (179, 1.68219566345214843750e-01) (180, -5.30985519289970397949e-02) (181, -4.09000180661678314209e-03) (182, 4.09521348774433135986e-02) (183, 7.41247311234474182129e-02) (184, 5.01198507845401763916e-02) (185, 8.71193856000900268555e-02) (186, 2.36945003271102905273e-02) (187, -5.00463396310806274414e-02) (188, 1.18040263652801513672e-01) (189, 4.69864122569561004639e-02) (190, 9.46827754378318786621e-02) (191, 8.07860344648361206055e-02) (192, -9.60688441991806030273e-02) (193, -7.34715312719345092773e-02) (194, 3.94258126616477966309e-02) (195, 2.86828786134719848633e-01) (196, 2.05118939280509948730e-01) (197, 4.37529116868972778320e-01) (198, 8.97033140063285827637e-02) (199, 5.43271377682685852051e-02) (200, -6.74490630626678466797e-03) (201, -5.62504306435585021973e-02) (202, 7.11600258946418762207e-02) (203, -9.88544598221778869629e-02) (204, -5.24512343108654022217e-02) (205, -8.19027572870254516602e-02) (206, 8.84270146489143371582e-02) (207, -5.96129745244979858398e-02) (208, 9.08788383007049560547e-01) (209, 4.04561698436737060547e-01) (210, -9.09495353698730468750e-02) (211, 6.30704835057258605957e-02) (212, 6.33872225880622863770e-02) (213, 2.84286960959434509277e-02) (214, 2.27893218398094177246e-02) (215, -6.57379627227783203125e-02) (216, 3.57614457607269287109e-03) (217, -8.67841765284538269043e-02) (218, -6.30061775445938110352e-02) (219, -9.72182303667068481445e-02) (220, 2.54877656698226928711e-03) (221, -3.42682003974914550781e-04) (222, 6.19130358099937438965e-02) (223, 6.47993385791778564453e-03) (224, 2.61857882142066955566e-02) (225, 1.33883953094482421875e-03) (226, 7.35952928662300109863e-02) (227, -8.02338868379592895508e-02) (228, -5.68849518895149230957e-02) (229, 6.32986202836036682129e-02) (230, 7.40932598710060119629e-02) (231, 3.63701507449150085449e-02) (232, -9.29518193006515502930e-02) (233, 4.52532842755317687988e-02) (234, 3.75156924128532409668e-02) (235, -4.54030521214008331299e-02) (236, 6.33505359292030334473e-02) (237, 2.59426906704902648926e-02) (238, -5.01602143049240112305e-03) (239, 2.01129317283630371094e-02) (240, -1.76799520850181579590e-02) (241, 4.03444468975067138672e-03) (242, -1.68165788054466247559e-02) (243, -5.42927309870719909668e-02) (244, -6.75368607044219970703e-02) (245, -9.40272659063339233398e-02) (246, -2.00306922197341918945e-02) (247, 3.60392853617668151855e-02) (248, -8.08114409446716308594e-02) (249, 1.69631391763687133789e-02) (250, 3.88210490345954895020e-02) (251, 2.17373371124267578125e-02) (252, -8.33795443177223205566e-02) (253, 7.34090805053710937500e-04) (254, -7.17827305197715759277e-02) (255, 4.28062453866004943848e-02) (256, -1.14452414214611053467e-01) (0, -9.81874316930770874023e-02) (1, 6.25723674893379211426e-02) (2, -5.48120178282260894775e-02) (3, 6.51111826300621032715e-02) (4, 3.66656258702278137207e-02) (5, 8.15581306815147399902e-02) (6, 7.21593722701072692871e-02) (7, -1.80810913443565368652e-02) (8, 1.90738216042518615723e-02) (9, -7.32436776161193847656e-02) (10, -5.47305606305599212646e-02) (11, -5.49834892153739929199e-02) (12, 2.17402949929237365723e-02) (13, 6.53823688626289367676e-02) (14, 2.73365601897239685059e-02) (15, -7.42252618074417114258e-02) (16, -5.14342039823532104492e-02) (17, 7.30438306927680969238e-02) (18, -4.17621210217475891113e-02) (19, -4.54614646732807159424e-02) (20, -4.69868592917919158936e-02) (21, 9.42771658301353454590e-02) (22, -2.62729078531265258789e-02) (23, 6.99762776494026184082e-02) (24, 3.30982282757759094238e-02) (25, 9.54644307494163513184e-02) (26, 8.65967348217964172363e-02) (27, -6.61676973104476928711e-02) (28, -7.63182938098907470703e-02) (29, 2.94029787182807922363e-02) (30, -6.40947595238685607910e-02) (31, -7.45057165622711181641e-02) (32, -8.02467018365859985352e-03) (33, -1.89067795872688293457e-02) (34, 9.06054750084877014160e-02) (35, -7.13590458035469055176e-02) (36, -3.73486429452896118164e-02) (37, 6.27648457884788513184e-02) (38, 1.05598568916320800781e-02) (39, 8.17251875996589660645e-02) (40, 8.95211771130561828613e-02) (41, 5.58292940258979797363e-02) (42, -7.32583105564117431641e-02) (43, 1.12614631652832031250e-02) (44, 2.12116837501525878906e-02) (45, 5.40782436728477478027e-02) (46, 3.70362028479576110840e-02) (47, 6.97774812579154968262e-02) (48, 2.71220728754997253418e-02) (49, 9.52740833163261413574e-02) (50, -7.56839960813522338867e-02) (51, 8.01352038979530334473e-02) (52, 8.95512476563453674316e-02) (53, -1.95689499378204345703e-03) (54, 5.01114800572395324707e-02) (55, 2.26494669914245605469e-02) (56, -6.49245083332061767578e-03) (57, 3.67082133889198303223e-02) (58, 5.64817860722541809082e-02) (59, 1.71892493963241577148e-02) (60, -3.38888242840766906738e-02) (61, 9.23870280385017395020e-02) (62, 4.26835343241691589355e-02) (63, 5.80865219235420227051e-02) (64, -2.65197604894638061523e-02) (65, 3.32890078425407409668e-02) (66, 8.67274627089500427246e-02) (67, 3.61315980553627014160e-02) (68, -3.94615530967712402344e-03) (69, -2.71268188953399658203e-03) (70, 1.78567767143249511719e-02) (71, -1.44249871373176574707e-02) (72, -4.68833744525909423828e-02) (73, 4.45984676480293273926e-02) (74, 9.68364700675010681152e-02) (75, 7.43283107876777648926e-02) (76, -1.32329761981964111328e-03) (77, 3.38726714253425598145e-02) (78, 4.41057756543159484863e-02) (79, -7.42012187838554382324e-02) (80, 2.91467681527137756348e-02) (81, 6.84217885136604309082e-02) (82, -9.40660163760185241699e-02) (83, 1.86980143189430236816e-02) (84, -3.35351079702377319336e-02) (85, 5.60454800724983215332e-02) (86, -5.86525201797485351562e-02) (87, 5.99724277853965759277e-02) (88, -7.24632292985916137695e-03) (89, 9.78292599320411682129e-02) (90, -2.28383094072341918945e-02) (91, 5.88648542761802673340e-02) (92, 9.02162864804267883301e-02) (93, -8.01547840237617492676e-02) (94, 1.69513672590255737305e-02) (95, -3.63034754991531372070e-02) (96, 5.31342104077339172363e-02) (97, -1.95043936371803283691e-01) (98, 4.05628904700279235840e-02) (99, -1.94136366248130798340e-01) (100, -1.66580006480216979980e-01) (101, 1.32114559412002563477e-01) (102, 1.68522849678993225098e-01) (103, -1.15496404469013214111e-02) (104, 1.82516604661941528320e-01) (105, -1.91312134265899658203e-01) (106, -2.21447154879570007324e-01) (107, -1.58277213573455810547e-01) (108, 7.57593140006065368652e-02) (109, -2.36197113990783691406e-02) (110, 1.14754453301429748535e-01) (111, 2.46935579925775527954e-02) (112, -6.62658959627151489258e-02) (113, 9.20275151729583740234e-02) (114, 1.14540502429008483887e-01) (115, -1.89755149185657501221e-02) (116, 2.70266026258468627930e-01) (117, 6.37774616479873657227e-02) (118, 1.31878629326820373535e-01) (119, -2.90571749210357666016e-01) (120, 5.82256391644477844238e-02) (121, -1.71681091189384460449e-01) (122, -5.38081705570220947266e-01) (123, 4.27100285887718200684e-02) (124, -3.56171280145645141602e-02) (125, 1.73081979155540466309e-02) (126, -9.35934558510780334473e-02) (127, -8.24829116463661193848e-02) (128, -4.98830527067184448242e-02) (129, -4.52244617044925689697e-02) (130, -1.31081014871597290039e-01) (131, -5.47469072043895721436e-02) (132, -3.09742958052083849907e-04) (133, -1.55499964952468872070e-01) (134, -2.00946815311908721924e-02) (135, 7.51648843288421630859e-02) (136, 3.69513556361198425293e-02) (137, 6.39262748882174491882e-03) (138, 4.71629872918128967285e-02) (139, 1.10187120735645294189e-01) (140, 4.10401728004217147827e-03) (141, 3.58462519943714141846e-02) (142, 1.00922137498855590820e-01) (143, -6.66012987494468688965e-02) (144, 3.24243977665901184082e-02) (145, 8.41849669814109802246e-03) (146, -7.08462670445442199707e-02) (147, -2.27099098265171051025e-02) (148, -3.30497547984123229980e-02) (149, 1.00430540740489959717e-01) (150, 1.68449282646179199219e-02) (151, -8.63657221198081970215e-02) (152, -5.69685027003288269043e-02) (153, -6.16567395627498626709e-02) (154, 5.82684986293315887451e-02) (155, -6.72117844223976135254e-02) (156, -6.16160705685615539551e-02) (157, 7.05024003982543945312e-02) (158, 3.07329706847667694092e-02) (159, -4.25806902348995208740e-02) (160, 7.07362219691276550293e-02) (161, 9.16333198547363281250e-02) (162, -1.28688402473926544189e-02) (163, -5.15846721827983856201e-03) (164, 8.72930213809013366699e-02) (165, 5.54084330797195434570e-02) (166, -2.09061857312917709351e-02) (167, 2.42164209485054016113e-02) (168, -4.23532240092754364014e-02) (169, -7.49554038047790527344e-02) (170, 1.88554804772138595581e-02) (171, 3.87712717056274414062e-02) (172, 6.40375763177871704102e-02) (173, 1.20598450303077697754e-02) (174, 5.27995303273200988770e-02) (175, -1.32456375285983085632e-02) (176, -2.51888222992420196533e-02) (177, 9.55517739057540893555e-02) (178, 1.02922521531581878662e-01) (179, -7.94409736990928649902e-02) (180, 1.03769525885581970215e-01) (181, 5.08400760591030120850e-02) (182, 1.07547165825963020325e-02) (183, -8.03425982594490051270e-02) (184, 1.60283163189888000488e-01) (185, -4.06700149178504943848e-02) (186, 2.09545213729143142700e-02) (187, -3.65216769278049468994e-02) (188, -1.31274506449699401855e-01) (189, -2.46776565909385681152e-02) (190, 9.29184034466743469238e-02) (191, 9.88779067993164062500e-02) (192, -8.54457914829254150391e-02) (193, 6.36642053723335266113e-02) (194, -2.57035717368125915527e-02) (195, -1.72893524169921875000e-01) (196, -1.68722033500671386719e-01) (197, -2.93805420398712158203e-01) (198, 2.22080349922180175781e-02) (199, 7.50834122300148010254e-02) (200, 7.96753987669944763184e-02) (201, -5.88911436498165130615e-02) (202, 9.98041778802871704102e-03) (203, 3.98681983351707458496e-02) (204, 5.31687065958976745605e-02) (205, -3.72200682759284973145e-02) (206, -7.33243301510810852051e-02) (207, 7.17045739293098449707e-02) (208, 6.29607617855072021484e-01) (209, 3.70223373174667358398e-01) (210, -4.86190207302570343018e-02) (211, -8.83268937468528747559e-02) (212, -3.21585610508918762207e-02) (213, 4.46916595101356506348e-02) (214, -8.03196281194686889648e-02) (215, -3.59514430165290832520e-02) (216, 9.43466499447822570801e-02) (217, 2.92901769280433654785e-02) (218, -5.23437559604644775391e-03) (219, -9.32475179433822631836e-02) (220, 5.80196008086204528809e-02) (221, 8.09796825051307678223e-02) (222, 8.81438329815864562988e-02) (223, 7.25738182663917541504e-02) (224, 4.46438863873481750488e-02) (225, -3.75597365200519561768e-02) (226, 7.44210556149482727051e-02) (227, -3.82058396935462951660e-02) (228, -8.41553136706352233887e-02) (229, -3.37092578411102294922e-03) (230, -6.31224289536476135254e-02) (231, 9.55200865864753723145e-02) (232, 3.77379283308982849121e-02) (233, 4.68579903244972229004e-02) (234, 3.53882983326911926270e-02) (235, -9.09335911273956298828e-03) (236, -9.03620794415473937988e-02) (237, 6.20639547705650329590e-02) (238, -3.73887866735458374023e-02) (239, -4.94765713810920715332e-02) (240, 5.09000495076179504395e-02) (241, 1.39921903610229492188e-02) (242, -3.78034599125385284424e-02) (243, -8.12585130333900451660e-02) (244, -4.13161404430866241455e-02) (245, -1.81230902671813964844e-02) (246, -1.72099545598030090332e-02) (247, -4.69694919884204864502e-02) (248, -8.88329148292541503906e-02) (249, 7.75556787848472595215e-02) (250, -4.02170084416866302490e-02) (251, 6.91866949200630187988e-02) (252, 5.85353597998619079590e-02) (253, -5.20731694996356964111e-02) (254, 4.17605116963386535645e-02) (255, 3.17922979593276977539e-03) (256, -2.56107658147811889648e-01) (0, 1.61815658211708068848e-02) (1, 6.49733915925025939941e-02) (2, 2.62117907404899597168e-02) (3, -8.71893614530563354492e-02) (4, -9.81490388512611389160e-02) (5, 2.17318683862686157227e-02) (6, 5.05485758185386657715e-02) (7, 4.87089529633522033691e-02) (8, -4.28798459470272064209e-02) (9, -5.85447922348976135254e-02) (10, 5.83468750119209289551e-02) (11, -8.08158889412879943848e-02) (12, 4.06642258167266845703e-03) (13, -9.11296978592872619629e-02) (14, 7.00841620564460754395e-02) (15, -8.19413810968399047852e-02) (16, -2.89331525564193725586e-02) (17, 8.88256505131721496582e-02) (18, -2.32575237751007080078e-02) (19, 5.29437586665153503418e-02) (20, -2.83843129873275756836e-02) (21, 2.97729894518852233887e-02) (22, 6.41108378767967224121e-02) (23, -5.08286319673061370850e-02) (24, 8.95559862256050109863e-02) (25, 3.32975462079048156738e-02) (26, -9.22932773828506469727e-02) (27, -6.25171810388565063477e-02) (28, -2.49419510364532470703e-02) (29, 1.08859539031982421875e-02) (30, 4.78499159216880798340e-02) (31, 9.12396088242530822754e-02) (32, -2.41406559944152832031e-02) (33, -2.59383022785186767578e-02) (34, -9.59497541189193725586e-02) (35, -2.22896859049797058105e-02) (36, 9.57935675978660583496e-02) (37, 5.45988157391548156738e-02) (38, -7.35807418823242187500e-02) (39, -4.70862761139869689941e-02) (40, 9.60540249943733215332e-02) (41, 8.47661420702934265137e-02) (42, -2.79021635651588439941e-02) (43, 1.20446085929870605469e-04) (44, 9.36364307999610900879e-02) (45, -5.78180067241191864014e-02) (46, 1.81790739297866821289e-02) (47, -3.52967232465744018555e-02) (48, -6.89923614263534545898e-02) (49, 9.49215367436408996582e-02) (50, -8.23529660701751708984e-02) (51, 2.62333452701568603516e-03) (52, 2.46945247054100036621e-02) (53, 8.17578807473182678223e-02) (54, 5.17947152256965637207e-02) (55, 1.42505168914794921875e-02) (56, 1.50554180145263671875e-02) (57, 5.95014318823814392090e-02) (58, 5.17333224415779113770e-02) (59, 9.01134684681892395020e-02) (60, -2.96126157045364379883e-02) (61, -4.16763126850128173828e-04) (62, 8.13530758023262023926e-02) (63, 4.62467297911643981934e-02) (64, 7.36449435353279113770e-02) (65, 8.54033157229423522949e-02) (66, -7.60429576039314270020e-02) (67, 6.94385096430778503418e-02) (68, 4.00021299719810485840e-02) (69, -4.96236979961395263672e-02) (70, -7.76477679610252380371e-02) (71, 3.60561683773994445801e-02) (72, -6.48575648665428161621e-02) (73, -5.54993003606796264648e-03) (74, -6.38234019279479980469e-02) (75, -7.12211281061172485352e-02) (76, 3.66320684552192687988e-02) (77, 5.43556734919548034668e-02) (78, -6.51784986257553100586e-03) (79, 6.76397159695625305176e-02) (80, 4.92772087454795837402e-02) (81, 1.11291781067848205566e-02) (82, -2.97369509935379028320e-02) (83, -2.60282605886459350586e-02) (84, -7.11294263601303100586e-03) (85, -7.79422521591186523438e-02) (86, 8.82222577929496765137e-02) (87, -9.20575335621833801270e-02) (88, 8.15591886639595031738e-02) (89, 3.99555787444114685059e-02) (90, 9.80559363961219787598e-02) (91, -4.80534397065639495850e-02) (92, -6.04611746966838836670e-02) (93, 7.94090107083320617676e-02) (94, 9.81932953000068664551e-02) (95, -8.68162363767623901367e-02) (96, 6.48123100399971008301e-02) (97, 2.15146522969007492065e-02) (98, 1.51863902807235717773e-01) (99, 1.21860869228839874268e-01) (100, -1.01775843650102615356e-02) (101, -5.37364244461059570312e-01) (102, -2.00976178050041198730e-01) (103, -2.29354258626699447632e-02) (104, -1.77697628736495971680e-01) (105, 1.44295275211334228516e-01) (106, 2.04368546605110168457e-01) (107, 2.05011963844299316406e-01) (108, -3.34160029888153076172e-01) (109, -4.34612203389406204224e-03) (110, -2.53543615341186523438e-01) (111, 1.14129610359668731689e-01) (112, 9.56913456320762634277e-02) (113, -5.95373697578907012939e-02) (114, -2.90286362171173095703e-01) (115, -3.24358016252517700195e-01) (116, -3.67987602949142456055e-01) (117, -2.37936437129974365234e-01) (118, -1.83333992958068847656e-01) (119, 2.87940263748168945312e-01) (120, 6.16683810949325561523e-02) (121, 1.25108659267425537109e-01) (122, 5.47941982746124267578e-01) (123, -7.76315107941627502441e-02) (124, -8.06462690234184265137e-02) (125, 2.77161672711372375488e-02) (126, -6.44477456808090209961e-02) (127, 8.41660425066947937012e-02) (128, 3.49755398929119110107e-02) (129, -1.06642924249172210693e-01) (130, 1.54894396662712097168e-01) (131, -8.94959717988967895508e-02) (132, -4.79050613939762115479e-02) (133, 1.03085659444332122803e-01) (134, 2.80560124665498733521e-02) (135, 5.02270385622978210449e-02) (136, -9.50603783130645751953e-02) (137, -3.44694741070270538330e-02) (138, 5.86302503943443298340e-02) (139, -6.76925331354141235352e-02) (140, -1.75271686166524887085e-02) (141, 6.13484382629394531250e-02) (142, -8.49799215793609619141e-02) (143, -7.04881250858306884766e-02) (144, -6.67282193899154663086e-02) (145, -2.73538101464509963989e-02) (146, -3.05603276938199996948e-02) (147, 3.13133262097835540771e-02) (148, 1.35009344667196273804e-02) (149, 9.32964775711297988892e-03) (150, -9.01205465197563171387e-02) (151, -6.63205981254577636719e-04) (152, 5.02771660685539245605e-02) (153, 1.34882420301437377930e-01) (154, 2.07150820642709732056e-02) (155, 1.57461002469062805176e-01) (156, -3.48722301423549652100e-02) (157, 5.32466247677803039551e-02) (158, 5.08073307573795318604e-02) (159, -8.40619429945945739746e-02) (160, 5.80078102648258209229e-02) (161, -5.72342276573181152344e-02) (162, -6.56150728464126586914e-02) (163, 9.75341424345970153809e-02) (164, 7.56307318806648254395e-02) (165, 6.83934167027473449707e-02) (166, 1.73646491020917892456e-02) (167, 7.67899230122566223145e-02) (168, -8.80886539816856384277e-02) (169, -1.02334484457969665527e-01) (170, -8.31922143697738647461e-02) (171, 3.03794406354427337646e-02) (172, -5.98791912198066711426e-02) (173, -6.01886361837387084961e-02) (174, 6.98903277516365051270e-02) (175, -2.19242796301841735840e-02) (176, -1.54139483347535133362e-02) (177, -6.76155760884284973145e-02) (178, -1.10199429094791412354e-01) (179, 9.83705930411815643311e-03) (180, 3.73793728649616241455e-02) (181, -1.16202823817729949951e-01) (182, 2.03051269054412841797e-02) (183, 1.99522916227579116821e-03) (184, 2.71538086235523223877e-02) (185, -5.39870858192443847656e-02) (186, -1.96802634745836257935e-02) (187, -9.48657616972923278809e-02) (188, -1.98018476366996765137e-02) (189, -8.64945575594902038574e-02) (190, -1.10670305788516998291e-01) (191, 7.47492462396621704102e-02) (192, -1.68377831578254699707e-02) (193, -1.65358558297157287598e-02) (194, 8.22643116116523742676e-02) (195, -9.39792618155479431152e-02) (196, 1.74927294254302978516e-01) (197, 4.18578088283538818359e-01) (198, -5.86780421435832977295e-02) (199, -1.11449509859085083008e-02) (200, 8.32039639353752136230e-02) (201, -3.78478951752185821533e-02) (202, -7.87541568279266357422e-02) (203, -7.46844857931137084961e-02) (204, 1.96347385644912719727e-03) (205, 9.11361649632453918457e-02) (206, 3.71304899454116821289e-03) (207, -8.45921263098716735840e-02) (208, -4.21086043119430541992e-01) (209, -1.29852890968322753906e-01) (210, -5.46405911445617675781e-02) (211, 8.71431902050971984863e-02) (212, 3.49938496947288513184e-02) (213, 7.46477320790290832520e-02) (214, -4.90657240152359008789e-03) (215, -5.02368062734603881836e-03) (216, -7.43586644530296325684e-02) (217, 7.56768062710762023926e-02) (218, 2.20772847533226013184e-02) (219, -6.61075264215469360352e-02) (220, -8.69406312704086303711e-02) (221, 6.61632791161537170410e-02) (222, -8.24243128299713134766e-02) (223, -3.77840548753738403320e-03) (224, -5.03725782036781311035e-02) (225, 9.98399928212165832520e-02) (226, 5.50145581364631652832e-02) (227, 2.53194570541381835938e-03) (228, 3.25901806354522705078e-03) (229, 9.63365063071250915527e-02) (230, 9.13869962096214294434e-02) (231, -1.35370269417762756348e-02) (232, -4.15113866329193115234e-02) (233, -8.73671695590019226074e-02) (234, 1.17784887552261352539e-02) (235, 6.04520812630653381348e-02) (236, -9.62310060858726501465e-02) (237, -8.45084637403488159180e-02) (238, 7.58599564433097839355e-02) (239, -6.37586712837219238281e-02) (240, 2.99052670598030090332e-02) (241, -7.87806361913681030273e-02) (242, -7.66154900193214416504e-02) (243, -3.51008921861648559570e-02) (244, 9.58671048283576965332e-02) (245, 1.84779390692710876465e-02) (246, 5.98754361271858215332e-02) (247, -7.84915760159492492676e-02) (248, -5.84524869918823242188e-03) (249, -1.80472806096076965332e-02) (250, -4.45990972220897674561e-02) (251, 7.21412897109985351562e-03) (252, -5.18840029835700988770e-02) (253, -2.70234048366546630859e-02) (254, -9.65642780065536499023e-02) (255, -2.25657969713211059570e-03) (256, -2.50037699937820434570e-01) (0, 5.84502741694450378418e-02) (1, -9.97246354818344116211e-02) (2, 7.60756060481071472168e-02) (3, 5.47867789864540100098e-02) (4, 9.16623547673225402832e-02) (5, -3.74614223837852478027e-02) (6, -8.67246165871620178223e-02) (7, -9.57048088312149047852e-02) (8, 7.43170604109764099121e-02) (9, 7.37274661660194396973e-02) (10, -9.19358134269714355469e-02) (11, 8.98085907101631164551e-02) (12, 4.95874211192131042480e-02) (13, -5.56944832205772399902e-02) (14, 1.97138562798500061035e-02) (15, 7.08067789673805236816e-02) (16, -3.23099717497825622559e-02) (17, 8.46129730343818664551e-02) (18, 6.66738823056221008301e-02) (19, 8.61679688096046447754e-02) (20, 4.44883927702903747559e-02) (21, 8.81823077797889709473e-02) (22, -1.96772739291191101074e-02) (23, -7.35588893294334411621e-02) (24, -5.64167946577072143555e-02) (25, 8.75368490815162658691e-02) (26, -2.54428833723068237305e-02) (27, 1.65598019957542419434e-02) (28, 9.09725651144981384277e-02) (29, 7.23005309700965881348e-02) (30, 8.93763974308967590332e-02) (31, 4.94228377938270568848e-02) (32, 7.25759044289588928223e-02) (33, 6.54519870877265930176e-02) (34, 4.20961529016494750977e-03) (35, 6.42382577061653137207e-02) (36, -7.20094293355941772461e-02) (37, 1.74850001931190490723e-02) (38, 6.85334578156471252441e-02) (39, -9.76923704147338867188e-02) (40, -8.78752768039703369141e-03) (41, 7.65976384282112121582e-02) (42, 9.21162292361259460449e-02) (43, -5.92001117765903472900e-02) (44, -7.90968388319015502930e-02) (45, 1.18300765752792358398e-02) (46, -8.83933305740356445312e-02) (47, -1.14068165421485900879e-02) (48, -3.55695188045501708984e-03) (49, 7.82805457711219787598e-02) (50, -2.52388417720794677734e-02) (51, -5.90685643255710601807e-02) (52, 6.64628520607948303223e-02) (53, 5.50838783383369445801e-02) (54, -3.26274484395980834961e-02) (55, -8.99539440870285034180e-02) (56, 4.26207259297370910645e-02) (57, 4.19296696782112121582e-02) (58, 2.66058519482612609863e-02) (59, 3.35933044552803039551e-02) (60, 1.42301917076110839844e-02) (61, 1.59822478890419006348e-02) (62, -1.69838592410087585449e-02) (63, -1.31939053535461425781e-02) (64, -1.85657590627670288086e-02) (65, 8.72257575392723083496e-02) (66, -4.89556491374969482422e-02) (67, 9.42480564117431640625e-03) (68, 4.71075624227523803711e-03) (69, -8.04221928119659423828e-02) (70, 1.17324441671371459961e-02) (71, 9.59232375025749206543e-02) (72, 9.61754396557807922363e-02) (73, 3.84867191314697265625e-03) (74, -6.32768869400024414062e-02) (75, -8.29214006662368774414e-02) (76, -8.43212530016899108887e-02) (77, -5.16702085733413696289e-02) (78, 5.67178428173065185547e-03) (79, 1.21217966079711914062e-02) (80, -7.33896642923355102539e-02) (81, 8.04329589009284973145e-02) (82, 5.30532225966453552246e-02) (83, 9.30731967091560363770e-02) (84, 3.55168208479881286621e-02) (85, -7.95742198824882507324e-02) (86, -9.68807637691497802734e-02) (87, -2.18624472618103027344e-02) (88, 6.23554363846778869629e-02) (89, 2.97250971198081970215e-02) (90, -8.82691442966461181641e-02) (91, -2.34143659472465515137e-02) (92, -5.42926602065563201904e-02) (93, -5.25300204753875732422e-03) (94, 6.33917376399040222168e-02) (95, 2.71415784955024719238e-02) (96, -1.80272459983825683594e-02) (97, 3.66180837154388427734e-01) (98, 3.13646644353866577148e-01) (99, 3.17045629024505615234e-01) (100, 1.21971257030963897705e-01) (101, -9.24823343753814697266e-01) (102, 5.26998519897460937500e-01) (103, 4.68323111534118652344e-01) (104, 1.38279986381530761719e+00) (105, 6.00535094738006591797e-01) (106, 8.12358111143112182617e-02) (107, 4.94029253721237182617e-01) (108, -7.29823291301727294922e-01) (109, 2.43636772036552429199e-01) (110, 2.55415499210357666016e-01) (111, 1.24059271812438964844e+00) (112, -1.84961825609207153320e-01) (113, -3.02848607301712036133e-01) (114, -1.47175773978233337402e-01) (115, -5.83946704864501953125e-01) (116, 1.34397119283676147461e-01) (117, -1.18340611457824707031e+00) (118, -3.26299756765365600586e-01) (119, 9.37313020229339599609e-01) (120, -2.12658628821372985840e-01) (121, 1.14530122280120849609e+00) (122, 6.71116292476654052734e-01) (123, -3.41051518917083740234e-02) (124, -4.64950911700725555420e-02) (125, 5.57598546147346496582e-02) (126, 9.30364206433296203613e-02) (127, 3.54776605963706970215e-02) (128, 1.79460011422634124756e-02) (129, -1.57629847526550292969e-01) (130, 1.33133202791213989258e-01) (131, -1.37710168957710266113e-01) (132, 1.12314797937870025635e-01) (133, 8.22686254978179931641e-02) (134, -7.26445615291595458984e-02) (135, -6.27105757594108581543e-02) (136, 1.71235967427492141724e-02) (137, -2.17960495501756668091e-02) (138, -2.12459266185760498047e-03) (139, 7.07974657416343688965e-02) (140, -1.14495068788528442383e-01) (141, -2.56667565554380416870e-02) (142, -2.79660634696483612061e-02) (143, 4.00487184524536132812e-02) (144, -9.97305288910865783691e-02) (145, 6.99223726987838745117e-02) (146, -7.01747313141822814941e-02) (147, 6.07204549014568328857e-02) (148, -4.67572398483753204346e-02) (149, 6.98229447007179260254e-02) (150, -1.99657380580902099609e-02) (151, -1.59794539213180541992e-02) (152, 3.20983678102493286133e-02) (153, 8.33087563514709472656e-02) (154, 4.64220456779003143311e-02) (155, 1.92038759589195251465e-01) (156, -7.89004564285278320312e-02) (157, 2.88722477853298187256e-02) (158, 1.04739116504788398743e-02) (159, 9.48405042290687561035e-02) (160, -9.74403545260429382324e-02) (161, -5.67925907671451568604e-02) (162, -1.15046955645084381104e-01) (163, 4.69249412417411804199e-02) (164, 5.85656240582466125488e-02) (165, -6.65505379438400268555e-02) (166, 4.03185598552227020264e-02) (167, -6.45896568894386291504e-02) (168, -2.28197544813156127930e-01) (169, -8.54094266891479492188e-01) (170, -6.72181844711303710938e-02) (171, 4.62044775485992431641e-02) (172, 4.91677671670913696289e-02) (173, 6.04482963681221008301e-02) (174, 2.12204903364181518555e-02) (175, 6.55880272388458251953e-02) (176, -6.75815716385841369629e-02) (177, 2.65149865299463272095e-02) (178, -4.20154072344303131104e-02) (179, 1.76109999418258666992e-01) (180, -1.90332625061273574829e-02) (181, -2.17800348997116088867e-01) (182, -4.99296113848686218262e-02) (183, -3.62615995109081268311e-02) (184, -1.31633147597312927246e-01) (185, -8.58897790312767028809e-02) (186, -4.25452217459678649902e-02) (187, -9.35374870896339416504e-02) (188, 1.25076204538345336914e-01) (189, -1.71348914504051208496e-01) (190, -1.82174682617187500000e-01) (191, 1.56644508242607116699e-02) (192, -3.37675139307975769043e-02) (193, 1.28058642148971557617e-02) (194, -2.44931131601333618164e-03) (195, -1.38710510730743408203e+00) (196, 3.13017785549163818359e-01) (197, 4.70100760459899902344e-01) (198, 7.46151059865951538086e-03) (199, -3.15927863121032714844e-02) (200, 5.64370080828666687012e-02) (201, 8.18823799490928649902e-02) (202, -7.83517658710479736328e-02) (203, 1.26413106918334960938e-02) (204, 4.23306897282600402832e-02) (205, 4.28687408566474914551e-02) (206, -2.03296691179275512695e-02) (207, -2.38503962755203247070e-02) (208, -1.24145090579986572266e+00) (209, -5.95901370048522949219e-01) (210, -2.61984393000602722168e-02) (211, -5.70563077926635742188e-02) (212, -7.77337998151779174805e-02) (213, 5.54740652441978454590e-02) (214, 2.75831297039985656738e-02) (215, 5.98365068435668945312e-03) (216, 8.70619788765907287598e-02) (217, -9.16185975074768066406e-02) (218, -8.21366533637046813965e-02) (219, 6.16017058491706848145e-02) (220, -7.91838020086288452148e-02) (221, 2.81012132763862609863e-02) (222, 8.69610160589218139648e-03) (223, -1.29513218998908996582e-02) (224, -5.90929202735424041748e-02) (225, -9.37532037496566772461e-02) (226, 1.18467807769775390625e-02) (227, 9.06800851225852966309e-02) (228, -1.56970620155334472656e-02) (229, -8.06916952133178710938e-02) (230, -4.09126989543437957764e-02) (231, -5.92600554227828979492e-02) (232, -9.88093242049217224121e-02) (233, -1.92644670605659484863e-02) (234, 5.33812567591667175293e-02) (235, 4.35213521122932434082e-02) (236, -7.63957351446151733398e-02) (237, -6.69484138488769531250e-02) (238, -8.03290456533432006836e-02) (239, 2.45624631643295288086e-02) (240, -5.59972785413265228271e-02) (241, -6.52748346328735351562e-03) (242, 6.75061568617820739746e-02) (243, -3.37310805916786193848e-02) (244, -5.10534197092056274414e-02) (245, -4.91072237491607666016e-03) (246, 7.22525790333747863770e-02) (247, -6.39914423227310180664e-02) (248, 3.47068160772323608398e-03) (249, 9.01159122586250305176e-02) (250, 9.76102724671363830566e-02) (251, 2.42868885397911071777e-02) (252, 1.82171314954757690430e-02) (253, 6.30637258291244506836e-03) (254, -8.86644348502159118652e-02) (255, 5.91242238879203796387e-02) (256, -1.50531288236379623413e-02) (0, 2.31823474168777465820e-02) (1, 4.98042926192283630371e-02) (2, 9.68561246991157531738e-02) (3, 4.24906536936759948730e-02) (4, -9.11084040999412536621e-02) (5, -6.24039433896541595459e-02) (6, 4.36813309788703918457e-02) (7, -1.03728622198104858398e-02) (8, 9.09773185849189758301e-02) (9, -1.27973109483718872070e-02) (10, 1.32313966751098632812e-02) (11, -7.59710967540740966797e-02) (12, 6.87364488840103149414e-03) (13, -6.22061416506767272949e-02) (14, -3.19683700799942016602e-02) (15, -9.96538400650024414062e-02) (16, -9.46999862790107727051e-02) (17, 3.43005582690238952637e-02) (18, -5.07072620093822479248e-02) (19, 3.89300286769866943359e-04) (20, 6.55312836170196533203e-03) (21, -1.46987065672874450684e-02) (22, -9.61400121450424194336e-02) (23, -3.33096086978912353516e-03) (24, -1.70884281396865844727e-02) (25, 2.81468704342842102051e-02) (26, -8.51138308644294738770e-02) (27, 8.92179533839225769043e-02) (28, 3.94824370741844177246e-02) (29, 7.40103796124458312988e-02) (30, 1.77111476659774780273e-03) (31, -3.73352169990539550781e-02) (32, 2.38146930932998657227e-02) (33, -1.37276947498321533203e-03) (34, -9.48445647954940795898e-02) (35, 3.27062830328941345215e-02) (36, 3.62232998013496398926e-02) (37, 4.88367751240730285645e-02) (38, -7.76665881276130676270e-02) (39, 2.72006019949913024902e-02) (40, -6.39605522155761718750e-02) (41, 3.55648174881935119629e-02) (42, 5.12295141816139221191e-02) (43, 4.29131016135215759277e-02) (44, 7.33586624264717102051e-02) (45, -8.07388648390769958496e-02) (46, 4.32592555880546569824e-02) (47, 7.86586925387382507324e-02) (48, 5.35616949200630187988e-02) (49, 9.25519987940788269043e-02) (50, -2.09520161151885986328e-02) (51, -3.98851931095123291016e-02) (52, -2.21467092633247375488e-02) (53, -1.70920342206954956055e-02) (54, 5.67838475108146667480e-02) (55, 6.07648566365242004395e-02) (56, -8.89451578259468078613e-02) (57, 7.16700181365013122559e-02) (58, 4.99827936291694641113e-02) (59, 5.05372807383537292480e-02) (60, 4.56804111599922180176e-02) (61, -4.82460819184780120850e-02) (62, -8.67979377508163452148e-02) (63, -3.05049046874046325684e-02) (64, 5.03811612725257873535e-02) (65, -8.16425010561943054199e-02) (66, -9.77986231446266174316e-02) (67, -1.33955553174018859863e-02) (68, 6.71942755579948425293e-02) (69, -7.54652097821235656738e-02) (70, -8.61949473619461059570e-02) (71, -9.67662781476974487305e-02) (72, 6.00996091961860656738e-02) (73, 6.50345757603645324707e-02) (74, 4.61468175053596496582e-02) (75, 3.34582701325416564941e-02) (76, 8.42956975102424621582e-02) (77, -1.05939209461212158203e-02) (78, 1.21169537305831909180e-02) (79, 3.78573909401893615723e-02) (80, -1.80419236421585083008e-02) (81, 9.11649540066719055176e-02) (82, 9.79721918702125549316e-02) (83, 5.98113611340522766113e-02) (84, -2.59270817041397094727e-02) (85, 5.47560378909111022949e-02) (86, 2.05762237310409545898e-02) (87, -1.48722380399703979492e-02) (88, 2.64260545372962951660e-02) (89, -2.94409766793251037598e-02) (90, -6.43349587917327880859e-02) (91, -2.78935357928276062012e-02) (92, 2.23129391670227050781e-02) (93, -5.11328950524330139160e-02) (94, 4.16015461087226867676e-02) (95, -2.73059010505676269531e-02) (96, -3.27753871679306030273e-02) (97, 7.77915567159652709961e-02) (98, 5.57464286684989929199e-02) (99, 5.89504130184650421143e-02) (100, 4.44145426154136657715e-02) (101, -3.18066835403442382812e-01) (102, -4.30730402469635009766e-01) (103, -1.87441065907478332520e-01) (104, -6.97235226631164550781e-01) (105, 1.54150217771530151367e-01) (106, 1.94168090820312500000e-01) (107, 2.96087682247161865234e-01) (108, -2.31231182813644409180e-01) (109, 1.26223951578140258789e-01) (110, -3.37071418762207031250e-01) (111, -2.67950803041458129883e-01) (112, 2.27527424693107604980e-01) (113, 1.02720577269792556763e-02) (114, -3.30826729536056518555e-01) (115, -2.93789833784103393555e-01) (116, -6.94950580596923828125e-01) (117, 1.82448197156190872192e-02) (118, -5.96627146005630493164e-02) (119, 2.56582975387573242188e-01) (120, 1.38412304222583770752e-02) (121, 2.24462021142244338989e-02) (122, 5.73648691177368164062e-01) (123, -7.15768709778785705566e-02) (124, -9.10896807909011840820e-02) (125, 5.31535521149635314941e-02) (126, 1.11722946166992187500e-03) (127, -2.38650664687156677246e-02) (128, -1.03739406913518905640e-02) (129, -5.17937391996383666992e-02) (130, 2.47258767485618591309e-01) (131, -4.05634939670562744141e-02) (132, -3.00743021070957183838e-02) (133, 1.43368050456047058105e-01) (134, 9.27719250321388244629e-02) (135, 1.14843465387821197510e-01) (136, 3.10217607766389846802e-02) (137, -4.48550954461097717285e-02) (138, -5.90859353542327880859e-03) (139, -9.77551564574241638184e-02) (140, -7.71948397159576416016e-02) (141, 5.39028383791446685791e-02) (142, 5.84106333553791046143e-02) (143, 9.08853486180305480957e-02) (144, -8.88370648026466369629e-02) (145, -2.51348800957202911377e-02) (146, -6.68920204043388366699e-02) (147, -7.48682543635368347168e-02) (148, 9.44388099014759063721e-03) (149, 5.64893335103988647461e-02) (150, 6.51111230254173278809e-02) (151, -8.29887911677360534668e-02) (152, 1.70275177806615829468e-02) (153, 1.97606042027473449707e-01) (154, -5.50456270575523376465e-02) (155, 1.35605141520500183105e-01) (156, 2.88384668529033660889e-02) (157, 4.45936247706413269043e-02) (158, -9.94165316224098205566e-02) (159, -7.37606808543205261230e-02) (160, -6.74473345279693603516e-02) (161, 1.26309115439653396606e-02) (162, -1.03643927723169326782e-02) (163, -5.99915720522403717041e-02) (164, -3.77055481076240539551e-02) (165, -1.46902259439229965210e-02) (166, -8.13196301460266113281e-02) (167, 9.98650789260864257812e-02) (168, 8.05073305964469909668e-02) (169, 1.36397466063499450684e-01) (170, 1.06049098074436187744e-01) (171, 7.01090842485427856445e-02) (172, -4.03432920575141906738e-02) (173, 5.98865374922752380371e-02) (174, 6.58828392624855041504e-02) (175, -2.67344638705253601074e-02) (176, -7.89165943861007690430e-02) (177, 9.55524221062660217285e-02) (178, -1.13241057842969894409e-02) (179, 1.51900127530097961426e-01) (180, 5.01057319343090057373e-02) (181, -5.40255606174468994141e-02) (182, 5.87635859847068786621e-02) (183, -2.60445959866046905518e-02) (184, -7.54045173525810241699e-02) (185, -9.38657149672508239746e-02) (186, -8.84435549378395080566e-02) (187, 6.87633603811264038086e-02) (188, 1.56983479857444763184e-01) (189, -1.03894755244255065918e-01) (190, 7.04678893089294433594e-02) (191, 5.77045120298862457275e-02) (192, 2.19067484140396118164e-02) (193, -1.06385424733161926270e-02) (194, -9.74113941192626953125e-02) (195, 4.14673715829849243164e-01) (196, 3.54243844747543334961e-01) (197, 4.36660796403884887695e-01) (198, 7.85014852881431579590e-02) (199, 1.65863409638404846191e-02) (200, 2.09685415029525756836e-02) (201, 7.80130997300148010254e-02) (202, -1.23479962348937988281e-02) (203, 8.15868750214576721191e-02) (204, 3.78996357321739196777e-02) (205, -4.64651659131050109863e-02) (206, -4.51487004756927490234e-02) (207, 7.31360390782356262207e-02) (208, -2.19670146703720092773e-01) (209, -1.69848836958408355713e-02) (210, 1.92734450101852416992e-02) (211, -8.81185531616210937500e-02) (212, -8.21775645017623901367e-02) (213, -1.75779312849044799805e-02) (214, -1.12333819270133972168e-02) (215, -4.14732992649078369141e-02) (216, -8.99495929479598999023e-03) (217, -6.94891065359115600586e-03) (218, -7.09523633122444152832e-02) (219, -5.38604222238063812256e-02) (220, 8.69795680046081542969e-04) (221, -7.36582651734352111816e-02) (222, -9.17585343122482299805e-02) (223, -7.72234499454498291016e-02) (224, 1.57032012939453125000e-02) (225, -8.91699269413948059082e-02) (226, -9.30222570896148681641e-02) (227, -9.13646072149276733398e-03) (228, -7.44370520114898681641e-02) (229, 8.54792371392250061035e-02) (230, -9.25501286983489990234e-02) (231, 4.65315058827400207520e-02) (232, 6.34923353791236877441e-02) (233, -4.89812344312667846680e-03) (234, 2.81183794140815734863e-02) (235, 1.39196962118148803711e-03) (236, 4.86367121338844299316e-02) (237, 8.29696729779243469238e-02) (238, -2.54719927906990051270e-02) (239, -9.78780239820480346680e-02) (240, 3.67509797215461730957e-02) (241, 9.38014462590217590332e-02) (242, -8.59965831041336059570e-02) (243, 5.45734241604804992676e-02) (244, -2.37764716148376464844e-02) (245, 2.77002900838851928711e-03) (246, -8.68998914957046508789e-02) (247, 6.72285631299018859863e-02) (248, 9.58211347460746765137e-02) (249, -5.78522495925426483154e-02) (250, -8.66318568587303161621e-02) (251, -3.30907851457595825195e-03) (252, -3.15105170011520385742e-02) (253, -7.83903896808624267578e-02) (254, 1.94674730300903320312e-02) (255, 8.41926857829093933105e-02) (256, -2.03942850232124328613e-01) (0, 2.64452174305915832520e-02) (1, -2.49437838792800903320e-02) (2, -4.19973693788051605225e-02) (3, 1.19244456291198730469e-02) (4, -1.74939110875129699707e-02) (5, -9.54658761620521545410e-02) (6, -2.45832130312919616699e-02) (7, 7.76079669594764709473e-02) (8, 3.26525047421455383301e-02) (9, 7.68087580800056457520e-02) (10, 2.62446776032447814941e-02) (11, 1.56221613287925720215e-02) (12, -4.86632362008094787598e-02) (13, 2.83666625618934631348e-02) (14, -4.76268716156482696533e-02) (15, -5.48617839813232421875e-02) (16, 4.23700883984565734863e-02) (17, -9.30534601211547851562e-02) (18, 2.13617458939552307129e-02) (19, -5.48598878085613250732e-02) (20, -7.99533426761627197266e-02) (21, -1.14096850156784057617e-02) (22, -5.90387620031833648682e-02) (23, -3.78055945038795471191e-02) (24, 1.95846706628799438477e-03) (25, 3.76521572470664978027e-02) (26, 3.06838825345039367676e-02) (27, 2.35680714249610900879e-02) (28, -4.28803749382495880127e-02) (29, 1.48765668272972106934e-02) (30, 5.60077503323554992676e-02) (31, 8.35648402571678161621e-02) (32, 8.99327918887138366699e-02) (33, -8.59896168112754821777e-02) (34, -4.51070815324783325195e-03) (35, -2.75611206889152526855e-02) (36, -8.14554914832115173340e-02) (37, 7.09060803055763244629e-02) (38, -4.99531589448451995850e-02) (39, 5.11969998478889465332e-02) (40, 4.77148368954658508301e-02) (41, 7.62915238738059997559e-02) (42, -3.31808328628540039062e-02) (43, 9.90516021847724914551e-02) (44, 4.65818494558334350586e-03) (45, 1.91923007369041442871e-02) (46, -5.58101870119571685791e-02) (47, -5.29717430472373962402e-02) (48, 2.61388495564460754395e-02) (49, 6.55515566468238830566e-02) (50, -7.83163309097290039062e-03) (51, 4.61855009198188781738e-02) (52, -4.58581261336803436279e-02) (53, 3.31296101212501525879e-02) (54, -9.16200950741767883301e-02) (55, 5.61003312468528747559e-02) (56, -2.92182341217994689941e-02) (57, 3.90638038516044616699e-02) (58, -2.03315988183021545410e-02) (59, 2.79014036059379577637e-02) (60, -4.60596345365047454834e-02) (61, -6.43238425254821777344e-02) (62, 1.14662423729896545410e-02) (63, -5.61268478631973266602e-02) (64, -5.03134615719318389893e-02) (65, -9.30444672703742980957e-02) (66, 1.63120254874229431152e-02) (67, -3.17689478397369384766e-02) (68, 7.78616145253181457520e-02) (69, 6.63588717579841613770e-02) (70, -8.05719420313835144043e-02) (71, 2.55764499306678771973e-02) (72, 4.26504090428352355957e-02) (73, -1.37527734041213989258e-02) (74, 2.46280431747436523438e-02) (75, -5.26914224028587341309e-02) (76, -9.45604816079139709473e-02) (77, 6.88178613781929016113e-02) (78, -5.66316395998001098633e-03) (79, 3.15783694386482238770e-02) (80, 3.43694165349006652832e-02) (81, 8.65052118897438049316e-02) (82, -2.22361385822296142578e-02) (83, 8.85112956166267395020e-02) (84, 1.96348056197166442871e-02) (85, -1.38562321662902832031e-02) (86, 4.46116104722023010254e-02) (87, 9.04165729880332946777e-02) (88, -7.47924372553825378418e-02) (89, -7.57199823856353759766e-02) (90, 1.83179751038551330566e-02) (91, -2.08520740270614624023e-02) (92, -4.00438308715820312500e-02) (93, -7.02157840132713317871e-02) (94, 2.30210795998573303223e-02) (95, 9.64270532131195068359e-03) (96, -6.32602572441101074219e-02) (97, -3.02966952323913574219e-01) (98, -8.25463607907295227051e-02) (99, -6.69946521520614624023e-03) (100, -2.67705202102661132812e-01) (101, -4.58926171064376831055e-01) (102, -7.71472930908203125000e-01) (103, -5.39114832878112792969e-01) (104, -1.81224083900451660156e+00) (105, -2.72912681102752685547e-01) (106, 4.39836025238037109375e-01) (107, 2.62276589870452880859e-01) (108, -2.58434802293777465820e-01) (109, -3.78038249909877777100e-02) (110, -7.79679298400878906250e-01) (111, -1.04961836338043212891e+00) (112, 2.86708116531372070312e-01) (113, 1.96245461702346801758e-01) (114, -6.03259205818176269531e-01) (115, -2.36372247338294982910e-01) (116, -1.10122311115264892578e+00) (117, 4.75375503301620483398e-01) (118, 4.86247092485427856445e-02) (119, -5.31957820057868957520e-02) (120, 8.03591236472129821777e-02) (121, -4.61510628461837768555e-01) (122, 9.10832047462463378906e-01) (123, 8.53521898388862609863e-02) (124, 3.46465781331062316895e-02) (125, -8.81488844752311706543e-02) (126, -5.00509887933731079102e-03) (127, 7.13863298296928405762e-02) (128, -8.53404216468334197998e-03) (129, 4.00176197290420532227e-02) (130, 5.35513460636138916016e-01) (131, -1.08912074938416481018e-02) (132, 2.01976224780082702637e-02) (133, 1.70379698276519775391e-01) (134, -8.94295200705528259277e-02) (135, 1.50043115019798278809e-01) (136, 9.62999463081359863281e-02) (137, -9.64037701487541198730e-02) (138, -5.72919026017189025879e-02) (139, -5.92833980917930603027e-02) (140, 2.84899920225143432617e-02) (141, -3.40498052537441253662e-02) (142, 1.03338114917278289795e-01) (143, 8.88660922646522521973e-02) (144, 6.96901455521583557129e-02) (145, 5.17567917704582214355e-02) (146, 6.88300281763076782227e-02) (147, 4.87540252506732940674e-02) (148, -4.17371802031993865967e-02) (149, 6.07953779399394989014e-02) (150, 5.57624772191047668457e-02) (151, 7.56045207381248474121e-02) (152, -3.70593294501304626465e-02) (153, 1.14029861986637115479e-01) (154, 6.36795014142990112305e-02) (155, 2.45051875710487365723e-01) (156, -3.81719805300235748291e-02) (157, -3.32739986479282379150e-02) (158, 7.70263895392417907715e-02) (159, 1.03210778906941413879e-02) (160, 1.30390793085098266602e-01) (161, 5.49597516655921936035e-02) (162, 7.79646560549736022949e-02) (163, 1.01714469492435455322e-01) (164, -2.69290879368782043457e-02) (165, 7.24463388323783874512e-02) (166, 7.71550536155700683594e-02) (167, -6.12689601257443428040e-03) (168, 2.18384921550750732422e-01) (169, 5.89238703250885009766e-01) (170, 1.33150825276970863342e-02) (171, -3.31661514937877655029e-02) (172, -3.59221994876861572266e-02) (173, -1.87746360898017883301e-02) (174, -7.12002217769622802734e-02) (175, -7.95402526855468750000e-02) (176, 8.23670905083417892456e-03) (177, 1.16477109491825103760e-01) (178, 1.22790776193141937256e-01) (179, 1.49434790015220642090e-01) (180, 8.81483703851699829102e-02) (181, 1.21529564261436462402e-01) (182, -1.96751896291971206665e-02) (183, 1.13259002566337585449e-01) (184, 1.55381500720977783203e-01) (185, -6.94660693407058715820e-02) (186, 1.30206659436225891113e-01) (187, -5.76721876859664916992e-03) (188, 1.63447514176368713379e-01) (189, 1.12106956541538238525e-01) (190, 1.78602755069732666016e-01) (191, -7.39552900195121765137e-02) (192, -5.46012818813323974609e-03) (193, -4.68985736370086669922e-03) (194, -9.91497337818145751953e-02) (195, 1.05807840824127197266e+00) (196, 3.48509132862091064453e-01) (197, 7.70304203033447265625e-01) (198, -6.83469772338867187500e-02) (199, -6.43750727176666259766e-02) (200, 4.89789620041847229004e-02) (201, 2.02902778983116149902e-02) (202, -2.92559713125228881836e-03) (203, -9.23276171088218688965e-02) (204, -9.84843596816062927246e-02) (205, 2.58741900324821472168e-02) (206, -7.20283836126327514648e-02) (207, -6.81664943695068359375e-02) (208, 9.72125172615051269531e-01) (209, 4.83898133039474487305e-01) (210, 1.23598948121070861816e-02) (211, -3.95475290715694427490e-02) (212, 1.64932981133460998535e-02) (213, 6.84907957911491394043e-02) (214, -4.23622690141201019287e-02) (215, -1.67721062898635864258e-02) (216, 8.55784043669700622559e-02) (217, -5.56455813348293304443e-02) (218, 6.40612840652465820312e-03) (219, -4.13823723793029785156e-02) (220, 9.19888690114021301270e-02) (221, -6.27877786755561828613e-02) (222, -3.95228676497936248779e-02) (223, -1.34712606668472290039e-02) (224, 3.25223729014396667480e-02) (225, -3.86726036667823791504e-02) (226, -4.58604693412780761719e-02) (227, 9.75551530718803405762e-02) (228, -8.51120352745056152344e-02) (229, -1.42074376344680786133e-02) (230, -6.68199285864830017090e-02) (231, 6.38669207692146301270e-02) (232, -9.39171686768531799316e-02) (233, 3.02544757723808288574e-02) (234, 7.15393051505088806152e-02) (235, -9.24015268683433532715e-02) (236, -4.38713431358337402344e-02) (237, 9.95109155774116516113e-02) (238, -6.05680160224437713623e-02) (239, 7.42807462811470031738e-02) (240, 9.38621386885643005371e-02) (241, 5.17918691039085388184e-02) (242, -6.52667880058288574219e-02) (243, 1.03554353117942810059e-02) (244, 2.02826634049415588379e-02) (245, -7.62905925512313842773e-03) (246, 9.35833379626274108887e-02) (247, 5.86106628179550170898e-03) (248, 3.67253646254539489746e-02) (249, -1.05351209640502929688e-05) (250, 6.44787028431892395020e-02) (251, 2.87142321467399597168e-02) (252, 3.72016951441764831543e-02) (253, -7.50441700220108032227e-02) (254, -8.47570374608039855957e-02) (255, -3.02759483456611633301e-02) (256, 2.78434246778488159180e-01) (0, -3.06174978613853454590e-02) (1, -3.27208042144775390625e-02) (2, 1.17119401693344116211e-03) (3, 5.51750585436820983887e-02) (4, 4.59276139736175537109e-04) (5, -3.49618867039680480957e-02) (6, 6.12578913569450378418e-02) (7, -6.92862495779991149902e-02) (8, -6.34225755929946899414e-02) (9, 6.88563659787178039551e-02) (10, -1.31575912237167358398e-02) (11, -6.39116466045379638672e-02) (12, -9.17116627097129821777e-02) (13, -3.88768613338470458984e-02) (14, -7.00495094060897827148e-02) (15, 6.00802227854728698730e-02) (16, -4.14364784955978393555e-03) (17, 4.03059199452400207520e-02) (18, -1.96371227502822875977e-02) (19, 8.82272943854331970215e-02) (20, 3.38892564177513122559e-02) (21, 8.62239524722099304199e-02) (22, 2.49526500701904296875e-02) (23, -6.61212801933288574219e-02) (24, 5.07026389241218566895e-02) (25, -4.63331229984760284424e-02) (26, 7.10804089903831481934e-02) (27, 7.56584629416465759277e-02) (28, -3.10901552438735961914e-02) (29, -5.91955333948135375977e-02) (30, -3.80583070218563079834e-02) (31, 3.82923558354377746582e-02) (32, 8.08366388082504272461e-03) (33, 6.31128773093223571777e-02) (34, -6.53259456157684326172e-03) (35, -9.14570614695549011230e-02) (36, -7.18489959836006164551e-02) (37, -4.52747121453285217285e-02) (38, -6.07433132827281951904e-02) (39, -3.52715700864791870117e-02) (40, -7.64183551073074340820e-02) (41, 2.60990932583808898926e-02) (42, 8.16777348518371582031e-04) (43, -6.81300163269042968750e-02) (44, 8.72222259640693664551e-02) (45, 3.07672694325447082520e-02) (46, 9.19502004981040954590e-02) (47, -1.69214159250259399414e-02) (48, -2.89268046617507934570e-02) (49, -2.76869162917137145996e-02) (50, -2.86941230297088623047e-02) (51, -9.50375422835350036621e-02) (52, -4.14629764854907989502e-02) (53, 9.62585285305976867676e-02) (54, -6.11588172614574432373e-02) (55, -9.07603353261947631836e-02) (56, -5.00745885074138641357e-02) (57, -9.00784060359001159668e-02) (58, 8.48981216549873352051e-02) (59, 1.88352614641189575195e-02) (60, -4.92739379405975341797e-02) (61, -5.31601794064044952393e-02) (62, -4.28723953664302825928e-02) (63, 5.88097348809242248535e-02) (64, -9.00472924113273620605e-02) (65, 5.05950078368186950684e-02) (66, 6.73526600003242492676e-02) (67, -6.18962906301021575928e-02) (68, -9.46797057986259460449e-02) (69, -9.33906435966491699219e-02) (70, 2.83213704824447631836e-03) (71, -7.10980594158172607422e-02) (72, 3.27084586024284362793e-02) (73, -9.63510870933532714844e-02) (74, -3.92280705273151397705e-02) (75, 1.99306830763816833496e-02) (76, 3.44161763787269592285e-02) (77, -4.72778677940368652344e-02) (78, -9.69907343387603759766e-02) (79, -9.45106223225593566895e-02) (80, 2.50352099537849426270e-02) (81, -2.56848558783531188965e-02) (82, -8.95481631159782409668e-02) (83, 8.35722312331199645996e-02) (84, -2.94263288378715515137e-02) (85, -5.07069788873195648193e-02) (86, 9.28118899464607238770e-02) (87, 2.04990878701210021973e-02) (88, -4.07853834331035614014e-02) (89, 7.77100399136543273926e-02) (90, -6.06656633317470550537e-02) (91, 9.94068384170532226562e-03) (92, -7.54501521587371826172e-02) (93, -3.53805720806121826172e-03) (94, -3.12495902180671691895e-02) (95, -6.54974430799484252930e-02) (96, -5.29430471360683441162e-02) (97, -8.24707895517349243164e-02) (98, 5.60388788580894470215e-02) (99, -1.33381381630897521973e-01) (100, -3.72385308146476745605e-02) (101, -8.47504287958145141602e-03) (102, 3.90538096427917480469e-01) (103, 3.75389426946640014648e-01) (104, 1.04502296447753906250e+00) (105, 6.83688893914222717285e-02) (106, -1.73320040106773376465e-01) (107, -9.29525792598724365234e-02) (108, 2.72697452455759048462e-02) (109, -3.46101187169551849365e-02) (110, 2.23076164722442626953e-01) (111, 5.24081230163574218750e-01) (112, -1.54091909527778625488e-01) (113, -1.07298351824283599854e-01) (114, 1.77908584475517272949e-01) (115, -9.23145413398742675781e-02) (116, 5.29895424842834472656e-01) (117, -4.32903766632080078125e-01) (118, 2.12019830942153930664e-02) (119, -2.01093368232250213623e-02) (120, -7.02719166874885559082e-02) (121, 1.97926983237266540527e-01) (122, -3.73637735843658447266e-01) (123, -1.54753029346466064453e-03) (124, -4.54977154731750488281e-04) (125, -8.33565592765808105469e-02) (126, 3.29550281167030334473e-02) (127, 4.66019734740257263184e-02) (128, -4.00310978293418884277e-02) (129, -8.24567452073097229004e-02) (130, -4.05477024614810943604e-02) (131, 1.20335968676954507828e-03) (132, 5.85688240826129913330e-02) (133, -7.76763483881950378418e-02) (134, -2.81928461045026779175e-02) (135, 3.53722572326660156250e-02) (136, -7.66940042376518249512e-02) (137, 6.66869282722473144531e-02) (138, -2.64094918966293334961e-02) (139, -8.00269246101379394531e-02) (140, -2.88374926894903182983e-02) (141, 9.30091589689254760742e-02) (142, 3.87759394943714141846e-02) (143, -5.89053742587566375732e-02) (144, 2.34135203063488006592e-02) (145, -5.92162758111953735352e-02) (146, -1.85547973960638046265e-02) (147, 1.22649339027702808380e-03) (148, 3.78505662083625793457e-02) (149, -5.39077594876289367676e-02) (150, 3.87181714177131652832e-02) (151, -8.96328687667846679688e-02) (152, -5.12490905821323394775e-02) (153, -8.77375900745391845703e-02) (154, 9.29084047675132751465e-03) (155, -1.95062141865491867065e-02) (156, 4.17590653523802757263e-03) (157, -5.63846156001091003418e-02) (158, -3.73944942839443683624e-03) (159, 5.64839728176593780518e-02) (160, -1.20078273117542266846e-01) (161, -6.14186422899365425110e-03) (162, -4.62378747761249542236e-02) (163, -7.12391883134841918945e-02) (164, 7.27343186736106872559e-02) (165, 2.28014271706342697144e-02) (166, 7.19463452696800231934e-02) (167, 7.94835686683654785156e-02) (168, -1.12309582531452178955e-01) (169, -3.77445489168167114258e-01) (170, -1.04895897209644317627e-01) (171, 5.40865696966648101807e-02) (172, -4.44805808365345001221e-02) (173, 4.90178540349006652832e-02) (174, 9.04319211840629577637e-02) (175, 7.60783851146697998047e-02) (176, 1.03068903088569641113e-01) (177, -2.48245503753423690796e-02) (178, -1.25702451914548873901e-02) (179, -3.82433719933032989502e-02) (180, 2.27427184581756591797e-02) (181, -6.61934986710548400879e-02) (182, 4.03365828096866607666e-02) (183, 6.54573887586593627930e-02) (184, 1.84228476136922836304e-02) (185, -5.26852607727050781250e-02) (186, 6.81635178625583648682e-03) (187, -1.04374870657920837402e-01) (188, -7.34588801860809326172e-02) (189, -8.55908468365669250488e-02) (190, 8.80558341741561889648e-02) (191, 3.83421108126640319824e-02) (192, -4.56647574901580810547e-03) (193, -8.65643024444580078125e-02) (194, 6.23871758580207824707e-02) (195, -6.76055908203125000000e-01) (196, -1.36239677667617797852e-01) (197, -2.70938634872436523438e-01) (198, -3.67883071303367614746e-02) (199, -7.56529197096824645996e-02) (200, -8.71770530939102172852e-02) (201, -2.46616974472999572754e-02) (202, 7.75107517838478088379e-02) (203, -3.25805321335792541504e-02) (204, -7.56438523530960083008e-02) (205, 6.79426714777946472168e-02) (206, -5.59559203684329986572e-02) (207, -8.63540917634963989258e-02) (208, 1.06986865401268005371e-01) (209, 9.04352292418479919434e-02) (210, 3.94001826643943786621e-02) (211, 5.41089400649070739746e-02) (212, 3.75431105494499206543e-02) (213, -2.44784206151962280273e-02) (214, 1.66750997304916381836e-02) (215, -5.97371123731136322021e-02) (216, 2.04625874757766723633e-02) (217, -7.38639980554580688477e-02) (218, -5.37626855075359344482e-02) (219, -9.28217768669128417969e-02) (220, -7.09063932299613952637e-02) (221, -9.17871072888374328613e-02) (222, 4.12297919392585754395e-02) (223, 2.45271325111389160156e-02) (224, -7.83514082431793212891e-02) (225, 3.61696630716323852539e-03) (226, 9.26949754357337951660e-02) (227, 5.74242696166038513184e-02) (228, -4.55732308328151702881e-02) (229, -4.40933369100093841553e-02) (230, 8.17713513970375061035e-02) (231, -3.27502787113189697266e-02) (232, 3.12449708580970764160e-02) (233, 5.92821016907691955566e-02) (234, 3.46691980957984924316e-02) (235, 5.56011125445365905762e-02) (236, 2.72247716784477233887e-02) (237, 7.87132754921913146973e-02) (238, 6.92470148205757141113e-02) (239, 6.61172494292259216309e-02) (240, 1.47782266139984130859e-04) (241, 8.64720344543457031250e-03) (242, 2.02261805534362792969e-02) (243, -6.23091123998165130615e-02) (244, 8.41687843203544616699e-02) (245, -6.30987137556076049805e-02) (246, -2.20462232828140258789e-02) (247, 4.63137775659561157227e-03) (248, -3.69627028703689575195e-02) (249, 2.41910964250564575195e-02) (250, 1.18096023797988891602e-02) (251, -7.86909461021423339844e-03) (252, 3.24039831757545471191e-02) (253, -4.69606220722198486328e-02) (254, -8.33419635891914367676e-02) (255, 5.40525838732719421387e-02) (256, -1.90626636147499084473e-01) (0, -9.06469896435737609863e-02) (1, 1.14768594503402709961e-02) (2, -8.89168903231620788574e-02) (3, -3.47403213381767272949e-02) (4, -6.75179064273834228516e-03) (5, -2.16671675443649291992e-02) (6, 9.65046361088752746582e-02) (7, -4.74696867167949676514e-02) (8, -8.69979783892631530762e-02) (9, 5.21057620644569396973e-02) (10, 7.97550752758979797363e-02) (11, 9.17152985930442810059e-02) (12, 2.13527828454971313477e-02) (13, 4.58723232150077819824e-02) (14, -8.13691318035125732422e-03) (15, -7.00000301003456115723e-02) (16, -3.39014977216720581055e-02) (17, 2.95539721846580505371e-02) (18, -8.58312472701072692871e-02) (19, 2.99979746341705322266e-03) (20, -9.24922525882720947266e-02) (21, 1.88001245260238647461e-02) (22, 6.60370811820030212402e-02) (23, 3.16988453269004821777e-02) (24, -6.93902820348739624023e-02) (25, -4.18320111930370330811e-02) (26, -3.58971655368804931641e-02) (27, -1.63509026169776916504e-02) (28, -2.51739770174026489258e-02) (29, -8.18445831537246704102e-02) (30, -5.96945658326148986816e-02) (31, -1.58209651708602905273e-02) (32, 2.96322777867317199707e-02) (33, -4.86114583909511566162e-02) (34, 4.94387224316596984863e-02) (35, -7.71195143461227416992e-02) (36, 2.97213718295097351074e-02) (37, 4.59433570504188537598e-02) (38, -2.45892032980918884277e-02) (39, 4.27233949303627014160e-02) (40, -1.95088237524032592773e-03) (41, -4.48341332376003265381e-02) (42, 3.44386920332908630371e-02) (43, -8.05981084704399108887e-02) (44, -9.89618152379989624023e-02) (45, -7.36982226371765136719e-02) (46, -5.05981408059597015381e-02) (47, -3.28633040189743041992e-02) (48, 5.58557584881782531738e-02) (49, -3.64293828606605529785e-02) (50, 7.01364949345588684082e-02) (51, 6.33634999394416809082e-02) (52, 8.23707506060600280762e-02) (53, 3.61735746264457702637e-02) (54, -4.93764877319335937500e-03) (55, -8.70195329189300537109e-02) (56, 9.43415686488151550293e-02) (57, 5.91651871800422668457e-02) (58, -3.37044149637222290039e-03) (59, -3.08324098587036132812e-02) (60, 7.73205980658531188965e-02) (61, 3.69349941611289978027e-02) (62, 5.33466264605522155762e-02) (63, 6.95286691188812255859e-03) (64, 8.83235409855842590332e-02) (65, 2.78533995151519775391e-03) (66, 2.98333540558815002441e-02) (67, 1.80449113249778747559e-02) (68, -5.12713007628917694092e-02) (69, -9.47558507323265075684e-02) (70, -3.92316877841949462891e-02) (71, 4.67778220772743225098e-02) (72, -3.95899824798107147217e-02) (73, 9.52070131897926330566e-02) (74, 6.61797001957893371582e-02) (75, -3.85517962276935577393e-02) (76, -7.84912109375000000000e-02) (77, -8.44184309244155883789e-02) (78, 2.85849049687385559082e-02) (79, 7.73645415902137756348e-02) (80, -2.08478122949600219727e-02) (81, -1.27862393856048583984e-03) (82, 4.07280400395393371582e-02) (83, -3.84770706295967102051e-02) (84, -6.51050508022308349609e-02) (85, -6.42096027731895446777e-02) (86, -2.54966020584106445312e-02) (87, -7.07634836435317993164e-02) (88, 9.49555858969688415527e-02) (89, 7.11329653859138488770e-02) (90, -1.59589946269989013672e-03) (91, 7.22761824727058410645e-02) (92, 8.06795060634613037109e-03) (93, -4.82492744922637939453e-02) (94, -2.07709446549415588379e-02) (95, -3.60850244760513305664e-03) (96, 5.45360669493675231934e-02) (97, -4.41739261150360107422e-01) (98, -1.84397131204605102539e-01) (99, -3.36179226636886596680e-01) (100, -2.09967687726020812988e-01) (101, 8.92079770565032958984e-02) (102, 2.53158003091812133789e-01) (103, 2.07703802734613418579e-02) (104, 3.06450277566909790039e-01) (105, -3.66015851497650146484e-01) (106, -2.00405716896057128906e-01) (107, -3.54497909545898437500e-01) (108, 1.79796203970909118652e-01) (109, -2.00271174311637878418e-01) (110, -2.26721148937940597534e-02) (111, -2.32091233134269714355e-01) (112, -1.17057055234909057617e-01) (113, -9.36891585588455200195e-02) (114, 9.82220023870468139648e-02) (115, 1.77720203995704650879e-01) (116, 2.59893089532852172852e-01) (117, 3.80578786134719848633e-02) (118, 2.10089925676584243774e-02) (119, -4.24882173538208007812e-01) (120, 2.55435928702354431152e-02) (121, -1.61293685436248779297e-01) (122, -7.75867283344268798828e-01) (123, -7.38167017698287963867e-02) (124, 7.77573511004447937012e-02) (125, -7.73567706346511840820e-03) (126, 2.25747972726821899414e-02) (127, 3.22934165596961975098e-02) (128, 5.79681769013404846191e-02) (129, 1.31365671753883361816e-01) (130, -9.11335200071334838867e-02) (131, 6.09419159591197967529e-02) (132, -1.25790148973464965820e-01) (133, -1.00779935717582702637e-01) (134, 9.78654175996780395508e-02) (135, -2.65968833118677139282e-02) (136, -9.06490385532379150391e-02) (137, 3.02884615957736968994e-02) (138, 7.45481774210929870605e-02) (139, 5.62623590230941772461e-02) (140, 1.44052743911743164062e-01) (141, -5.24071156978607177734e-02) (142, 5.96676282584667205811e-02) (143, 8.49190950393676757812e-02) (144, -3.48610542714595794678e-02) (145, -7.91795179247856140137e-02) (146, 6.06167726218700408936e-02) (147, 3.41152749024331569672e-03) (148, 7.53049179911613464355e-02) (149, 9.57221761345863342285e-02) (150, 4.04089167714118957520e-02) (151, -1.78403258323669433594e-02) (152, 1.79943609982728958130e-02) (153, -6.95521757006645202637e-02) (154, 1.21109532192349433899e-02) (155, -1.22085087001323699951e-01) (156, -4.67823483049869537354e-02) (157, -5.40296770632266998291e-02) (158, -6.06839247047901153564e-02) (159, 5.07886558771133422852e-02) (160, 6.99341148138046264648e-02) (161, 6.35796859860420227051e-02) (162, -1.85255482792854309082e-02) (163, 8.38909074664115905762e-02) (164, -6.20797798037528991699e-02) (165, -4.32281829416751861572e-02) (166, -3.75335440039634704590e-02) (167, -5.30398972332477569580e-02) (168, 7.71696493029594421387e-02) (169, -7.12679922580718994141e-02) (170, 7.30997398495674133301e-02) (171, 7.83041939139366149902e-02) (172, -1.13217374309897422791e-02) (173, 1.79531797766685485840e-02) (174, 2.55327597260475158691e-02) (175, 3.49115990102291107178e-02) (176, 1.44467011094093322754e-01) (177, 1.25492485240101814270e-02) (178, 1.39080118387937545776e-02) (179, -8.86224582791328430176e-02) (180, 2.32697036117315292358e-02) (181, 2.14715987443923950195e-01) (182, 1.15126229822635650635e-01) (183, 8.87193307280540466309e-02) (184, 1.53012230992317199707e-01) (185, 8.41811858117580413818e-03) (186, -2.43663955479860305786e-02) (187, 1.37792289257049560547e-01) (188, -3.69941219687461853027e-02) (189, 5.78437671065330505371e-02) (190, 2.28646501898765563965e-01) (191, 2.23707947880029678345e-02) (192, -8.04028585553169250488e-02) (193, 8.39155390858650207520e-02) (194, -3.14462631940841674805e-02) (195, -1.71099305152893066406e-01) (196, -3.54424625635147094727e-01) (197, -5.13387084007263183594e-01) (198, -2.73935496807098388672e-03) (199, -8.35329815745353698730e-02) (200, 6.86470046639442443848e-02) (201, -2.93691530823707580566e-02) (202, 8.72644111514091491699e-02) (203, -5.01990430057048797607e-02) (204, 8.85840281844139099121e-02) (205, 1.27971619367599487305e-02) (206, 8.48012492060661315918e-02) (207, 2.35991626977920532227e-02) (208, 1.42972934246063232422e+00) (209, 4.66496348381042480469e-01) (210, -7.73413702845573425293e-02) (211, -4.92306649684906005859e-02) (212, 9.45103988051414489746e-02) (213, -9.61222350597381591797e-02) (214, -8.31821113824844360352e-02) (215, 2.30136290192604064941e-02) (216, -6.56012445688247680664e-03) (217, -3.26656997203826904297e-02) (218, -2.77462601661682128906e-03) (219, -8.60802531242370605469e-02) (220, 3.46119925379753112793e-02) (221, -8.15276280045509338379e-02) (222, 2.32858955860137939453e-03) (223, 5.42091205716133117676e-02) (224, -9.76120904088020324707e-02) (225, 7.08823278546333312988e-02) (226, -8.82735177874565124512e-02) (227, -6.06781281530857086182e-02) (228, 2.20860540866851806641e-03) (229, 8.98712873458862304688e-03) (230, -4.42111082375049591064e-02) (231, -2.91443914175033569336e-02) (232, 7.96179845929145812988e-02) (233, -5.69467060267925262451e-02) (234, 2.06565633416175842285e-02) (235, 6.82020112872123718262e-02) (236, 5.58504536747932434082e-02) (237, 5.45779615640640258789e-03) (238, -8.19884240627288818359e-03) (239, 4.72817495465278625488e-02) (240, 2.49091535806655883789e-02) (241, 1.44597887992858886719e-02) (242, 9.80510786175727844238e-02) (243, 1.94195508956909179688e-02) (244, 1.83375626802444458008e-02) (245, -8.51310268044471740723e-02) (246, -5.75668178498744964600e-02) (247, -8.82225632667541503906e-02) (248, -1.77967324852943420410e-02) (249, 3.96585538983345031738e-02) (250, -7.43028149008750915527e-02) (251, -8.31847488880157470703e-02) (252, 5.81309273838996887207e-02) (253, 2.80257686972618103027e-02) (254, 7.10243806242942810059e-02) (255, 6.05188384652137756348e-02) (256, -1.85073256492614746094e-01) (0, 8.27508643269538879395e-02) (1, 9.98407080769538879395e-02) (2, -9.88833084702491760254e-02) (3, -8.26200842857360839844e-03) (4, -4.43703942000865936279e-02) (5, -2.80276983976364135742e-02) (6, -2.86440327763557434082e-02) (7, -1.31709873676300048828e-03) (8, 9.26288440823554992676e-02) (9, -6.04420304298400878906e-02) (10, -4.54666428267955780029e-02) (11, -1.91335380077362060547e-03) (12, 3.13591286540031433105e-02) (13, -9.81848910450935363770e-02) (14, -7.70041942596435546875e-02) (15, -5.41810803115367889404e-02) (16, 9.98662039637565612793e-02) (17, 4.24153581261634826660e-02) (18, 6.41564801335334777832e-02) (19, -8.52648317813873291016e-02) (20, 8.48485454916954040527e-02) (21, 7.59339258074760437012e-02) (22, -3.06155532598495483398e-03) (23, 2.45071053504943847656e-02) (24, -9.83688980340957641602e-02) (25, 1.37536972761154174805e-02) (26, -1.73619687557220458984e-02) (27, 2.96568796038627624512e-02) (28, -1.52219310402870178223e-02) (29, -5.68431280553340911865e-02) (30, -7.14350268244743347168e-02) (31, -3.24710682034492492676e-02) (32, -5.70024140179157257080e-02) (33, -7.03183338046073913574e-02) (34, 5.92669323086738586426e-02) (35, -1.37280672788619995117e-03) (36, 1.65395438671112060547e-03) (37, -6.93771094083786010742e-02) (38, 9.73100885748863220215e-02) (39, -5.71718811988830566406e-03) (40, -2.98191383481025695801e-02) (41, -4.81565482914447784424e-02) (42, 9.23694595694541931152e-02) (43, -9.84600111842155456543e-02) (44, -4.63414378464221954346e-02) (45, -8.46347287297248840332e-02) (46, -5.26410900056362152100e-02) (47, -4.64752428233623504639e-02) (48, 5.77806308865547180176e-02) (49, -8.84846076369285583496e-02) (50, -3.17400768399238586426e-02) (51, 4.26291897892951965332e-02) (52, 8.74493196606636047363e-02) (53, 6.51983693242073059082e-02) (54, -3.28637212514877319336e-02) (55, 8.90804156661033630371e-02) (56, -2.10479348897933959961e-02) (57, 4.97743114829063415527e-02) (58, 1.87372937798500061035e-02) (59, 6.37301281094551086426e-02) (60, 9.29311886429786682129e-02) (61, 4.73022535443305969238e-02) (62, -6.87409341335296630859e-02) (63, -6.40712305903434753418e-02) (64, 7.69839361310005187988e-02) (65, 9.05259922146797180176e-02) (66, 3.45559790730476379395e-02) (67, -2.13621109724044799805e-02) (68, -7.88511112332344055176e-02) (69, 3.18660661578178405762e-02) (70, 7.29207023978233337402e-02) (71, -8.67024809122085571289e-03) (72, 8.37095156311988830566e-02) (73, 6.52901604771614074707e-02) (74, -7.13025033473968505859e-03) (75, -6.26319274306297302246e-02) (76, 8.06554481387138366699e-02) (77, 4.02286574244499206543e-02) (78, -9.10716503858566284180e-03) (79, 3.84360626339912414551e-02) (80, 5.17440512776374816895e-02) (81, 5.91527596116065979004e-02) (82, -1.89347490668296813965e-02) (83, 3.91933545470237731934e-02) (84, 2.43511348962783813477e-02) (85, 4.82015237212181091309e-02) (86, 2.82737687230110168457e-02) (87, -9.66968163847923278809e-02) (88, -2.02415883541107177734e-03) (89, -5.29889427125453948975e-02) (90, 6.70333281159400939941e-02) (91, -9.09297168254852294922e-03) (92, 9.43133309483528137207e-02) (93, 9.82924029231071472168e-02) (94, 2.68358066678047180176e-02) (95, 7.12972506880760192871e-02) (96, 8.88183936476707458496e-02) (97, -2.08645403385162353516e-01) (98, -3.42097915709018707275e-02) (99, -2.52687841653823852539e-01) (100, 4.96901609003543853760e-02) (101, -1.14187330007553100586e-01) (102, 3.66103082895278930664e-01) (103, 3.01459312438964843750e-01) (104, 8.93662810325622558594e-01) (105, -5.46963959932327270508e-02) (106, -2.99722939729690551758e-01) (107, -1.46227851510047912598e-01) (108, 3.73949520289897918701e-02) (109, -8.97365882992744445801e-02) (110, 1.38427302241325378418e-01) (111, 2.65864878892898559570e-01) (112, -2.71603614091873168945e-01) (113, -9.60054341703653335571e-03) (114, 8.57078656554222106934e-02) (115, 8.19173827767372131348e-02) (116, 4.65961635112762451172e-01) (117, -2.57955253124237060547e-01) (118, 9.74010676145553588867e-02) (119, -1.85183495283126831055e-01) (120, -1.27725914120674133301e-01) (121, 1.86748370528221130371e-01) (122, -5.47089099884033203125e-01) (123, 9.49309840798377990723e-02) (124, 5.73610439896583557129e-02) (125, -4.77770343422889709473e-02) (126, 6.62282332777976989746e-02) (127, 4.61794212460517883301e-02) (128, 4.58721108734607696533e-02) (129, -3.01393158733844757080e-02) (130, -8.18143337965011596680e-02) (131, 3.26421186327934265137e-02) (132, -9.20198634266853332520e-02) (133, -1.16794966161251068115e-01) (134, -1.18927946314215660095e-02) (135, -9.06490683555603027344e-02) (136, -4.40826565027236938477e-02) (137, 3.33105708705261349678e-04) (138, 9.59666892886161804199e-02) (139, 9.88883078098297119141e-02) (140, -6.66675418615341186523e-02) (141, 5.34646632149815559387e-03) (142, -1.92855168133974075317e-02) (143, -1.50451073423027992249e-02) (144, -2.11268337443470954895e-03) (145, -3.63918283255770802498e-04) (146, -3.92073355615139007568e-02) (147, -6.98460489511489868164e-02) (148, -4.25318591296672821045e-02) (149, -4.29412387311458587646e-02) (150, -3.75085659325122833252e-02) (151, -4.82974536716938018799e-02) (152, -8.59931707382202148438e-02) (153, -1.34385759010910987854e-02) (154, -5.12311346828937530518e-02) (155, -2.38525234162807464600e-02) (156, -5.56405410170555114746e-02) (157, -7.86189138889312744141e-02) (158, 2.39219106733798980713e-02) (159, 5.58364242315292358398e-02) (160, -1.17341533303260803223e-01) (161, -2.63101849704980850220e-02) (162, -2.87770088762044906616e-02) (163, -2.98266988247632980347e-02) (164, 2.47515663504600524902e-02) (165, 4.65488731861114501953e-02) (166, -1.64792649447917938232e-02) (167, 6.89276680350303649902e-02) (168, -1.29258811473846435547e-01) (169, -2.51366078853607177734e-01) (170, 5.02530559897422790527e-02) (171, -4.97345104813575744629e-02) (172, 9.86206904053688049316e-02) (173, -6.54864907264709472656e-02) (174, 1.37921571731567382812e-02) (175, -1.45494500175118446350e-02) (176, 9.41542983055114746094e-02) (177, 8.95608514547348022461e-02) 