FANN_FLO_2.1
num_layers=3
learning_rate=0.700000
connection_rate=1.000000
network_type=0
learning_momentum=0.000000
training_algorithm=1
train_error_function=1
train_stop_function=0
cascade_output_change_fraction=0.010000
quickprop_decay=-0.000100
quickprop_mu=1.750000
rprop_increase_factor=1.200000
rprop_decrease_factor=0.500000
rprop_delta_min=0.000000
rprop_delta_max=50.000000
rprop_delta_zero=0.100000
cascade_output_stagnation_epochs=12
cascade_candidate_change_fraction=0.010000
cascade_candidate_stagnation_epochs=12
cascade_max_out_epochs=150
cascade_min_out_epochs=50
cascade_max_cand_epochs=150
cascade_min_cand_epochs=50
cascade_num_candidate_groups=2
bit_fail_limit=3.49999994039535522461e-01
cascade_candidate_limit=1.00000000000000000000e+03
cascade_weight_multiplier=4.00000005960464477539e-01
cascade_activation_functions_count=10
cascade_activation_functions=3 5 7 8 10 11 14 15 16 17 
cascade_activation_steepnesses_count=4
cascade_activation_steepnesses=2.50000000000000000000e-01 5.00000000000000000000e-01 7.50000000000000000000e-01 1.00000000000000000000e+00 
layer_sizes=257 65 5 
scale_included=0
neurons (num_inputs, activation_function, activation_steepness)=(0, 0, 0.00000000000000000000e+00) (0, 0, 0.00000000000000000000e+00) (0, 0, 0.00000000000000000000e+00) (0, 0, 0.00000000000000000000e+00) (0, 0, 0.00000000000000000000e+00) (0, 0, 0.00000000000000000000e+00) (0, 0, 0.00000000000000000000e+00) (0, 0, 0.00000000000000000000e+00) (0, 0, 0.00000000000000000000e+00) (0, 0, 0.00000000000000000000e+00) (0, 0, 0.00000000000000000000e+00) (0, 0, 0.00000000000000000000e+00) (0, 0, 0.00000000000000000000e+00) (0, 0, 0.00000000000000000000e+00) (0, 0, 0.00000000000000000000e+00) (0, 0, 0.00000000000000000000e+00) (0, 0, 0.00000000000000000000e+00) (0, 0, 0.00000000000000000000e+00) (0, 0, 0.00000000000000000000e+00) (0, 0, 0.00000000000000000000e+00) (0, 0, 0.00000000000000000000e+00) (0, 0, 0.00000000000000000000e+00) (0, 0, 0.00000000000000000000e+00) (0, 0, 0.00000000000000000000e+00) (0, 0, 0.00000000000000000000e+00) (0, 0, 0.00000000000000000000e+00) (0, 0, 0.00000000000000000000e+00) (0, 0, 0.00000000000000000000e+00) (0, 0, 0.00000000000000000000e+00) (0, 0, 0.00000000000000000000e+00) (0, 0, 0.00000000000000000000e+00) (0, 0, 0.00000000000000000000e+00) (0, 0, 0.00000000000000000000e+00) (0, 0, 0.00000000000000000000e+00) (0, 0, 0.00000000000000000000e+00) (0, 0, 0.00000000000000000000e+00) (0, 0, 0.00000000000000000000e+00) (0, 0, 0.00000000000000000000e+00) (0, 0, 0.00000000000000000000e+00) (0, 0, 0.00000000000000000000e+00) (0, 0, 0.00000000000000000000e+00) (0, 0, 0.00000000000000000000e+00) (0, 0, 0.00000000000000000000e+00) (0, 0, 0.00000000000000000000e+00) (0, 0, 0.00000000000000000000e+00) (0, 0, 0.00000000000000000000e+00) (0, 0, 0.00000000000000000000e+00) (0, 0, 0.00000000000000000000e+00) (0, 0, 0.00000000000000000000e+00) (0, 0, 0.00000000000000000000e+00) (0, 0, 0.00000000000000000000e+00) (0, 0, 0.00000000000000000000e+00) (0, 0, 0.00000000000000000000e+00) (0, 0, 0.00000000000000000000e+00) (0, 0, 0.00000000000000000000e+00) (0, 0, 0.00000000000000000000e+00) (0, 0, 0.00000000000000000000e+00) (0, 0, 0.00000000000000000000e+00) (0, 0, 0.00000000000000000000e+00) (0, 0, 0.00000000000000000000e+00) (0, 0, 0.00000000000000000000e+00) (0, 0, 0.00000000000000000000e+00) (0, 0, 0.00000000000000000000e+00) (0, 0, 0.00000000000000000000e+00) (0, 0, 0.00000000000000000000e+00) (0, 0, 0.00000000000000000000e+00) (0, 0, 0.00000000000000000000e+00) (0, 0, 0.00000000000000000000e+00) (0, 0, 0.00000000000000000000e+00) (0, 0, 0.00000000000000000000e+00) (0, 0, 0.00000000000000000000e+00) (0, 0, 0.00000000000000000000e+00) (0, 0, 0.00000000000000000000e+00) (0, 0, 0.00000000000000000000e+00) (0, 0, 0.00000000000000000000e+00) (0, 0, 0.00000000000000000000e+00) (0, 0, 0.00000000000000000000e+00) (0, 0, 0.00000000000000000000e+00) (0, 0, 0.00000000000000000000e+00) (0, 0, 0.00000000000000000000e+00) (0, 0, 0.00000000000000000000e+00) (0, 0, 0.00000000000000000000e+00) (0, 0, 0.00000000000000000000e+00) (0, 0, 0.00000000000000000000e+00) (0, 0, 0.00000000000000000000e+00) (0, 0, 0.00000000000000000000e+00) (0, 0, 0.00000000000000000000e+00) (0, 0, 0.00000000000000000000e+00) (0, 0, 0.00000000000000000000e+00) (0, 0, 0.00000000000000000000e+00) (0, 0, 0.00000000000000000000e+00) (0, 0, 0.00000000000000000000e+00) (0, 0, 0.00000000000000000000e+00) (0, 0, 0.00000000000000000000e+00) (0, 0, 0.00000000000000000000e+00) (0, 0, 0.00000000000000000000e+00) (0, 0, 0.00000000000000000000e+00) (0, 0, 0.00000000000000000000e+00) (0, 0, 0.00000000000000000000e+00) (0, 0, 0.00000000000000000000e+00) (0, 0, 0.00000000000000000000e+00) (0, 0, 0.00000000000000000000e+00) (0, 0, 0.00000000000000000000e+00) (0, 0, 0.00000000000000000000e+00) (0, 0, 0.00000000000000000000e+00) (0, 0, 0.00000000000000000000e+00) (0, 0, 0.00000000000000000000e+00) (0, 0, 0.00000000000000000000e+00) (0, 0, 0.00000000000000000000e+00) (0, 0, 0.00000000000000000000e+00) (0, 0, 0.00000000000000000000e+00) (0, 0, 0.00000000000000000000e+00) (0, 0, 0.00000000000000000000e+00) (0, 0, 0.00000000000000000000e+00) (0, 0, 0.00000000000000000000e+00) (0, 0, 0.00000000000000000000e+00) (0, 0, 0.00000000000000000000e+00) (0, 0, 0.00000000000000000000e+00) (0, 0, 0.00000000000000000000e+00) (0, 0, 0.00000000000000000000e+00) (0, 0, 0.00000000000000000000e+00) (0, 0, 0.00000000000000000000e+00) (0, 0, 0.00000000000000000000e+00) (0, 0, 0.00000000000000000000e+00) (0, 0, 0.00000000000000000000e+00) (0, 0, 0.00000000000000000000e+00) (0, 0, 0.00000000000000000000e+00) (0, 0, 0.00000000000000000000e+00) (0, 0, 0.00000000000000000000e+00) (0, 0, 0.00000000000000000000e+00) (0, 0, 0.00000000000000000000e+00) (0, 0, 0.00000000000000000000e+00) (0, 0, 0.00000000000000000000e+00) (0, 0, 0.00000000000000000000e+00) (0, 0, 0.00000000000000000000e+00) (0, 0, 0.00000000000000000000e+00) (0, 0, 0.00000000000000000000e+00) (0, 0, 0.00000000000000000000e+00) (0, 0, 0.00000000000000000000e+00) (0, 0, 0.00000000000000000000e+00) (0, 0, 0.00000000000000000000e+00) (0, 0, 0.00000000000000000000e+00) (0, 0, 0.00000000000000000000e+00) (0, 0, 0.00000000000000000000e+00) (0, 0, 0.00000000000000000000e+00) (0, 0, 0.00000000000000000000e+00) (0, 0, 0.00000000000000000000e+00) (0, 0, 0.00000000000000000000e+00) (0, 0, 0.00000000000000000000e+00) (0, 0, 0.00000000000000000000e+00) (0, 0, 0.00000000000000000000e+00) (0, 0, 0.00000000000000000000e+00) (0, 0, 0.00000000000000000000e+00) (0, 0, 0.00000000000000000000e+00) (0, 0, 0.00000000000000000000e+00) (0, 0, 0.00000000000000000000e+00) (0, 0, 0.00000000000000000000e+00) (0, 0, 0.00000000000000000000e+00) (0, 0, 0.00000000000000000000e+00) (0, 0, 0.00000000000000000000e+00) (0, 0, 0.00000000000000000000e+00) (0, 0, 0.00000000000000000000e+00) (0, 0, 0.00000000000000000000e+00) (0, 0, 0.00000000000000000000e+00) (0, 0, 0.00000000000000000000e+00) (0, 0, 0.00000000000000000000e+00) (0, 0, 0.00000000000000000000e+00) (0, 0, 0.00000000000000000000e+00) (0, 0, 0.00000000000000000000e+00) (0, 0, 0.00000000000000000000e+00) (0, 0, 0.00000000000000000000e+00) (0, 0, 0.00000000000000000000e+00) (0, 0, 0.00000000000000000000e+00) (0, 0, 0.00000000000000000000e+00) (0, 0, 0.00000000000000000000e+00) (0, 0, 0.00000000000000000000e+00) (0, 0, 0.00000000000000000000e+00) (0, 0, 0.00000000000000000000e+00) (0, 0, 0.00000000000000000000e+00) (0, 0, 0.00000000000000000000e+00) (0, 0, 0.00000000000000000000e+00) (0, 0, 0.00000000000000000000e+00) (0, 0, 0.00000000000000000000e+00) (0, 0, 0.00000000000000000000e+00) (0, 0, 0.00000000000000000000e+00) (0, 0, 0.00000000000000000000e+00) (0, 0, 0.00000000000000000000e+00) (0, 0, 0.00000000000000000000e+00) (0, 0, 0.00000000000000000000e+00) (0, 0, 0.00000000000000000000e+00) (0, 0, 0.00000000000000000000e+00) (0, 0, 0.00000000000000000000e+00) (0, 0, 0.00000000000000000000e+00) (0, 0, 0.00000000000000000000e+00) (0, 0, 0.00000000000000000000e+00) (0, 0, 0.00000000000000000000e+00) (0, 0, 0.00000000000000000000e+00) (0, 0, 0.00000000000000000000e+00) (0, 0, 0.00000000000000000000e+00) (0, 0, 0.00000000000000000000e+00) (0, 0, 0.00000000000000000000e+00) (0, 0, 0.00000000000000000000e+00) (0, 0, 0.00000000000000000000e+00) (0, 0, 0.00000000000000000000e+00) (0, 0, 0.00000000000000000000e+00) (0, 0, 0.00000000000000000000e+00) (0, 0, 0.00000000000000000000e+00) (0, 0, 0.00000000000000000000e+00) (0, 0, 0.00000000000000000000e+00) (0, 0, 0.00000000000000000000e+00) (0, 0, 0.00000000000000000000e+00) (0, 0, 0.00000000000000000000e+00) (0, 0, 0.00000000000000000000e+00) (0, 0, 0.00000000000000000000e+00) (0, 0, 0.00000000000000000000e+00) (0, 0, 0.00000000000000000000e+00) (0, 0, 0.00000000000000000000e+00) (0, 0, 0.00000000000000000000e+00) (0, 0, 0.00000000000000000000e+00) (0, 0, 0.00000000000000000000e+00) (0, 0, 0.00000000000000000000e+00) (0, 0, 0.00000000000000000000e+00) (0, 0, 0.00000000000000000000e+00) (0, 0, 0.00000000000000000000e+00) (0, 0, 0.00000000000000000000e+00) (0, 0, 0.00000000000000000000e+00) (0, 0, 0.00000000000000000000e+00) (0, 0, 0.00000000000000000000e+00) (0, 0, 0.00000000000000000000e+00) (0, 0, 0.00000000000000000000e+00) (0, 0, 0.00000000000000000000e+00) (0, 0, 0.00000000000000000000e+00) (0, 0, 0.00000000000000000000e+00) (0, 0, 0.00000000000000000000e+00) (0, 0, 0.00000000000000000000e+00) (0, 0, 0.00000000000000000000e+00) (0, 0, 0.00000000000000000000e+00) (0, 0, 0.00000000000000000000e+00) (0, 0, 0.00000000000000000000e+00) (0, 0, 0.00000000000000000000e+00) (0, 0, 0.00000000000000000000e+00) (0, 0, 0.00000000000000000000e+00) (0, 0, 0.00000000000000000000e+00) (0, 0, 0.00000000000000000000e+00) (0, 0, 0.00000000000000000000e+00) (0, 0, 0.00000000000000000000e+00) (0, 0, 0.00000000000000000000e+00) (0, 0, 0.00000000000000000000e+00) (0, 0, 0.00000000000000000000e+00) (0, 0, 0.00000000000000000000e+00) (0, 0, 0.00000000000000000000e+00) (0, 0, 0.00000000000000000000e+00) (0, 0, 0.00000000000000000000e+00) (0, 0, 0.00000000000000000000e+00) (0, 0, 0.00000000000000000000e+00) (0, 0, 0.00000000000000000000e+00) (0, 0, 0.00000000000000000000e+00) (257, 4, 5.00000000000000000000e-01) (257, 4, 5.00000000000000000000e-01) (257, 4, 5.00000000000000000000e-01) (257, 4, 5.00000000000000000000e-01) (257, 4, 5.00000000000000000000e-01) (257, 4, 5.00000000000000000000e-01) (257, 4, 5.00000000000000000000e-01) (257, 4, 5.00000000000000000000e-01) (257, 4, 5.00000000000000000000e-01) (257, 4, 5.00000000000000000000e-01) (257, 4, 5.00000000000000000000e-01) (257, 4, 5.00000000000000000000e-01) (257, 4, 5.00000000000000000000e-01) (257, 4, 5.00000000000000000000e-01) (257, 4, 5.00000000000000000000e-01) (257, 4, 5.00000000000000000000e-01) (257, 4, 5.00000000000000000000e-01) (257, 4, 5.00000000000000000000e-01) (257, 4, 5.00000000000000000000e-01) (257, 4, 5.00000000000000000000e-01) (257, 4, 5.00000000000000000000e-01) (257, 4, 5.00000000000000000000e-01) (257, 4, 5.00000000000000000000e-01) (257, 4, 5.00000000000000000000e-01) (257, 4, 5.00000000000000000000e-01) (257, 4, 5.00000000000000000000e-01) (257, 4, 5.00000000000000000000e-01) (257, 4, 5.00000000000000000000e-01) (257, 4, 5.00000000000000000000e-01) (257, 4, 5.00000000000000000000e-01) (257, 4, 5.00000000000000000000e-01) (257, 4, 5.00000000000000000000e-01) (257, 4, 5.00000000000000000000e-01) (257, 4, 5.00000000000000000000e-01) (257, 4, 5.00000000000000000000e-01) (257, 4, 5.00000000000000000000e-01) (257, 4, 5.00000000000000000000e-01) (257, 4, 5.00000000000000000000e-01) (257, 4, 5.00000000000000000000e-01) (257, 4, 5.00000000000000000000e-01) (257, 4, 5.00000000000000000000e-01) (257, 4, 5.00000000000000000000e-01) (257, 4, 5.00000000000000000000e-01) (257, 4, 5.00000000000000000000e-01) (257, 4, 5.00000000000000000000e-01) (257, 4, 5.00000000000000000000e-01) (257, 4, 5.00000000000000000000e-01) (257, 4, 5.00000000000000000000e-01) (257, 4, 5.00000000000000000000e-01) (257, 4, 5.00000000000000000000e-01) (257, 4, 5.00000000000000000000e-01) (257, 4, 5.00000000000000000000e-01) (257, 4, 5.00000000000000000000e-01) (257, 4, 5.00000000000000000000e-01) (257, 4, 5.00000000000000000000e-01) (257, 4, 5.00000000000000000000e-01) (257, 4, 5.00000000000000000000e-01) (257, 4, 5.00000000000000000000e-01) (257, 4, 5.00000000000000000000e-01) (257, 4, 5.00000000000000000000e-01) (257, 4, 5.00000000000000000000e-01) (257, 4, 5.00000000000000000000e-01) (257, 4, 5.00000000000000000000e-01) (257, 4, 5.00000000000000000000e-01) (0, 0, 0.00000000000000000000e+00) (65, 4, 5.00000000000000000000e-01) (65, 4, 5.00000000000000000000e-01) (65, 4, 5.00000000000000000000e-01) (65, 4, 5.00000000000000000000e-01) (0, 0, 0.00000000000000000000e+00) 
connections (connected_to_neuron, weight)=(0, 3.42073962092399597168e-02) (1, 6.98906257748603820801e-02) (2, -5.14023713767528533936e-02) (3, 6.09141811728477478027e-02) (4, -5.50226606428623199463e-02) (5, -8.02409946918487548828e-02) (6, -8.03421437740325927734e-03) (7, -9.04750227928161621094e-02) (8, 6.51359558105468750000e-03) (9, 4.07694056630134582520e-02) (10, 3.14182713627815246582e-02) (11, 8.43946561217308044434e-02) (12, 5.86063787341117858887e-02) (13, -7.31575489044189453125e-03) (14, 3.67117896676063537598e-02) (15, -9.59355458617210388184e-02) (16, 9.30296853184700012207e-02) (17, 6.66676685214042663574e-02) (18, -5.10841384530067443848e-02) (19, 3.32134738564491271973e-02) (20, -1.74811780452728271484e-02) (21, 7.93821290135383605957e-02) (22, -6.51407614350318908691e-02) (23, 6.31993487477302551270e-02) (24, -8.39020386338233947754e-02) (25, -1.64445415139198303223e-02) (26, 2.48859524726867675781e-02) (27, 4.71037253737449645996e-02) (28, -8.74692946672439575195e-02) (29, -7.10488483309745788574e-02) (30, -8.52401480078697204590e-02) (31, 4.67380955815315246582e-02) (32, 9.88417938351631164551e-02) (33, -3.66425216197967529297e-02) (34, 7.65228271484375000000e-03) (35, -5.61808757483959197998e-02) (36, -1.68835073709487915039e-02) (37, 9.96180847287178039551e-02) (38, -4.66558933258056640625e-02) (39, 8.96300747990608215332e-02) (40, 4.03874740004539489746e-02) (41, 8.47623869776725769043e-02) (42, 7.40247443318367004395e-02) (43, -1.00614875555038452148e-03) (44, -2.25533694028854370117e-02) (45, 1.07365250587463378906e-02) (46, 3.05829942226409912109e-03) (47, -2.95236781239509582520e-02) (48, -2.25958153605461120605e-02) (49, 5.19741699099540710449e-02) (50, -9.63102057576179504395e-02) (51, 5.99230006337165832520e-02) (52, 3.13562825322151184082e-02) (53, -6.14509657025337219238e-02) (54, 2.31223478913307189941e-02) (55, 4.74542453885078430176e-02) (56, 2.21045017242431640625e-02) (57, -5.19916974008083343506e-02) (58, -5.44203072786331176758e-03) (59, 3.46352085471153259277e-02) (60, -2.30405479669570922852e-02) (61, 9.31781530380249023438e-03) (62, -1.86266973614692687988e-02) (63, -2.41987556219100952148e-02) (64, 7.26752951741218566895e-02) (65, 8.90255793929100036621e-02) (66, 1.96203589439392089844e-02) (67, -4.42082099616527557373e-02) (68, 8.86436626315116882324e-02) (69, 7.29644671082496643066e-02) (70, -5.45781292021274566650e-02) (71, 2.90311351418495178223e-02) (72, 5.77268674969673156738e-02) (73, -8.05533975362777709961e-02) (74, -7.19750151038169860840e-02) (75, -6.48265182971954345703e-02) (76, 3.01831439137458801270e-02) (77, 3.10832932591438293457e-02) (78, 5.64980506896972656250e-03) (79, -9.24126878380775451660e-02) (80, -1.69425383210182189941e-02) (81, 9.33960825204849243164e-03) (82, 6.75103142857551574707e-02) (83, -8.55862498283386230469e-02) (84, 4.78886440396308898926e-02) (85, -9.36733186244964599609e-03) (86, 6.18680045008659362793e-02) (87, -3.00068631768226623535e-02) (88, 3.86409834027290344238e-02) (89, -4.35740351676940917969e-02) (90, -9.53716561198234558105e-02) (91, -8.43995735049247741699e-02) (92, 6.57437965273857116699e-02) (93, -1.39983445405960083008e-02) (94, -8.59833508729934692383e-03) (95, 3.84190902113914489746e-02) (96, -2.49727591872215270996e-02) (97, -3.20578180253505706787e-02) (98, -5.74306249618530273438e-02) (99, 2.91806608438491821289e-01) (100, -1.07242045924067497253e-02) (101, -6.45842730998992919922e-01) (102, -1.21924066543579101562e+00) (103, -8.33063542842864990234e-01) (104, -2.89298748970031738281e+00) (105, -3.19998897612094879150e-02) (106, 7.52696812152862548828e-01) (107, 7.32686221599578857422e-01) (108, -2.18116208910942077637e-01) (109, 1.13520257174968719482e-01) (110, -7.94409036636352539062e-01) (111, -1.50743329524993896484e+00) (112, 7.30063617229461669922e-01) (113, 3.74677091836929321289e-01) (114, -9.49669420719146728516e-01) (115, -3.43009680509567260742e-01) (116, -1.84523248672485351562e+00) (117, 7.35692143440246582031e-01) (118, -1.68424874544143676758e-01) (119, 3.95737618207931518555e-01) (120, 5.21627813577651977539e-02) (121, -6.43404662609100341797e-01) (122, 1.73510169982910156250e+00) (123, -6.66807293891906738281e-02) (124, 3.88041138648986816406e-04) (125, 6.35847449302673339844e-04) (126, 7.17383697628974914551e-02) (127, 7.54152610898017883301e-02) (128, -1.93455722182989120483e-03) (129, 4.32952418923377990723e-02) (130, 6.00394666194915771484e-01) (131, -1.52295418083667755127e-02) (132, 4.83911670744419097900e-03) (133, 1.92913457751274108887e-01) (134, -6.44799545407295227051e-02) (135, 8.70682373642921447754e-02) (136, -4.92954999208450317383e-02) (137, -8.66309255361557006836e-02) (138, -4.60761860013008117676e-02) (139, -1.01110607385635375977e-01) (140, -1.59049462527036666870e-02) (141, -5.01452721655368804932e-02) (142, -6.44281953573226928711e-02) (143, -1.85921210795640945435e-02) (144, -8.75792875885963439941e-02) (145, -1.24310236424207687378e-02) (146, -7.34154134988784790039e-02) (147, -3.07788364589214324951e-02) (148, -3.09414300136268138885e-03) (149, -6.54411017894744873047e-02) (150, -3.62397208809852600098e-02) (151, 6.71998336911201477051e-02) (152, -5.01512773334980010986e-02) (153, 3.03077280521392822266e-01) (154, -1.00356392562389373779e-01) (155, 3.48936438560485839844e-01) (156, 7.17925503849983215332e-02) (157, 6.86360523104667663574e-02) (158, 2.29324214160442352295e-02) (159, -1.56176220625638961792e-02) (160, 1.92457869648933410645e-01) (161, 6.47432357072830200195e-02) (162, 7.63930678367614746094e-02) (163, 4.28697913885116577148e-02) (164, 9.92444381117820739746e-02) (165, -8.25851708650588989258e-02) (166, -5.27606606483459472656e-02) (167, -1.12597858533263206482e-02) (168, 1.65281310677528381348e-01) (169, 7.38247871398925781250e-01) (170, -5.12093445286154747009e-03) (171, 2.75044254958629608154e-02) (172, 1.13350441679358482361e-02) (173, -4.72153723239898681641e-03) (174, -8.20264369249343872070e-02) (175, 2.82811746001243591309e-02) (176, 5.74740730226039886475e-02) (177, -6.17622137069702148438e-02) (178, 7.93716758489608764648e-02) (179, 2.74830162525177001953e-01) (180, -3.08286305516958236694e-02) (181, -7.13564008474349975586e-02) (182, -5.75807094573974609375e-02) (183, 3.17058078944683074951e-02) (184, 5.25903515517711639404e-03) (185, -5.34345991909503936768e-02) (186, 1.41203375533223152161e-02) (187, 3.21767777204513549805e-02) (188, 2.07546308636665344238e-01) (189, -1.03282660245895385742e-01) (190, 4.42418493330478668213e-02) (191, 5.34026622772216796875e-02) (192, 8.59242603182792663574e-02) (193, 7.50135555863380432129e-02) (194, 5.34937530755996704102e-03) (195, 1.70182716846466064453e+00) (196, 8.54545950889587402344e-01) (197, 1.43633127212524414062e+00) (198, -6.30716457962989807129e-02) (199, -7.41612464189529418945e-02) (200, 7.61732235550880432129e-02) (201, -6.98647648096084594727e-03) (202, 5.51548525691032409668e-02) (203, -1.06793344020843505859e-02) (204, 8.82919803261756896973e-02) (205, 7.31284096837043762207e-02) (206, -8.23981612920761108398e-02) (207, 7.20452591776847839355e-02) (208, -4.02164965867996215820e-01) (209, -2.15388044714927673340e-01) (210, -4.45771478116512298584e-02) (211, 4.10066545009613037109e-03) (212, -2.18224972486495971680e-02) (213, 6.00028038024902343750e-03) (214, -5.87562285363674163818e-02) (215, -8.66600647568702697754e-02) (216, 5.70968165993690490723e-02) (217, 3.13416942954063415527e-02) (218, 2.21327096223831176758e-02) (219, 8.04508104920387268066e-02) (220, 4.98097017407417297363e-02) (221, 1.62136703729629516602e-02) (222, 4.20115068554878234863e-02) (223, 3.57339754700660705566e-02) (224, -8.77277553081512451172e-03) (225, -5.26391267776489257812e-02) (226, 2.09026709198951721191e-02) (227, -1.54689103364944458008e-02) (228, 6.11602738499641418457e-02) (229, 5.78310415148735046387e-02) (230, 1.03698521852493286133e-02) (231, 3.73334959149360656738e-02) (232, -4.91554439067840576172e-02) (233, -3.44753041863441467285e-02) (234, -7.33458548784255981445e-02) (235, -6.08634613454341888428e-02) (236, -6.13468848168849945068e-02) (237, -5.57440146803855895996e-02) (238, -8.88182073831558227539e-02) (239, -4.18225489556789398193e-02) (240, -3.97344827651977539062e-02) (241, -3.33953499794006347656e-02) (242, 6.22781142592430114746e-02) (243, 3.84430214762687683105e-02) (244, 7.26049318909645080566e-02) (245, -9.64781045913696289062e-02) (246, 5.17829582095146179199e-02) (247, 2.97017470002174377441e-02) (248, 3.48635986447334289551e-02) (249, -2.60843411087989807129e-02) (250, 1.01525560021400451660e-02) (251, -1.53266936540603637695e-02) (252, 9.01293233036994934082e-02) (253, -4.78359460830688476562e-02) (254, -7.95927271246910095215e-02) (255, -1.86434462666511535645e-02) (256, 3.84058058261871337891e-01) (0, 4.13099601864814758301e-02) (1, 6.58876523375511169434e-02) (2, -3.93148064613342285156e-02) (3, -8.59014689922332763672e-04) (4, -2.37425044178962707520e-02) (5, 9.80186685919761657715e-02) (6, 4.99855354428291320801e-02) (7, 4.17822077870368957520e-02) (8, -7.53271803259849548340e-02) (9, 8.91220793128013610840e-02) (10, 8.04353132843971252441e-02) (11, -3.10711935162544250488e-02) (12, -9.96961295604705810547e-02) (13, -6.13872371613979339600e-02) (14, 2.91943177580833435059e-02) (15, -3.30914780497550964355e-02) (16, -9.91091132164001464844e-02) (17, -3.23626548051834106445e-02) (18, -6.04865439236164093018e-02) (19, -9.55872163176536560059e-02) (20, -8.05796980857849121094e-02) (21, 6.92152008414268493652e-02) (22, 3.92763689160346984863e-02) (23, -6.66404515504837036133e-03) (24, -2.06322446465492248535e-02) (25, -7.60503187775611877441e-02) (26, -1.65347084403038024902e-02) (27, 3.15318182110786437988e-02) (28, -5.56430406868457794189e-02) (29, 6.48218467831611633301e-02) (30, -6.89432621002197265625e-02) (31, 8.56669023633003234863e-02) (32, 3.07094976305961608887e-02) (33, -8.25806707143783569336e-03) (34, -1.51921063661575317383e-02) (35, -9.30330157279968261719e-02) (36, -1.02393925189971923828e-02) (37, -6.52065724134445190430e-02) (38, 4.87491860985755920410e-02) (39, 1.44334286451339721680e-02) (40, -7.60844945907592773438e-02) (41, 2.91844978928565979004e-02) (42, 8.33622291684150695801e-02) (43, -7.57806226611137390137e-02) (44, 6.77972659468650817871e-02) (45, 1.25565677881240844727e-02) (46, -8.87209922075271606445e-03) (47, 6.86881616711616516113e-02) (48, 8.01938995718955993652e-02) (49, 3.06413546204566955566e-02) (50, 7.31009319424629211426e-02) (51, 9.96142104268074035645e-02) (52, -1.43438577651977539062e-04) (53, 1.23773068189620971680e-02) (54, -7.04983621835708618164e-03) (55, 7.92243257164955139160e-02) (56, 3.63269969820976257324e-02) (57, 7.64154568314552307129e-02) (58, 1.07561349868774414062e-02) (59, 8.06839540600776672363e-02) (60, 4.12373021245002746582e-02) (61, 4.18128743767738342285e-02) (62, 6.63508698344230651855e-02) (63, -2.80532091856002807617e-02) (64, -6.64452016353607177734e-02) (65, -4.88412454724311828613e-02) (66, -2.10862234234809875488e-02) (67, 2.33154073357582092285e-02) (68, -1.40478163957595825195e-02) (69, -7.23370388150215148926e-02) (70, -6.22511617839336395264e-02) (71, 9.86769050359725952148e-03) (72, 5.68474605679512023926e-02) (73, -7.88889229297637939453e-02) (74, 3.40870693325996398926e-02) (75, 2.46447175741195678711e-02) (76, 3.36676314473152160645e-02) (77, -7.47850313782691955566e-02) (78, -6.66712969541549682617e-03) (79, 1.38615518808364868164e-02) (80, 5.58563247323036193848e-02) (81, -3.35661917924880981445e-02) (82, 1.34757533669471740723e-02) (83, -4.42871116101741790771e-02) (84, 7.88111165165901184082e-02) (85, -9.35740917921066284180e-02) (86, -6.50627911090850830078e-02) (87, 1.51381120085716247559e-02) (88, 8.28413590788841247559e-02) (89, 4.56933453679084777832e-02) (90, -4.17793542146682739258e-03) (91, 2.40786522626876831055e-02) (92, -1.24937817454338073730e-02) (93, -3.78270708024501800537e-02) (94, 9.60254445672035217285e-02) (95, 2.10610181093215942383e-02) (96, 1.33316889405250549316e-02) (97, -3.33177089691162109375e-01) (98, -5.41563093662261962891e-01) (99, 6.09978735446929931641e-02) (100, -2.02138110995292663574e-01) (101, 9.44302737712860107422e-01) (102, -1.22250843048095703125e+00) (103, -1.12100791931152343750e+00) (104, -3.18012213706970214844e+00) (105, -6.54363393783569335938e-01) (106, 3.44924539327621459961e-01) (107, -2.46527656912803649902e-01) (108, 6.38381481170654296875e-01) (109, -1.03930093348026275635e-01) (110, -5.65653204917907714844e-01) (111, -2.22642326354980468750e+00) (112, 6.96562886238098144531e-01) (113, 5.18304765224456787109e-01) (114, -2.59898215532302856445e-01) (115, 5.07190942764282226562e-01) (116, -1.02193558216094970703e+00) (117, 1.85272514820098876953e+00) (118, 3.30961495637893676758e-01) (119, -8.61435651779174804688e-01) (120, 1.60078898072242736816e-01) (121, -1.46724629402160644531e+00) (122, 5.21051406860351562500e-01) (123, 4.81595918536186218262e-02) (124, 9.58052650094032287598e-02) (125, 7.36126676201820373535e-02) (126, -3.07793915271759033203e-02) (127, 9.13693755865097045898e-03) (128, -2.79194917529821395874e-02) (129, 5.28108067810535430908e-02) (130, 2.12496489286422729492e-01) (131, 6.99910447001457214355e-02) (132, 1.16568893194198608398e-01) (133, -2.05332618206739425659e-02) (134, -8.62369686365127563477e-02) (135, 4.40248884260654449463e-02) (136, -3.60617935657501220703e-02) (137, 9.62503254413604736328e-02) (138, 3.58626469969749450684e-02) (139, 3.86830568313598632812e-02) (140, -5.91457728296518325806e-03) (141, -1.18014607578516006470e-02) (142, 5.98559528589248657227e-02) (143, -7.14508593082427978516e-02) (144, 5.55796250700950622559e-02) (145, -6.48503825068473815918e-02) (146, 4.17857021093368530273e-02) (147, -7.69110843539237976074e-02) (148, 5.32675608992576599121e-02) (149, 8.27231481671333312988e-02) (150, -2.49547734856605529785e-02) (151, -9.07892286777496337891e-02) (152, 1.48069169372320175171e-02) (153, 2.37268526107072830200e-02) (154, 5.89500144124031066895e-02) (155, 7.16334581375122070312e-02) (156, -7.05955773591995239258e-02) (157, -6.71546459197998046875e-02) (158, -7.55364075303077697754e-02) (159, -2.36394144594669342041e-02) (160, 3.18788528442382812500e-01) (161, 2.81733237206935882568e-02) (162, -6.61767125129699707031e-02) (163, 3.74899730086326599121e-02) (164, 4.10364791750907897949e-02) (165, -6.18653371930122375488e-02) (166, 4.11834660917520523071e-03) (167, -2.57667899131774902344e-02) (168, 3.46718907356262207031e-01) (169, 1.45544946193695068359e+00) (170, 1.00370168685913085938e-01) (171, 6.51538977399468421936e-03) (172, -3.95129956305027008057e-02) (173, -1.53133422136306762695e-02) (174, 1.93644985556602478027e-02) (175, -9.17707234621047973633e-02) (176, 6.37761130928993225098e-02) (177, -2.78595034033060073853e-02) (178, -3.72933745384216308594e-02) (179, 4.03974130749702453613e-02) (180, -3.88452857732772827148e-02) (181, 6.28501400351524353027e-02) (182, -9.83086228370666503906e-03) (183, 5.40113002061843872070e-02) (184, 1.09205231070518493652e-01) (185, -5.87417706847190856934e-02) (186, -2.68620941787958145142e-02) (187, 1.79580286145210266113e-01) (188, 4.61179949343204498291e-02) (189, 3.18843172863125801086e-03) (190, 4.47587110102176666260e-02) (191, -8.56762528419494628906e-02) (192, 8.90065804123878479004e-02) (193, -1.55632272362709045410e-02) (194, 3.61118242144584655762e-02) (195, 2.44716334342956542969e+00) (196, 1.80904760956764221191e-01) (197, 3.69940340518951416016e-01) (198, 3.18905338644981384277e-02) (199, 5.22443726658821105957e-02) (200, 4.17124107480049133301e-02) (201, -3.69973555207252502441e-02) (202, -4.43774722516536712646e-02) (203, 9.90722253918647766113e-02) (204, 4.76892963051795959473e-02) (205, 7.49870315194129943848e-02) (206, -9.26985070109367370605e-02) (207, -3.40266823768615722656e-02) (208, 4.89852368831634521484e-01) (209, 1.64505615830421447754e-01) (210, 3.28147485852241516113e-02) (211, -3.24982255697250366211e-02) (212, 4.18786182999610900879e-02) (213, -9.11330729722976684570e-02) (214, -8.79053846001625061035e-02) (215, -6.77756965160369873047e-04) (216, -5.77105246484279632568e-02) (217, -3.74061986804008483887e-02) (218, -1.69890299439430236816e-02) (219, 2.30298191308975219727e-03) (220, 2.81362757086753845215e-02) (221, 4.14967015385627746582e-02) (222, 2.50449031591415405273e-03) (223, 1.71428546309471130371e-02) (224, -7.40665346384048461914e-02) (225, -6.13836906850337982178e-02) (226, -5.28140962123870849609e-02) (227, 4.69250157475471496582e-02) (228, -9.04029011726379394531e-02) (229, 7.90764465928077697754e-02) (230, -8.30605626106262207031e-04) (231, 5.13095185160636901855e-02) (232, -5.79209141433238983154e-02) (233, 5.47919198870658874512e-02) (234, 5.03817275166511535645e-02) (235, 8.97683873772621154785e-02) (236, 2.97789499163627624512e-02) (237, 5.76832219958305358887e-02) (238, -4.42582964897155761719e-02) (239, 6.27889707684516906738e-02) (240, 9.47506651282310485840e-02) (241, 8.85564461350440979004e-02) (242, -6.97092562913894653320e-02) (243, 3.66292819380760192871e-02) (244, 9.74233821034431457520e-02) (245, -5.76146356761455535889e-02) (246, -6.40484765172004699707e-02) (247, -6.02871514856815338135e-02) (248, 4.97917085886001586914e-03) (249, 1.89625024795532226562e-02) (250, 4.20158281922340393066e-02) (251, -6.68845623731613159180e-02) (252, -3.95408160984516143799e-02) (253, -5.54796755313873291016e-02) (254, 5.02582862973213195801e-02) (255, -1.36073455214500427246e-02) (256, 1.74337193369865417480e-01) (0, 9.74441990256309509277e-02) (1, -6.66823387145996093750e-02) (2, -7.26626813411712646484e-03) (3, 7.65206441283226013184e-02) (4, 3.24870422482490539551e-02) (5, -5.59567548334598541260e-02) (6, -8.14002752304077148438e-02) (7, -1.27210319042205810547e-02) (8, 9.44249704480171203613e-02) (9, -9.16318893432617187500e-02) (10, -8.29420834779739379883e-02) (11, 5.21081909537315368652e-02) (12, -3.58901843428611755371e-02) (13, 7.98468962311744689941e-02) (14, 4.68588545918464660645e-02) (15, -4.73337471485137939453e-02) (16, -8.98623615503311157227e-02) (17, -1.65118724107742309570e-02) (18, -4.99103739857673645020e-02) (19, -4.74770031869411468506e-02) (20, 1.94396600127220153809e-02) (21, -1.01975277066230773926e-02) (22, 5.75021579861640930176e-02) (23, -6.15978464484214782715e-02) (24, -6.81816935539245605469e-02) (25, 9.06176045536994934082e-02) (26, -1.13865733146667480469e-03) (27, -2.36613675951957702637e-02) (28, 4.08759042620658874512e-02) (29, 8.52540060877799987793e-02) (30, 5.94752654433250427246e-02) (31, 3.83201017975807189941e-02) (32, -8.14283490180969238281e-02) (33, -4.77909930050373077393e-02) (34, 1.48407444357872009277e-02) (35, 5.10587021708488464355e-02) (36, -3.74774634838104248047e-03) (37, 3.34404781460762023926e-02) (38, -6.16623274981975555420e-02) (39, -9.32277739048004150391e-03) (40, 4.18085828423500061035e-02) (41, -4.46044094860553741455e-02) (42, -5.72145916521549224854e-02) (43, -9.40816104412078857422e-02) (44, -6.47575259208679199219e-02) (45, 8.96442607045173645020e-02) (46, -4.14153598248958587646e-02) (47, -5.46198859810829162598e-02) (48, -2.68676131963729858398e-02) (49, 8.67427885532379150391e-03) (50, -2.09687650203704833984e-03) (51, 9.25720408558845520020e-02) (52, 9.84767451882362365723e-02) (53, -4.45947125554084777832e-02) (54, -6.90257921814918518066e-02) (55, -6.97049498558044433594e-02) (56, -5.39771020412445068359e-02) (57, 2.98355445265769958496e-02) (58, 6.63368403911590576172e-03) (59, 8.68988111615180969238e-02) (60, 1.50895491242408752441e-02) (61, -3.38910445570945739746e-02) (62, 2.52189114689826965332e-02) (63, 3.36611941456794738770e-02) (64, 1.83179602026939392090e-02) (65, -5.99403493106365203857e-02) (66, -1.52800977230072021484e-02) (67, -8.54297876358032226562e-02) (68, 7.35001191496849060059e-02) (69, 2.30575799942016601562e-02) (70, 5.24743646383285522461e-03) (71, 1.53086930513381958008e-02) (72, 7.84531608223915100098e-02) (73, 4.80328425765037536621e-02) (74, 2.12270841002464294434e-02) (75, -8.63043591380119323730e-02) (76, 3.76771017909049987793e-02) (77, 7.98117294907569885254e-02) (78, -4.09242399036884307861e-02) (79, -8.91905128955841064453e-02) (80, -1.15140005946159362793e-02) (81, 5.69788888096809387207e-02) (82, -9.66184586286544799805e-02) (83, -1.30372568964958190918e-02) (84, -8.76158326864242553711e-02) (85, -6.56442493200302124023e-02) (86, 1.72577947378158569336e-02) (87, -4.15929369628429412842e-02) (88, 6.41912892460823059082e-02) (89, -7.61085152626037597656e-02) (90, -5.46941347420215606689e-02) (91, -2.07191556692123413086e-02) (92, -9.99955832958221435547e-03) (93, 7.05247744917869567871e-02) (94, -8.70579630136489868164e-02) (95, -9.16815996170043945312e-02) (96, -8.94155800342559814453e-02) (97, 2.11017727851867675781e-02) (98, -1.67582258582115173340e-01) (99, 1.34484052658081054688e-01) (100, -9.22014191746711730957e-02) (101, 2.57320851087570190430e-01) (102, -3.35952401161193847656e-01) (103, -1.64327085018157958984e-01) (104, -8.50354850292205810547e-01) (105, -1.20437048375606536865e-01) (106, 2.93610189110040664673e-02) (107, -4.97355945408344268799e-02) (108, 3.50824818015098571777e-02) (109, -4.08739224076271057129e-03) (110, -2.09346160292625427246e-01) (111, -4.76220458745956420898e-01) (112, 1.29703879356384277344e-01) (113, 6.11516088247299194336e-02) (114, 4.54485649242997169495e-03) (115, 5.21925613284111022949e-02) (116, -3.29679548740386962891e-01) (117, 4.39931094646453857422e-01) (118, 7.48170763254165649414e-02) (119, -1.82104989886283874512e-01) (120, 6.31801262497901916504e-02) (121, -2.66173899173736572266e-01) (122, 2.68106013536453247070e-01) (123, -9.29694920778274536133e-02) (124, 1.55448466539382934570e-02) (125, 1.88069492578506469727e-02) (126, -8.46510902047157287598e-02) (127, 2.61292532086372375488e-02) (128, -9.51208993792533874512e-02) (129, -8.10969918966293334961e-02) (130, 7.68883004784584045410e-02) (131, -7.20956921577453613281e-02) (132, 7.99519717693328857422e-02) (133, -5.71928098797798156738e-02) (134, -6.51808828115463256836e-02) (135, -4.78069335222244262695e-02) (136, -7.13146179914474487305e-02) (137, -5.15415668487548828125e-02) (138, -4.36115637421607971191e-02) (139, -7.39795565605163574219e-02) (140, 1.03411646559834480286e-02) (141, -1.97232030332088470459e-02) (142, 1.64889749139547348022e-02) (143, 4.39195372164249420166e-02) (144, 6.75978744402527809143e-03) (145, -5.31387934461236000061e-03) (146, 8.98616388440132141113e-02) (147, 7.07151889801025390625e-02) (148, 8.62953141331672668457e-02) (149, -1.19783822447061538696e-02) (150, 9.80577543377876281738e-02) (151, 5.62690198421478271484e-03) (152, -6.61636441946029663086e-02) (153, 4.85173538327217102051e-02) (154, 1.18802562355995178223e-02) (155, 9.09385606646537780762e-02) (156, -7.88123831152915954590e-02) (157, 2.49178539961576461792e-02) (158, -2.68304180353879928589e-02) (159, -6.15725107491016387939e-02) (160, 1.31993472576141357422e-01) (161, 8.57242569327354431152e-02) (162, -2.74877250194549560547e-02) (163, 3.18464264273643493652e-02) (164, 9.76328030228614807129e-02) (165, 1.19708031415939331055e-02) (166, 9.17922556400299072266e-02) (167, -5.70555925369262695312e-02) (168, 1.61834016442298889160e-01) (169, 2.64396578073501586914e-01) (170, -2.48380471020936965942e-02) (171, -1.84034258127212524414e-02) (172, 1.10479993745684623718e-02) (173, 7.80970081686973571777e-02) (174, -6.67526274919509887695e-02) (175, -7.83268436789512634277e-02) (176, -4.88836355507373809814e-02) (177, -8.23274403810501098633e-02) (178, 7.68820717930793762207e-02) (179, -2.43196333758533000946e-03) (180, 2.61578895151615142822e-03) (181, 6.25844523310661315918e-02) (182, 6.08160048723220825195e-02) (183, 4.72646206617355346680e-02) (184, -3.04053593426942825317e-02) (185, -2.34382152557373046875e-02) (186, 3.89167544199153780937e-04) (187, 2.13465057313442230225e-02) (188, -6.23476654291152954102e-02) (189, 6.28317743539810180664e-02) (190, 1.45013751462101936340e-02) (191, 6.77081346511840820312e-02) (192, 6.94271400570869445801e-02) (193, -6.65578022599220275879e-02) (194, 7.30397552251815795898e-03) (195, 6.73672437667846679688e-01) (196, 1.50501564145088195801e-01) (197, 1.77516102790832519531e-01) (198, 9.49201062321662902832e-02) (199, 8.16756486892700195312e-03) (200, 1.40121728181838989258e-02) (201, -4.65603433549404144287e-02) (202, 9.13184508681297302246e-02) (203, -7.33956098556518554688e-02) (204, -6.84633255004882812500e-02) (205, -7.54341632127761840820e-02) (206, -5.17224520444869995117e-02) (207, 5.09192049503326416016e-03) (208, -3.25459450483322143555e-01) (209, -1.70765221118927001953e-01) (210, 6.72440007328987121582e-02) (211, 6.49856254458427429199e-02) (212, -6.73710107803344726562e-02) (213, 3.50229814648628234863e-02) (214, 1.68922916054725646973e-02) (215, 2.77562513947486877441e-02) (216, -8.45406353473663330078e-02) (217, -7.95183181762695312500e-02) (218, -5.43869175016880035400e-02) (219, -7.60979205369949340820e-02) (220, -9.81169641017913818359e-02) (221, -9.73315984010696411133e-02) (222, 9.85886529088020324707e-02) (223, 7.13101699948310852051e-02) (224, -6.38893991708755493164e-02) (225, 5.89261949062347412109e-03) (226, 3.83701100945472717285e-02) (227, 8.23007747530937194824e-02) (228, 8.83564725518226623535e-02) (229, 3.32902148365974426270e-02) (230, -9.53166931867599487305e-03) (231, 2.36864387989044189453e-03) (232, 8.67298766970634460449e-02) (233, -1.82132124900817871094e-02) (234, 2.89730355143547058105e-02) (235, -8.17334577441215515137e-02) (236, 6.35261833667755126953e-03) (237, 7.72505775094032287598e-02) (238, 2.33584642410278320312e-02) (239, 5.55694326758384704590e-02) (240, -8.13250243663787841797e-02) (241, -9.39753651618957519531e-03) (242, 2.05550566315650939941e-02) (243, -4.86960299313068389893e-02) (244, -7.43745639920234680176e-02) (245, -6.25526532530784606934e-02) (246, 7.90602192282676696777e-02) (247, -5.89151941239833831787e-02) (248, -4.20709736645221710205e-02) (249, -7.53266960382461547852e-02) (250, -3.50131168961524963379e-02) (251, -4.01879325509071350098e-02) (252, -7.26583003997802734375e-02) (253, -3.64244729280471801758e-02) (254, -6.88777640461921691895e-02) (255, -3.65477055311203002930e-02) (256, 7.02818706631660461426e-02) (0, 6.94923475384712219238e-02) (1, -5.42469359934329986572e-02) (2, 5.78246191143989562988e-02) (3, 2.78256088495254516602e-03) (4, 3.62213924527168273926e-02) (5, -3.98067496716976165771e-02) (6, -1.04875713586807250977e-02) (7, -8.19918215274810791016e-02) (8, 8.91662910580635070801e-02) (9, 7.77896493673324584961e-03) (10, 2.43607982993125915527e-02) (11, 6.64168670773506164551e-02) (12, -6.88625648617744445801e-02) (13, -2.00697630643844604492e-02) (14, 8.50918367505073547363e-02) (15, 2.17399001121520996094e-02) (16, -9.95147079229354858398e-02) (17, -6.36041909456253051758e-02) (18, 4.73653301596641540527e-02) (19, -6.20673559606075286865e-02) (20, -8.45439732074737548828e-02) (21, 8.84501412510871887207e-02) (22, -4.13833558559417724609e-03) (23, -5.98706714808940887451e-02) (24, -4.65629771351814270020e-02) (25, 5.56737259030342102051e-02) (26, -3.25289741158485412598e-02) (27, 1.70125514268875122070e-02) (28, 8.67959782481193542480e-02) (29, 3.09233292937278747559e-02) (30, -1.35193094611167907715e-02) (31, 5.62883242964744567871e-02) (32, 7.66763910651206970215e-02) (33, -5.56946955621242523193e-02) (34, -4.09291200339794158936e-02) (35, 1.28977894783020019531e-02) (36, 4.49855625629425048828e-03) (37, 4.85833212733268737793e-02) (38, 3.09059694409370422363e-02) (39, -6.33516162633895874023e-03) (40, -4.36377190053462982178e-02) (41, -4.47332374751567840576e-02) (42, -3.99183034896850585938e-02) (43, -1.25002861022949218750e-02) (44, 3.51969972252845764160e-02) (45, -5.48264645040035247803e-02) (46, -9.07603874802589416504e-02) (47, 3.56822833418846130371e-02) (48, -1.84306576848030090332e-02) (49, 5.66049441695213317871e-02) (50, 7.36149325966835021973e-02) (51, -2.97462195158004760742e-03) (52, 4.50550839304924011230e-02) (53, -3.05233970284461975098e-02) (54, 3.71546968817710876465e-02) (55, 9.84921082854270935059e-02) (56, -7.48496651649475097656e-02) (57, -9.53742712736129760742e-02) (58, 1.55046582221984863281e-02) (59, -8.80536884069442749023e-02) (60, 3.55490520596504211426e-02) (61, -9.80146527290344238281e-02) (62, 6.82346299290657043457e-02) (63, 1.22254490852355957031e-02) (64, -5.37093468010425567627e-02) (65, -7.26944804191589355469e-02) (66, -7.48767629265785217285e-02) (67, 5.07892146706581115723e-02) (68, 7.58888199925422668457e-02) (69, 5.60292080044746398926e-02) (70, -5.55459484457969665527e-02) (71, -6.77488893270492553711e-02) (72, -8.87040421366691589355e-02) (73, 4.53574955463409423828e-03) (74, 1.97508186101913452148e-02) (75, 4.64929565787315368652e-02) (76, 4.97092828154563903809e-02) (77, 2.89904400706291198730e-02) (78, -1.78247541189193725586e-02) (79, -6.87213689088821411133e-02) (80, -1.44046172499656677246e-02) (81, -4.42098192870616912842e-02) (82, 2.83040031790733337402e-02) (83, -6.93495348095893859863e-02) (84, 2.52667739987373352051e-02) (85, -3.45412939786911010742e-02) (86, -7.08574280142784118652e-02) (87, 5.04171177744865417480e-02) (88, -2.99155563116073608398e-02) (89, 4.46472242474555969238e-02) (90, 6.23634383082389831543e-02) (91, -9.43665057420730590820e-02) (92, 4.66325804591178894043e-02) (93, 3.05980667471885681152e-02) (94, 1.78589448332786560059e-02) (95, 9.29232314229011535645e-02) (96, 5.79035952687263488770e-02) (97, 2.93242130428552627563e-02) (98, -1.03967823088169097900e-01) (99, -3.72214943170547485352e-01) (100, 1.15122847259044647217e-01) (101, 2.34487080574035644531e+00) (102, 1.00590312480926513672e+00) (103, 4.39456582069396972656e-01) (104, 1.55793833732604980469e+00) (105, -3.23138773441314697266e-01) (106, -8.05760443210601806641e-01) (107, -1.14990329742431640625e+00) (108, 1.10055875778198242188e+00) (109, -1.07678055763244628906e-01) (110, 1.06080567836761474609e+00) (111, 5.49244105815887451172e-01) (112, -1.84103772044181823730e-01) (113, -5.75405992567539215088e-02) (114, 1.44271397590637207031e+00) (115, 1.30674540996551513672e+00) (116, 2.07492685317993164062e+00) (117, 6.19016945362091064453e-01) (118, 4.90869849920272827148e-01) (119, -1.09521329402923583984e+00) (120, 6.40634670853614807129e-02) (121, -4.97682690620422363281e-01) (122, -2.27457857131958007812e+00) (123, -4.85469810664653778076e-02) (124, 6.34111240506172180176e-02) (125, -3.89702208340167999268e-02) (126, -5.56237436830997467041e-02) (127, 2.13146954774856567383e-02) (128, -1.17080338299274444580e-01) (129, 5.29378689825534820557e-02) (130, -1.00115609169006347656e+00) (131, -1.38496132567524909973e-02) (132, -5.29171302914619445801e-02) (133, -4.28934246301651000977e-01) (134, -8.94777551293373107910e-02) (135, -2.18739017844200134277e-01) (136, 4.13272390142083168030e-03) (137, -3.12732160091400146484e-02) (138, 1.13690048456192016602e-02) (139, 1.32932877168059349060e-02) (140, -1.10578477382659912109e-01) (141, 8.36597979068756103516e-02) (142, -8.35131034255027770996e-02) (143, -1.07368357479572296143e-01) (144, 8.28466266393661499023e-02) (145, 5.17363399267196655273e-02) (146, 2.10945922881364822388e-02) (147, -4.68979775905609130859e-02) (148, 9.09598544239997863770e-03) (149, 8.87313261628150939941e-02) (150, 9.20435860753059387207e-02) (151, -8.18657949566841125488e-02) (152, -7.70393237471580505371e-02) (153, -3.96765321493148803711e-01) (154, -3.18169556558132171631e-02) (155, -2.99580007791519165039e-01) (156, 9.34357419610023498535e-02) (157, 8.33895895630121231079e-03) (158, 3.45691828988492488861e-03) (159, -1.01143233478069305420e-01) (160, 2.08795331418514251709e-02) (161, 6.27901181578636169434e-02) (162, -3.75067628920078277588e-03) (163, -2.30983681976795196533e-02) (164, 8.81509408354759216309e-02) (165, 1.52050992473959922791e-02) (166, 5.23252934217453002930e-02) (167, -2.65861372463405132294e-03) (168, 1.17078296840190887451e-01) (169, 5.97796440124511718750e-02) (170, -7.81349912285804748535e-02) (171, 9.30392369627952575684e-02) (172, -5.91185018420219421387e-02) (173, -6.10643960535526275635e-02) (174, 9.97198894619941711426e-02) (175, -6.92536383867263793945e-02) (176, 5.13003468513488769531e-02) (177, 1.09704006463289260864e-02) (178, -4.42730486392974853516e-02) (179, -3.91798496246337890625e-01) (180, -5.92397525906562805176e-03) (181, -7.47267007827758789062e-02) (182, 1.08698904514312744141e-02) (183, 3.67127172648906707764e-02) (184, -1.33899778127670288086e-01) (185, 8.60785320401191711426e-02) (186, -2.13934276252985000610e-02) (187, -1.10110692679882049561e-01) (188, -4.01363611221313476562e-01) (189, -8.61240774393081665039e-02) (190, -1.68319001793861389160e-01) (191, -1.03523328900337219238e-01) (192, -8.53815600275993347168e-02) (193, 1.22903957962989807129e-02) (194, -1.25655978918075561523e-02) (195, -3.12778711318969726562e-01) (196, -1.06159317493438720703e+00) (197, -1.91628026962280273438e+00) (198, -2.13469564914703369141e-03) (199, -8.43582898378372192383e-02) (200, -6.66690617799758911133e-03) (201, 1.46909803152084350586e-02) (202, -8.85106325149536132812e-02) (203, 3.70261147618293762207e-02) (204, 5.36266043782234191895e-02) (205, -8.87907370924949645996e-02) (206, 6.77724704146385192871e-02) (207, 4.57027629017829895020e-02) (208, -4.64312255382537841797e-01) (209, -2.50857830047607421875e-01) (210, -4.89073209464550018311e-02) (211, -4.71871085464954376221e-02) (212, 3.03212478756904602051e-02) (213, 7.46168121695518493652e-02) (214, 9.79592874646186828613e-02) (215, 4.28318455815315246582e-02) (216, 6.77281692624092102051e-02) (217, 3.36842015385627746582e-02) (218, 5.15866056084632873535e-02) (219, -2.51970067620277404785e-02) (220, 8.13023075461387634277e-02) (221, 6.05975314974784851074e-02) (222, -1.60699933767318725586e-02) (223, 9.59207490086555480957e-02) (224, -2.71120816469192504883e-02) (225, 7.13644102215766906738e-02) (226, 9.86901447176933288574e-02) (227, 1.78848206996917724609e-03) (228, -9.39363315701484680176e-02) (229, -3.44455242156982421875e-03) (230, 1.74301862716674804688e-02) (231, -6.03236258029937744141e-04) (232, -8.87535661458969116211e-02) (233, 2.89195701479911804199e-02) (234, -6.35771304368972778320e-02) (235, 6.48730322718620300293e-02) (236, 4.01288345456123352051e-02) (237, -9.58046540617942810059e-02) (238, 1.05757862329483032227e-02) (239, -2.50372737646102905273e-02) (240, -4.27795760333538055420e-02) (241, 6.16684630513191223145e-02) (242, 2.77756229043006896973e-02) (243, 8.75416770577430725098e-02) (244, 3.62852737307548522949e-02) (245, 2.57349088788032531738e-02) (246, 3.03735211491584777832e-02) (247, 4.01343405246734619141e-03) (248, -4.05809096992015838623e-02) (249, -1.80398672819137573242e-02) (250, 7.88164362311363220215e-02) (251, -5.92785999178886413574e-02) (252, -5.74423484504222869873e-02) (253, -3.72535586357116699219e-02) (254, -6.33578449487686157227e-02) (255, 1.54455676674842834473e-02) (256, -4.16223049163818359375e-01) (0, -6.46677091717720031738e-02) (1, -8.27659443020820617676e-02) (2, -5.98254650831222534180e-02) (3, 3.18877473473548889160e-02) (4, 3.46642509102821350098e-02) (5, 3.95712926983833312988e-02) (6, 4.31341752409934997559e-02) (7, -3.64161878824234008789e-02) (8, 7.59941861033439636230e-02) (9, 8.00720602273941040039e-03) (10, -9.62873697280883789062e-02) (11, 8.01895335316658020020e-02) (12, -8.14170092344284057617e-02) (13, -2.13246420025825500488e-02) (14, -6.25900626182556152344e-02) (15, 8.02514627575874328613e-02) (16, -9.35490205883979797363e-02) (17, -7.50483796000480651855e-02) (18, 1.65367275476455688477e-02) (19, 3.21858748793601989746e-02) (20, 5.53251430392265319824e-02) (21, -7.94498324394226074219e-02) (22, 9.16049703955650329590e-02) (23, -6.27147406339645385742e-02) (24, 9.93665978312492370605e-02) (25, -6.76736310124397277832e-02) (26, -2.01570838689804077148e-02) (27, -3.78869585692882537842e-02) (28, -3.10314744710922241211e-02) (29, 9.52884927392005920410e-02) (30, -3.77609580755233764648e-03) (31, 4.30081039667129516602e-03) (32, -8.74774605035781860352e-02) (33, 3.63984331488609313965e-02) (34, -6.38114511966705322266e-02) (35, 4.71867993474006652832e-02) (36, -2.40302607417106628418e-02) (37, 7.93227329850196838379e-02) (38, -8.92294049263000488281e-02) (39, -4.80360873043537139893e-02) (40, -1.26700550317764282227e-02) (41, -8.55167731642723083496e-02) (42, -6.78465664386749267578e-02) (43, 5.91293722391128540039e-03) (44, -6.84140622615814208984e-03) (45, -3.04366201162338256836e-02) (46, -1.38356164097785949707e-02) (47, -3.90425324440002441406e-04) (48, -5.48500567674636840820e-03) (49, -9.72988829016685485840e-02) (50, -6.82045519351959228516e-02) (51, -5.01598678529262542725e-02) (52, -7.67487213015556335449e-02) (53, -7.65995830297470092773e-02) (54, -1.28745958209037780762e-02) (55, -7.73821249604225158691e-02) (56, -4.42732088267803192139e-02) (57, 6.69683292508125305176e-02) (58, -1.52690857648849487305e-02) (59, 2.46953144669532775879e-02) (60, 6.22568055987358093262e-02) (61, 8.09548273682594299316e-02) (62, -7.10038766264915466309e-02) (63, 7.47793540358543395996e-02) (64, 1.73532590270042419434e-02) (65, -3.48153263330459594727e-02) (66, 2.19661369919776916504e-02) (67, 9.33229997754096984863e-02) (68, -5.54925911128520965576e-02) (69, 3.27367410063743591309e-02) (70, -5.47130852937698364258e-02) (71, 3.18373516201972961426e-02) (72, 4.72199693322181701660e-02) (73, -2.25596502423286437988e-02) (74, -6.22497163712978363037e-02) (75, -5.96214421093463897705e-02) (76, 4.70037385821342468262e-02) (77, 2.39146724343299865723e-02) (78, 3.99881228804588317871e-02) (79, -5.84812723100185394287e-02) (80, 2.66157910227775573730e-02) (81, 7.17835798859596252441e-02) (82, -8.64113867282867431641e-03) (83, 4.98670712113380432129e-02) (84, 9.51839908957481384277e-02) (85, 7.84842595458030700684e-02) (86, 7.24849477410316467285e-02) (87, -4.90892194211483001709e-02) (88, 4.54525873064994812012e-02) (89, -4.27841432392597198486e-02) (90, 7.56061002612113952637e-02) (91, 7.70938396453857421875e-03) (92, -6.18293210864067077637e-02) (93, -9.53977853059768676758e-02) (94, -1.75112634897232055664e-02) (95, 5.55239394307136535645e-02) (96, -3.02131026983261108398e-02) (97, -5.92822544276714324951e-02) (98, 2.05247417092323303223e-01) (99, -1.42756536602973937988e-01) (100, 1.25801429152488708496e-01) (101, 2.73855090141296386719e-01) (102, 8.16684901714324951172e-01) (103, 6.06715381145477294922e-01) (104, 1.94105255603790283203e+00) (105, 6.72554299235343933105e-02) (106, -3.62970918416976928711e-01) (107, -3.82870376110076904297e-01) (108, -4.73487786948680877686e-02) (109, -8.38271006941795349121e-02) (110, 5.30341267585754394531e-01) (111, 1.12637162208557128906e+00) (112, -4.88565176725387573242e-01) (113, -1.93671867251396179199e-01) (114, 4.99130815267562866211e-01) (115, 6.84720203280448913574e-02) (116, 1.12628889083862304688e+00) (117, -7.44621515274047851562e-01) (118, -3.51785048842430114746e-02) (119, -5.16969598829746246338e-02) (120, -6.00656494498252868652e-02) (121, 4.81832951307296752930e-01) (122, -9.25236463546752929688e-01) (123, 5.21509572863578796387e-02) (124, -3.71350571513175964355e-02) (125, -3.44095230102539062500e-02) (126, 7.67489522695541381836e-03) (127, 3.26518490910530090332e-02) (128, -3.02158333361148834229e-02) (129, -4.39152009785175323486e-02) (130, -4.33960616588592529297e-01) (131, -9.29761603474617004395e-02) (132, -1.03659294545650482178e-01) (133, -1.51879861950874328613e-01) (134, -8.38562659919261932373e-03) (135, -5.04069365561008453369e-02) (136, 7.68989995121955871582e-02) (137, -8.35439488291740417480e-02) (138, 4.08078506588935852051e-02) (139, 8.46396312117576599121e-02) (140, -1.90275199711322784424e-02) (141, -9.90781113505363464355e-02) (142, 1.91004388034343719482e-02) (143, 1.76388639956712722778e-02) (144, 5.23016601800918579102e-02) (145, -9.65343788266181945801e-02) (146, 4.94991131126880645752e-02) (147, -1.77129376679658889771e-02) (148, -3.98457236588001251221e-02) (149, -6.78697526454925537109e-02) (150, 5.76921775937080383301e-02) (151, 7.41929188370704650879e-02) (152, -9.60875302553176879883e-03) (153, -1.40375405550003051758e-01) (154, 2.63311248272657394409e-02) (155, -1.09746530652046203613e-01) (156, -9.36763584613800048828e-02) (157, -6.60322308540344238281e-02) (158, -1.41440872102975845337e-02) (159, -2.35830042511224746704e-02) (160, -1.32061421871185302734e-01) (161, 3.28485220670700073242e-02) (162, -1.64205618202686309814e-02) (163, 4.11659181118011474609e-02) (164, -7.40152969956398010254e-02) (165, 7.53326267004013061523e-02) (166, -6.72302022576332092285e-02) (167, -1.27703770995140075684e-01) (168, -9.21069905161857604980e-02) (169, -7.08446145057678222656e-01) (170, 5.70554696023464202881e-02) (171, -2.70641893148422241211e-02) (172, -9.49222072958946228027e-02) (173, 6.86959922313690185547e-03) (174, 9.07496288418769836426e-02) (175, 5.74985817074775695801e-02) (176, 9.81219392269849777222e-03) (177, 4.01151143014430999756e-02) (178, -6.05661161243915557861e-02) (179, -9.26124900579452514648e-02) (180, 7.21591338515281677246e-02) (181, 9.68440249562263488770e-02) (182, 4.45642732083797454834e-02) (183, -3.72070968151092529297e-02) (184, 3.77082638442516326904e-02) (185, -2.90199927985668182373e-02) (186, -1.02113775908946990967e-01) (187, 1.37327015399932861328e-02) (188, -1.58199071884155273438e-01) (189, 1.75066769588738679886e-03) (190, -7.98573717474937438965e-02) (191, 9.54694524407386779785e-02) (192, -6.49239867925643920898e-02) (193, 4.76530939340591430664e-03) (194, 3.68229672312736511230e-02) (195, -1.24367117881774902344e+00) (196, -4.36458766460418701172e-01) (197, -8.78259181976318359375e-01) (198, -3.59948202967643737793e-02) (199, -2.81655490398406982422e-02) (200, -9.55167934298515319824e-02) (201, -4.82939966022968292236e-02) (202, 4.48052957653999328613e-02) (203, -9.03782472014427185059e-02) (204, 5.85756078362464904785e-02) (205, 3.55549231171607971191e-02) (206, 6.71203210949897766113e-02) (207, -3.11065465211868286133e-02) (208, -3.03600784391164779663e-02) (209, -9.56114009022712707520e-02) (210, -6.05760589241981506348e-02) (211, -5.17153441905975341797e-02) (212, -9.55907329916954040527e-02) (213, 8.41473564505577087402e-02) (214, 1.11841186881065368652e-02) (215, 4.26937416195869445801e-02) (216, -4.47853505611419677734e-02) (217, 2.73924991488456726074e-02) (218, -1.26373916864395141602e-02) (219, 6.03007152676582336426e-02) (220, -7.04383775591850280762e-02) (221, 8.46122205257415771484e-03) (222, 5.59273734688758850098e-02) (223, -3.53623628616333007812e-02) (224, -8.67734700441360473633e-02) (225, -7.24966824054718017578e-03) (226, 2.56983712315559387207e-02) (227, -6.69293105602264404297e-03) (228, -7.00049847364425659180e-03) (229, 8.97035375237464904785e-02) (230, 6.51415213942527770996e-02) (231, -2.51729786396026611328e-03) (232, -5.85904568433761596680e-02) (233, 9.94680821895599365234e-03) (234, 7.10445642471313476562e-03) (235, 9.99851450324058532715e-02) (236, -5.44982664287090301514e-02) (237, -2.57752090692520141602e-02) (238, -3.11214029788970947266e-02) (239, 2.13308930397033691406e-02) (240, -1.88565030694007873535e-02) (241, 8.30254703760147094727e-03) (242, 6.96155503392219543457e-02) (243, -1.44472271203994750977e-02) (244, -7.55010545253753662109e-03) (245, -1.92003250122070312500e-02) (246, -7.17534795403480529785e-02) (247, 4.76645454764366149902e-02) (248, -9.18078273534774780273e-02) (249, 1.56091302633285522461e-02) (250, 7.96525180339813232422e-03) (251, -6.22462071478366851807e-02) (252, -7.59296491742134094238e-02) (253, -3.61073687672615051270e-02) (254, 2.39143520593643188477e-03) (255, -6.27031177282333374023e-02) (256, -1.94960638880729675293e-01) (0, -7.19102025032043457031e-02) (1, 3.06039527058601379395e-02) (2, -5.03575317561626434326e-02) (3, -8.22066664695739746094e-02) (4, -4.25451993942260742188e-03) (5, 4.71251830458641052246e-02) (6, -4.07971255481243133545e-02) (7, -9.43077057600021362305e-02) (8, -4.57703582942485809326e-02) (9, -4.08119745552539825439e-02) (10, -4.88059706985950469971e-02) (11, 2.84544304013252258301e-02) (12, 2.80666276812553405762e-02) (13, 7.25249275565147399902e-02) (14, -9.04020741581916809082e-02) (15, -6.36308342218399047852e-02) (16, 4.21404764056205749512e-02) (17, -4.84929978847503662109e-03) (18, 2.88190767168998718262e-02) (19, -7.70598500967025756836e-02) (20, 2.33972072601318359375e-02) (21, -2.35163792967796325684e-02) (22, -6.88676834106445312500e-02) (23, -6.09936565160751342773e-02) (24, 8.44488814473152160645e-02) (25, -3.11138853430747985840e-02) (26, -3.69233042001724243164e-02) (27, -5.16584925353527069092e-02) (28, 7.12775513529777526855e-02) (29, 3.73587012290954589844e-04) (30, -9.50155258178710937500e-02) (31, 9.93673428893089294434e-02) (32, -6.90224543213844299316e-02) (33, -4.53730523586273193359e-02) (34, -8.28393250703811645508e-02) (35, 2.67230346798896789551e-02) (36, -9.82478708028793334961e-02) (37, -2.36364454030990600586e-02) (38, 3.24153229594230651855e-02) (39, -4.40182350575923919678e-02) (40, 3.55515703558921813965e-02) (41, 8.36093500256538391113e-02) (42, 8.44361856579780578613e-02) (43, -3.63817960023880004883e-02) (44, 5.61342760920524597168e-02) (45, 9.40341278910636901855e-02) (46, -1.26287341117858886719e-05) (47, -1.72524899244308471680e-03) (48, -1.08151882886886596680e-02) (49, -7.11935609579086303711e-02) (50, 2.12149024009704589844e-02) (51, -8.74179750680923461914e-02) (52, 5.29005378484725952148e-03) (53, 5.23472204804420471191e-02) (54, -4.84116263687610626221e-02) (55, -1.02610737085342407227e-02) (56, -7.87666738033294677734e-02) (57, 1.46650671958923339844e-02) (58, 3.80804315209388732910e-02) (59, 9.25108864903450012207e-02) (60, -8.49613472819328308105e-02) (61, 4.30649146437644958496e-02) (62, 9.18782278895378112793e-02) (63, -5.39838038384914398193e-02) (64, 9.76918563246726989746e-02) (65, -9.09611061215400695801e-02) (66, 7.27392211556434631348e-02) (67, 9.94439795613288879395e-02) (68, -1.45975500345230102539e-02) (69, 5.15455007553100585938e-03) (70, -4.45742420852184295654e-02) (71, -7.90459811687469482422e-02) (72, -1.12361013889312744141e-02) (73, -6.01380467414855957031e-02) (74, -1.54277831315994262695e-02) (75, -5.51018230617046356201e-02) (76, -6.61039352416992187500e-02) (77, 8.45595970749855041504e-02) (78, 4.31729331612586975098e-02) (79, 2.30808854103088378906e-02) (80, -8.66339728236198425293e-02) (81, -3.56121808290481567383e-02) (82, 3.56629118323326110840e-02) (83, 1.86560750007629394531e-02) (84, -8.32649618387222290039e-02) (85, 8.72512832283973693848e-02) (86, -9.16050001978874206543e-02) (87, -6.20316304266452789307e-02) (88, 1.91636383533477783203e-03) (89, 4.64754328131675720215e-02) (90, -6.95207566022872924805e-02) (91, 1.69550180435180664062e-02) (92, -1.04596540331840515137e-02) (93, -7.76425302028656005859e-02) (94, 6.29712119698524475098e-02) (95, -1.27677917480468750000e-02) (96, -6.86036422848701477051e-02) (97, 2.37795002758502960205e-02) (98, -1.22703775763511657715e-01) (99, -3.92178446054458618164e-01) (100, 6.26427829265594482422e-02) (101, 2.16713047027587890625e+00) (102, 1.07210063934326171875e+00) (103, 5.43131947517395019531e-01) (104, 1.90178716182708740234e+00) (105, -3.54668080806732177734e-01) (106, -7.07150340080261230469e-01) (107, -1.15739762783050537109e+00) (108, 1.01542627811431884766e+00) (109, -1.29854902625083923340e-01) (110, 1.15121853351593017578e+00) (111, 6.28158271312713623047e-01) (112, -2.58002340793609619141e-01) (113, -3.34360226988792419434e-02) (114, 1.44329798221588134766e+00) (115, 1.31694126129150390625e+00) (116, 2.12050318717956542969e+00) (117, 4.34189230203628540039e-01) (118, 4.17023390531539916992e-01) (119, -9.95497286319732666016e-01) (120, 3.50518226623535156250e-02) (121, -3.37187260389328002930e-01) (122, -2.36497211456298828125e+00) (123, 8.33175256848335266113e-02) (124, -1.03720724582672119141e-02) (125, -5.63023611903190612793e-02) (126, -2.94502750039100646973e-02) (127, 2.10242867469787597656e-02) (128, 6.10139220952987670898e-02) (129, 2.65708081424236297607e-02) (130, -1.01963841915130615234e+00) (131, -9.44395288825035095215e-02) (132, -1.30909010767936706543e-01) (133, -2.76623845100402832031e-01) (134, 4.74518686532974243164e-02) (135, -2.05843061208724975586e-01) (136, 9.54519435763359069824e-02) (137, 2.32039652764797210693e-02) (138, -2.84824520349502563477e-03) (139, -1.02576039731502532959e-01) (140, -7.50428363680839538574e-02) (141, -6.51337578892707824707e-02) (142, -7.98638761043548583984e-02) (143, -8.55913609266281127930e-02) (144, 7.01781269162893295288e-03) (145, 6.27187415957450866699e-02) (146, -7.94093906879425048828e-02) (147, 7.13250786066055297852e-02) (148, 7.56616890430450439453e-03) (149, -4.50732260942459106445e-02) (150, 3.63228842616081237793e-02) (151, -9.49780791997909545898e-02) (152, 2.34231539070606231689e-02) (153, -5.18615424633026123047e-01) (154, 8.71130824089050292969e-02) (155, -4.76586490869522094727e-01) (156, -4.17031235992908477783e-02) (157, -4.60148938000202178955e-02) (158, 3.03962826728820800781e-02) (159, -6.10694885253906250000e-02) (160, -8.91389474272727966309e-02) (161, 7.19115957617759704590e-02) (162, -4.57032471895217895508e-02) (163, 1.42169501632452011108e-02) (164, 5.11525347828865051270e-02) (165, -9.08963605761528015137e-02) (166, 9.57485437393188476562e-02) (167, 4.56052422523498535156e-02) (168, 2.87222359329462051392e-02) (169, -2.62302830815315246582e-02) (170, 5.28409406542778015137e-02) (171, 7.44389668107032775879e-02) (172, 2.75270976126194000244e-02) (173, 7.88753703236579895020e-02) (174, -9.88952368497848510742e-02) (175, -5.93244731426239013672e-02) (176, 7.25824432447552680969e-03) (177, -8.68913754820823669434e-02) (178, -1.12524345517158508301e-01) (179, -4.45385754108428955078e-01) (180, -3.68714295327663421631e-02) (181, 4.18001925572752952576e-03) (182, -5.19516058266162872314e-02) (183, -9.62851047515869140625e-02) (184, 2.61347256600856781006e-02) (185, -5.87068498134613037109e-02) (186, -1.27847820520401000977e-01) (187, -9.44826230406761169434e-02) (188, -4.02947098016738891602e-01) (189, 3.61309051513671875000e-02) (190, -9.99378040432929992676e-02) (191, 1.13930348306894302368e-02) (192, 4.11359146237373352051e-02) (193, 2.79292240738868713379e-02) (194, -6.21282830834388732910e-02) (195, -4.32694733142852783203e-01) (196, -9.60367798805236816406e-01) (197, -1.93290996551513671875e+00) (198, -5.86580745875835418701e-02) (199, -2.69817560911178588867e-02) (200, 2.84929797053337097168e-02) (201, 9.51810255646705627441e-02) (202, -5.00937700271606445312e-02) (203, -4.15278933942317962646e-02) (204, 7.40563943982124328613e-02) (205, -4.89890053868293762207e-02) (206, -8.52361321449279785156e-04) (207, 1.68747529387474060059e-02) (208, -4.60151374340057373047e-01) (209, -1.65427073836326599121e-01) (210, 7.09378793835639953613e-02) (211, 5.91306313872337341309e-02) (212, -3.80755141377449035645e-02) (213, -6.99770897626876831055e-02) (214, 7.02071711421012878418e-02) (215, -7.14763477444648742676e-02) (216, -2.25526094436645507812e-02) (217, 9.80129465460777282715e-02) (218, -4.41302321851253509521e-02) (219, 8.37610438466072082520e-02) (220, 6.35722354054450988770e-02) (221, 2.33709067106246948242e-02) (222, 6.18978589773178100586e-03) (223, 4.70813363790512084961e-03) (224, -4.86998744308948516846e-02) (225, 4.40615043044090270996e-02) (226, 9.69965681433677673340e-02) (227, 8.95593687891960144043e-02) (228, 7.86679908633232116699e-02) (229, -6.16615116596221923828e-02) (230, -3.74223962426185607910e-02) (231, 7.16096162796020507812e-03) (232, -6.64804950356483459473e-02) (233, 1.24838352203369140625e-02) (234, 6.56330659985542297363e-02) (235, -9.24241095781326293945e-02) (236, 6.34948238730430603027e-02) (237, -3.52192893624305725098e-02) (238, 2.44506448507308959961e-02) (239, -6.13497793674468994141e-02) (240, 7.71553441882133483887e-02) (241, -4.61148470640182495117e-03) (242, 9.77808460593223571777e-02) (243, -6.09201751649379730225e-02) (244, 2.54114195704460144043e-02) (245, 6.79880306124687194824e-02) (246, -3.23965176939964294434e-02) (247, -9.71411988139152526855e-02) (248, 6.60009607672691345215e-02) (249, 2.34732478857040405273e-02) (250, 8.66198614239692687988e-02) (251, 2.95731946825981140137e-02) (252, -5.31558431684970855713e-02) (253, -7.19036161899566650391e-03) (254, -6.57186731696128845215e-02) (255, -1.85571610927581787109e-03) (256, -4.23090457916259765625e-01) (0, -6.87221139669418334961e-02) (1, -1.22963562607765197754e-02) (2, -8.44608694314956665039e-02) (3, -3.03836166858673095703e-02) (4, 5.02812489867210388184e-02) (5, 2.27000936865806579590e-02) (6, 3.13588231801986694336e-03) (7, -3.72349172830581665039e-02) (8, -1.16668269038200378418e-02) (9, 1.07117742300033569336e-02) (10, -7.37400949001312255859e-02) (11, 5.31138852238655090332e-02) (12, -6.48375749588012695312e-02) (13, -3.50898727774620056152e-02) (14, 3.02692130208015441895e-02) (15, 3.05509343743324279785e-02) (16, -3.73090207576751708984e-02) (17, 6.93490430712699890137e-02) (18, -4.40376475453376770020e-02) (19, -6.93209990859031677246e-02) (20, -6.30474835634231567383e-02) (21, -4.11788411438465118408e-02) (22, 9.66799631714820861816e-02) (23, 6.04257658123970031738e-02) (24, -5.45589923858642578125e-02) (25, 2.62531563639640808105e-02) (26, -9.27300751209259033203e-02) (27, 3.82506474852561950684e-02) (28, 6.05344846844673156738e-02) (29, 5.41421025991439819336e-03) (30, 7.51217976212501525879e-02) (31, 9.18123796582221984863e-02) (32, 9.31178554892539978027e-02) (33, 9.06609371304512023926e-02) (34, -3.85712385177612304688e-02) (35, 4.33991029858589172363e-02) (36, 1.33610218763351440430e-02) (37, 6.45646527409553527832e-02) (38, -9.38358157873153686523e-02) (39, -9.83058065176010131836e-02) (40, -2.47235745191574096680e-02) (41, -6.75759091973304748535e-02) (42, 5.48080876469612121582e-02) (43, 1.04388445615768432617e-02) (44, -2.66578048467636108398e-03) (45, -1.49227008223533630371e-02) (46, -5.90102151036262512207e-02) (47, 6.00252076983451843262e-02) (48, -4.55736629664897918701e-02) (49, -3.04786115884780883789e-03) (50, 9.07042101025581359863e-02) (51, -8.62114131450653076172e-03) (52, 5.57732954621315002441e-02) (53, 8.73841717839241027832e-02) (54, -4.81953732669353485107e-02) (55, -9.87856984138488769531e-02) (56, 1.36373192071914672852e-02) (57, -4.09254506230354309082e-02) (58, 3.94649580121040344238e-02) (59, -2.58281975984573364258e-02) (60, 6.44887760281562805176e-02) (61, 1.45867466926574707031e-02) (62, -3.40158194303512573242e-02) (63, 5.76066300272941589355e-02) (64, 5.24768978357315063477e-03) (65, 2.74129435420036315918e-02) (66, 1.00572407245635986328e-03) (67, -8.13912898302078247070e-02) (68, -8.02241265773773193359e-03) (69, 7.16990232467651367188e-03) (70, -7.96970948576927185059e-02) (71, 6.72540143132209777832e-02) (72, 3.95940020680427551270e-02) (73, 7.51109793782234191895e-02) (74, -2.23071277141571044922e-02) (75, -6.30717873573303222656e-02) (76, -3.98117192089557647705e-02) (77, 1.86826586723327636719e-02) (78, 9.69534143805503845215e-02) (79, 1.46146193146705627441e-02) (80, -8.43652039766311645508e-02) (81, 8.76576229929924011230e-02) (82, -9.40065234899520874023e-02) (83, 7.14081004261970520020e-02) (84, 7.50417783856391906738e-02) (85, -4.22018952667713165283e-02) (86, 7.26223960518836975098e-02) (87, -1.13209038972854614258e-02) (88, 1.68726593255996704102e-02) (89, 1.20873451232910156250e-02) (90, 6.28508999943733215332e-02) (91, -1.86385735869407653809e-02) (92, -7.33259022235870361328e-02) (93, -7.11649209260940551758e-02) (94, -6.10319599509239196777e-02) (95, 3.19217815995216369629e-02) (96, 5.62480166554450988770e-02) (97, 2.14639841578900814056e-03) (98, -1.27504289150238037109e-01) (99, -2.09336891770362854004e-01) (100, -3.75059507787227630615e-02) (101, 1.30537712574005126953e+00) (102, -1.49435577914118766785e-02) (103, -9.44927893579006195068e-03) (104, -1.31055608391761779785e-01) (105, -2.46464580297470092773e-01) (106, -3.14274400472640991211e-01) (107, -5.79174637794494628906e-01) (108, 5.90780615806579589844e-01) (109, -1.43006235361099243164e-01) (110, 3.41540068387985229492e-01) (111, -3.67858797311782836914e-01) (112, -2.14936416596174240112e-02) (113, 1.88766762614250183105e-01) (114, 6.46057069301605224609e-01) (115, 7.68430590629577636719e-01) (116, 7.18493759632110595703e-01) (117, 7.96930789947509765625e-01) (118, 2.92174220085144042969e-01) (119, -6.62153422832489013672e-01) (120, 6.05796724557876586914e-02) (121, -6.19532108306884765625e-01) (122, -7.36432671546936035156e-01) (123, 1.02818608283996582031e-02) (124, -3.63162308931350708008e-02) (125, -7.82590061426162719727e-02) (126, -5.77963665127754211426e-02) (127, -8.00682231783866882324e-02) (128, 5.07600679993629455566e-02) (129, 7.44718313217163085938e-02) (130, -3.85562390089035034180e-01) (131, -9.99170839786529541016e-02) (132, 1.69032588601112365723e-02) (133, -1.43777459859848022461e-01) (134, 9.41576734185218811035e-02) (135, -6.07279129326343536377e-02) (136, 7.53710791468620300293e-02) (137, -8.14466997981071472168e-02) (138, 1.56445652246475219727e-02) (139, 8.42952206730842590332e-02) (140, -7.03374594449996948242e-02) (141, -6.43168538808822631836e-02) (142, -8.67580771446228027344e-02) (143, -5.76872676610946655273e-02) (144, 6.09479025006294250488e-02) (145, -8.56560692191123962402e-02) (146, -6.99614956974983215332e-02) (147, 4.69522736966609954834e-02) (148, 8.44000577926635742188e-02) (149, 5.53264690097421407700e-04) (150, -5.09169846773147583008e-02) (151, -2.98191756010055541992e-02) (152, 3.61387021839618682861e-02) (153, -2.24447891116142272949e-01) (154, 7.97539874911308288574e-02) (155, -2.39490464329719543457e-01) (156, -4.78593781590461730957e-02) (157, -8.02463591098785400391e-02) (158, -8.24304744601249694824e-02) (159, -8.53969827294349670410e-02) (160, -4.30527562275528907776e-03) (161, -1.20941307395696640015e-02) (162, -7.94675499200820922852e-02) (163, 7.82592669129371643066e-02) (164, 7.37333819270133972168e-02) (165, -8.09424445033073425293e-02) (166, 8.73769260942935943604e-03) (167, 6.93319514393806457520e-02) (168, 6.05663396418094635010e-02) (169, 3.09240251779556274414e-01) (170, 5.94645626842975616455e-02) (171, -2.25504208356142044067e-02) (172, -6.09400644898414611816e-02) (173, 5.53621426224708557129e-02) (174, 2.70678028464317321777e-02) (175, -9.63511094450950622559e-02) (176, 4.92354854941368103027e-02) (177, 5.19670955836772918701e-02) (178, 3.59828211367130279541e-02) (179, -8.81601572036743164062e-02) (180, -5.03979846835136413574e-02) (181, -1.26608371734619140625e-01) (182, -7.94026553630828857422e-02) (183, -1.04026518762111663818e-01) (184, -9.18403044342994689941e-02) (185, -9.60063636302947998047e-02) (186, -1.20491035282611846924e-01) (187, -6.30427058786153793335e-03) (188, -2.20694631338119506836e-01) (189, -9.32348519563674926758e-02) (190, -3.90025079250335693359e-02) (191, -6.08797445893287658691e-02) (192, 1.43854394555091857910e-02) (193, 2.53381803631782531738e-02) (194, -7.53339305520057678223e-02) (195, 5.36806344985961914062e-01) (196, -3.12668174505233764648e-01) (197, -6.55784010887145996094e-01) (198, -6.13383054733276367188e-02) (199, 8.41326937079429626465e-02) (200, 1.72703638672828674316e-02) (201, 7.78692439198493957520e-02) (202, -3.69577333331108093262e-02) (203, 5.77866360545158386230e-02) (204, 3.32313850522041320801e-02) (205, 9.01100710034370422363e-02) (206, 6.14355280995368957520e-02) (207, 3.64615768194198608398e-03) (208, -2.10629284381866455078e-01) (209, -9.31516587734222412109e-02) (210, -3.93660031259059906006e-02) (211, -8.93256887793540954590e-02) (212, 1.31592899560928344727e-02) (213, -1.21973380446434020996e-02) (214, -8.89827683568000793457e-02) (215, 4.54186424612998962402e-02) (216, -4.56599891185760498047e-03) (217, -8.66326615214347839355e-02) (218, -6.87250494956970214844e-02) (219, 2.57316753268241882324e-02) (220, -6.23435787856578826904e-02) (221, 3.24429944157600402832e-02) (222, 7.14297816157341003418e-02) (223, 5.20418658852577209473e-02) (224, -4.22188416123390197754e-02) (225, 9.60958525538444519043e-02) (226, -5.98393231630325317383e-02) (227, -9.71143990755081176758e-02) (228, 9.24178212881088256836e-03) (229, -2.11776271462440490723e-02) (230, 8.70183035731315612793e-02) (231, -7.34878480434417724609e-02) (232, -4.33083884418010711670e-02) (233, -4.99394349753856658936e-02) (234, 8.42987969517707824707e-02) (235, 8.99229869246482849121e-02) (236, -5.98293654620647430420e-02) (237, 4.57343086600303649902e-02) (238, -6.43084943294525146484e-03) (239, 8.88254716992378234863e-02) (240, -4.15097884833812713623e-02) (241, 5.42031452059745788574e-02) (242, 9.94997695088386535645e-02) (243, 7.16494992375373840332e-02) (244, -5.79941980540752410889e-02) (245, -8.94829928874969482422e-02) (246, 1.70681327581405639648e-02) (247, 3.74398007988929748535e-02) (248, -7.61156529188156127930e-02) (249, 4.83430847525596618652e-02) (250, -3.68285253643989562988e-02) (251, -3.84592227637767791748e-02) (252, -1.92139297723770141602e-02) (253, -6.53987526893615722656e-02) (254, -8.64173620939254760742e-02) (255, 3.85672375559806823730e-02) (256, -1.48432850837707519531e-01) (0, -4.62566874921321868896e-02) (1, 4.14528325200080871582e-02) (2, 3.99388894438743591309e-02) (3, 3.25656905770301818848e-02) (4, 2.84711346030235290527e-02) (5, 6.64510354399681091309e-02) (6, 8.92573073506355285645e-02) (7, 7.85316899418830871582e-02) (8, 5.07498309016227722168e-02) (9, 7.91802927851676940918e-02) (10, -8.12976732850074768066e-02) (11, -3.51586192846298217773e-03) (12, -2.72505730390548706055e-02) (13, -9.24722105264663696289e-02) (14, 5.49743399024009704590e-02) (15, -7.30474218726158142090e-02) (16, -9.29724350571632385254e-02) (17, 2.66238525509834289551e-02) (18, -3.10416221618652343750e-02) (19, -8.24554264545440673828e-02) (20, -5.63080199062824249268e-02) (21, -9.36018154025077819824e-02) (22, -5.85710704326629638672e-02) (23, 9.20350626111030578613e-02) (24, -3.04303392767906188965e-02) (25, 2.96970456838607788086e-03) (26, -2.71788612008094787598e-02) (27, 4.17090952396392822266e-03) (28, 1.65523439645767211914e-02) (29, -8.86116325855255126953e-02) (30, 3.48680093884468078613e-02) (31, 7.02956542372703552246e-02) (32, 5.28412088751792907715e-02) (33, -2.51930952072143554688e-02) (34, 2.86134332418441772461e-03) (35, -1.86876654624938964844e-02) (36, -5.87420575320720672607e-02) (37, -7.88136571645736694336e-03) (38, -4.01559732854366302490e-02) (39, 9.20077636837959289551e-02) (40, -2.87010818719863891602e-02) (41, -2.14536413550376892090e-02) (42, -1.15080922842025756836e-02) (43, 4.40483465790748596191e-02) (44, -1.39258503913879394531e-02) (45, -5.65337501466274261475e-02) (46, 7.10009261965751647949e-02) (47, -6.89828395843505859375e-03) (48, 7.00901076197624206543e-02) (49, -6.00406974554061889648e-02) (50, 1.06462985277175903320e-02) (51, -8.62179249525070190430e-02) (52, -5.36425150930881500244e-02) (53, 5.20752146840095520020e-02) (54, -9.41828489303588867188e-02) (55, 1.59271359443664550781e-02) (56, -4.49550747871398925781e-02) (57, -2.13617086410522460938e-02) (58, -7.99019485712051391602e-02) (59, 7.15972706675529479980e-02) (60, -9.97333973646163940430e-03) (61, 5.49660697579383850098e-02) (62, 4.18929234147071838379e-02) (63, -5.71321360766887664795e-02) (64, -7.02270269393920898438e-02) (65, -5.52457422018051147461e-02) (66, 2.41801962256431579590e-02) (67, -2.89690867066383361816e-02) (68, 3.68728861212730407715e-02) (69, 8.40242281556129455566e-02) (70, -3.69613170623779296875e-02) (71, -9.18281972408294677734e-02) (72, -3.74294072389602661133e-02) (73, 5.15305921435356140137e-02) (74, 5.22201582789421081543e-02) (75, 4.86447289586067199707e-02) (76, 9.49968472123146057129e-02) (77, 2.32210755348205566406e-02) (78, -5.82535490393638610840e-02) (79, 6.50869384407997131348e-02) (80, 6.31803795695304870605e-02) (81, 5.23927435278892517090e-02) (82, 7.88690224289894104004e-02) (83, -9.04621407389640808105e-02) (84, 4.46796417236328125000e-03) (85, 8.46861675381660461426e-02) (86, 2.54650041460990905762e-02) (87, 5.95128908753395080566e-02) (88, -3.66755425930023193359e-02) (89, 4.55630496144294738770e-02) (90, 3.11101600527763366699e-02) (91, 5.33511117100715637207e-02) (92, 5.29125332832336425781e-04) (93, -2.69969254732131958008e-02) (94, 9.62189808487892150879e-02) (95, 3.03020849823951721191e-02) (96, 1.77573338150978088379e-02) (97, -2.45674982666969299316e-01) (98, -3.70276510715484619141e-01) (99, 1.86430200934410095215e-01) (100, -2.48026758432388305664e-01) (101, -9.13447558879852294922e-01) (102, -1.60858500003814697266e+00) (103, -1.04531872272491455078e+00) (104, -3.55198979377746582031e+00) (105, -3.60954433679580688477e-01) (106, 7.27338969707489013672e-01) (107, 5.11415421962738037109e-01) (108, -2.87948220968246459961e-01) (109, 8.03808271884918212891e-02) (110, -1.16373944282531738281e+00) (111, -2.02323722839355468750e+00) (112, 6.76626741886138916016e-01) (113, 4.41393315792083740234e-01) (114, -1.16333079338073730469e+00) (115, -6.32255017757415771484e-01) (116, -2.17331480979919433594e+00) (117, 9.15511548519134521484e-01) (118, 8.19604378193616867065e-03) (119, 5.48580177128314971924e-02) (120, 1.90243512392044067383e-01) (121, -8.37744355201721191406e-01) (122, 1.96031916141510009766e+00) (123, -1.74813196063041687012e-02) (124, 7.78720304369926452637e-02) (125, 5.24357929825782775879e-02) (126, -8.71792361140251159668e-02) (127, -4.37063723802566528320e-03) (128, 1.67095847427845001221e-02) (129, -1.27215040847659111023e-02) (130, 8.81272435188293457031e-01) (131, 1.12358205020427703857e-01) (132, 8.17599147558212280273e-02) (133, 2.00170904397964477539e-01) (134, 5.00999130308628082275e-02) (135, 1.64290279150009155273e-01) (136, -6.60447403788566589355e-02) (137, -3.71731556951999664307e-02) (138, 5.32682985067367553711e-03) (139, 8.38614106178283691406e-02) (140, -4.17761057615280151367e-02) (141, -1.57633516937494277954e-02) (142, -2.05478388816118240356e-02) (143, 5.04572205245494842529e-02) (144, -5.50648793578147888184e-02) (145, 8.16271230578422546387e-02) (146, 4.71476800739765167236e-02) (147, 7.86241367459297180176e-02) (148, -7.60423168540000915527e-02) (149, 2.67604347318410873413e-02) (150, 7.85749033093452453613e-02) (151, 9.71282497048377990723e-02) (152, -7.12531134486198425293e-02) (153, 3.82080912590026855469e-01) (154, -1.74293015152215957642e-02) (155, 4.13537800312042236328e-01) (156, -6.92279962822794914246e-03) (157, 4.16788924485445022583e-03) (158, 1.09788468107581138611e-02) (159, 6.29774630069732666016e-02) (160, 2.02812790870666503906e-01) (161, -4.75439503788948059082e-02) (162, 5.19538894295692443848e-02) (163, 8.80618467926979064941e-02) (164, -4.32495251297950744629e-02) (165, -1.55025403946638107300e-02) (166, 2.78916079550981521606e-02) (167, 3.90013270080089569092e-02) (168, 3.31334412097930908203e-01) (169, 1.05106139183044433594e+00) (170, -5.17314183525741100311e-04) (171, 6.46120384335517883301e-02) (172, -2.79371291399002075195e-02) (173, 1.89120024442672729492e-02) (174, -1.42051428556442260742e-02) (175, 2.38231569528579711914e-03) (176, 8.24481695890426635742e-02) (177, -4.65829297900199890137e-02) (178, 3.95149700343608856201e-02) (179, 3.43126118183135986328e-01) (180, 9.18892621994018554688e-02) (181, 6.48969858884811401367e-02) (182, 3.62132936716079711914e-02) (183, 7.96162039041519165039e-02) (184, 1.87984943389892578125e-01) (185, 1.04130759835243225098e-01) (186, 1.23516514897346496582e-01) (187, 7.67457410693168640137e-02) (188, 3.35775226354598999023e-01) (189, 2.35103275626897811890e-02) (190, 9.96213406324386596680e-02) (191, 1.14955417811870574951e-01) (192, -3.00011038780212402344e-03) (193, 7.60688856244087219238e-02) (194, 7.37741366028785705566e-02) (195, 2.00663208961486816406e+00) (196, 7.49388217926025390625e-01) (197, 1.43309938907623291016e+00) (198, -6.14153668284416198730e-02) (199, 9.91064235568046569824e-02) (200, -6.17497749626636505127e-02) (201, -1.02540403604507446289e-02) (202, 5.78470453619956970215e-02) (203, 4.46458160877227783203e-03) (204, -9.13420394062995910645e-02) (205, -5.63581064343452453613e-02) (206, -9.31531116366386413574e-02) (207, 6.28215074539184570312e-03) (208, 1.00914573669433593750e+00) (209, 4.09073650836944580078e-01) (210, -8.09549540281295776367e-02) (211, -8.71091932058334350586e-02) (212, 4.16048094630241394043e-02) (213, 2.89361849427223205566e-02) (214, 7.49726369976997375488e-02) (215, 3.30628976225852966309e-02) (216, 1.84742584824562072754e-02) (217, 3.48543599247932434082e-02) (218, -8.82515162229537963867e-02) (219, -9.95199829339981079102e-02) (220, 8.81653949618339538574e-02) (221, -4.95034717023372650146e-02) (222, 8.91072377562522888184e-02) (223, -1.48347169160842895508e-02) (224, -7.34345838427543640137e-02) (225, 6.28813728690147399902e-02) (226, -6.10843561589717864990e-02) (227, -1.57924816012382507324e-02) (228, -8.37698653340339660645e-02) (229, -2.24997177720069885254e-02) (230, -1.66860669851303100586e-02) (231, -4.55196462571620941162e-02) (232, 6.72462359070777893066e-02) (233, -5.88390193879604339600e-02) (234, 5.89449480175971984863e-02) (235, 7.59041979908943176270e-02) (236, -1.51971206068992614746e-02) (237, 6.57918229699134826660e-02) (238, -1.78136453032493591309e-02) (239, 5.55397644639015197754e-02) (240, -4.92697767913341522217e-02) (241, 1.23139470815658569336e-03) (242, 6.84305652976036071777e-02) (243, 9.23350229859352111816e-02) (244, -6.98324218392372131348e-02) (245, 4.34032008051872253418e-02) (246, 2.53979191184043884277e-02) (247, 4.86418232321739196777e-02) (248, -2.17424333095550537109e-02) (249, 3.71464118361473083496e-02) (250, 4.91218492388725280762e-02) (251, -3.35770398378372192383e-02) (252, 8.76429453492164611816e-02) (253, 3.82290855050086975098e-02) (254, 5.15882447361946105957e-02) (255, -8.57916399836540222168e-02) (256, 6.37430369853973388672e-01) (0, 9.05038788914680480957e-02) (1, -1.58412754535675048828e-03) (2, 1.73405855894088745117e-02) (3, -3.19958329200744628906e-02) (4, 8.17298069596290588379e-02) (5, 7.18209519982337951660e-02) (6, -6.47495985031127929688e-02) (7, -7.71092101931571960449e-02) (8, 3.07658836245536804199e-02) (9, -8.88454020023345947266e-02) (10, 7.69366323947906494141e-03) (11, -3.44229489564895629883e-03) (12, -6.65904581546783447266e-03) (13, -3.67665737867355346680e-02) (14, 4.72879335284233093262e-02) (15, 9.45723429322242736816e-02) (16, -6.83360099792480468750e-02) (17, 3.96229550242424011230e-02) (18, -7.52600803971290588379e-02) (19, 7.50671997666358947754e-02) (20, -3.49791198968887329102e-02) (21, 7.33817592263221740723e-02) (22, -4.66752350330352783203e-02) (23, -9.78327170014381408691e-02) (24, 2.25035995244979858398e-02) (25, 1.97477191686630249023e-02) (26, 8.98102298378944396973e-02) (27, -3.92673127353191375732e-02) (28, -2.86640450358390808105e-02) (29, -9.59814190864562988281e-02) (30, 6.18431493639945983887e-02) (31, -3.81601564586162567139e-02) (32, 2.43445485830307006836e-03) (33, -2.08162665367126464844e-02) (34, 2.98440083861351013184e-02) (35, -1.58357322216033935547e-02) (36, -4.89953160285949707031e-02) (37, 6.50944188237190246582e-02) (38, 7.05505907535552978516e-03) (39, 8.17705765366554260254e-02) (40, 7.62490108609199523926e-02) (41, -8.52512791752815246582e-02) (42, -2.16717198491096496582e-02) (43, -3.04100364446640014648e-02) (44, -2.20178514719009399414e-02) (45, -7.43837878108024597168e-02) (46, -3.58376950025558471680e-02) (47, 9.64615494012832641602e-03) (48, 6.52391687035560607910e-02) (49, -1.10977739095687866211e-02) (50, -1.52866542339324951172e-02) (51, -6.97399526834487915039e-02) (52, -3.77160198986530303955e-02) (53, 3.80381122231483459473e-02) (54, -6.75726681947708129883e-02) (55, 8.47875848412513732910e-02) (56, -4.22141738235950469971e-02) (57, -7.77624472975730895996e-02) (58, -5.44797331094741821289e-02) (59, 2.91217789053916931152e-02) (60, -7.37438574433326721191e-02) (61, -9.26365926861763000488e-02) (62, 9.09616276621818542480e-02) (63, 2.86905989050865173340e-02) (64, -1.34528502821922302246e-02) (65, 2.08056345582008361816e-02) (66, -8.71451273560523986816e-02) (67, 3.75518277287483215332e-02) (68, -1.40999630093574523926e-02) (69, 1.99099332094192504883e-02) (70, 1.93224102258682250977e-02) (71, -3.78509536385536193848e-02) (72, 3.46586629748344421387e-02) (73, 9.76506844162940979004e-02) (74, 3.17390039563179016113e-02) (75, -8.73591899871826171875e-02) (76, -7.67331048846244812012e-02) (77, 9.59013178944587707520e-02) (78, 2.22869664430618286133e-02) (79, 8.85060653090476989746e-02) (80, -1.51964500546455383301e-02) (81, -9.29996967315673828125e-02) (82, -8.12338963150978088379e-02) (83, 4.70875427126884460449e-02) (84, 4.50384095311164855957e-02) (85, -4.88065667450428009033e-02) (86, 3.18751111626625061035e-02) (87, -9.71757620573043823242e-02) (88, -2.65690088272094726562e-02) (89, 7.73953869938850402832e-02) (90, 3.19460108876228332520e-02) (91, -3.12872231006622314453e-04) (92, 8.47587957978248596191e-02) (93, 2.29076370596885681152e-02) (94, -7.16222673654556274414e-02) (95, -2.86940559744834899902e-02) (96, -5.62867335975170135498e-02) (97, -1.96650967001914978027e-01) (98, -2.11207598447799682617e-01) (99, -1.09032079577445983887e-01) (100, 2.02590841799974441528e-02) (101, 5.89150130748748779297e-01) (102, 1.36346638202667236328e-01) (103, -6.88870176672935485840e-02) (104, -6.02805539965629577637e-02) (105, -2.14918062090873718262e-01) (106, -1.50553286075592041016e-01) (107, -2.59315401315689086914e-01) (108, 3.60875278711318969727e-01) (109, -1.49590745568275451660e-01) (110, 1.44219785928726196289e-01) (111, -3.38680058717727661133e-01) (112, -6.64667189121246337891e-02) (113, 1.40595614910125732422e-01) (114, 2.97511637210845947266e-01) (115, 3.97926270961761474609e-01) (116, 2.18920767307281494141e-01) (117, 3.37872564792633056641e-01) (118, 2.56612658500671386719e-01) (119, -4.28349405527114868164e-01) (120, 1.00682396441698074341e-03) (121, -3.18269819021224975586e-01) (122, -4.44014996290206909180e-01) (123, -5.46769425272941589355e-02) (124, -5.95544315874576568604e-02) (125, -9.09407809376716613770e-02) (126, 1.66290029883384704590e-02) (127, -1.58411636948585510254e-02) (128, -3.42514775693416595459e-02) (129, 5.12469112873077392578e-02) (130, -2.55888015031814575195e-01) (131, -7.61958807706832885742e-02) (132, -7.60191977024078369141e-02) (133, -1.69502556324005126953e-01) (134, 9.29747521877288818359e-03) (135, 5.12538403272628784180e-02) (136, 3.10990456491708755493e-02) (137, -8.32704380154609680176e-02) (138, 2.85955891013145446777e-02) (139, -4.53765839338302612305e-02) (140, -3.91684137284755706787e-02) (141, -3.27761061489582061768e-02) (142, -4.32288572192192077637e-02) (143, -7.62027828022837638855e-03) (144, -7.43571668863296508789e-02) (145, -9.50094684958457946777e-02) (146, -3.10336127877235412598e-02) (147, -6.88152760267257690430e-02) (148, -9.80082992464303970337e-03) (149, -4.33782301843166351318e-02) (150, 1.11270770430564880371e-02) (151, 4.76716831326484680176e-02) (152, 7.31067955493927001953e-02) (153, -1.06109291315078735352e-01) (154, 9.40467417240142822266e-02) (155, -1.76517263054847717285e-01) (156, 2.92881717905402183533e-03) (157, 1.37440431863069534302e-02) (158, 8.20478308014571666718e-04) (159, 5.21841011941432952881e-02) (160, -2.17316020280122756958e-02) (161, 1.15016316995024681091e-02) (162, 6.77695348858833312988e-02) (163, -1.01909330114722251892e-02) (164, 1.39443650841712951660e-02) (165, -2.91390120983123779297e-02) (166, -2.11965031921863555908e-02) (167, -4.44347709417343139648e-02) (168, 4.86844219267368316650e-02) (169, 3.07508051395416259766e-01) (170, 1.94963219109922647476e-03) (171, 3.39765176177024841309e-02) (172, -3.48668098449707031250e-02) (173, 4.40635308623313903809e-02) (174, -8.39505493640899658203e-02) (175, -1.43603235483169555664e-02) (176, 7.78791457414627075195e-02) (177, -7.77280004695057868958e-03) (178, 3.74107882380485534668e-02) (179, -1.46734088659286499023e-01) (180, 5.29679358005523681641e-02) (181, -3.49721089005470275879e-02) (182, 9.20737087726593017578e-02) (183, 1.16647947579622268677e-02) (184, 5.27127087116241455078e-02) (185, 8.09514299035072326660e-02) (186, 1.63694657385349273682e-02) (187, -5.23817166686058044434e-02) (188, -8.81977155804634094238e-02) (189, -6.46676570177078247070e-02) (190, 1.27408385276794433594e-01) (191, 2.97820884734392166138e-02) (192, 1.90081447362899780273e-02) (193, 3.33294793963432312012e-02) (194, -9.07123833894729614258e-02) (195, 2.02017143368721008301e-01) (196, -3.24423372745513916016e-01) (197, -4.47915941476821899414e-01) (198, -2.40672677755355834961e-02) (199, -1.13338604569435119629e-02) (200, -2.55661755800247192383e-02) (201, 6.73514977097511291504e-02) (202, -7.94202089309692382812e-02) (203, 3.75041440129280090332e-02) (204, 1.14150270819664001465e-02) (205, -6.33707493543624877930e-02) (206, -7.68561735749244689941e-02) (207, -4.05829027295112609863e-02) (208, 3.85377675294876098633e-01) (209, 1.88337534666061401367e-01) (210, -5.47342002391815185547e-03) (211, -4.49694991111755371094e-02) (212, 6.58157095313072204590e-02) (213, -2.26922631263732910156e-02) (214, 6.05121478438377380371e-02) (215, -1.54762268066406250000e-02) (216, -4.69163730740547180176e-02) (217, -2.35273092985153198242e-02) (218, 4.09962981939315795898e-03) (219, 3.84832695126533508301e-02) (220, -1.29290297627449035645e-02) (221, -2.51648873090744018555e-02) (222, -4.10066023468971252441e-02) (223, -9.39208865165710449219e-02) (224, -9.18354168534278869629e-02) (225, -3.17189842462539672852e-02) (226, -6.09683729708194732666e-02) (227, -8.86763930320739746094e-02) (228, 4.58439365029335021973e-02) (229, 1.49643644690513610840e-02) (230, -1.02519989013671875000e-05) (231, -7.97222405672073364258e-02) (232, -1.76841393113136291504e-02) (233, 2.05695480108261108398e-02) (234, 5.77819123864173889160e-02) (235, 9.37308892607688903809e-02) (236, 5.71988001465797424316e-02) (237, 8.09257403016090393066e-02) (238, -4.68520112335681915283e-02) (239, -2.32190266251564025879e-02) (240, 1.98419541120529174805e-02) (241, 4.76745739579200744629e-02) (242, 3.18114832043647766113e-02) (243, -1.43423229455947875977e-02) (244, -7.50176906585693359375e-02) (245, -7.67637789249420166016e-03) (246, 7.01814368367195129395e-02) (247, -2.19340622425079345703e-02) (248, 6.87963292002677917480e-02) (249, -2.57189273834228515625e-02) (250, -8.34508016705513000488e-02) (251, -4.41327095031738281250e-02) (252, 4.91161867976188659668e-02) (253, -2.44574099779129028320e-02) (254, -3.80535908043384552002e-02) (255, 5.72807714343070983887e-02) (256, 3.19908969104290008545e-02) (0, 9.78037714958190917969e-04) (1, 6.86043724417686462402e-02) (2, -1.03324502706527709961e-02) (3, -8.40575993061065673828e-02) (4, -3.14058810472488403320e-02) (5, 9.94531065225601196289e-03) (6, -1.74173712730407714844e-03) (7, 8.91636684536933898926e-02) (8, -3.22727710008621215820e-02) (9, -8.01084190607070922852e-03) (10, 4.63624671101570129395e-02) (11, -5.13470433652400970459e-02) (12, 4.51371446251869201660e-02) (13, -7.68565684556961059570e-02) (14, 6.84949234127998352051e-02) (15, -7.18827545642852783203e-03) (16, 5.49549087882041931152e-02) (17, -4.58474121987819671631e-02) (18, 1.77940279245376586914e-02) (19, -5.27214631438255310059e-02) (20, -7.56659656763076782227e-02) (21, 9.58599671721458435059e-02) (22, -8.39251428842544555664e-02) (23, -1.38489156961441040039e-03) (24, -8.75908359885215759277e-02) (25, -2.80578508973121643066e-02) (26, -5.22687062621116638184e-02) (27, -1.20482370257377624512e-02) (28, 3.38885709643363952637e-02) (29, -9.49879437685012817383e-02) (30, -6.82246237993240356445e-02) (31, -6.51334002614021301270e-02) (32, 7.36164376139640808105e-02) (33, 2.14429274201393127441e-02) (34, -4.91909980773925781250e-02) (35, -5.77894449234008789062e-02) (36, -6.86117559671401977539e-02) (37, 4.90672662854194641113e-02) (38, -6.86257779598236083984e-02) (39, -8.84540379047393798828e-04) (40, -5.89435771107673645020e-02) (41, 7.77366831898689270020e-02) (42, 4.77684214711189270020e-02) (43, 8.61935690045356750488e-02) (44, -9.91198793053627014160e-02) (45, 1.62633433938026428223e-02) (46, -2.09947079420089721680e-02) (47, 5.58350309729576110840e-02) (48, 7.04159215092658996582e-02) (49, 9.67993214726448059082e-02) (50, -9.68864336609840393066e-02) (51, 9.47499647736549377441e-02) (52, 9.26592871546745300293e-02) (53, -8.08115750551223754883e-02) (54, -6.63492083549499511719e-03) (55, -9.49315503239631652832e-02) (56, -8.86941701173782348633e-03) (57, 4.10963818430900573730e-02) (58, -6.97978585958480834961e-03) (59, -7.49808549880981445312e-02) (60, 4.61084321141242980957e-02) (61, 2.47955918312072753906e-02) (62, -4.01142537593841552734e-02) (63, 1.97248682379722595215e-02) (64, -5.37614859640598297119e-02) (65, 1.06947571039199829102e-02) (66, 6.19354322552680969238e-02) (67, -2.23732441663742065430e-02) (68, -4.02379818260669708252e-02) (69, 9.33096483349800109863e-02) (70, 7.67422243952751159668e-02) (71, 8.18446278572082519531e-04) (72, 7.10463449358940124512e-02) (73, 2.45106369256973266602e-02) (74, -1.29879862070083618164e-02) (75, 7.19264671206474304199e-02) (76, -5.92260211706161499023e-02) (77, 6.60173073410987854004e-02) (78, 2.77614966034889221191e-02) (79, -8.88100937008857727051e-02) (80, 6.28166273236274719238e-02) (81, 3.08750644326210021973e-02) (82, -9.40601229667663574219e-02) (83, 5.54759129881858825684e-02) (84, 5.00634983181953430176e-02) (85, -6.95042312145233154297e-04) (86, 6.05443790555000305176e-02) (87, -5.88059239089488983154e-02) (88, -5.95986731350421905518e-02) (89, -4.64354120194911956787e-02) (90, -3.37867811322212219238e-02) (91, 8.65097716450691223145e-02) (92, 7.83601775765419006348e-02) (93, 2.60989740490913391113e-02) (94, 6.23462349176406860352e-03) (95, -7.54013061523437500000e-02) (96, -6.32062852382659912109e-02) (97, 5.37407398223876953125e-01) (98, 3.54972362518310546875e-01) (99, 4.09255295991897583008e-01) (100, 1.70417487621307373047e-01) (101, -1.09698545932769775391e+00) (102, 1.00673310458660125732e-01) (103, 1.97719484567642211914e-01) (104, 3.62604498863220214844e-01) (105, 7.78812468051910400391e-01) (106, 2.85772889852523803711e-01) (107, 7.20443844795227050781e-01) (108, -7.93580353260040283203e-01) (109, 3.07932764291763305664e-01) (110, -7.84462019801139831543e-02) (111, 8.07195127010345458984e-01) (112, -7.45733268558979034424e-04) (113, -2.64193832874298095703e-01) (114, -3.37474465370178222656e-01) (115, -6.95583462715148925781e-01) (116, -4.53065961599349975586e-01) (117, -8.26387882232666015625e-01) (118, -4.46114212274551391602e-01) (119, 9.62971091270446777344e-01) (120, -2.02449206262826919556e-02) (121, 9.56977427005767822266e-01) (122, 1.34677243232727050781e+00) (123, 6.11652061343193054199e-02) (124, -5.33412098884582519531e-02) (125, -6.16726279258728027344e-03) (126, 8.57638940215110778809e-02) (127, -1.65474936366081237793e-02) (128, -1.60812772810459136963e-02) (129, -1.42160534858703613281e-01) (130, 3.85695874691009521484e-01) (131, -1.38992413878440856934e-01) (132, 1.38229906558990478516e-01) (133, 2.46469840407371520996e-01) (134, -5.43896704912185668945e-02) (135, 1.08129039406776428223e-01) (136, -4.86295446753501892090e-02) (137, -4.47390079498291015625e-02) (138, -8.53124111890792846680e-02) (139, -1.90617311745882034302e-02) (140, 1.97966136038303375244e-02) (141, -3.50702442228794097900e-02) (142, 4.56973584368824958801e-03) (143, -8.58945995569229125977e-02) (144, 1.58957112580537796021e-02) (145, -1.11189838498830795288e-02) (146, -4.14816290140151977539e-02) (147, -1.30084399133920669556e-02) (148, -9.23043936491012573242e-02) (149, 2.44089751504361629486e-03) (150, -6.71277195215225219727e-03) (151, -9.38661992549896240234e-02) (152, -7.18102231621742248535e-02) (153, 2.12968111038208007812e-01) (154, 6.20983652770519256592e-02) (155, 1.93743526935577392578e-01) (156, 6.43180832266807556152e-02) (157, 3.22336405515670776367e-02) (158, 4.27020266652107238770e-02) (159, 3.15208584070205688477e-02) (160, -1.76940351724624633789e-01) (161, 3.83237861096858978271e-02) (162, 3.41714844107627868652e-02) (163, -9.72251519560813903809e-02) (164, 3.13249304890632629395e-02) (165, -8.90225768089294433594e-02) (166, 5.02474196255207061768e-02) (167, 5.44859617948532104492e-02) (168, -1.92472442984580993652e-01) (169, -4.70749706029891967773e-01) (170, -2.29246616363525390625e-02) (171, -4.10503670573234558105e-02) (172, -4.71362248063087463379e-02) (173, -6.93420469760894775391e-02) (174, 2.51117870211601257324e-02) (175, 9.47737917304039001465e-02) (176, -1.26199364662170410156e-01) (177, 4.71780113875865936279e-02) (178, -1.22348420321941375732e-01) (179, 2.25311011075973510742e-01) (180, -7.12043866515159606934e-02) (181, -1.12347491085529327393e-01) (182, 7.35892588272690773010e-03) (183, 2.98806075006723403931e-02) (184, -2.10644438862800598145e-01) (185, -4.52007120475172996521e-03) (186, -7.67029151320457458496e-02) (187, -1.80828809738159179688e-01) (188, 1.10075727105140686035e-01) (189, -1.99398621916770935059e-01) (190, -2.13722869753837585449e-01) (191, -3.12272440642118453979e-02) (192, 7.94729217886924743652e-02) (193, 3.27874943614006042480e-02) (194, 2.36322730779647827148e-02) (195, -7.34087347984313964844e-01) (196, 5.94805300235748291016e-01) (197, 1.02240061759948730469e+00) (198, 3.89139354228973388672e-03) (199, -7.43278712034225463867e-02) (200, -4.79100644588470458984e-03) (201, -9.08429324626922607422e-02) (202, -4.98010218143463134766e-03) (203, 5.84709271788597106934e-02) (204, -6.01849704980850219727e-02) (205, -7.98683166503906250000e-02) (206, 5.32447174191474914551e-02) (207, 6.45613297820091247559e-02) (208, -1.93391394615173339844e+00) (209, -8.14560532569885253906e-01) (210, 1.26364007592201232910e-02) (211, 3.14514413475990295410e-02) (212, -7.95227140188217163086e-02) (213, -3.31547334790229797363e-02) (214, -7.43414461612701416016e-03) (215, -1.83774679899215698242e-02) (216, 8.83531495928764343262e-02) (217, 4.41620275378227233887e-02) (218, 1.74858346581459045410e-02) (219, -3.70760709047317504883e-02) (220, 6.96924552321434020996e-02) (221, -9.92999970912933349609e-03) (222, 7.85469487309455871582e-02) (223, 4.91653755307197570801e-02) (224, -7.71425068378448486328e-02) (225, 2.17924267053604125977e-03) (226, -4.00367751717567443848e-02) (227, 7.18568041920661926270e-02) (228, -9.57439243793487548828e-02) (229, 6.38546124100685119629e-02) (230, 9.75289419293403625488e-02) (231, -5.34929335117340087891e-04) (232, 7.30116888880729675293e-02) (233, -7.45116174221038818359e-03) (234, -4.20639924705028533936e-02) (235, -8.71732831001281738281e-02) (236, 1.26805156469345092773e-02) (237, -8.88192653656005859375e-02) (238, 7.73880556225776672363e-02) (239, 2.68405154347419738770e-02) (240, -4.86018769443035125732e-02) (241, -9.97556000947952270508e-03) (242, -4.17080335319042205811e-02) (243, -2.81245857477188110352e-02) (244, 5.68697080016136169434e-02) (245, 