FANN_FLO_2.1
num_layers=3
learning_rate=0.700000
connection_rate=1.000000
network_type=0
learning_momentum=0.000000
training_algorithm=1
train_error_function=1
train_stop_function=0
cascade_output_change_fraction=0.010000
quickprop_decay=-0.000100
quickprop_mu=1.750000
rprop_increase_factor=1.200000
rprop_decrease_factor=0.500000
rprop_delta_min=0.000000
rprop_delta_max=50.000000
rprop_delta_zero=0.100000
cascade_output_stagnation_epochs=12
cascade_candidate_change_fraction=0.010000
cascade_candidate_stagnation_epochs=12
cascade_max_out_epochs=150
cascade_min_out_epochs=50
cascade_max_cand_epochs=150
cascade_min_cand_epochs=50
cascade_num_candidate_groups=2
bit_fail_limit=3.49999994039535522461e-01
cascade_candidate_limit=1.00000000000000000000e+03
cascade_weight_multiplier=4.00000005960464477539e-01
cascade_activation_functions_count=10
cascade_activation_functions=3 5 7 8 10 11 14 15 16 17 
cascade_activation_steepnesses_count=4
cascade_activation_steepnesses=2.50000000000000000000e-01 5.00000000000000000000e-01 7.50000000000000000000e-01 1.00000000000000000000e+00 
layer_sizes=257 257 5 
scale_included=0
neurons (num_inputs, activation_function, activation_steepness)=(0, 0, 0.00000000000000000000e+00) (0, 0, 0.00000000000000000000e+00) (0, 0, 0.00000000000000000000e+00) (0, 0, 0.00000000000000000000e+00) (0, 0, 0.00000000000000000000e+00) (0, 0, 0.00000000000000000000e+00) (0, 0, 0.00000000000000000000e+00) (0, 0, 0.00000000000000000000e+00) (0, 0, 0.00000000000000000000e+00) (0, 0, 0.00000000000000000000e+00) (0, 0, 0.00000000000000000000e+00) (0, 0, 0.00000000000000000000e+00) (0, 0, 0.00000000000000000000e+00) (0, 0, 0.00000000000000000000e+00) (0, 0, 0.00000000000000000000e+00) (0, 0, 0.00000000000000000000e+00) (0, 0, 0.00000000000000000000e+00) (0, 0, 0.00000000000000000000e+00) (0, 0, 0.00000000000000000000e+00) (0, 0, 0.00000000000000000000e+00) (0, 0, 0.00000000000000000000e+00) (0, 0, 0.00000000000000000000e+00) (0, 0, 0.00000000000000000000e+00) (0, 0, 0.00000000000000000000e+00) (0, 0, 0.00000000000000000000e+00) (0, 0, 0.00000000000000000000e+00) (0, 0, 0.00000000000000000000e+00) (0, 0, 0.00000000000000000000e+00) (0, 0, 0.00000000000000000000e+00) (0, 0, 0.00000000000000000000e+00) (0, 0, 0.00000000000000000000e+00) (0, 0, 0.00000000000000000000e+00) (0, 0, 0.00000000000000000000e+00) (0, 0, 0.00000000000000000000e+00) (0, 0, 0.00000000000000000000e+00) (0, 0, 0.00000000000000000000e+00) (0, 0, 0.00000000000000000000e+00) (0, 0, 0.00000000000000000000e+00) (0, 0, 0.00000000000000000000e+00) (0, 0, 0.00000000000000000000e+00) (0, 0, 0.00000000000000000000e+00) (0, 0, 0.00000000000000000000e+00) (0, 0, 0.00000000000000000000e+00) (0, 0, 0.00000000000000000000e+00) (0, 0, 0.00000000000000000000e+00) (0, 0, 0.00000000000000000000e+00) (0, 0, 0.00000000000000000000e+00) (0, 0, 0.00000000000000000000e+00) (0, 0, 0.00000000000000000000e+00) (0, 0, 0.00000000000000000000e+00) (0, 0, 0.00000000000000000000e+00) (0, 0, 0.00000000000000000000e+00) (0, 0, 0.00000000000000000000e+00) (0, 0, 0.00000000000000000000e+00) (0, 0, 0.00000000000000000000e+00) (0, 0, 0.00000000000000000000e+00) (0, 0, 0.00000000000000000000e+00) (0, 0, 0.00000000000000000000e+00) (0, 0, 0.00000000000000000000e+00) (0, 0, 0.00000000000000000000e+00) (0, 0, 0.00000000000000000000e+00) (0, 0, 0.00000000000000000000e+00) (0, 0, 0.00000000000000000000e+00) (0, 0, 0.00000000000000000000e+00) (0, 0, 0.00000000000000000000e+00) (0, 0, 0.00000000000000000000e+00) (0, 0, 0.00000000000000000000e+00) (0, 0, 0.00000000000000000000e+00) (0, 0, 0.00000000000000000000e+00) (0, 0, 0.00000000000000000000e+00) (0, 0, 0.00000000000000000000e+00) (0, 0, 0.00000000000000000000e+00) (0, 0, 0.00000000000000000000e+00) (0, 0, 0.00000000000000000000e+00) (0, 0, 0.00000000000000000000e+00) (0, 0, 0.00000000000000000000e+00) (0, 0, 0.00000000000000000000e+00) (0, 0, 0.00000000000000000000e+00) (0, 0, 0.00000000000000000000e+00) (0, 0, 0.00000000000000000000e+00) (0, 0, 0.00000000000000000000e+00) (0, 0, 0.00000000000000000000e+00) (0, 0, 0.00000000000000000000e+00) (0, 0, 0.00000000000000000000e+00) (0, 0, 0.00000000000000000000e+00) (0, 0, 0.00000000000000000000e+00) (0, 0, 0.00000000000000000000e+00) (0, 0, 0.00000000000000000000e+00) (0, 0, 0.00000000000000000000e+00) (0, 0, 0.00000000000000000000e+00) (0, 0, 0.00000000000000000000e+00) (0, 0, 0.00000000000000000000e+00) (0, 0, 0.00000000000000000000e+00) (0, 0, 0.00000000000000000000e+00) (0, 0, 0.00000000000000000000e+00) (0, 0, 0.00000000000000000000e+00) (0, 0, 0.00000000000000000000e+00) (0, 0, 0.00000000000000000000e+00) (0, 0, 0.00000000000000000000e+00) (0, 0, 0.00000000000000000000e+00) (0, 0, 0.00000000000000000000e+00) (0, 0, 0.00000000000000000000e+00) (0, 0, 0.00000000000000000000e+00) (0, 0, 0.00000000000000000000e+00) (0, 0, 0.00000000000000000000e+00) (0, 0, 0.00000000000000000000e+00) (0, 0, 0.00000000000000000000e+00) (0, 0, 0.00000000000000000000e+00) (0, 0, 0.00000000000000000000e+00) (0, 0, 0.00000000000000000000e+00) (0, 0, 0.00000000000000000000e+00) (0, 0, 0.00000000000000000000e+00) (0, 0, 0.00000000000000000000e+00) (0, 0, 0.00000000000000000000e+00) (0, 0, 0.00000000000000000000e+00) (0, 0, 0.00000000000000000000e+00) (0, 0, 0.00000000000000000000e+00) (0, 0, 0.00000000000000000000e+00) (0, 0, 0.00000000000000000000e+00) (0, 0, 0.00000000000000000000e+00) (0, 0, 0.00000000000000000000e+00) (0, 0, 0.00000000000000000000e+00) (0, 0, 0.00000000000000000000e+00) (0, 0, 0.00000000000000000000e+00) (0, 0, 0.00000000000000000000e+00) (0, 0, 0.00000000000000000000e+00) (0, 0, 0.00000000000000000000e+00) (0, 0, 0.00000000000000000000e+00) (0, 0, 0.00000000000000000000e+00) (0, 0, 0.00000000000000000000e+00) (0, 0, 0.00000000000000000000e+00) (0, 0, 0.00000000000000000000e+00) (0, 0, 0.00000000000000000000e+00) (0, 0, 0.00000000000000000000e+00) (0, 0, 0.00000000000000000000e+00) (0, 0, 0.00000000000000000000e+00) (0, 0, 0.00000000000000000000e+00) (0, 0, 0.00000000000000000000e+00) (0, 0, 0.00000000000000000000e+00) (0, 0, 0.00000000000000000000e+00) (0, 0, 0.00000000000000000000e+00) (0, 0, 0.00000000000000000000e+00) (0, 0, 0.00000000000000000000e+00) (0, 0, 0.00000000000000000000e+00) (0, 0, 0.00000000000000000000e+00) (0, 0, 0.00000000000000000000e+00) (0, 0, 0.00000000000000000000e+00) (0, 0, 0.00000000000000000000e+00) (0, 0, 0.00000000000000000000e+00) (0, 0, 0.00000000000000000000e+00) (0, 0, 0.00000000000000000000e+00) (0, 0, 0.00000000000000000000e+00) (0, 0, 0.00000000000000000000e+00) (0, 0, 0.00000000000000000000e+00) (0, 0, 0.00000000000000000000e+00) (0, 0, 0.00000000000000000000e+00) (0, 0, 0.00000000000000000000e+00) (0, 0, 0.00000000000000000000e+00) (0, 0, 0.00000000000000000000e+00) (0, 0, 0.00000000000000000000e+00) (0, 0, 0.00000000000000000000e+00) (0, 0, 0.00000000000000000000e+00) (0, 0, 0.00000000000000000000e+00) (0, 0, 0.00000000000000000000e+00) (0, 0, 0.00000000000000000000e+00) (0, 0, 0.00000000000000000000e+00) (0, 0, 0.00000000000000000000e+00) (0, 0, 0.00000000000000000000e+00) (0, 0, 0.00000000000000000000e+00) (0, 0, 0.00000000000000000000e+00) (0, 0, 0.00000000000000000000e+00) (0, 0, 0.00000000000000000000e+00) (0, 0, 0.00000000000000000000e+00) (0, 0, 0.00000000000000000000e+00) (0, 0, 0.00000000000000000000e+00) (0, 0, 0.00000000000000000000e+00) (0, 0, 0.00000000000000000000e+00) (0, 0, 0.00000000000000000000e+00) (0, 0, 0.00000000000000000000e+00) (0, 0, 0.00000000000000000000e+00) (0, 0, 0.00000000000000000000e+00) (0, 0, 0.00000000000000000000e+00) (0, 0, 0.00000000000000000000e+00) (0, 0, 0.00000000000000000000e+00) (0, 0, 0.00000000000000000000e+00) (0, 0, 0.00000000000000000000e+00) (0, 0, 0.00000000000000000000e+00) (0, 0, 0.00000000000000000000e+00) (0, 0, 0.00000000000000000000e+00) (0, 0, 0.00000000000000000000e+00) (0, 0, 0.00000000000000000000e+00) (0, 0, 0.00000000000000000000e+00) (0, 0, 0.00000000000000000000e+00) (0, 0, 0.00000000000000000000e+00) (0, 0, 0.00000000000000000000e+00) (0, 0, 0.00000000000000000000e+00) (0, 0, 0.00000000000000000000e+00) (0, 0, 0.00000000000000000000e+00) (0, 0, 0.00000000000000000000e+00) (0, 0, 0.00000000000000000000e+00) (0, 0, 0.00000000000000000000e+00) (0, 0, 0.00000000000000000000e+00) (0, 0, 0.00000000000000000000e+00) (0, 0, 0.00000000000000000000e+00) (0, 0, 0.00000000000000000000e+00) (0, 0, 0.00000000000000000000e+00) (0, 0, 0.00000000000000000000e+00) (0, 0, 0.00000000000000000000e+00) (0, 0, 0.00000000000000000000e+00) (0, 0, 0.00000000000000000000e+00) (0, 0, 0.00000000000000000000e+00) (0, 0, 0.00000000000000000000e+00) (0, 0, 0.00000000000000000000e+00) (0, 0, 0.00000000000000000000e+00) (0, 0, 0.00000000000000000000e+00) (0, 0, 0.00000000000000000000e+00) (0, 0, 0.00000000000000000000e+00) (0, 0, 0.00000000000000000000e+00) (0, 0, 0.00000000000000000000e+00) (0, 0, 0.00000000000000000000e+00) (0, 0, 0.00000000000000000000e+00) (0, 0, 0.00000000000000000000e+00) (0, 0, 0.00000000000000000000e+00) (0, 0, 0.00000000000000000000e+00) (0, 0, 0.00000000000000000000e+00) (0, 0, 0.00000000000000000000e+00) (0, 0, 0.00000000000000000000e+00) (0, 0, 0.00000000000000000000e+00) (0, 0, 0.00000000000000000000e+00) (0, 0, 0.00000000000000000000e+00) (0, 0, 0.00000000000000000000e+00) (0, 0, 0.00000000000000000000e+00) (0, 0, 0.00000000000000000000e+00) (0, 0, 0.00000000000000000000e+00) (0, 0, 0.00000000000000000000e+00) (0, 0, 0.00000000000000000000e+00) (0, 0, 0.00000000000000000000e+00) (0, 0, 0.00000000000000000000e+00) (0, 0, 0.00000000000000000000e+00) (0, 0, 0.00000000000000000000e+00) (0, 0, 0.00000000000000000000e+00) (0, 0, 0.00000000000000000000e+00) (0, 0, 0.00000000000000000000e+00) (0, 0, 0.00000000000000000000e+00) (0, 0, 0.00000000000000000000e+00) (0, 0, 0.00000000000000000000e+00) (0, 0, 0.00000000000000000000e+00) (0, 0, 0.00000000000000000000e+00) (0, 0, 0.00000000000000000000e+00) (0, 0, 0.00000000000000000000e+00) (0, 0, 0.00000000000000000000e+00) (0, 0, 0.00000000000000000000e+00) (0, 0, 0.00000000000000000000e+00) (0, 0, 0.00000000000000000000e+00) (0, 0, 0.00000000000000000000e+00) (0, 0, 0.00000000000000000000e+00) (0, 0, 0.00000000000000000000e+00) (257, 17, 5.00000000000000000000e-01) (257, 17, 5.00000000000000000000e-01) (257, 17, 5.00000000000000000000e-01) (257, 17, 5.00000000000000000000e-01) (257, 17, 5.00000000000000000000e-01) (257, 17, 5.00000000000000000000e-01) (257, 17, 5.00000000000000000000e-01) (257, 17, 5.00000000000000000000e-01) (257, 17, 5.00000000000000000000e-01) (257, 17, 5.00000000000000000000e-01) (257, 17, 5.00000000000000000000e-01) (257, 17, 5.00000000000000000000e-01) (257, 17, 5.00000000000000000000e-01) (257, 17, 5.00000000000000000000e-01) (257, 17, 5.00000000000000000000e-01) (257, 17, 5.00000000000000000000e-01) (257, 17, 5.00000000000000000000e-01) (257, 17, 5.00000000000000000000e-01) (257, 17, 5.00000000000000000000e-01) (257, 17, 5.00000000000000000000e-01) (257, 17, 5.00000000000000000000e-01) (257, 17, 5.00000000000000000000e-01) (257, 17, 5.00000000000000000000e-01) (257, 17, 5.00000000000000000000e-01) (257, 17, 5.00000000000000000000e-01) (257, 17, 5.00000000000000000000e-01) (257, 17, 5.00000000000000000000e-01) (257, 17, 5.00000000000000000000e-01) (257, 17, 5.00000000000000000000e-01) (257, 17, 5.00000000000000000000e-01) (257, 17, 5.00000000000000000000e-01) (257, 17, 5.00000000000000000000e-01) (257, 17, 5.00000000000000000000e-01) (257, 17, 5.00000000000000000000e-01) (257, 17, 5.00000000000000000000e-01) (257, 17, 5.00000000000000000000e-01) (257, 17, 5.00000000000000000000e-01) (257, 17, 5.00000000000000000000e-01) (257, 17, 5.00000000000000000000e-01) (257, 17, 5.00000000000000000000e-01) (257, 17, 5.00000000000000000000e-01) (257, 17, 5.00000000000000000000e-01) (257, 17, 5.00000000000000000000e-01) (257, 17, 5.00000000000000000000e-01) (257, 17, 5.00000000000000000000e-01) (257, 17, 5.00000000000000000000e-01) (257, 17, 5.00000000000000000000e-01) (257, 17, 5.00000000000000000000e-01) (257, 17, 5.00000000000000000000e-01) (257, 17, 5.00000000000000000000e-01) (257, 17, 5.00000000000000000000e-01) (257, 17, 5.00000000000000000000e-01) (257, 17, 5.00000000000000000000e-01) (257, 17, 5.00000000000000000000e-01) (257, 17, 5.00000000000000000000e-01) (257, 17, 5.00000000000000000000e-01) (257, 17, 5.00000000000000000000e-01) (257, 17, 5.00000000000000000000e-01) (257, 17, 5.00000000000000000000e-01) (257, 17, 5.00000000000000000000e-01) (257, 17, 5.00000000000000000000e-01) (257, 17, 5.00000000000000000000e-01) (257, 17, 5.00000000000000000000e-01) (257, 17, 5.00000000000000000000e-01) (257, 17, 5.00000000000000000000e-01) (257, 17, 5.00000000000000000000e-01) (257, 17, 5.00000000000000000000e-01) (257, 17, 5.00000000000000000000e-01) (257, 17, 5.00000000000000000000e-01) (257, 17, 5.00000000000000000000e-01) (257, 17, 5.00000000000000000000e-01) (257, 17, 5.00000000000000000000e-01) (257, 17, 5.00000000000000000000e-01) (257, 17, 5.00000000000000000000e-01) (257, 17, 5.00000000000000000000e-01) (257, 17, 5.00000000000000000000e-01) (257, 17, 5.00000000000000000000e-01) (257, 17, 5.00000000000000000000e-01) (257, 17, 5.00000000000000000000e-01) (257, 17, 5.00000000000000000000e-01) (257, 17, 5.00000000000000000000e-01) (257, 17, 5.00000000000000000000e-01) (257, 17, 5.00000000000000000000e-01) (257, 17, 5.00000000000000000000e-01) (257, 17, 5.00000000000000000000e-01) (257, 17, 5.00000000000000000000e-01) (257, 17, 5.00000000000000000000e-01) (257, 17, 5.00000000000000000000e-01) (257, 17, 5.00000000000000000000e-01) (257, 17, 5.00000000000000000000e-01) (257, 17, 5.00000000000000000000e-01) (257, 17, 5.00000000000000000000e-01) (257, 17, 5.00000000000000000000e-01) (257, 17, 5.00000000000000000000e-01) (257, 17, 5.00000000000000000000e-01) (257, 17, 5.00000000000000000000e-01) (257, 17, 5.00000000000000000000e-01) (257, 17, 5.00000000000000000000e-01) (257, 17, 5.00000000000000000000e-01) (257, 17, 5.00000000000000000000e-01) (257, 17, 5.00000000000000000000e-01) (257, 17, 5.00000000000000000000e-01) (257, 17, 5.00000000000000000000e-01) (257, 17, 5.00000000000000000000e-01) (257, 17, 5.00000000000000000000e-01) (257, 17, 5.00000000000000000000e-01) (257, 17, 5.00000000000000000000e-01) (257, 17, 5.00000000000000000000e-01) (257, 17, 5.00000000000000000000e-01) (257, 17, 5.00000000000000000000e-01) (257, 17, 5.00000000000000000000e-01) (257, 17, 5.00000000000000000000e-01) (257, 17, 5.00000000000000000000e-01) (257, 17, 5.00000000000000000000e-01) (257, 17, 5.00000000000000000000e-01) (257, 17, 5.00000000000000000000e-01) (257, 17, 5.00000000000000000000e-01) (257, 17, 5.00000000000000000000e-01) (257, 17, 5.00000000000000000000e-01) (257, 17, 5.00000000000000000000e-01) (257, 17, 5.00000000000000000000e-01) (257, 17, 5.00000000000000000000e-01) (257, 17, 5.00000000000000000000e-01) (257, 17, 5.00000000000000000000e-01) (257, 17, 5.00000000000000000000e-01) (257, 17, 5.00000000000000000000e-01) (257, 17, 5.00000000000000000000e-01) (257, 17, 5.00000000000000000000e-01) (257, 17, 5.00000000000000000000e-01) (257, 17, 5.00000000000000000000e-01) (257, 17, 5.00000000000000000000e-01) (257, 17, 5.00000000000000000000e-01) (257, 17, 5.00000000000000000000e-01) (257, 17, 5.00000000000000000000e-01) (257, 17, 5.00000000000000000000e-01) (257, 17, 5.00000000000000000000e-01) (257, 17, 5.00000000000000000000e-01) (257, 17, 5.00000000000000000000e-01) (257, 17, 5.00000000000000000000e-01) (257, 17, 5.00000000000000000000e-01) (257, 17, 5.00000000000000000000e-01) (257, 17, 5.00000000000000000000e-01) (257, 17, 5.00000000000000000000e-01) (257, 17, 5.00000000000000000000e-01) (257, 17, 5.00000000000000000000e-01) (257, 17, 5.00000000000000000000e-01) (257, 17, 5.00000000000000000000e-01) (257, 17, 5.00000000000000000000e-01) (257, 17, 5.00000000000000000000e-01) (257, 17, 5.00000000000000000000e-01) (257, 17, 5.00000000000000000000e-01) (257, 17, 5.00000000000000000000e-01) (257, 17, 5.00000000000000000000e-01) (257, 17, 5.00000000000000000000e-01) (257, 17, 5.00000000000000000000e-01) (257, 17, 5.00000000000000000000e-01) (257, 17, 5.00000000000000000000e-01) (257, 17, 5.00000000000000000000e-01) (257, 17, 5.00000000000000000000e-01) (257, 17, 5.00000000000000000000e-01) (257, 17, 5.00000000000000000000e-01) (257, 17, 5.00000000000000000000e-01) (257, 17, 5.00000000000000000000e-01) (257, 17, 5.00000000000000000000e-01) (257, 17, 5.00000000000000000000e-01) (257, 17, 5.00000000000000000000e-01) (257, 17, 5.00000000000000000000e-01) (257, 17, 5.00000000000000000000e-01) (257, 17, 5.00000000000000000000e-01) (257, 17, 5.00000000000000000000e-01) (257, 17, 5.00000000000000000000e-01) (257, 17, 5.00000000000000000000e-01) (257, 17, 5.00000000000000000000e-01) (257, 17, 5.00000000000000000000e-01) (257, 17, 5.00000000000000000000e-01) (257, 17, 5.00000000000000000000e-01) (257, 17, 5.00000000000000000000e-01) (257, 17, 5.00000000000000000000e-01) (257, 17, 5.00000000000000000000e-01) (257, 17, 5.00000000000000000000e-01) (257, 17, 5.00000000000000000000e-01) (257, 17, 5.00000000000000000000e-01) (257, 17, 5.00000000000000000000e-01) (257, 17, 5.00000000000000000000e-01) (257, 17, 5.00000000000000000000e-01) (257, 17, 5.00000000000000000000e-01) (257, 17, 5.00000000000000000000e-01) (257, 17, 5.00000000000000000000e-01) (257, 17, 5.00000000000000000000e-01) (257, 17, 5.00000000000000000000e-01) (257, 17, 5.00000000000000000000e-01) (257, 17, 5.00000000000000000000e-01) (257, 17, 5.00000000000000000000e-01) (257, 17, 5.00000000000000000000e-01) (257, 17, 5.00000000000000000000e-01) (257, 17, 5.00000000000000000000e-01) (257, 17, 5.00000000000000000000e-01) (257, 17, 5.00000000000000000000e-01) (257, 17, 5.00000000000000000000e-01) (257, 17, 5.00000000000000000000e-01) (257, 17, 5.00000000000000000000e-01) (257, 17, 5.00000000000000000000e-01) (257, 17, 5.00000000000000000000e-01) (257, 17, 5.00000000000000000000e-01) (257, 17, 5.00000000000000000000e-01) (257, 17, 5.00000000000000000000e-01) (257, 17, 5.00000000000000000000e-01) (257, 17, 5.00000000000000000000e-01) (257, 17, 5.00000000000000000000e-01) (257, 17, 5.00000000000000000000e-01) (257, 17, 5.00000000000000000000e-01) (257, 17, 5.00000000000000000000e-01) (257, 17, 5.00000000000000000000e-01) (257, 17, 5.00000000000000000000e-01) (257, 17, 5.00000000000000000000e-01) (257, 17, 5.00000000000000000000e-01) (257, 17, 5.00000000000000000000e-01) (257, 17, 5.00000000000000000000e-01) (257, 17, 5.00000000000000000000e-01) (257, 17, 5.00000000000000000000e-01) (257, 17, 5.00000000000000000000e-01) (257, 17, 5.00000000000000000000e-01) (257, 17, 5.00000000000000000000e-01) (257, 17, 5.00000000000000000000e-01) (257, 17, 5.00000000000000000000e-01) (257, 17, 5.00000000000000000000e-01) (257, 17, 5.00000000000000000000e-01) (257, 17, 5.00000000000000000000e-01) (257, 17, 5.00000000000000000000e-01) (257, 17, 5.00000000000000000000e-01) (257, 17, 5.00000000000000000000e-01) (257, 17, 5.00000000000000000000e-01) (257, 17, 5.00000000000000000000e-01) (257, 17, 5.00000000000000000000e-01) (257, 17, 5.00000000000000000000e-01) (257, 17, 5.00000000000000000000e-01) (257, 17, 5.00000000000000000000e-01) (257, 17, 5.00000000000000000000e-01) (257, 17, 5.00000000000000000000e-01) (257, 17, 5.00000000000000000000e-01) (257, 17, 5.00000000000000000000e-01) (257, 17, 5.00000000000000000000e-01) (257, 17, 5.00000000000000000000e-01) (257, 17, 5.00000000000000000000e-01) (257, 17, 5.00000000000000000000e-01) (257, 17, 5.00000000000000000000e-01) (257, 17, 5.00000000000000000000e-01) (257, 17, 5.00000000000000000000e-01) (257, 17, 5.00000000000000000000e-01) (257, 17, 5.00000000000000000000e-01) (257, 17, 5.00000000000000000000e-01) (257, 17, 5.00000000000000000000e-01) (257, 17, 5.00000000000000000000e-01) (257, 17, 5.00000000000000000000e-01) (257, 17, 5.00000000000000000000e-01) (257, 17, 5.00000000000000000000e-01) (0, 17, 0.00000000000000000000e+00) (257, 4, 5.00000000000000000000e-01) (257, 4, 5.00000000000000000000e-01) (257, 4, 5.00000000000000000000e-01) (257, 4, 5.00000000000000000000e-01) (0, 0, 0.00000000000000000000e+00) 
connections (connected_to_neuron, weight)=(0, -8.08835774660110473633e-03) (1, 4.77488711476325988770e-02) (2, -4.68140020966529846191e-02) (3, 1.77619680762290954590e-02) (4, -8.43030363321304321289e-02) (5, 9.03056934475898742676e-02) (6, -8.33062678575515747070e-02) (7, 1.90098881721496582031e-02) (8, -6.93591982126235961914e-02) (9, 6.96051791310310363770e-02) (10, -5.65505735576152801514e-02) (11, -2.42290794849395751953e-02) (12, -7.45593309402465820312e-02) (13, 3.25630381703376770020e-02) (14, -6.23017549514770507812e-03) (15, -6.56661763787269592285e-02) (16, -1.96140259504318237305e-02) (17, 1.36266201734542846680e-02) (18, 3.36614325642585754395e-02) (19, 8.74319896101951599121e-02) (20, -3.51004153490066528320e-02) (21, -2.30415016412734985352e-02) (22, 3.31809297204017639160e-02) (23, -9.23865139484405517578e-02) (24, -9.75210592150688171387e-02) (25, -6.27674162387847900391e-03) (26, -4.88152988255023956299e-02) (27, 6.78791031241416931152e-02) (28, -3.77993769943714141846e-02) (29, -4.15595583617687225342e-02) (30, -3.63314375281333923340e-02) (31, 5.41122630238533020020e-02) (32, -9.38106998801231384277e-02) (33, 1.68545618653297424316e-02) (34, -2.81257554888725280762e-02) (35, -7.81137347221374511719e-02) (36, 7.16026127338409423828e-03) (37, -1.14320218563079833984e-02) (38, 4.08961549401283264160e-02) (39, 3.78010496497154235840e-02) (40, -4.18268516659736633301e-02) (41, 8.43455865979194641113e-02) (42, -8.64280238747596740723e-02) (43, -1.63861885666847229004e-02) (44, 1.69086083769798278809e-02) (45, 7.34180212020874023438e-03) (46, 1.79476365447044372559e-02) (47, 9.72945764660835266113e-02) (48, -7.90315866470336914062e-02) (49, -4.83909323811531066895e-02) (50, 8.47265794873237609863e-02) (51, -1.41319930553436279297e-02) (52, 2.85675749182701110840e-02) (53, 1.79075151681900024414e-02) (54, -6.51851296424865722656e-03) (55, 3.10465171933174133301e-02) (56, -8.83692279458045959473e-02) (57, 4.46661934256553649902e-02) (58, -1.07438117265701293945e-03) (59, -2.61685997247695922852e-02) (60, -9.68933701515197753906e-02) (61, 6.25941827893257141113e-02) (62, -7.20563381910324096680e-02) (63, -9.07040685415267944336e-02) (64, -2.05512642860412597656e-02) (65, -1.82092189788818359375e-04) (66, -6.88178017735481262207e-02) (67, 8.66089984774589538574e-02) (68, 8.83858874440193176270e-02) (69, 7.20783546566963195801e-02) (70, 2.44100466370582580566e-02) (71, -5.34409657120704650879e-02) (72, 5.64239248633384704590e-02) (73, 3.79820242524147033691e-02) (74, 3.01728472113609313965e-02) (75, -2.66674682497978210449e-02) (76, -5.46761825680732727051e-02) (77, -5.18795140087604522705e-02) (78, -2.93728858232498168945e-02) (79, -3.37077602744102478027e-02) (80, -2.70441174507141113281e-04) (81, -4.46463190019130706787e-02) (82, 5.21602407097816467285e-02) (83, -7.17028751969337463379e-02) (84, 7.32611939311027526855e-02) (85, -5.43582700192928314209e-02) (86, 5.93436434864997863770e-02) (87, 8.48919674754142761230e-02) (88, 9.03079286217689514160e-02) (89, -4.17307429015636444092e-02) (90, -4.12766411900520324707e-02) (91, 9.34145525097846984863e-02) (92, -7.91365653276443481445e-02) (93, -1.33329778909683227539e-02) (94, -9.72895100712776184082e-02) (95, 3.12171876430511474609e-04) (96, 8.64849314093589782715e-02) (97, 3.74416053295135498047e-01) (98, 4.27584052085876464844e-01) (99, 3.35598498582839965820e-01) (100, 1.04020245373249053955e-01) (101, -1.33383071422576904297e+00) (102, 4.77129489183425903320e-01) (103, 7.15894222259521484375e-01) (104, 1.78845429420471191406e+00) (105, 7.81940758228302001953e-01) (106, 5.87572641670703887939e-02) (107, 6.74683570861816406250e-01) (108, -7.27824091911315917969e-01) (109, 1.97712913155555725098e-01) (110, 1.62533521652221679688e-01) (111, 1.50838804244995117188e+00) (112, -2.35235244035720825195e-01) (113, -4.90710318088531494141e-01) (114, -1.80468484759330749512e-01) (115, -6.39201641082763671875e-01) (116, 2.48211119323968887329e-02) (117, -1.44564831256866455078e+00) (118, -4.31311130523681640625e-01) (119, 1.00261676311492919922e+00) (120, -1.14964522421360015869e-01) (121, 1.36236977577209472656e+00) (122, 5.48150360584259033203e-01) (123, 6.62262216210365295410e-02) (124, -3.47481817007064819336e-02) (125, -5.48357591032981872559e-02) (126, -3.34616154432296752930e-02) (127, -4.82632406055927276611e-02) (128, -2.17824405990540981293e-03) (129, 8.46897885203361511230e-02) (130, 2.26774871349334716797e-01) (131, 3.99736854888033121824e-05) (132, 1.01004183292388916016e-01) (133, 4.97503727674484252930e-02) (134, -5.01034595072269439697e-02) (135, 7.62022286653518676758e-02) (136, 1.02042004466056823730e-01) (137, -1.56120937317609786987e-02) (138, 8.74104350805282592773e-03) (139, 1.06853798031806945801e-01) (140, 1.07009425759315490723e-01) (141, 7.11341723799705505371e-02) (142, 3.82000347599387168884e-03) (143, 6.12298175692558288574e-02) (144, 8.65051746368408203125e-02) (145, -7.19701871275901794434e-02) (146, -1.13131217658519744873e-02) (147, -5.73079288005828857422e-02) (148, 1.74264051020145416260e-02) (149, -8.90085771679878234863e-02) (150, -9.46967303752899169922e-03) (151, -4.09777350723743438721e-02) (152, 8.83742868900299072266e-02) (153, 1.55100226402282714844e-01) (154, -7.32876732945442199707e-02) (155, 6.11861199140548706055e-02) (156, 8.05501937866210937500e-02) (157, -3.20969196036458015442e-03) (158, 9.12394281476736068726e-03) (159, -4.15938124060630798340e-02) (160, -2.55421727895736694336e-01) (161, 3.19894291460514068604e-02) (162, 4.84871119260787963867e-02) (163, -8.84989723563194274902e-02) (164, 7.62625709176063537598e-02) (165, 9.11199674010276794434e-02) (166, -2.63326950371265411377e-02) (167, 2.79129240661859512329e-02) (168, -3.30024778842926025391e-01) (169, -1.07671594619750976562e+00) (170, 2.47920900583267211914e-02) (171, -3.52148599922657012939e-02) (172, -9.50455740094184875488e-02) (173, -2.59178504347801208496e-02) (174, -8.64752158522605895996e-02) (175, 8.53124335408210754395e-02) (176, 3.69279272854328155518e-02) (177, 1.09672574326395988464e-02) (178, -4.69301044940948486328e-02) (179, 3.18651869893074035645e-02) (180, 2.70166508853435516357e-02) (181, 6.36226236820220947266e-02) (182, -1.54128409922122955322e-02) (183, -2.11336743086576461792e-03) (184, -8.39920435100793838501e-03) (185, 4.83342958614230155945e-03) (186, 6.48461356759071350098e-02) (187, -1.00747227668762207031e-01) (188, 2.17978268861770629883e-01) (189, -2.80977971851825714111e-02) (190, 5.44785335659980773926e-02) (191, -5.31140975654125213623e-02) (192, 7.01041594147682189941e-02) (193, -7.20952153205871582031e-02) (194, -5.43511696159839630127e-02) (195, -1.56096303462982177734e+00) (196, 1.95606008172035217285e-01) (197, 5.89550316333770751953e-01) (198, 2.22694501280784606934e-02) (199, -9.63255017995834350586e-03) (200, -9.73277688026428222656e-02) (201, -2.46448814868927001953e-03) (202, 5.26789650321006774902e-02) (203, -9.47751998901367187500e-02) (204, 7.16176554560661315918e-02) (205, 6.62037655711174011230e-02) (206, 9.05372425913810729980e-02) (207, -2.77342349290847778320e-02) (208, 4.10027831792831420898e-01) (209, 9.87371280789375305176e-02) (210, -1.34266242384910583496e-02) (211, 7.16629996895790100098e-02) (212, 3.46747115254402160645e-02) (213, 5.99032565951347351074e-02) (214, -3.79563271999359130859e-02) (215, 8.49926993250846862793e-02) (216, -4.15183976292610168457e-02) (217, -9.76948514580726623535e-02) (218, -8.65409895777702331543e-02) (219, -5.11531755328178405762e-02) (220, -5.58158196508884429932e-02) (221, -8.69423151016235351562e-04) (222, -1.55415311455726623535e-02) (223, -8.57116580009460449219e-02) (224, 2.70353630185127258301e-02) (225, 3.01073119044303894043e-02) (226, 6.06550797820091247559e-02) (227, 4.45962771773338317871e-02) (228, -1.02683901786804199219e-04) (229, -1.70754641294479370117e-02) (230, -6.50362670421600341797e-02) (231, 2.56954133510589599609e-03) (232, 8.04600343108177185059e-02) (233, 8.76427069306373596191e-02) (234, 7.79434293508529663086e-03) (235, 5.20776882767677307129e-02) (236, 5.38464561104774475098e-02) (237, -1.66841596364974975586e-03) (238, -7.56565406918525695801e-02) (239, -8.02422538399696350098e-02) (240, 1.56723856925964355469e-02) (241, 1.09168440103530883789e-02) (242, 9.14207473397254943848e-02) (243, -4.96529117226600646973e-02) (244, -2.91799157857894897461e-02) (245, -4.65355813503265380859e-02) (246, -6.46602213382720947266e-02) (247, 2.93016955256462097168e-02) (248, -4.42304313182830810547e-02) (249, -5.12012057006359100342e-02) (250, 7.81485065817832946777e-02) (251, -4.62532043457031250000e-05) (252, 4.79293689131736755371e-02) (253, -3.73930186033248901367e-02) (254, 1.42420902848243713379e-02) (255, -2.50352621078491210938e-02) (256, 4.53489637374877929688e+00) (0, -2.51028239727020263672e-02) (1, -8.04389789700508117676e-02) (2, -7.38839805126190185547e-03) (3, 5.78216984868049621582e-02) (4, -4.54752445220947265625e-02) (5, 9.51811447739601135254e-02) (6, 3.82817462086677551270e-02) (7, -5.78325428068637847900e-02) (8, 2.97550112009048461914e-03) (9, -9.64056700468063354492e-03) (10, 9.60139110684394836426e-02) (11, -9.86929237842559814453e-02) (12, 1.47028937935829162598e-02) (13, -8.42283368110656738281e-02) (14, 1.69794559478759765625e-02) (15, -7.43802711367607116699e-02) (16, -9.28075909614562988281e-02) (17, 6.73265531659126281738e-02) (18, -3.56018543243408203125e-03) (19, -3.93431782722473144531e-02) (20, -9.73336622118949890137e-02) (21, -7.42584988474845886230e-02) (22, 1.64263993501663208008e-02) (23, -4.85348701477050781250e-02) (24, -9.61099863052368164062e-02) (25, -8.36198627948760986328e-02) (26, 9.93945077061653137207e-02) (27, -3.35030034184455871582e-02) (28, 3.06222364306449890137e-02) (29, -2.56407558917999267578e-02) (30, -4.07887175679206848145e-02) (31, -9.44805890321731567383e-02) (32, -6.07973337173461914062e-03) (33, 5.18228933215141296387e-02) (34, 6.33411183953285217285e-02) (35, 4.84450235962867736816e-02) (36, 4.70040366053581237793e-02) (37, 1.62285566329956054688e-03) (38, 9.06124785542488098145e-02) (39, -5.00204712152481079102e-02) (40, 9.19822975993156433105e-02) (41, 8.66264030337333679199e-02) (42, -4.87133972346782684326e-02) (43, 6.68518245220184326172e-03) (44, -9.76019352674484252930e-02) (45, 6.82660564780235290527e-02) (46, 3.23049202561378479004e-02) (47, -9.04095247387886047363e-02) (48, 3.55926230549812316895e-02) (49, -7.12552666664123535156e-02) (50, -2.97527015209197998047e-02) (51, 3.82589474320411682129e-02) (52, -4.55137751996517181396e-02) (53, 8.66736844182014465332e-02) (54, 8.97240713238716125488e-02) (55, -4.16237600147724151611e-02) (56, -9.69461649656295776367e-02) (57, 8.91185924410820007324e-02) (58, 2.48732417821884155273e-02) (59, 3.36760655045509338379e-02) (60, -3.65221649408340454102e-02) (61, 8.40845182538032531738e-02) (62, 3.91954854130744934082e-02) (63, 5.73980882763862609863e-02) (64, 3.59074100852012634277e-02) (65, 2.53659486770629882812e-03) (66, 5.84312528371810913086e-03) (67, -1.70885547995567321777e-02) (68, -9.58405509591102600098e-02) (69, -3.54439020156860351562e-03) (70, 3.28909829258918762207e-02) (71, 9.61417481303215026855e-02) (72, -1.69179886579513549805e-02) (73, 8.41775760054588317871e-02) (74, 2.82692909240722656250e-03) (75, -1.45199149847030639648e-02) (76, 5.24436458945274353027e-02) (77, -6.48681595921516418457e-02) (78, -4.92943823337554931641e-03) (79, -1.19637399911880493164e-02) (80, -3.61234322190284729004e-02) (81, 6.53178617358207702637e-02) (82, -7.37047940492630004883e-02) (83, 1.83627977967262268066e-02) (84, 5.19915595650672912598e-02) (85, -8.39807167649269104004e-02) (86, 7.67390355467796325684e-02) (87, 5.50453886389732360840e-02) (88, -9.48621332645416259766e-02) (89, 1.61228328943252563477e-03) (90, -1.12785473465919494629e-02) (91, -3.13843041658401489258e-02) (92, -1.43031924962997436523e-02) (93, -7.20830708742141723633e-02) (94, -7.39862024784088134766e-02) (95, -7.83957839012145996094e-02) (96, 3.04535254836082458496e-02) (97, -1.59975290298461914062e-01) (98, 6.39920115470886230469e-01) (99, 4.50236618518829345703e-01) (100, -2.57619857788085937500e-01) (101, -5.03551626205444335938e+00) (102, -5.87642416357994079590e-02) (103, 4.51033055782318115234e-01) (104, 9.73121583461761474609e-01) (105, 5.42303860187530517578e-01) (106, 8.45422804355621337891e-01) (107, 1.73060727119445800781e+00) (108, -2.67971587181091308594e+00) (109, 9.12852287292480468750e-02) (110, -1.35136342048645019531e+00) (111, 1.10767865180969238281e+00) (112, -5.08022964000701904297e-01) (113, -6.81089937686920166016e-01) (114, -2.18016791343688964844e+00) (115, -2.83287119865417480469e+00) (116, -2.30333065986633300781e+00) (117, -3.06448745727539062500e+00) (118, -1.16172325611114501953e+00) (119, 2.37937402725219726562e+00) (120, -2.79981076717376708984e-01) (121, 2.04888248443603515625e+00) (122, 2.77622222900390625000e+00) (123, -8.49990099668502807617e-02) (124, -1.90616324543952941895e-02) (125, -9.58540141582489013672e-02) (126, -6.33947849273681640625e-02) (127, -8.86081084609031677246e-02) (128, 5.72750307619571685791e-02) (129, 7.65720307826995849609e-02) (130, 1.18238067626953125000e+00) (131, 8.13642740249633789062e-02) (132, 2.33380332589149475098e-01) (133, 3.95424515008926391602e-01) (134, -2.14531049132347106934e-02) (135, 1.22194014489650726318e-01) (136, 1.31726320832967758179e-02) (137, -2.59929280728101730347e-02) (138, 7.41396173834800720215e-02) (139, 8.75452682375907897949e-02) (140, 8.43983590602874755859e-02) (141, -6.23963698744773864746e-02) (142, 1.73178147524595260620e-02) (143, -6.68528005480766296387e-02) (144, 2.88150236010551452637e-02) (145, 6.39945194125175476074e-02) (146, -6.61521703004837036133e-02) (147, -6.96614384651184082031e-02) (148, 9.44831222295761108398e-02) (149, 1.01037278771400451660e-01) (150, 3.84581759572029113770e-02) (151, 1.95937156677246093750e-02) (152, -4.73858900368213653564e-02) (153, 5.34160256385803222656e-01) (154, 3.59949246048927307129e-02) (155, 4.96724098920822143555e-01) (156, 2.35732570290565490723e-02) (157, 7.68897980451583862305e-02) (158, 4.92235198616981506348e-02) (159, -4.18605394661426544189e-02) (160, -3.20980846881866455078e-01) (161, -9.04176570475101470947e-03) (162, -7.18317031860351562500e-02) (163, -7.73341720923781394958e-03) (164, 6.34635612368583679199e-02) (165, -1.81699672248214483261e-03) (166, -9.27201285958290100098e-02) (167, -1.07036761939525604248e-01) (168, -4.32861357927322387695e-01) (169, -1.70884680747985839844e+00) (170, -1.30849227309226989746e-01) (171, 3.67240123450756072998e-02) (172, 4.13920450955629348755e-03) (173, 6.45042732357978820801e-02) (174, 5.56719228625297546387e-02) (175, -7.41335079073905944824e-02) (176, 6.82412907481193542480e-02) (177, 9.94552001357078552246e-02) (178, -1.54098030179738998413e-02) (179, 4.91901963949203491211e-01) (180, 1.06201760470867156982e-01) (181, 1.45730182528495788574e-01) (182, -5.02543859183788299561e-02) (183, -6.10399842262268066406e-02) (184, 5.66577389836311340332e-02) (185, 7.86934792995452880859e-02) (186, 1.25566452741622924805e-01) (187, -1.28983721137046813965e-01) (188, 5.28598904609680175781e-01) (189, 3.44778895378112792969e-02) (190, 6.53513744473457336426e-02) (191, -3.21315340697765350342e-02) (192, 8.71458575129508972168e-02) (193, 8.38701426982879638672e-03) (194, 4.59489300847053527832e-02) (195, -2.33012533187866210938e+00) (196, 1.09240126609802246094e+00) (197, 2.15652084350585937500e+00) (198, -7.55858123302459716797e-02) (199, 7.45010003447532653809e-02) (200, 2.00869143009185791016e-03) (201, -2.27263122797012329102e-02) (202, 8.38007777929306030273e-03) (203, -9.66878905892372131348e-02) (204, -5.82220442593097686768e-02) (205, -3.59480008482933044434e-02) (206, -7.08213895559310913086e-02) (207, 6.88798651099205017090e-02) (208, 4.54169243574142456055e-01) (209, 1.89616352319717407227e-01) (210, -1.37286931276321411133e-02) (211, -6.71619325876235961914e-02) (212, -2.27468609809875488281e-02) (213, 2.32564583420753479004e-02) (214, -3.67263630032539367676e-02) (215, 8.71098563075065612793e-02) (216, -5.16366213560104370117e-03) (217, -7.69835785031318664551e-02) (218, -8.22970867156982421875e-02) (219, -6.23838678002357482910e-02) (220, 2.34583020210266113281e-02) (221, 5.03523647785186767578e-03) (222, -7.28326290845870971680e-03) (223, 1.06041431427001953125e-02) (224, -8.65777507424354553223e-02) (225, -6.13343380391597747803e-02) (226, -3.87864522635936737061e-02) (227, -8.14260467886924743652e-02) (228, -2.44253352284431457520e-02) (229, -1.43722668290138244629e-02) (230, 9.30749550461769104004e-02) (231, 7.75833502411842346191e-02) (232, 6.29014298319816589355e-02) (233, 1.45503133535385131836e-03) (234, 8.08954760432243347168e-02) (235, -9.53206270933151245117e-02) (236, 6.55070319771766662598e-02) (237, -8.99259299039840698242e-02) (238, 7.35592320561408996582e-02) (239, -8.37216377258300781250e-02) (240, -5.93914091587066650391e-03) (241, -4.01694588363170623779e-02) (242, -5.08835725486278533936e-02) (243, 7.13139995932579040527e-02) (244, 8.30870047211647033691e-02) (245, 1.23900771141052246094e-02) (246, 5.84238693118095397949e-02) (247, -2.20766589045524597168e-02) (248, 3.54064926505088806152e-02) (249, 7.61267766356468200684e-02) (250, 1.55394673347473144531e-02) (251, -4.11352105438709259033e-02) (252, -1.88379958271980285645e-02) (253, -9.17437970638275146484e-02) (254, 6.94689378142356872559e-02) (255, -5.41574507951736450195e-03) (256, -5.21581315994262695312e+00) (0, -6.93175122141838073730e-02) (1, 1.31582170724868774414e-02) (2, 2.24965363740921020508e-02) (3, 1.63102298974990844727e-02) (4, 6.23317062854766845703e-03) (5, 7.98851251602172851562e-05) (6, -2.07883566617965698242e-02) (7, -9.23117920756340026855e-02) (8, -1.90246552228927612305e-02) (9, -1.61089748144149780273e-02) (10, 7.31952413916587829590e-02) (11, -8.95057618618011474609e-03) (12, -4.25497405230998992920e-02) (13, 8.94736126065254211426e-02) (14, 8.51102992892265319824e-02) (15, 1.72807946801185607910e-02) (16, -6.14099688827991485596e-02) (17, 5.64242973923683166504e-02) (18, 3.67797911167144775391e-04) (19, 5.09800985455513000488e-02) (20, 1.48481503129005432129e-02) (21, 7.82911255955696105957e-02) (22, -1.36134028434753417969e-02) (23, -9.02507454156875610352e-03) (24, -6.16939365863800048828e-03) (25, 4.52513918280601501465e-02) (26, 7.21369311213493347168e-02) (27, 2.08680331707000732422e-03) (28, 1.47203356027603149414e-02) (29, -3.32788079977035522461e-02) (30, 4.90086749196052551270e-02) (31, 4.54028323292732238770e-02) (32, 7.98794105648994445801e-02) (33, -2.84947901964187622070e-02) (34, -3.82869541645050048828e-02) (35, -1.38874277472496032715e-02) (36, 7.15850964188575744629e-02) (37, 4.09246906638145446777e-02) (38, -6.19922578334808349609e-03) (39, -4.74395565688610076904e-02) (40, -7.51842930912971496582e-02) (41, -3.30039858818054199219e-02) (42, 4.36098650097846984863e-02) (43, -1.77340358495712280273e-02) (44, -4.35303822159767150879e-02) (45, 2.87201479077339172363e-02) (46, 9.95467677712440490723e-02) (47, -4.94034588336944580078e-03) (48, -1.48555487394332885742e-02) (49, -8.54358077049255371094e-05) (50, -5.39602451026439666748e-02) (51, 9.99926105141639709473e-02) (52, -2.17943042516708374023e-02) (53, 3.24263647198677062988e-02) (54, -9.03247296810150146484e-03) (55, 7.20363035798072814941e-02) (56, -2.23222523927688598633e-02) (57, -3.68955358862876892090e-02) (58, -2.58768871426582336426e-02) (59, 9.23980697989463806152e-02) (60, 2.98256501555442810059e-02) (61, -7.68682062625885009766e-02) (62, 3.78009006381034851074e-02) (63, 9.70505177974700927734e-03) (64, -5.36300241947174072266e-03) (65, 9.95139405131340026855e-02) (66, 9.58176180720329284668e-02) (67, -3.37779074907302856445e-02) (68, 4.04386296868324279785e-02) (69, -1.03816017508506774902e-02) (70, 1.87825337052345275879e-02) (71, 6.52543380856513977051e-02) (72, 5.66144064068794250488e-02) (73, -3.76076065003871917725e-02) (74, -5.24796992540359497070e-02) (75, -8.69159772992134094238e-02) (76, 9.11125615239143371582e-02) (77, -5.29329366981983184814e-02) (78, 8.14367830753326416016e-03) (79, -2.37429961562156677246e-02) (80, 4.69816252589225769043e-02) (81, 5.41834309697151184082e-02) (82, -2.37503945827484130859e-02) (83, -7.48126730322837829590e-02) (84, -1.33902207016944885254e-02) (85, 6.72171339392662048340e-02) (86, 9.72236320376396179199e-02) (87, 6.42875358462333679199e-02) (88, -6.96783959865570068359e-02) (89, -2.86532565951347351074e-02) (90, 5.66856041550636291504e-02) (91, 6.01472482085227966309e-02) (92, -5.52146136760711669922e-03) (93, -5.51350414752960205078e-03) (94, -3.01476940512657165527e-02) (95, 8.91155377030372619629e-02) (96, -5.99957257509231567383e-03) (97, -4.17240560054779052734e-01) (98, 4.82719659805297851562e-01) (99, -6.98807910084724426270e-02) (100, -1.04164183139801025391e-01) (101, -3.38576030731201171875e+00) (102, 9.16021406650543212891e-01) (103, 8.94038200378417968750e-01) (104, 2.61956858634948730469e+00) (105, 1.75292000174522399902e-01) (106, 7.55284726619720458984e-02) (107, 6.40779674053192138672e-01) (108, -1.82211589813232421875e+00) (109, -1.60336107015609741211e-01) (110, -4.88800138235092163086e-01) (111, 1.54550588130950927734e+00) (112, -7.52139329910278320312e-01) (113, -6.24890089035034179688e-01) (114, -1.09248113632202148438e+00) (115, -1.88804554939270019531e+00) (116, -5.13141274452209472656e-01) (117, -2.85289645195007324219e+00) (118, -9.16501641273498535156e-01) (119, 1.53510439395904541016e+00) (120, -2.50991195440292358398e-01) (121, 1.94676411151885986328e+00) (122, 6.70891702175140380859e-01) (123, -7.05013945698738098145e-02) (124, -1.06167420744895935059e-02) (125, -9.23299938440322875977e-02) (126, -8.13858583569526672363e-02) (127, 8.33836868405342102051e-02) (128, 1.88612684607505798340e-01) (129, 3.32790017127990722656e-01) (130, 7.32346415519714355469e-01) (131, 1.00843466818332672119e-01) (132, -1.14257792010903358459e-02) (133, 8.29568654298782348633e-02) (134, 6.92242756485939025879e-02) (135, 1.96451455354690551758e-01) (136, -6.56585255637764930725e-03) (137, -2.01228484511375427246e-02) (138, 1.22095718979835510254e-02) (139, 1.45195156335830688477e-01) (140, 1.99608579277992248535e-01) (141, -6.94792717695236206055e-02) (142, -4.23193536698818206787e-02) (143, 1.00776635110378265381e-01) (144, 1.39313504099845886230e-01) (145, -1.89178735017776489258e-02) (146, 8.85366499423980712891e-02) (147, 5.78977763652801513672e-02) (148, 7.34883546829223632812e-02) (149, 1.55398055911064147949e-01) (150, 2.12426781654357910156e-02) (151, -3.45839411020278930664e-02) (152, 1.36104404926300048828e-01) (153, 1.08439177274703979492e-01) (154, 9.26903169602155685425e-03) (155, 1.32615536451339721680e-01) (156, -4.56515280529856681824e-03) (157, 7.09525495767593383789e-02) (158, 5.18681667745113372803e-02) (159, 5.43958544731140136719e-02) (160, -2.50665307044982910156e-01) (161, 2.66371052712202072144e-02) (162, 1.40539661049842834473e-01) (163, -5.01216389238834381104e-02) (164, 1.09937041997909545898e-03) (165, 2.35890410840511322021e-02) (166, -6.79857134819030761719e-02) (167, 6.42670644447207450867e-03) (168, -4.53995585441589355469e-01) (169, -1.83057093620300292969e+00) (170, -6.32831826806068420410e-02) (171, 2.10212916135787963867e-03) (172, -2.28581707924604415894e-02) (173, 2.51126959919929504395e-02) (174, 5.93574121594429016113e-02) (175, -5.53384236991405487061e-02) (176, 5.08082449436187744141e-01) (177, 1.48466154932975769043e-01) (178, 3.89829665422439575195e-01) (179, 2.44201332330703735352e-01) (180, 2.61338680982589721680e-01) (181, 5.40609598159790039062e-01) (182, 2.16892346739768981934e-01) (183, 9.64090228080749511719e-02) (184, 5.42184829711914062500e-01) (185, 5.43268807232379913330e-02) (186, 2.49770760536193847656e-01) (187, 9.11452919244766235352e-02) (188, 4.32838648557662963867e-01) (189, 3.02825033664703369141e-01) (190, 8.64748358726501464844e-01) (191, 2.12816581130027770996e-01) (192, 4.20539602637290954590e-02) (193, 4.40361425280570983887e-02) (194, -8.08761119842529296875e-02) (195, -2.93210458755493164062e+00) (196, 2.63845115900039672852e-01) (197, 6.19900286197662353516e-01) (198, -9.10174846649169921875e-02) (199, -7.19870701432228088379e-02) (200, 7.16073587536811828613e-02) (201, 3.38222607970237731934e-02) (202, 1.40833854675292968750e-03) (203, -7.99544453620910644531e-02) (204, -4.10650372505187988281e-02) (205, -3.92342694103717803955e-02) (206, -3.52928638458251953125e-02) (207, -4.92296926677227020264e-02) (208, 5.17569684982299804688e+00) (209, 2.03394436836242675781e+00) (210, 7.30016306042671203613e-02) (211, -2.65140086412429809570e-03) (212, 6.24174252152442932129e-02) (213, 6.06490150094032287598e-02) (214, -9.23180058598518371582e-02) (215, 3.09542939066886901855e-02) (216, -5.67889474332332611084e-02) (217, -9.96077880263328552246e-02) (218, 6.62215426564216613770e-02) (219, -6.06981068849563598633e-02) (220, -4.11370694637298583984e-02) (221, 4.15591225028038024902e-02) (222, -7.71266967058181762695e-02) (223, -9.90831106901168823242e-02) (224, -1.44047364592552185059e-02) (225, -5.80028071999549865723e-02) (226, -5.59297800064086914062e-02) (227, 3.88609394431114196777e-02) (228, 8.12580361962318420410e-02) (229, -4.69472669064998626709e-02) (230, 6.68738707900047302246e-02) (231, 5.28653934597969055176e-02) (232, 8.68749991059303283691e-02) (233, -3.17177921533584594727e-02) (234, 7.29109719395637512207e-02) (235, -5.41900433599948883057e-02) (236, 2.90479436516761779785e-02) (237, -6.23819082975387573242e-02) (238, -3.41974198818206787109e-03) (239, 9.05670970678329467773e-03) (240, -9.44096595048904418945e-03) (241, -3.04181128740310668945e-02) (242, -9.35946926474571228027e-02) (243, -4.70235422253608703613e-02) (244, -6.97690993547439575195e-02) (245, -8.59126970171928405762e-02) (246, 8.39307531714439392090e-02) (247, -2.65580490231513977051e-02) (248, -8.55204835534095764160e-02) (249, 5.01523092389106750488e-02) (250, 1.27438530325889587402e-02) (251, -2.66575515270233154297e-02) (252, -8.28857719898223876953e-03) (253, 3.56171503663063049316e-02) (254, -2.57406607270240783691e-02) (255, 7.73066952824592590332e-02) (256, 6.30713844299316406250e+00) (0, 1.83295607566833496094e-02) (1, 1.61676257848739624023e-02) (2, 5.88723793625831604004e-02) (3, 7.13822916150093078613e-02) (4, -1.69585049152374267578e-02) (5, 1.17377862334251403809e-02) (6, 5.82572892308235168457e-02) (7, 5.13237044215202331543e-02) (8, -1.53512582182884216309e-02) (9, -9.59327518939971923828e-02) (10, -1.96283608675003051758e-02) (11, 2.22668424248695373535e-02) (12, 6.47507607936859130859e-04) (13, 8.94283577799797058105e-02) (14, -8.71741324663162231445e-02) (15, 7.02294036746025085449e-02) (16, 9.58336666226387023926e-02) (17, -3.41976732015609741211e-02) (18, -9.95396971702575683594e-02) (19, -9.00790393352508544922e-02) (20, -5.02669215202331542969e-02) (21, -2.60977447032928466797e-02) (22, -7.55995213985443115234e-02) (23, 9.98853817582130432129e-02) (24, 8.66461023688316345215e-02) (25, -2.25706398487091064453e-03) (26, -8.40319693088531494141e-03) (27, 2.22632512450218200684e-02) (28, 7.20022693276405334473e-02) (29, -3.10965031385421752930e-02) (30, -1.22398138046264648438e-04) (31, -9.66817140579223632812e-03) (32, 8.50711241364479064941e-02) (33, -4.12500165402889251709e-02) (34, -3.82858775556087493896e-02) (35, -3.18873748183250427246e-02) (36, 7.04877749085426330566e-02) (37, -8.00285935401916503906e-02) (38, -8.05636793375015258789e-02) (39, -4.48634885251522064209e-02) (40, -7.59613439440727233887e-02) (41, -1.92031264305114746094e-04) (42, 7.74033442139625549316e-02) (43, 2.46861726045608520508e-02) (44, -1.07636898756027221680e-02) (45, 9.02292206883430480957e-02) (46, -5.08444011211395263672e-03) (47, -1.49300247430801391602e-02) (48, -4.39684577286243438721e-02) (49, -4.62412834167480468750e-03) (50, -5.00906258821487426758e-03) (51, 5.76461851596832275391e-03) (52, 6.92781284451484680176e-02) (53, 1.93914175033569335938e-02) (54, 5.64999878406524658203e-03) (55, 5.59242442250251770020e-02) (56, -8.28656479716300964355e-02) (57, 9.72468182444572448730e-02) (58, -2.18125134706497192383e-02) (59, 8.91366228461265563965e-02) (60, -3.38497012853622436523e-02) (61, 7.80651047825813293457e-02) (62, -2.05315500497817993164e-02) (63, -4.87785711884498596191e-02) (64, -6.31849244236946105957e-02) (65, 4.11825850605964660645e-02) (66, 1.93340554833412170410e-02) (67, -9.26971584558486938477e-02) (68, 6.11539855599403381348e-02) (69, 3.87703850865364074707e-02) (70, -3.75606417655944824219e-02) (71, 8.51926431059837341309e-02) (72, -6.14216625690460205078e-02) (73, -6.01572953164577484131e-02) (74, 9.87881422042846679688e-03) (75, 2.78146490454673767090e-02) (76, -6.99280798435211181641e-02) (77, -9.52056273818016052246e-02) (78, -8.71153771877288818359e-02) (79, -1.38965398073196411133e-02) (80, 1.70245766639709472656e-04) (81, 7.87556171417236328125e-03) (82, 9.18680801987648010254e-02) (83, -3.05516272783279418945e-02) (84, -7.27330222725868225098e-02) (85, -2.48192250728607177734e-03) (86, -7.46273994445800781250e-02) (87, -5.55986687541007995605e-02) (88, -5.23511320352554321289e-03) (89, 3.56008857488632202148e-03) (90, -6.64620399475097656250e-02) (91, 6.09151944518089294434e-02) (92, -1.83748155832290649414e-02) (93, 1.30064114928245544434e-02) (94, -8.78633782267570495605e-02) (95, 1.84402614831924438477e-02) (96, -4.58110086619853973389e-02) (97, -1.13949932157993316650e-01) (98, -7.13280588388442993164e-02) (99, -1.13607831299304962158e-01) (100, -1.09854899346828460693e-01) (101, 6.54958486557006835938e-02) (102, -3.56251984834671020508e-01) (103, -2.12097316980361938477e-01) (104, -7.00569868087768554688e-01) (105, -1.65073201060295104980e-01) (106, -4.30468656122684478760e-03) (107, -5.75050897896289825439e-02) (108, 5.59994727373123168945e-02) (109, -9.35843884944915771484e-02) (110, -1.69191345572471618652e-01) (111, -5.54931938648223876953e-01) (112, 1.52854561805725097656e-01) (113, 1.29066526889801025391e-01) (114, -1.64129883050918579102e-01) (115, 6.47066757082939147949e-02) (116, -3.67426127195358276367e-01) (117, 2.77625799179077148438e-01) (118, -2.83897221088409423828e-02) (119, -1.00150316953659057617e-01) (120, -5.49695529043674468994e-02) (121, -3.09174954891204833984e-01) (122, 1.15252353250980377197e-01) (123, -4.61471080780029296875e-03) (124, 7.56068900227546691895e-02) (125, 1.40341371297836303711e-03) (126, -8.61744508147239685059e-02) (127, -7.02041164040565490723e-02) (128, -7.72565975785255432129e-02) (129, 2.27507799863815307617e-02) (130, -3.47690619528293609619e-02) (131, -4.96787112206220626831e-03) (132, 3.41613329946994781494e-02) (133, -3.98668013513088226318e-02) (134, -8.92189145088195800781e-02) (135, 5.69546818733215332031e-02) (136, 5.48196136951446533203e-02) (137, -5.20081780850887298584e-02) (138, -8.61266329884529113770e-02) (139, -3.27448435127735137939e-02) (140, -1.13415597006678581238e-02) (141, 5.74971921741962432861e-02) (142, -1.60180404782295227051e-02) (143, -4.99088205397129058838e-02) (144, -7.87935219705104827881e-03) (145, 7.09914341568946838379e-02) (146, -6.11267015337944030762e-02) (147, 2.70945914089679718018e-02) (148, -2.03268565237522125244e-02) (149, -3.34926061332225799561e-02) (150, -4.39191758632659912109e-02) (151, -4.53568994998931884766e-03) (152, 2.97722220420837402344e-02) (153, 6.60890191793441772461e-02) (154, 9.03368517756462097168e-02) (155, 2.53566503524780273438e-02) (156, -5.45182675123214721680e-02) (157, -9.78634357452392578125e-02) (158, 3.31462770700454711914e-02) (159, -2.10095383226871490479e-02) (160, 9.00164395570755004883e-02) (161, 8.04220214486122131348e-02) (162, 7.95370936393737792969e-02) (163, -2.86397226154804229736e-02) (164, -7.19782933592796325684e-02) (165, 9.41619798541069030762e-02) (166, -6.05753883719444274902e-02) (167, 9.44698974490165710449e-02) (168, 1.29797002300620079041e-02) (169, 1.74111887812614440918e-01) (170, -3.29340659081935882568e-02) (171, 4.00611609220504760742e-02) (172, 9.85650569200515747070e-02) (173, 4.20850887894630432129e-02) (174, 9.68118384480476379395e-02) (175, -6.13899528980255126953e-03) (176, -5.94415515661239624023e-03) (177, -6.92608952522277832031e-02) (178, -9.25163403153419494629e-02) (179, 1.09872393310070037842e-01) (180, -5.29173109680414199829e-03) (181, -4.72416505217552185059e-02) (182, -1.53068741783499717712e-02) (183, -6.59052208065986633301e-02) (184, -9.91844460368156433105e-02) (185, -2.17471383512020111084e-02) (186, 4.07378785312175750732e-02) (187, -3.00606023520231246948e-02) (188, -4.52940817922353744507e-03) (189, -3.35849486291408538818e-02) (190, 1.23566817492246627808e-02) (191, -7.56890103220939636230e-02) (192, -3.50667685270309448242e-02) (193, 3.21350172162055969238e-02) (194, 2.52123177051544189453e-03) (195, 4.07457172870635986328e-01) (196, 7.60711804032325744629e-02) (197, 1.22474186122417449951e-01) (198, -2.29344516992568969727e-02) (199, 7.00530186295509338379e-02) (200, 7.19369873404502868652e-02) (201, 3.24738696217536926270e-02) (202, 1.13834515213966369629e-02) (203, 7.16554597020149230957e-02) (204, -2.54410356283187866211e-02) (205, 8.19529592990875244141e-03) (206, -3.44835445284843444824e-02) (207, 8.81482288241386413574e-02) (208, -1.93976104259490966797e-01) (209, -1.10559135675430297852e-01) (210, 8.34416821599006652832e-02) (211, -4.86907474696636199951e-02) (212, 6.47777393460273742676e-02) (213, -2.58005559444427490234e-02) (214, -1.07256174087524414062e-02) (215, 8.77964273095130920410e-02) (216, 5.58068081736564636230e-02) (217, -6.53479993343353271484e-02) (218, -4.24338839948177337646e-02) (219, -5.79106919467449188232e-02) (220, 1.72380059957504272461e-02) (221, -9.30390805006027221680e-02) (222, -2.73843854665756225586e-02) (223, 8.21712240576744079590e-02) (224, 3.90959456562995910645e-02) (225, 7.51368477940559387207e-02) (226, -2.48738378286361694336e-02) (227, -3.40943038463592529297e-02) (228, 5.42925298213958740234e-03) (229, 5.21917268633842468262e-02) (230, -6.40412867069244384766e-02) (231, -2.26337537169456481934e-02) (232, -1.53344050049781799316e-02) (233, 4.73421737551689147949e-02) (234, -5.09783029556274414062e-02) (235, 5.92245534062385559082e-02) (236, -4.44625429809093475342e-02) (237, 1.45381465554237365723e-02) (238, 4.73727658390998840332e-02) (239, -9.93128344416618347168e-02) (240, -9.83551666140556335449e-02) (241, 3.08144614100456237793e-02) (242, -4.80035804212093353271e-02) (243, 6.64225891232490539551e-02) (244, -9.49861034750938415527e-02) (245, 4.12707999348640441895e-02) (246, 5.42190149426460266113e-02) (247, 6.08207061886787414551e-02) (248, 7.59228095412254333496e-02) (249, -8.82148817181587219238e-02) (250, -9.70899909734725952148e-02) (251, -6.83918595314025878906e-03) (252, -8.12539607286453247070e-02) (253, -2.44743749499320983887e-02) (254, -2.46679559350013732910e-02) (255, 5.78419789671897888184e-02) (256, -2.10631346702575683594e+00) (0, 5.04582151770591735840e-02) (1, -7.62523189187049865723e-02) (2, 5.60917332768440246582e-02) (3, 2.64992564916610717773e-03) (4, -4.02936041355133056641e-02) (5, -6.65420368313789367676e-02) (6, 8.73155221343040466309e-02) (7, -9.29514393210411071777e-02) (8, -1.75203382968902587891e-02) (9, 4.65400889515876770020e-02) (10, -3.74139845371246337891e-02) (11, 9.70178171992301940918e-02) (12, -6.08713924884796142578e-03) (13, -3.67268174886703491211e-02) (14, 9.86626520752906799316e-02) (15, -7.52726867794990539551e-02) (16, 1.52695998549461364746e-02) (17, 6.50852397084236145020e-02) (18, -7.02587887644767761230e-02) (19, -4.34595942497253417969e-02) (20, 1.93042382597923278809e-02) (21, 9.05619040131568908691e-02) (22, -6.75367861986160278320e-02) (23, 3.10893729329109191895e-02) (24, 9.34719219803810119629e-02) (25, 2.56240293383598327637e-02) (26, 4.98353913426399230957e-02) (27, -3.10024619102478027344e-02) (28, -9.90439280867576599121e-02) (29, 7.67739117145538330078e-03) (30, 1.96600109338760375977e-02) (31, 5.14142885804176330566e-02) (32, 3.14250662922859191895e-02) (33, -2.42482721805572509766e-02) (34, -4.59357872605323791504e-02) (35, 9.11314561963081359863e-02) (36, 9.20969247817993164062e-03) (37, -5.86202628910541534424e-02) (38, 9.81800183653831481934e-02) (39, 9.16893556714057922363e-02) (40, 8.79198238253593444824e-02) (41, -3.92339639365673065186e-02) (42, 8.87071713805198669434e-02) (43, -1.81673243641853332520e-02) (44, 2.40392237901687622070e-02) (45, 8.73698219656944274902e-02) (46, 6.55999034643173217773e-03) (47, -6.06911815702915191650e-02) (48, 5.24550601840019226074e-02) (49, 3.63012030720710754395e-02) (50, -4.15077060461044311523e-03) (51, -2.82407030463218688965e-02) (52, 2.68631055951118469238e-02) (53, 2.83124521374702453613e-02) (54, -9.71513465046882629395e-02) (55, 2.03350186347961425781e-02) (56, -4.60635386407375335693e-02) (57, 5.26840612292289733887e-02) (58, 8.93325731158256530762e-02) (59, -4.51074652373790740967e-02) (60, -3.96385602653026580811e-02) (61, 8.99256765842437744141e-03) (62, -9.36931818723678588867e-02) (63, 9.17865112423896789551e-02) (64, 8.47442969679832458496e-02) (65, -3.96289713680744171143e-02) (66, 8.29179659485816955566e-02) (67, -6.04601204395294189453e-03) (68, 1.75076723098754882812e-03) (69, 8.10979828238487243652e-02) (70, -1.43566578626632690430e-02) (71, -1.03294104337692260742e-02) (72, -5.81359788775444030762e-02) (73, -2.56494879722595214844e-02) (74, 7.15032741427421569824e-02) (75, 6.59032389521598815918e-02) (76, -3.82796712219715118408e-02) (77, -2.19367444515228271484e-02) (78, -9.47879403829574584961e-02) (79, -8.58246162533760070801e-02) (80, -8.56355503201484680176e-02) (81, 1.06128305196762084961e-03) (82, -1.40653252601623535156e-02) (83, 4.12275567650794982910e-02) (84, -7.06262737512588500977e-02) (85, -1.12166702747344970703e-02) (86, -3.84374223649501800537e-02) (87, -1.66898071765899658203e-02) (88, -5.85326217114925384521e-02) (89, -4.91048581898212432861e-02) (90, 3.82027253508567810059e-02) (91, 1.82881206274032592773e-03) (92, 5.98877146840095520020e-02) (93, 4.45095375180244445801e-02) (94, -6.38467818498611450195e-03) (95, 4.46320101618766784668e-02) (96, -9.51194316148757934570e-02) (97, -5.06662912666797637939e-02) (98, -5.82365095615386962891e-02) (99, -4.57899877801537513733e-03) (100, -5.33332079648971557617e-02) (101, -3.98469157516956329346e-02) (102, 1.13329306244850158691e-01) (103, 1.21983978897333145142e-02) (104, 1.46930754184722900391e-01) (105, 5.04088215529918670654e-02) (106, -4.20580655336380004883e-02) (107, -4.11190874874591827393e-02) (108, -8.22530612349510192871e-02) (109, -3.97045761346817016602e-02) (110, -4.13340702652931213379e-02) (111, -2.84014735370874404907e-02) (112, 5.02420738339424133301e-02) (113, 4.92032989859580993652e-02) (114, -1.18713207542896270752e-01) (115, -1.32692918181419372559e-01) (116, -5.75344897806644439697e-02) (117, -8.47761482000350952148e-02) (118, -2.71898377686738967896e-02) (119, -3.24462365824729204178e-04) (120, 9.54066496342420578003e-03) (121, -5.72740696370601654053e-02) (122, 7.90485739707946777344e-02) (123, -2.61941105127334594727e-02) (124, 6.70680776238441467285e-02) (125, -1.38949155807495117188e-02) (126, -8.15621092915534973145e-02) (127, 7.19486549496650695801e-02) (128, 6.00146017968654632568e-02) (129, -4.72217462956905364990e-02) (130, -3.22435498237609863281e-02) (131, -8.15515592694282531738e-02) (132, 8.05443748831748962402e-02) (133, -2.75450218468904495239e-02) (134, 1.94789096713066101074e-02) (135, 7.73021131753921508789e-02) (136, -5.75862787663936614990e-02) (137, 8.50470736622810363770e-02) (138, -5.98667673766613006592e-02) (139, -1.24665573239326477051e-02) (140, -4.66061495244503021240e-02) (141, 1.44657678902149200439e-02) (142, 4.82163801789283752441e-02) (143, -7.36981630325317382812e-02) (144, -2.54362877458333969116e-02) (145, 5.01269474625587463379e-02) (146, -7.17523396015167236328e-02) (147, 2.40758843719959259033e-02) (148, -8.71095731854438781738e-02) (149, 1.21502922847867012024e-02) (150, -8.51264819502830505371e-02) (151, 2.71901115775108337402e-02) (152, 3.49815338850021362305e-02) (153, -9.50984805822372436523e-02) (154, -9.91204157471656799316e-02) (155, 1.86391407623887062073e-04) (156, -6.88019534572958946228e-03) (157, -8.11128690838813781738e-02) (158, -2.65658330172300338745e-02) (159, -4.40152324736118316650e-02) (160, -2.93227471411228179932e-02) (161, 5.25782406330108642578e-02) (162, -2.44349110871553421021e-02) (163, -4.24109734594821929932e-02) (164, -7.21154510974884033203e-02) (165, 9.60249230265617370605e-02) (166, -6.36237040162086486816e-02) (167, -3.11481989920139312744e-02) (168, 7.28497505187988281250e-02) (169, -5.03892600536346435547e-02) (170, 5.76481148600578308105e-02) (171, -6.31650090217590332031e-02) (172, 9.20421406626701354980e-02) (173, 7.91566073894500732422e-03) (174, -3.54750901460647583008e-02) (175, -3.26949134469032287598e-02) (176, -4.67109270393848419189e-02) (177, -8.50151292979717254639e-03) (178, 8.80696028470993041992e-02) (179, -3.17263938486576080322e-02) (180, -9.68492552638053894043e-02) (181, -1.00001074373722076416e-01) (182, 9.73297134041786193848e-02) (183, 4.03592251241207122803e-02) (184, -9.19982120394706726074e-02) (185, 9.89210605621337890625e-02) (186, -5.81009313464164733887e-02) (187, 2.93389707803726196289e-03) (188, -8.52911472320556640625e-02) (189, 1.40735143795609474182e-02) (190, 5.39840869605541229248e-02) (191, -6.01630425080657005310e-03) (192, -2.88309007883071899414e-02) (193, -6.02940730750560760498e-02) (194, 5.32253012061119079590e-02) (195, -5.06149008870124816895e-02) (196, -6.92635998129844665527e-02) (197, 8.14736634492874145508e-02) (198, 6.96252956986427307129e-02) (199, -8.28479081392288208008e-02) (200, -3.15533652901649475098e-02) (201, 2.87525132298469543457e-02) (202, -4.57689873874187469482e-02) (203, -3.92672903835773468018e-02) (204, -6.33318424224853515625e-02) (205, 1.87559127807617187500e-02) (206, 2.80377939343452453613e-02) (207, -5.16727566719055175781e-03) (208, -1.48552566766738891602e-01) (209, -5.07828360423445701599e-03) (210, 6.62692263722419738770e-02) (211, -8.23636874556541442871e-02) (212, 2.59466394782066345215e-02) (213, 6.48958608508110046387e-02) (214, 5.89061453938484191895e-02) (215, 3.97010967135429382324e-02) (216, 6.45184740424156188965e-02) (217, -9.73500385880470275879e-02) (218, -5.30760996043682098389e-02) (219, 8.35750177502632141113e-02) (220, 2.08164304494857788086e-02) (221, -8.97465497255325317383e-02) (222, -2.09106877446174621582e-02) (223, 9.19855311512947082520e-02) (224, -5.00406250357627868652e-02) (225, -6.76853880286216735840e-02) (226, -8.96082818508148193359e-03) (227, -1.41933634877204895020e-02) (228, -7.69160315394401550293e-02) (229, -3.93355377018451690674e-02) (230, 2.95872986316680908203e-03) (231, -8.46938788890838623047e-03) (232, 8.94169732928276062012e-02) (233, 5.71897402405738830566e-02) (234, 5.22633269429206848145e-02) (235, -7.39148706197738647461e-02) (236, -2.40543410181999206543e-02) (237, -1.96988880634307861328e-02) (238, 2.09178477525711059570e-02) (239, -1.22819244861602783203e-02) (240, 9.98565629124641418457e-02) (241, -1.28129273653030395508e-02) (242, 5.35438954830169677734e-03) (243, 2.58032158017158508301e-02) (244, -4.79170754551887512207e-02) (245, -3.57394739985466003418e-02) (246, -3.44957038760185241699e-02) (247, -8.33985954523086547852e-02) (248, -3.30895110964775085449e-02) (249, 1.24282017350196838379e-02) (250, -9.98235866427421569824e-02) (251, 8.77269133925437927246e-02) (252, 2.26816385984420776367e-02) (253, -2.07342728972434997559e-02) (254, 7.97124430537223815918e-02) (255, 7.26410225033760070801e-02) (256, -5.31529784202575683594e-01) (0, -2.92483866214752197266e-02) (1, -4.15523424744606018066e-02) (2, 3.46643105149269104004e-02) (3, 3.14160659909248352051e-02) (4, 6.14063814282417297363e-02) (5, -7.38050863146781921387e-02) (6, 2.08330377936363220215e-02) (7, 1.85961350798606872559e-02) (8, 7.84582272171974182129e-02) (9, 4.69181612133979797363e-02) (10, 9.45417955517768859863e-02) (11, -4.12406586110591888428e-02) (12, -3.21639850735664367676e-02) (13, -1.77401304244995117188e-02) (14, -4.13840897381305694580e-02) (15, 5.50230965018272399902e-02) (16, 8.76142606139183044434e-02) (17, 8.44191238284111022949e-02) (18, -9.28939804434776306152e-02) (19, -4.81252148747444152832e-02) (20, -5.00765927135944366455e-02) (21, -7.62925669550895690918e-02) (22, 1.87852755188941955566e-02) (23, 6.23516067862510681152e-02) (24, -7.61161595582962036133e-02) (25, 6.51218742132186889648e-03) (26, -1.49667486548423767090e-02) (27, 3.14956903457641601562e-03) (28, -1.37753635644912719727e-02) (29, -4.23257313668727874756e-02) (30, -8.52700918912887573242e-02) (31, 5.69762513041496276855e-02) (32, 1.61219239234924316406e-02) (33, 4.93942126631736755371e-02) (34, -1.16076841950416564941e-02) (35, -2.24716812372207641602e-02) (36, 7.55891278386116027832e-02) (37, -9.07746404409408569336e-02) (38, 9.61244478821754455566e-02) (39, 5.40473535656929016113e-02) (40, 5.61435297131538391113e-02) (41, 9.06662419438362121582e-02) (42, -8.71933028101921081543e-02) (43, -7.60204568505287170410e-02) (44, -2.70738899707794189453e-02) (45, -2.85773873329162597656e-02) (46, 7.90026411414146423340e-02) (47, -3.94596345722675323486e-02) (48, -4.41582761704921722412e-02) (49, 8.61086621880531311035e-02) (50, 1.24151483178138732910e-02) (51, 5.76512515544891357422e-03) (52, -9.01839062571525573730e-02) (53, -6.87995776534080505371e-02) (54, -3.18832620978355407715e-02) (55, -6.63000643253326416016e-02) (56, 3.77126112580299377441e-02) (57, 5.31499907374382019043e-02) (58, 3.68495061993598937988e-02) (59, -7.60627612471580505371e-02) (60, -8.91757458448410034180e-02) (61, 5.15794232487678527832e-02) (62, 8.09134915471076965332e-02) (63, 2.69461944699287414551e-02) (64, 9.73626971244812011719e-04) (65, -3.06942015886306762695e-02) (66, -9.55254957079887390137e-02) (67, -2.34372392296791076660e-02) (68, -2.14688405394554138184e-02) (69, -9.94010493159294128418e-02) (70, -6.93898722529411315918e-02) (71, -6.53253197669982910156e-02) (72, 9.12651941180229187012e-02) (73, -5.65831735730171203613e-02) (74, -4.13457714021205902100e-02) (75, -3.58086973428726196289e-02) (76, 1.48394331336021423340e-02) (77, -6.23431317508220672607e-02) (78, 2.47316583991050720215e-02) (79, 7.06811621785163879395e-02) (80, -7.62344747781753540039e-02) (81, -6.28531873226165771484e-02) (82, -2.35536992549896240234e-02) (83, -6.64183795452117919922e-02) (84, -3.16527634859085083008e-02) (85, 4.45630475878715515137e-02) (86, -3.27184349298477172852e-02) (87, -9.39401611685752868652e-02) (88, -2.28697806596755981445e-03) (89, -9.58689302206039428711e-02) (90, -7.00029209256172180176e-02) (91, 8.53727757930755615234e-03) (92, 5.57105019688606262207e-02) (93, -8.90894383192062377930e-02) (94, -6.45165294408798217773e-02) (95, -4.33158762753009796143e-02) (96, -1.97836384177207946777e-02) (97, 5.46993017196655273438e-02) (98, -1.42812445759773254395e-01) (99, 3.33422571420669555664e-02) (100, -4.32315981015563011169e-03) (101, 1.28548228740692138672e+00) (102, -1.06781125068664550781e-01) (103, -3.20725351572036743164e-01) (104, -8.43214094638824462891e-01) (105, -1.43080949783325195312e-01) (106, -6.72064423561096191406e-02) (107, -2.70454704761505126953e-01) (108, 6.32261812686920166016e-01) (109, -6.06328770518302917480e-02) (110, 2.10679218173027038574e-01) (111, -4.62331473827362060547e-01) (112, 2.03721463680267333984e-01) (113, 2.93664216995239257812e-01) (114, 4.63708132505416870117e-01) (115, 6.88073694705963134766e-01) (116, 3.16021978855133056641e-01) (117, 8.33620607852935791016e-01) (118, 3.32787096500396728516e-01) (119, -6.18114411830902099609e-01) (120, 1.21220434084534645081e-02) (121, -5.48568069934844970703e-01) (122, -3.22730958461761474609e-01) (123, 7.42035582661628723145e-02) (124, 7.32065960764884948730e-02) (125, 5.55375441908836364746e-02) (126, -6.91123083233833312988e-02) (127, -4.65770438313484191895e-02) (128, 1.01004138588905334473e-01) (129, 7.32432231307029724121e-02) (130, -2.19530999660491943359e-01) (131, -5.96073567867279052734e-02) (132, 7.25296791642904281616e-03) (133, -1.48293554782867431641e-01) (134, -3.14080975949764251709e-02) (135, 1.16011518985033035278e-02) (136, -4.16135303676128387451e-02) (137, 6.43421784043312072754e-02) (138, -4.26212921738624572754e-02) (139, 4.95723523199558258057e-02) (140, 8.97812619805335998535e-02) (141, 5.05500584840774536133e-02) (142, -3.76809537410736083984e-02) (143, -5.45462258160114288330e-02) (144, 2.04988699406385421753e-02) (145, -9.15640965104103088379e-02) (146, 6.95178434252738952637e-02) (147, -6.63281083106994628906e-02) (148, -7.66521394252777099609e-02) (149, 2.51584849320352077484e-03) (150, -5.52655197679996490479e-02) (151, -5.91632239520549774170e-02) (152, -3.55488806962966918945e-02) (153, -3.99216497316956520081e-03) (154, -8.45054462552070617676e-02) (155, -1.24930359423160552979e-01) (156, 2.10350211709737777710e-02) (157, -5.26541583240032196045e-02) (158, -7.83108733594417572021e-03) (159, 1.61803141236305236816e-02) (160, 2.26188674569129943848e-02) (161, 3.24823288246989250183e-03) (162, 5.36752082407474517822e-02) (163, 3.84311079978942871094e-02) (164, 7.75174051523208618164e-03) (165, -7.97971561551094055176e-02) (166, 1.37485947925597429276e-03) (167, 9.41660925745964050293e-02) (168, 2.51842468976974487305e-01) (169, 5.91683983802795410156e-01) (170, 4.08752784132957458496e-02) (171, 6.90234377980232238770e-02) (172, -1.84195879846811294556e-02) (173, 7.37245157361030578613e-02) (174, -8.92054438591003417969e-02) (175, -9.97145995497703552246e-02) (176, 9.22432690858840942383e-02) (177, 8.28403532505035400391e-02) (178, -5.88616617023944854736e-02) (179, -1.55663862824440002441e-01) (180, -1.31995556876063346863e-02) (181, -8.32302216440439224243e-03) (182, -5.18456734716892242432e-02) (183, 4.61505539715290069580e-02) (184, -4.49745655059814453125e-02) (185, -3.82718704640865325928e-02) (186, 7.72398412227630615234e-02) (187, 9.75828468799591064453e-02) (188, -5.09150810539722442627e-02) (189, -2.07460410892963409424e-02) (190, -8.52607423439621925354e-04) (191, 1.91869437694549560547e-02) (192, 7.26938918232917785645e-02) (193, -6.89520537853240966797e-02) (194, -4.60281558334827423096e-02) (195, 8.71778130531311035156e-01) (196, -2.08204939961433410645e-01) (197, -2.69975244998931884766e-01) (198, -5.41335046291351318359e-02) (199, -6.55668228864669799805e-02) (200, -4.20101694762706756592e-02) (201, 5.86897656321525573730e-02) (202, -9.72971916198730468750e-02) (203, 3.88613417744636535645e-02) (204, 3.24142649769783020020e-02) (205, -8.65026414394378662109e-02) (206, 3.91467288136482238770e-02) (207, 1.41204595565795898438e-02) (208, 2.22000971436500549316e-01) (209, 1.25305324792861938477e-01) (210, 1.81703567504882812500e-02) (211, -2.63224467635154724121e-02) (212, -4.91126440465450286865e-02) (213, 6.30570128560066223145e-02) (214, -8.23418274521827697754e-02) (215, -6.08652085065841674805e-03) (216, -7.70159810781478881836e-02) (217, 9.82044264674186706543e-02) (218, -4.27342914044857025146e-02) (219, 2.88390591740608215332e-02) (220, -3.12607362866401672363e-02) (221, 3.64395901560783386230e-02) (222, -5.52433021366596221924e-02) (223, -5.85668385028839111328e-02) (224, 6.74875453114509582520e-02) (225, -1.27145648002624511719e-03) (226, 2.18788012862205505371e-02) (227, -8.17158818244934082031e-02) (228, -7.39799737930297851562e-02) (229, 6.77452906966209411621e-02) (230, -4.72827069461345672607e-02) (231, -1.59901455044746398926e-02) (232, 2.64350548386573791504e-02) (233, -4.45799045264720916748e-02) (234, -7.71288126707077026367e-02) (235, -4.11506779491901397705e-02) (236, -3.10825407505035400391e-02) (237, 6.20179250836372375488e-02) (238, 7.29697868227958679199e-02) (239, -3.80265824496746063232e-02) (240, 3.46677228808403015137e-02) (241, -8.85985791683197021484e-03) (242, 3.56509760022163391113e-02) (243, 8.55550840497016906738e-02) (244, -4.58028428256511688232e-02) (245, 5.33091500401496887207e-02) (246, -2.05314457416534423828e-02) (247, -2.28188261389732360840e-02) (248, 5.15135601162910461426e-02) (249, 3.67342755198478698730e-02) (250, -9.39797684550285339355e-02) (251, -7.97471702098846435547e-02) (252, -2.68261432647705078125e-02) (253, -4.92230728268623352051e-02) (254, -3.83140109479427337646e-02) (255, -5.93386106193065643311e-02) (256, 2.97622537612915039062e+00) (0, 8.35647955536842346191e-02) (1, -4.10544946789741516113e-02) (2, 7.55254998803138732910e-02) (3, 5.13100847601890563965e-02) (4, 1.16627961397171020508e-02) (5, -4.04646471142768859863e-02) (6, -2.22548469901084899902e-02) (7, 6.70828893780708312988e-02) (8, -1.75934582948684692383e-02) (9, 3.65944728255271911621e-02) (10, -6.39996528625488281250e-02) (11, -5.55755421519279479980e-02) (12, 9.56425815820693969727e-03) (13, -2.02623009681701660156e-03) (14, 7.90921822190284729004e-02) (15, -9.92956012487411499023e-02) (16, -6.63752555847167968750e-02) (17, 6.46472647786140441895e-02) (18, -4.50984425842761993408e-02) (19, 8.69338884949684143066e-02) (20, -5.58841899037361145020e-02) (21, 3.20827439427375793457e-02) (22, 3.84474471211433410645e-02) (23, 8.08500871062278747559e-02) (24, 3.81029620766639709473e-02) (25, 5.87002709507942199707e-02) (26, -4.59760613739490509033e-02) (27, 8.88798907399177551270e-02) (28, -7.96137303113937377930e-02) (29, -5.31467050313949584961e-03) (30, 3.83853688836097717285e-02) (31, -9.60489362478256225586e-02) (32, 5.36308363080024719238e-02) (33, 1.39108672738075256348e-02) (34, 5.52611574530601501465e-02) (35, -3.47063690423965454102e-02) (36, 7.34462216496467590332e-02) (37, -6.69936984777450561523e-02) (38, -6.76234737038612365723e-02) (39, -4.41472344100475311279e-02) (40, 6.96007683873176574707e-02) (41, -3.16231176257133483887e-02) (42, 2.77221202850341796875e-04) (43, -2.08349600434303283691e-02) (44, 6.63506463170051574707e-02) (45, -2.06305906176567077637e-02) (46, -2.01305598020553588867e-02) (47, 9.99753996729850769043e-02) (48, -5.59833385050296783447e-02) (49, 3.47709879279136657715e-02) (50, 8.69092717766761779785e-02) (51, -1.18675231933593750000e-02) (52, -3.31462770700454711914e-02) (53, 2.53567174077033996582e-02) (54, -3.10174375772476196289e-02) (55, -9.50433164834976196289e-02) (56, -1.59429982304573059082e-02) (57, 2.30064988136291503906e-02) (58, 9.38365831971168518066e-02) (59, 4.44327294826507568359e-03) (60, -8.23081731796264648438e-02) (61, 3.22219356894493103027e-02) (62, 8.39433819055557250977e-03) (63, 7.13226720690727233887e-02) (64, -5.38671948015689849854e-02) (65, -3.63445132970809936523e-02) (66, -6.33836984634399414062e-02) (67, -8.04209709167480468750e-02) (68, -3.33820283412933349609e-03) (69, -3.10071706771850585938e-02) (70, -2.45682075619697570801e-02) (71, -3.37374284863471984863e-02) (72, 3.73697057366371154785e-02) (73, 7.57090225815773010254e-02) (74, 4.54276129603385925293e-02) (75, 3.72036546468734741211e-03) (76, -4.49215732514858245850e-02) (77, -7.47029483318328857422e-02) (78, 3.69576364755630493164e-03) (79, -9.04910266399383544922e-04) (80, 6.00680485367774963379e-02) (81, -9.39496606588363647461e-03) (82, 8.72275605797767639160e-02) (83, -7.30782300233840942383e-02) (84, -8.40382426977157592773e-02) (85, -4.37898747622966766357e-02) (86, -6.81215450167655944824e-02) (87, 1.87605619430541992188e-05) (88, 7.92166218161582946777e-02) (89, -7.42849707603454589844e-02) (90, -9.55379679799079895020e-02) (91, 9.69084575772285461426e-02) (92, 5.79369738698005676270e-02) (93, 1.28563791513442993164e-02) (94, 6.82311132550239562988e-02) (95, -9.59302186965942382812e-02) (96, 7.65118673443794250488e-02) (97, -1.81867480278015136719e-01) (98, -1.47406101226806640625e-01) (99, -7.42362886667251586914e-02) (100, -6.49773851037025451660e-02) (101, 1.65256932377815246582e-01) (102, -4.77727167308330535889e-02) (103, -1.92568525671958923340e-01) (104, -2.95559734106063842773e-01) (105, -1.43908277153968811035e-01) (106, -6.38051843270659446716e-03) (107, -6.30529224872589111328e-02) (108, 1.29006385803222656250e-01) (109, -1.17742739617824554443e-01) (110, -1.16483323276042938232e-01) (111, -2.76621460914611816406e-01) (112, 4.88171726465225219727e-02) (113, -2.25531775504350662231e-02) (114, 1.63818486034870147705e-02) (115, 1.15343615412712097168e-01) (116, -4.98254708945751190186e-02) (117, 2.40843504667282104492e-01) (118, -7.61232292279601097107e-03) (119, -2.14610844850540161133e-01) (120, 7.90015682578086853027e-02) (121, -2.71720707416534423828e-01) (122, -1.50159671902656555176e-01) (123, 1.26811712980270385742e-02) (124, 4.25300374627113342285e-02) (125, -8.32429900765419006348e-02) (126, 1.67509540915489196777e-02) (127, 1.90419107675552368164e-02) (128, -9.06191915273666381836e-02) (129, 2.01409328728914260864e-02) (130, 2.12002117186784744263e-02) (131, -1.42795713618397712708e-02) (132, -6.64523839950561523438e-02) (133, 1.27749033272266387939e-02) (134, 5.03148417919874191284e-03) (135, -2.46165390126407146454e-03) (136, -8.48973989486694335938e-02) (137, -7.89953544735908508301e-02) (138, -5.58619536459445953369e-02) (139, 2.18325722962617874146e-02) (140, -7.11002573370933532715e-02) (141, -2.77137551456689834595e-02) (142, 9.36457067728042602539e-02) (143, 4.29501570761203765869e-02) (144, -1.31300864741206169128e-02) (145, -6.75528356805443763733e-03) (146, -2.69753374159336090088e-02) (147, 6.09862133860588073730e-02) (148, -7.94794559478759765625e-02) (149, -3.39403771795332431793e-03) (150, -8.66898149251937866211e-02) (151, 7.78295770287513732910e-02) (152, 2.70994044840335845947e-02) (153, -5.85096478462219238281e-02) (154, -1.02944020181894302368e-02) (155, -4.71610426902770996094e-02) (156, -2.30172015726566314697e-02) (157, -9.59980785846710205078e-02) (158, 8.62919762730598449707e-02) (159, -6.12748612184077501297e-04) (160, 7.74808824062347412109e-02) (161, 8.07429328560829162598e-02) (162, 9.16331484913825988770e-02) (163, 8.65615606307983398438e-02) (164, 1.49595737457275390625e-02) (165, 1.48621283005923032761e-03) (166, 9.06815193593502044678e-03) (167, 3.75080630183219909668e-02) (168, 6.98201954364776611328e-02) (169, 1.98726058006286621094e-01) (170, -3.42044197022914886475e-02) (171, 6.26796558499336242676e-02) (172, -8.27619731426239013672e-02) (173, -4.49427366256713867188e-02) (174, 1.35348066687583923340e-02) (175, 7.94297456741333007812e-03) (176, 2.56323851644992828369e-02) (177, 8.07671770453453063965e-02) (178, -4.73523549735546112061e-02) (179, 4.89327162504196166992e-02) (180, -2.57603358477354049683e-02) (181, -4.70366068184375762939e-02) (182, 4.27938029170036315918e-02) (183, -8.72636064887046813965e-02) (184, 1.80433429777622222900e-02) (185, -6.34779334068298339844e-02) (186, -2.04759165644645690918e-02) (187, -8.26812013983726501465e-02) (188, -8.19354653358459472656e-02) (189, -3.87818217277526855469e-02) (190, -2.09935419261455535889e-02) (191, 8.80597755312919616699e-02) (192, -3.60131338238716125488e-02) (193, 1.92147716879844665527e-02) (194, 8.26041921973228454590e-02) (195, 3.21712374687194824219e-01) (196, -1.23481683433055877686e-01) (197, -1.00017279386520385742e-01) (198, 1.04216560721397399902e-02) (199, 4.53932806849479675293e-02) (200, -7.04341009259223937988e-02) (201, 6.85734227299690246582e-02) (202, 9.48598235845565795898e-03) (203, -5.17830327153205871582e-02) (204, -7.63693004846572875977e-02) (205, -7.69792050123214721680e-02) (206, 5.61599358916282653809e-02) (207, 7.27441683411598205566e-02) (208, -3.76452207565307617188e-01) (209, -1.91722467541694641113e-01) (210, 4.49430122971534729004e-02) (211, -7.93077051639556884766e-04) (212, 8.74153524637222290039e-03) (213, -5.02856075763702392578e-03) (214, 1.67435407638549804688e-02) (215, -4.64764945209026336670e-02) (216, 3.55106070637702941895e-02) (217, -9.36695635318756103516e-02) (218, -2.31014266610145568848e-02) (219, 8.33115056157112121582e-02) (220, -1.29904597997665405273e-02) (221, -9.95288342237472534180e-02) (222, 7.87738487124443054199e-02) (223, 5.09964153170585632324e-02) (224, 1.96859389543533325195e-02) (225, 6.13780394196510314941e-02) (226, 2.99428477883338928223e-02) (227, 4.11975011229515075684e-02) (228, -5.46059422194957733154e-02) (229, -5.96355013549327850342e-02) (230, -1.34092122316360473633e-02) (231, -2.50400453805923461914e-02) (232, -9.10620689392089843750e-02) (233, 9.60767790675163269043e-02) (234, 2.31769308447837829590e-02) (235, -6.74313753843307495117e-02) (236, -8.09024274349212646484e-02) (237, -2.06631273031234741211e-02) (238, -9.46872085332870483398e-02) (239, -6.97118639945983886719e-02) (240, 5.13251125812530517578e-03) (241, 5.02558127045631408691e-02) (242, 2.94950678944587707520e-02) (243, -8.61259549856185913086e-02) (244, -5.47727569937705993652e-02) (245, -5.37613965570926666260e-02) (246, -3.26024442911148071289e-02) (247, 8.07378515601158142090e-02) (248, -4.74309585988521575928e-02) (249, 4.42961379885673522949e-02) (250, 6.40493556857109069824e-02) (251, 3.95785793662071228027e-02) (252, 4.47672978043556213379e-02) (253, 4.28232029080390930176e-02) (254, -9.42500680685043334961e-03) (255, -3.55467647314071655273e-02) (256, -1.52771079540252685547e+00) (0, -7.94821679592132568359e-02) (1, -9.43492576479911804199e-02) (2, 4.95953038334846496582e-02) (3, -3.91176715493202209473e-02) (4, -7.75847584009170532227e-03) (5, -7.54447504878044128418e-02) (6, -3.01797389984130859375e-02) (7, -1.16816982626914978027e-02) (8, 4.77321818470954895020e-02) (9, 2.38889455795288085938e-03) (10, 7.41586834192276000977e-03) (11, -7.29309618473052978516e-02) (12, 7.70168006420135498047e-03) (13, 3.77039983868598937988e-02) (14, 3.22015509009361267090e-02) (15, -4.20425049960613250732e-02) (16, -3.28009277582168579102e-02) (17, 4.60755899548530578613e-02) (18, 3.18473577499389648438e-03) (19, 1.34376734495162963867e-02) (20, -8.65268558263778686523e-02) (21, -1.60774067044258117676e-02) (22, 6.60067275166511535645e-02) (23, 5.77692762017250061035e-02) (24, -5.20280562341213226318e-02) (25, 5.58531284332275390625e-03) (26, 2.53657251596450805664e-03) (27, 9.07951518893241882324e-02) (28, 9.61603000760078430176e-02) (29, 6.69898018240928649902e-02) (30, -5.00362366437911987305e-03) (31, -8.33218693733215332031e-02) (32, 7.26405456662178039551e-02) (33, -5.54083324968814849854e-02) (34, -2.24395394325256347656e-02) (35, -3.51179242134094238281e-02) (36, -3.08530852198600769043e-02) (37, 4.73807230591773986816e-02) (38, 5.32003715634346008301e-02) (39, -8.31209123134613037109e-02) (40, -5.02303913235664367676e-02) (41, -3.93837504088878631592e-02) (42, -5.60518689453601837158e-02) (43, 5.74712976813316345215e-02) (44, 9.83202531933784484863e-02) (45, 7.61496797204017639160e-02) (46, -8.45712125301361083984e-02) (47, -3.44806760549545288086e-02) (48, 2.22252830862998962402e-02) (49, 1.86135321855545043945e-02) (50, 7.89570137858390808105e-02) (51, 3.56984212994575500488e-02) (52, -9.74638834595680236816e-02) (53, 4.49637249112129211426e-02) (54, -6.53229653835296630859e-03) (55, -4.94919382035732269287e-02) (56, -4.94509637355804443359e-02) (57, 9.60042849183082580566e-02) (58, -5.86967989802360534668e-02) (59, -5.32906614243984222412e-02) (60, 6.29940852522850036621e-02) (61, 3.62995788455009460449e-02) (62, -3.66125330328941345215e-02) (63, 3.56346443295478820801e-02) (64, 8.08912590146064758301e-02) (65, 4.09479215741157531738e-02) (66, -9.94832888245582580566e-02) (67, -4.99618351459503173828e-02) (68, -1.16713494062423706055e-02) (69, 5.37170842289924621582e-02) (70, -3.30827459692955017090e-02) (71, 3.80982682108879089355e-02) (72, -8.56666639447212219238e-02) (73, 1.08653753995895385742e-02) (74, -4.43044304847717285156e-03) (75, -8.73464122414588928223e-02) (76, -1.29849314689636230469e-02) (77, 1.09983459115028381348e-02) (78, -2.18270793557167053223e-02) (79, -9.07596498727798461914e-02) (80, -7.03881308436393737793e-02) (81, -4.28700745105743408203e-02) (82, 4.49387803673744201660e-02) (83, -6.78520202636718750000e-02) (84, -9.79063436388969421387e-02) (85, -6.15935139358043670654e-02) (86, -1.73439532518386840820e-02) (87, -4.73573021590709686279e-02) (88, -6.55892342329025268555e-02) (89, 2.39592567086219787598e-02) (90, -6.47969543933868408203e-04) (91, 9.74048599600791931152e-02) (92, -3.97411696612834930420e-02) (93, 6.27394989132881164551e-02) (94, 3.30395027995109558105e-02) (95, -5.88499233126640319824e-02) (96, 3.68742644786834716797e-03) (97, -1.81600917130708694458e-02) (98, -1.90272890031337738037e-02) (99, 7.25301802158355712891e-02) (100, -3.57966870069503784180e-02) (101, -7.72188790142536163330e-03) (102, 2.04440206289291381836e-02) (103, -1.11103206872940063477e-02) (104, -5.10547459125518798828e-02) (105, -1.20138995349407196045e-01) (106, 9.32963564991950988770e-03) (107, 4.62977588176727294922e-02) (108, 1.57381650060415267944e-02) (109, 7.37060531973838806152e-02) (110, 2.37596109509468078613e-02) (111, 1.88165102154016494751e-02) (112, -6.41793236136436462402e-02) (113, 9.83399152755737304688e-03) (114, 6.24704770743846893311e-02) (115, -8.36490392684936523438e-02) (116, 1.14050442352890968323e-02) (117, -3.55989485979080200195e-02) (118, -6.05528941377997398376e-04) (119, 6.98104500770568847656e-02) (120, -9.54273939132690429688e-02) (121, -1.11855685710906982422e-01) (122, 6.87631294131278991699e-02) (123, -3.46837714314460754395e-02) (124, 6.63909688591957092285e-02) (125, 1.34266763925552368164e-02) (126, 6.46630674600601196289e-03) (127, -2.99216061830520629883e-02) (128, -5.45197129249572753906e-02) (129, 9.52240601181983947754e-02) (130, -4.57098968327045440674e-02) (131, 3.31157185137271881104e-02) (132, 5.51753826439380645752e-02) (133, 9.03039053082466125488e-02) (134, -6.42412081360816955566e-02) (135, -7.69315436482429504395e-02) (136, -8.22113454341888427734e-02) (137, 5.00710494816303253174e-02) (138, 8.07168558239936828613e-02) (139, 5.40991351008415222168e-02) (140, 4.11475934088230133057e-02) (141, 4.58911247551441192627e-02) (142, 2.05201972275972366333e-02) (143, 9.15824398398399353027e-02) (144, -4.40891832113265991211e-02) (145, 1.92464571446180343628e-02) (146, -5.63533492386341094971e-02) (147, -9.53693017363548278809e-02) (148, -9.97681692242622375488e-02) (149, 4.78070452809333801270e-02) (150, 8.76620784401893615723e-02) (151, -9.45333093404769897461e-02) (152, 5.15295565128326416016e-02) (153, 6.59634545445442199707e-02) (154, -2.92817745357751846313e-02) (155, 1.61133259534835815430e-02) (156, -1.86582803726196289062e-02) (157, 7.69904553890228271484e-02) (158, 8.78015086054801940918e-02) (159, 2.83941458910703659058e-02) (160, 7.47709795832633972168e-02) (161, -4.99066375195980072021e-02) (162, -3.76515500247478485107e-02) (163, 3.05991154164075851440e-02) (164, -5.75004406273365020752e-02) (165, -1.52039842214435338974e-03) (166, 5.53907193243503570557e-02) (167, -3.97606045007705688477e-02) (168, -5.14547675848007202148e-02) (169, 3.53071950376033782959e-02) (170, -8.50437507033348083496e-02) (171, 9.11531150341033935547e-02) (172, -1.80794894695281982422e-02) (173, 3.58362719416618347168e-02) (174, 8.33764597773551940918e-02) (175, 3.81629392504692077637e-02) (176, -4.77326698601245880127e-02) (177, -7.34746456146240234375e-02) (178, 4.07590605318546295166e-02) (179, -4.68752570450305938721e-02) (180, 7.36881718039512634277e-02) (181, 2.68596056848764419556e-02) (182, -3.98137755692005157471e-02) (183, 2.63846572488546371460e-02) (184, -4.69730887562036514282e-03) (185, 3.14397700130939483643e-02) (186, -5.60838840901851654053e-02) (187, 7.84369409084320068359e-02) (188, 5.77645376324653625488e-03) (189, -6.90118819475173950195e-02) (190, 3.07313259690999984741e-03) (191, -1.69422384351491928101e-02) (192, -1.64401680231094360352e-02) (193, 7.12038353085517883301e-02) (194, -8.53768363595008850098e-02) (195, 2.28543486446142196655e-02) (196, -3.48803736269474029541e-02) (197, 6.14452585577964782715e-02) (198, 8.64516571164131164551e-02) (199, 1.84826105833053588867e-02) (200, 6.12948089838027954102e-03) (201, -9.85811278223991394043e-02) (202, 9.73977148532867431641e-03) (203, 8.81842002272605895996e-02) (204, 3.72551456093788146973e-02) (205, -6.88378512859344482422e-03) (206, 2.63471379876136779785e-02) (207, 9.24025699496269226074e-02) (208, -1.47026879712939262390e-02) (209, -4.51077558100223541260e-02) (210, -5.20407110452651977539e-02) (211, -4.50332462787628173828e-03) (212, 9.96946170926094055176e-02) (213, 8.98270308971405029297e-03) (214, -7.75484293699264526367e-02) (215, -1.75134837627410888672e-03) (216, -5.92109560966491699219e-02) (217, -3.24756354093551635742e-02) (218, -2.17213705182075500488e-02) (219, 4.98446151614189147949e-02) (220, 7.93442130088806152344e-04) (221, 8.67674425244331359863e-02) (222, -6.61960393190383911133e-02) (223, 8.43532755970954895020e-02) (224, 5.79712614417076110840e-02) (225, -5.15728779137134552002e-02) (226, 1.04126706719398498535e-02) (227, -7.22470432519912719727e-02) (228, -8.15549790859222412109e-02) (229, -3.13566625118255615234e-03) (230, 4.62355688214302062988e-02) (231, 2.45744958519935607910e-02) (232, -1.71680003404617309570e-03) (233, -4.40246649086475372314e-02) (234, 1.27587094902992248535e-02) (235, -6.44616633653640747070e-02) (236, 4.90915551781654357910e-02) (237, -6.08941577374935150146e-02) (238, -7.20590874552726745605e-02) (239, -3.06397378444671630859e-02) (240, 8.29567760229110717773e-03) (241, -2.40998044610023498535e-02) (242, 6.48569390177726745605e-02) (243, 7.99028575420379638672e-03) (244, 8.48829075694084167480e-02) (245, 8.73085185885429382324e-02) (246, -9.37610492110252380371e-02) (247, -7.43280500173568725586e-02) (248, -4.51671183109283447266e-02) (249, -1.54824182391166687012e-02) (250, 7.55165591835975646973e-02) (251, 5.56263402104377746582e-02) (252, -2.87149772047996520996e-02) (253, -9.06794816255569458008e-02) (254, 3.99795994162559509277e-02) (255, -7.07437098026275634766e-02) (256, -7.61048495769500732422e-01) (0, -4.96077239513397216797e-02) (1, -4.29907552897930145264e-02) (2, -2.38073393702507019043e-02) (3, 4.72565963864326477051e-02) (4, -9.67551916837692260742e-02) (5, -9.92328450083732604980e-02) (6, -5.44601939618587493896e-02) (7, -4.07798551023006439209e-02) (8, 1.35258659720420837402e-02) (9, -1.89218521118164062500e-02) (10, -9.16882976889610290527e-02) (11, 5.26317134499549865723e-02) (12, 9.01906192302703857422e-03) (13, -2.23280340433120727539e-02) (14, -3.90726141631603240967e-02) (15, 8.49192664027214050293e-02) (16, -5.74710927903652191162e-02) (17, 6.89176842570304870605e-02) (18, 6.98021724820137023926e-02) (19, -7.01625794172286987305e-02) (20, 7.51566365361213684082e-02) (21, 9.54741165041923522949e-02) (22, -1.53297036886215209961e-02) (23, -4.03257906436920166016e-02) (24, 7.09906741976737976074e-02) (25, -5.97033724188804626465e-02) (26, 3.09592410922050476074e-02) (27, 8.03111866116523742676e-02) (28, 8.02762433886528015137e-02) (29, 6.02155253291130065918e-02) (30, -6.19411617517471313477e-02) (31, -6.93314895033836364746e-02) (32, -8.27752351760864257812e-02) (33, 1.42515078186988830566e-02) (34, 7.79251232743263244629e-02) (35, -7.95304253697395324707e-02) (36, 1.50186643004417419434e-02) (37, -7.65350759029388427734e-02) (38, -2.03102752566337585449e-02) (39, -7.14554786682128906250e-02) (40, 4.54308092594146728516e-03) (41, -1.19985789060592651367e-02) (42, 8.11762288212776184082e-02) (43, -8.64378660917282104492e-02) (44, 6.56733885407447814941e-02) (45, -5.78963831067085266113e-02) (46, 9.84813943505287170410e-02) (47, -9.17977094650268554688e-02) (48, -8.89787003397941589355e-02) (49, 6.82835653424263000488e-02) (50, -6.19602873921394348145e-02) (51, 8.61779376864433288574e-02) (52, 6.37576654553413391113e-02) (53, 2.27100104093551635742e-02) (54, -5.41478581726551055908e-02) (55, 3.47483381628990173340e-02) (56, 6.30066469311714172363e-02) (57, 7.68113806843757629395e-02) (58, 1.50595307350158691406e-02) (59, 4.32828739285469055176e-02) (60, 3.70268896222114562988e-02) (61, 5.31183704733848571777e-02) (62, 7.39514008164405822754e-02) (63, 5.42516633868217468262e-02) (64, -3.26301306486129760742e-02) (65, 5.18765076994895935059e-02) (66, 7.47212246060371398926e-02) (67, 8.23885276913642883301e-02) (68, 7.53414407372474670410e-02) (69, -4.55890484154224395752e-02) (70, -8.90669450163841247559e-02) (71, -2.01154872775077819824e-02) (72, 4.24123778939247131348e-02) (73, 9.21092852950096130371e-02) (74, -6.55335932970046997070e-03) (75, 8.08576494455337524414e-03) (76, -6.57870918512344360352e-02) (77, -8.07196646928787231445e-03) (78, 1.62880569696426391602e-02) (79, -5.47657907009124755859e-02) (80, -3.97884137928485870361e-02) (81, 5.43277785181999206543e-02) (82, -6.85878545045852661133e-02) (83, -7.60307461023330688477e-02) (84, -2.29622125625610351562e-02) (85, -2.27357149124145507812e-02) (86, 5.87175861001014709473e-02) (87, -5.99555671215057373047e-02) (88, -4.59243357181549072266e-02) (89, -2.62228772044181823730e-02) (90, 8.33273157477378845215e-02) (91, 9.11025479435920715332e-02) (92, -7.31045082211494445801e-02) (93, 5.72787150740623474121e-02) (94, 4.53542098402976989746e-02) (95, -5.73463737964630126953e-03) (96, 9.15522873401641845703e-03) (97, -1.06954813003540039062e-01) (98, -6.57428562641143798828e-01) (99, -6.51001706719398498535e-02) (100, -4.04672436416149139404e-02) (101, 2.24269890785217285156e+00) (102, -1.28919100761413574219e+00) (103, -1.25027930736541748047e+00) (104, -3.77294087409973144531e+00) (105, -6.68194115161895751953e-01) (106, 1.02758169174194335938e-01) (107, -4.64882135391235351562e-01) (108, 1.37881243228912353516e+00) (109, -1.34348671417683362961e-03) (110, -2.50342428684234619141e-01) (111, -2.56833052635192871094e+00) (112, 8.76423001289367675781e-01) (113, 8.47231745719909667969e-01) (114, 1.84529438614845275879e-01) (115, 1.25991594791412353516e+00) (116, -6.03287935256958007812e-01) (117, 2.80232691764831542969e+00) (118, 6.05129420757293701172e-01) (119, -1.29675269126892089844e+00) (120, 2.52939939498901367188e-01) (121, -1.94583427906036376953e+00) (122, 6.38319924473762512207e-02) (123, -6.67310506105422973633e-03) (124, 5.32886162400245666504e-02) (125, -4.16477620601654052734e-02) (126, 8.75922664999961853027e-02) (127, -3.75561602413654327393e-02) (128, -3.77832092344760894775e-02) (129, -2.29467034339904785156e-01) (130, -2.57458537817001342773e-01) (131, -4.00510355830192565918e-02) (132, 4.93060611188411712646e-02) (133, -2.64320578426122665405e-02) (134, -4.56817708909511566162e-02) (135, -1.57078847289085388184e-01) (136, 5.36596104502677917480e-02) (137, -1.29496073350310325623e-02) (138, 4.54385355114936828613e-02) (139, -2.75775287300348281860e-02) (140, -1.72415331006050109863e-01) (141, -3.16554633900523185730e-03) (142, -2.11701425723731517792e-03) (143, -3.03102843463420867920e-02) (144, -2.81034745275974273682e-02) (145, 5.50973974168300628662e-02) (146, -1.11868567764759063721e-02) (147, 5.52451275289058685303e-02) (148, 3.22446301579475402832e-02) (149, -1.39989163726568222046e-02) (150, -1.51472985744476318359e-02) (151, -7.81048387289047241211e-02) (152, -1.02402884513139724731e-02) (153, 8.16088169813156127930e-02) (154, 7.47419195249676704407e-03) (155, -5.68192265927791595459e-02) (156, -5.92915900051593780518e-02) (157, -2.81728766858577728271e-02) (158, -1.77495293319225311279e-02) (159, -7.32291564345359802246e-02) (160, 4.37624424695968627930e-01) (161, -4.75451201200485229492e-02) (162, 4.87767048180103302002e-02) (163, 1.11461589112877845764e-02) (164, 8.69956538081169128418e-02) (165, -5.03543280065059661865e-02) (166, 1.45032465457916259766e-01) (167, 1.35231480002403259277e-01) (168, 6.19603872299194335938e-01) (169, 1.88745546340942382812e+00) (170, 6.96344673633575439453e-02) (171, 7.28011652827262878418e-02) (172, -1.14980377256870269775e-01) (173, -9.60766971111297607422e-02) (174, 1.98953375220298767090e-02) (175, -4.41911816596984863281e-03) (176, -1.57966375350952148438e-01) (177, -1.45525559782981872559e-01) (178, -2.04105928540229797363e-01) (179, -3.96482944488525390625e-02) (180, -9.05076637864112854004e-02) (181, -2.43247225880622863770e-01) (182, -2.56362054497003555298e-02) (183, -9.22423452138900756836e-02) (184, -2.14431092143058776855e-01) (185, -7.94268697500228881836e-02) (186, -5.78405596315860748291e-02) (187, 6.03216663002967834473e-02) (188, -6.16941899061203002930e-02) (189, -2.36709237098693847656e-01) (190, -4.94089126586914062500e-01) (191, -4.05378416180610656738e-02) (192, 2.48930305242538452148e-02) (193, -8.03801342844963073730e-02) (194, -5.19178062677383422852e-02) (195, 3.22028827667236328125e+00) (196, -4.24691364169120788574e-02) (197, 6.21353350579738616943e-02) (198, -3.19661572575569152832e-02) (199, -7.08675608038902282715e-02) (200, -5.63327968120574951172e-03) (201, 4.30843606591224670410e-02) (202, -8.26425775885581970215e-02) (203, -5.18982857465744018555e-03) (204, 4.70076575875282287598e-02) (205, 3.72527763247489929199e-02) (206, 9.03910472989082336426e-02) (207, 1.37404426932334899902e-02) (208, -2.68880796432495117188e+00) (209, -1.17447435855865478516e+00) (210, -6.40630051493644714355e-02) (211, 2.65159457921981811523e-03) (212, 9.23199728131294250488e-02) (213, 8.00287202000617980957e-02) (214, 5.68475797772407531738e-02) (215, 3.35615053772926330566e-02) (216, -6.06575123965740203857e-02) (217, -2.26668268442153930664e-02) (218, 3.10060009360313415527e-02) (219, -9.85294207930564880371e-02) (220, 2.65522375702857971191e-02) (221, 6.30811378359794616699e-02) (222, 3.06591615080833435059e-02) (223, -4.85547259449958801270e-02) (224, 8.27010050415992736816e-02) (225, 7.87413641810417175293e-02) (226, 6.33339658379554748535e-02) (227, -4.03215400874614715576e-02) (228, 7.72465541958808898926e-02) (229, -6.86321854591369628906e-02) (230, -1.11891031265258789062e-02) (231, -2.83867269754409790039e-02) (232, 7.44521692395210266113e-02) (233, 6.16832077503204345703e-03) (234, 6.64234384894371032715e-02) (235, 2.14598327875137329102e-02) (236, -5.65789155662059783936e-02) (237, 5.68144991993904113770e-02) (238, -6.47997260093688964844e-02) (239, -9.51222926378250122070e-02) (240, -9.42563563585281372070e-02) (241, -2.88627296686172485352e-02) (242, 7.52930343151092529297e-03) (243, 9.80636253952980041504e-02) (244, -4.88340146839618682861e-02) (245, -3.56231182813644409180e-02) (246, 3.16251292824745178223e-02) (247, -9.49151813983917236328e-03) (248, 4.17100563645362854004e-02) (249, -3.73688787221908569336e-02) (250, -8.02093744277954101562e-03) (251, -3.17377075552940368652e-02) (252, -7.42877349257469177246e-02) (253, -7.73617774248123168945e-02) (254, 1.97075754404067993164e-02) (255, -9.15867388248443603516e-02) (256, -5.93598508834838867188e+00) (0, -1.69584602117538452148e-02) (1, -3.19082811474800109863e-02) (2, 7.86261335015296936035e-02) (3, 1.44093483686447143555e-02) (4, 5.69026246666908264160e-02) (5, -4.97605986893177032471e-02) (6, -1.11384764313697814941e-02) (7, -3.69290634989738464355e-02) (8, -8.33371579647064208984e-02) (9, -8.96786451339721679688e-02) (10, 6.49201869964599609375e-03) (11, 7.34773352742195129395e-02) (12, -5.44783696532249450684e-02) (13, 1.13697275519371032715e-02) (14, 7.92209729552268981934e-02) (15, 1.66589021682739257812e-02) (16, -8.11009556055068969727e-02) (17, 7.72845968604087829590e-02) (18, 6.78249076008796691895e-02) (19, -1.67240798473358154297e-02) (20, 8.90971720218658447266e-03) (21, -4.16666269302368164062e-02) (22, -7.50140249729156494141e-02) (23, 7.15408399701118469238e-02) (24, 5.03124371170997619629e-02) (25, -6.75173103809356689453e-03) (26, 9.72531065344810485840e-02) (27, 7.29506686329841613770e-02) (28, 