FANN_FLO_2.1
num_layers=3
learning_rate=0.700000
connection_rate=1.000000
network_type=0
learning_momentum=0.000000
training_algorithm=2
train_error_function=1
train_stop_function=0
cascade_output_change_fraction=0.010000
quickprop_decay=-0.000100
quickprop_mu=1.750000
rprop_increase_factor=1.200000
rprop_decrease_factor=0.500000
rprop_delta_min=0.000000
rprop_delta_max=50.000000
rprop_delta_zero=0.100000
cascade_output_stagnation_epochs=12
cascade_candidate_change_fraction=0.010000
cascade_candidate_stagnation_epochs=12
cascade_max_out_epochs=150
cascade_min_out_epochs=50
cascade_max_cand_epochs=150
cascade_min_cand_epochs=50
cascade_num_candidate_groups=2
bit_fail_limit=3.49999994039535522461e-01
cascade_candidate_limit=1.00000000000000000000e+03
cascade_weight_multiplier=4.00000005960464477539e-01
cascade_activation_functions_count=10
cascade_activation_functions=3 5 7 8 10 11 14 15 16 17 
cascade_activation_steepnesses_count=4
cascade_activation_steepnesses=2.50000000000000000000e-01 5.00000000000000000000e-01 7.50000000000000000000e-01 1.00000000000000000000e+00 
layer_sizes=26 71 26 
scale_included=0
neurons (num_inputs, activation_function, activation_steepness)=(0, 0, 0.00000000000000000000e+00) (0, 0, 0.00000000000000000000e+00) (0, 0, 0.00000000000000000000e+00) (0, 0, 0.00000000000000000000e+00) (0, 0, 0.00000000000000000000e+00) (0, 0, 0.00000000000000000000e+00) (0, 0, 0.00000000000000000000e+00) (0, 0, 0.00000000000000000000e+00) (0, 0, 0.00000000000000000000e+00) (0, 0, 0.00000000000000000000e+00) (0, 0, 0.00000000000000000000e+00) (0, 0, 0.00000000000000000000e+00) (0, 0, 0.00000000000000000000e+00) (0, 0, 0.00000000000000000000e+00) (0, 0, 0.00000000000000000000e+00) (0, 0, 0.00000000000000000000e+00) (0, 0, 0.00000000000000000000e+00) (0, 0, 0.00000000000000000000e+00) (0, 0, 0.00000000000000000000e+00) (0, 0, 0.00000000000000000000e+00) (0, 0, 0.00000000000000000000e+00) (0, 0, 0.00000000000000000000e+00) (0, 0, 0.00000000000000000000e+00) (0, 0, 0.00000000000000000000e+00) (0, 0, 0.00000000000000000000e+00) (0, 0, 0.00000000000000000000e+00) (26, 5, 5.00000000000000000000e-01) (26, 5, 5.00000000000000000000e-01) (26, 5, 5.00000000000000000000e-01) (26, 5, 5.00000000000000000000e-01) (26, 5, 5.00000000000000000000e-01) (26, 5, 5.00000000000000000000e-01) (26, 5, 5.00000000000000000000e-01) (26, 5, 5.00000000000000000000e-01) (26, 5, 5.00000000000000000000e-01) (26, 5, 5.00000000000000000000e-01) (26, 5, 5.00000000000000000000e-01) (26, 5, 5.00000000000000000000e-01) (26, 5, 5.00000000000000000000e-01) (26, 5, 5.00000000000000000000e-01) (26, 5, 5.00000000000000000000e-01) (26, 5, 5.00000000000000000000e-01) (26, 5, 5.00000000000000000000e-01) (26, 5, 5.00000000000000000000e-01) (26, 5, 5.00000000000000000000e-01) (26, 5, 5.00000000000000000000e-01) (26, 5, 5.00000000000000000000e-01) (26, 5, 5.00000000000000000000e-01) (26, 5, 5.00000000000000000000e-01) (26, 5, 5.00000000000000000000e-01) (26, 5, 5.00000000000000000000e-01) (26, 5, 5.00000000000000000000e-01) (26, 5, 5.00000000000000000000e-01) (26, 5, 5.00000000000000000000e-01) (26, 5, 5.00000000000000000000e-01) (26, 5, 5.00000000000000000000e-01) (26, 5, 5.00000000000000000000e-01) (26, 5, 5.00000000000000000000e-01) (26, 5, 5.00000000000000000000e-01) (26, 5, 5.00000000000000000000e-01) (26, 5, 5.00000000000000000000e-01) (26, 5, 5.00000000000000000000e-01) (26, 5, 5.00000000000000000000e-01) (26, 5, 5.00000000000000000000e-01) (26, 5, 5.00000000000000000000e-01) (26, 5, 5.00000000000000000000e-01) (26, 5, 5.00000000000000000000e-01) (26, 5, 5.00000000000000000000e-01) (26, 5, 5.00000000000000000000e-01) (26, 5, 5.00000000000000000000e-01) (26, 5, 5.00000000000000000000e-01) (26, 5, 5.00000000000000000000e-01) (26, 5, 5.00000000000000000000e-01) (26, 5, 5.00000000000000000000e-01) (26, 5, 5.00000000000000000000e-01) (26, 5, 5.00000000000000000000e-01) (26, 5, 5.00000000000000000000e-01) (26, 5, 5.00000000000000000000e-01) (26, 5, 5.00000000000000000000e-01) (26, 5, 5.00000000000000000000e-01) (26, 5, 5.00000000000000000000e-01) (26, 5, 5.00000000000000000000e-01) (26, 5, 5.00000000000000000000e-01) (26, 5, 5.00000000000000000000e-01) (26, 5, 5.00000000000000000000e-01) (26, 5, 5.00000000000000000000e-01) (26, 5, 5.00000000000000000000e-01) (26, 5, 5.00000000000000000000e-01) (26, 5, 5.00000000000000000000e-01) (26, 5, 5.00000000000000000000e-01) (26, 5, 5.00000000000000000000e-01) (26, 5, 5.00000000000000000000e-01) (26, 5, 5.00000000000000000000e-01) (26, 5, 5.00000000000000000000e-01) (26, 5, 5.00000000000000000000e-01) (26, 5, 5.00000000000000000000e-01) (0, 5, 0.00000000000000000000e+00) (71, 5, 5.00000000000000000000e-01) (71, 5, 5.00000000000000000000e-01) (71, 5, 5.00000000000000000000e-01) (71, 5, 5.00000000000000000000e-01) (71, 5, 5.00000000000000000000e-01) (71, 5, 5.00000000000000000000e-01) (71, 5, 5.00000000000000000000e-01) (71, 5, 5.00000000000000000000e-01) (71, 5, 5.00000000000000000000e-01) (71, 5, 5.00000000000000000000e-01) (71, 5, 5.00000000000000000000e-01) (71, 5, 5.00000000000000000000e-01) (71, 5, 5.00000000000000000000e-01) (71, 5, 5.00000000000000000000e-01) (71, 5, 5.00000000000000000000e-01) (71, 5, 5.00000000000000000000e-01) (71, 5, 5.00000000000000000000e-01) (71, 5, 5.00000000000000000000e-01) (71, 5, 5.00000000000000000000e-01) (71, 5, 5.00000000000000000000e-01) (71, 5, 5.00000000000000000000e-01) (71, 5, 5.00000000000000000000e-01) (71, 5, 5.00000000000000000000e-01) (71, 5, 5.00000000000000000000e-01) (71, 5, 5.00000000000000000000e-01) (0, 5, 0.00000000000000000000e+00) 
connections (connected_to_neuron, weight)=(0, 1.97455310821533203125e+00) (1, 1.05518121719360351562e+01) (2, 4.62475299835205078125e-01) (3, -2.70258724689483642578e-01) (4, -6.72008693218231201172e-01) (5, -1.12416160106658935547e+00) (6, 1.86100077629089355469e+00) (7, 4.11519467830657958984e-01) (8, 1.43395018577575683594e+00) (9, 2.04616919159889221191e-01) (10, -1.47623136639595031738e-01) (11, 2.74051576852798461914e-01) (12, 4.93982195854187011719e-01) (13, 1.19580340385437011719e+00) (14, -4.49016913771629333496e-02) (15, -8.10349464416503906250e-01) (16, 4.90916460752487182617e-01) (17, -2.92061120271682739258e-01) (18, -5.36337256431579589844e-01) (19, -5.96337437629699707031e-01) (20, 3.28446418046951293945e-01) (21, -3.24800878763198852539e-01) (22, 6.04638159275054931641e-01) (23, -2.61154025793075561523e-01) (24, -8.04811358451843261719e-01) (25, 4.93450075387954711914e-01) (0, 2.04135343432426452637e-01) (1, 1.97495591640472412109e+00) (2, 1.35584211349487304688e+00) (3, 1.49270031738281250000e+03) (4, 4.23503011465072631836e-01) (5, 1.58301681280136108398e-01) (6, -4.80634048581123352051e-02) (7, 7.04661607742309570312e-02) (8, 8.76289248466491699219e-01) (9, 2.41174340248107910156e-01) (10, -5.27776062488555908203e-01) (11, -1.87328178435564041138e-02) (12, -5.99963665008544921875e-01) (13, 5.50461784005165100098e-02) (14, 2.58218407630920410156e-01) (15, 7.07615077495574951172e-01) (16, 6.55416101217269897461e-02) (17, -2.85072118043899536133e-01) (18, 3.12074393033981323242e-01) (19, 1.46025300025939941406e-01) (20, -1.10168948769569396973e-01) (21, -4.26145046949386596680e-01) (22, 6.80983483791351318359e-01) (23, -1.77312806248664855957e-01) (24, -4.55186992883682250977e-01) (25, 2.34158799052238464355e-01) (0, 1.83392834663391113281e+00) (1, 4.78963565826416015625e+00) (2, -1.84734117984771728516e+00) (3, -3.38038742542266845703e-01) (4, 4.67526555061340332031e-01) (5, -3.34688639640808105469e+00) (6, 4.32213217020034790039e-01) (7, -4.06601905822753906250e+00) (8, 3.57282131910324096680e-01) (9, 7.93031081557273864746e-02) (10, 4.38023895025253295898e-01) (11, 1.27289688587188720703e+00) (12, 1.09135079383850097656e+00) (13, -2.17634975910186767578e-01) (14, 1.50000000000000000000e+03) (15, 6.52305305004119873047e-01) (16, -3.24492871761322021484e-01) (17, -1.22995817661285400391e+00) (18, -2.23768964409828186035e-01) (19, -5.76784181594848632812e+00) (20, -1.46315112709999084473e-01) (21, -9.87996816635131835938e-01) (22, -6.28864228725433349609e-01) (23, -3.01196247339248657227e-01) (24, 2.88732141256332397461e-01) (25, -2.17046543955802917480e-01) (0, 2.24097296595573425293e-01) (1, 1.21232576370239257812e+01) (2, -4.86846029758453369141e-01) (3, -3.97487044334411621094e-01) (4, -2.24496051669120788574e-01) (5, -2.85291790962219238281e-01) (6, 6.19064807891845703125e-01) (7, 4.58068323135375976562e+00) (8, -7.52039790153503417969e-01) (9, 8.07214856147766113281e-01) (10, -3.70042294263839721680e-01) (11, 8.82860571146011352539e-02) (12, -6.55191779136657714844e-01) (13, 1.41562774777412414551e-01) (14, 4.64669391512870788574e-02) (15, -3.14978778362274169922e-01) (16, -5.68550713360309600830e-02) (17, 4.37590628862380981445e-02) (18, -4.19991686940193176270e-02) (19, 9.89325642585754394531e-01) (20, -8.79887819290161132812e-01) (21, 1.95983812212944030762e-01) (22, 3.34199488162994384766e-01) (23, 8.27650785446166992188e-01) (24, 8.67910087108612060547e-01) (25, 5.37739157676696777344e-01) (0, 8.78965929150581359863e-02) (1, -6.92862510681152343750e-01) (2, 3.93818646669387817383e-01) (3, 4.17533993721008300781e-01) (4, 1.88538655638694763184e-01) (5, -9.63807225227355957031e-01) (6, 5.64214289188385009766e-01) (7, 1.24244248867034912109e+00) (8, 1.84723332524299621582e-01) (9, -3.57746593654155731201e-02) (10, 7.04798340797424316406e-01) (11, 1.21652042865753173828e+00) (12, 1.21003404259681701660e-01) (13, 4.67522025108337402344e-01) (14, -2.40300819277763366699e-02) (15, -8.23092043399810791016e-01) (16, 7.93270349502563476562e-01) (17, 1.29977554082870483398e-01) (18, 5.40432512760162353516e-01) (19, 1.70057311654090881348e-01) (20, -1.80598139762878417969e-01) (21, 4.58855330944061279297e-01) (22, 3.01387846469879150391e-01) (23, 2.43128269910812377930e-01) (24, 2.52193868160247802734e-01) (25, 2.26380020380020141602e-01) (0, -6.16412401199340820312e-01) (1, -7.26156234741210937500e-01) (2, -2.22776785492897033691e-01) (3, 2.97147296369075775146e-02) (4, -1.05450856685638427734e+00) (5, 9.36819985508918762207e-03) (6, -4.80904847383499145508e-01) (7, 1.12908279895782470703e+00) (8, -7.07259476184844970703e-01) (9, -7.31283128261566162109e-02) (10, -3.04165077209472656250e+00) (11, -6.57500088214874267578e-01) (12, 4.28015589714050292969e-01) (13, -1.18049927055835723877e-01) (14, -2.66045294702053070068e-02) (15, 3.96809267997741699219e+00) (16, 5.27360248565673828125e+00) (17, 7.51082599163055419922e-01) (18, 2.86542922258377075195e-01) (19, 7.87113904953002929688e-01) (20, 1.45558452606201171875e+00) (21, 1.20414078235626220703e+00) (22, 1.24674797058105468750e+00) (23, 1.49332618713378906250e+00) (24, 6.31305456161499023438e-01) (25, 4.69938367605209350586e-01) (0, -7.56704866886138916016e-01) (1, 8.56171309947967529297e-01) (2, 2.38599300384521484375e+00) (3, 1.50000000000000000000e+03) (4, 2.09900188446044921875e+00) (5, -5.35343825817108154297e-01) (6, -5.21589756011962890625e-01) (7, 2.40009450912475585938e+00) (8, 1.46552884578704833984e+00) (9, 9.00336086750030517578e-01) (10, 1.76681041717529296875e+00) (11, 1.16864442825317382812e+00) (12, -4.11855310201644897461e-01) (13, -2.96927280724048614502e-02) (14, 1.49815285205841064453e+00) (15, -1.67960703372955322266e+00) (16, 1.15656480193138122559e-01) (17, 3.03127735853195190430e-01) (18, -1.82636821269989013672e+00) (19, 1.38858675956726074219e+00) (20, 4.72970038652420043945e-01) (21, 1.32612264156341552734e+00) (22, -9.47339594364166259766e-01) (23, 7.98123717308044433594e-01) (24, -3.23100477457046508789e-01) (25, 3.56029540300369262695e-01) (0, -2.90177226066589355469e-01) (1, -6.22316598892211914062e-01) (2, 1.48823528289794921875e+01) (3, 1.47370338439941406250e-01) (4, 1.63558006286621093750e+00) (5, -8.60382914543151855469e-02) (6, -4.32464313507080078125e+00) (7, -1.49392175674438476562e+00) (8, 6.51595473289489746094e-01) (9, 1.31558620929718017578e+00) (10, -7.35206961631774902344e-01) (11, -2.03656271100044250488e-01) (12, 8.90596330165863037109e-01) (13, 4.04766052961349487305e-01) (14, -1.77549505233764648438e+00) (15, -1.63476181030273437500e+00) (16, 3.49499046802520751953e-01) (17, -7.71622002124786376953e-01) (18, -1.26517638564109802246e-01) (19, 6.15412116050720214844e-01) (20, -1.68816536664962768555e-01) (21, 1.76769816875457763672e+00) (22, 2.85453677177429199219e+00) (23, 2.37799119949340820312e+00) (24, 1.07589113712310791016e+00) (25, 6.37763798236846923828e-01) (0, -2.84815937280654907227e-01) (1, 8.65016400814056396484e-01) (2, 5.89592754840850830078e-01) (3, 4.39399302005767822266e-01) (4, -1.01526081562042236328e+00) (5, 6.07225537300109863281e-01) (6, -1.32775127887725830078e-01) (7, -5.28940200805664062500e-01) (8, 5.26156663894653320312e-01) (9, -6.25312805175781250000e-01) (10, -1.29872858524322509766e+00) (11, -1.51975238695740699768e-02) (12, -2.91542559862136840820e-01) (13, -5.89624702930450439453e-01) (14, -1.20050060749053955078e+00) (15, -2.14974537491798400879e-01) (16, -1.28523930907249450684e-01) (17, -5.23436218500137329102e-02) (18, -2.28264212608337402344e-01) (19, 3.75597864389419555664e-01) (20, -2.97606080770492553711e-01) (21, -2.53279775381088256836e-01) (22, 5.32811999320983886719e-01) (23, -3.61002504825592041016e-01) (24, -2.10861384868621826172e-01) (25, -2.18370631337165832520e-01) (0, -6.40550374984741210938e-01) (1, 6.86633169651031494141e-01) (2, 4.04868543148040771484e-01) (3, -3.59557837247848510742e-01) (4, 3.71218264102935791016e-01) (5, 3.09485226869583129883e-01) (6, 5.92035174369812011719e-01) (7, 4.52379047870635986328e-01) (8, -2.41535482928156852722e-03) (9, 3.55915755033493041992e-01) (10, -2.59281128644943237305e-01) (11, 5.10823369026184082031e-01) (12, 4.81029689311981201172e-01) (13, 3.94427984952926635742e-01) (14, -2.51597881317138671875e-01) (15, -2.13412150740623474121e-01) (16, 3.33358615636825561523e-01) (17, 4.17359709739685058594e-01) (18, 5.40829181671142578125e-01) (19, 3.79790753126144409180e-01) (20, 4.35932308435440063477e-01) (21, 4.23712521791458129883e-01) (22, 4.79129940271377563477e-01) (23, 4.67430412769317626953e-01) (24, 4.88310277462005615234e-01) (25, 4.89353060722351074219e-01) (0, -2.12896776199340820312e+00) (1, 1.46225586533546447754e-01) (2, 3.81644308567047119141e-01) (3, 3.29912275075912475586e-01) (4, 1.83380678296089172363e-01) (5, 5.54272890090942382812e-01) (6, -1.16536426544189453125e+00) (7, 3.89783024787902832031e-01) (8, 2.07385316491127014160e-01) (9, 2.27054327726364135742e-01) (10, 4.38610970973968505859e-01) (11, 2.64248919486999511719e+00) (12, -4.63756531476974487305e-01) (13, 1.03443610668182373047e+00) (14, -6.16595983505249023438e-01) (15, -9.73225176334381103516e-01) (16, -2.68172711133956909180e-01) (17, -4.85033720731735229492e-01) (18, -6.18010163307189941406e-01) (19, -4.64641928672790527344e-01) (20, -1.21454322338104248047e+00) (21, -6.73308730125427246094e-01) (22, 4.42044198513031005859e-01) (23, 5.00353753566741943359e-01) (24, 6.40523791313171386719e-01) (25, -4.35754925012588500977e-01) (0, -1.50840628147125244141e+00) (1, 4.87538844347000122070e-01) (2, -1.70467984676361083984e+00) (3, 1.48141837120056152344e+00) (4, 6.99491426348686218262e-02) (5, -3.57915796339511871338e-02) (6, 9.71947610378265380859e-02) (7, 1.12280821800231933594e+00) (8, 1.12954056262969970703e+00) (9, 5.01339793205261230469e-01) (10, -1.23050248622894287109e+00) (11, -7.07244515419006347656e-01) (12, 2.64384299516677856445e-01) (13, 6.98291778564453125000e+00) (14, -6.15182757377624511719e-01) (15, 3.46665420532226562500e+01) (16, 2.78448128700256347656e+00) (17, -1.66404470801353454590e-01) (18, 5.29679775238037109375e-01) (19, 1.02501463890075683594e+00) (20, 2.62409131973981857300e-02) (21, -1.98374420404434204102e-01) (22, 2.23464116454124450684e-01) (23, 4.67932909727096557617e-01) (24, -1.61785423755645751953e+00) (25, 4.76247698068618774414e-01) (0, -1.74403414130210876465e-01) (1, -3.18169862031936645508e-01) (2, -2.28149011731147766113e-01) (3, 4.08252954483032226562e-01) (4, -3.77631336450576782227e-01) (5, 5.38836240768432617188e-01) (6, -3.07263344526290893555e-01) (7, 4.23173010349273681641e-01) (8, 1.14415988326072692871e-01) (9, -3.77276569604873657227e-01) (10, 3.97121608257293701172e-01) (11, 3.72358649969100952148e-01) (12, -2.34032377600669860840e-01) (13, 4.68743383884429931641e-01) (14, 4.47417944669723510742e-01) (15, 3.45728546380996704102e-01) (16, 5.35635828971862792969e-01) (17, -3.29822123050689697266e-01) (18, 3.04016232490539550781e-01) (19, 1.13588941097259521484e+00) (20, 4.94779318571090698242e-01) (21, 5.23595213890075683594e-01) (22, 5.29802501201629638672e-01) (23, 1.54049396514892578125e-01) (24, 4.49657768011093139648e-01) (25, 5.20135939121246337891e-01) (0, -5.21350979804992675781e-01) (1, -9.64104175567626953125e-01) (2, -1.43032765388488769531e+00) (3, 2.80848592519760131836e-01) (4, -3.62865954637527465820e-01) (5, 4.42225277423858642578e-01) (6, -2.23857855796813964844e+00) (7, -1.37409770488739013672e+00) (8, -7.63616740703582763672e-01) (9, 3.32396984100341796875e-01) (10, -1.65126383304595947266e+00) (11, -1.49541169404983520508e-01) (12, -3.13914678990840911865e-02) (13, 9.39748108386993408203e-01) (14, 1.80472445487976074219e+00) (15, -3.85569119453430175781e+00) (16, 1.08786620199680328369e-01) (17, 2.16270923614501953125e-01) (18, 4.00505065917968750000e-01) (19, 1.23319351673126220703e+00) (20, 1.77871435880661010742e-01) (21, -1.54831126332283020020e-01) (22, 2.82297587394714355469e+00) (23, -1.00555038452148437500e+00) (24, 2.15411400794982910156e+00) (25, 4.51799720525741577148e-01) (0, 5.67482328414916992188e+00) (1, -1.96205019950866699219e+00) (2, 4.28910875320434570312e+00) (3, 3.27889990806579589844e+00) (4, 2.83379226922988891602e-01) (5, 4.89152050018310546875e+00) (6, -3.09729218482971191406e-01) (7, -2.34139776229858398438e+00) (8, 5.03964006900787353516e-01) (9, 2.07909896969795227051e-01) (10, 4.54622125625610351562e+00) (11, 1.39586865901947021484e+00) (12, 4.98931884765625000000e-01) (13, 1.25873064994812011719e+00) (14, 3.12804532051086425781e+00) (15, -1.20627963542938232422e+00) (16, -1.56816840171813964844e-01) (17, 1.69380486011505126953e+00) (18, 1.58646595478057861328e+00) (19, 1.43537734985351562500e+02) (20, 5.43838357925415039062e+00) (21, 2.37622332572937011719e+00) (22, 7.15571403503417968750e-01) (23, -2.15845763683319091797e-01) (24, -1.15487897396087646484e+00) (25, 6.07638478279113769531e-01) (0, -3.42332525178790092468e-04) (1, 1.15572798252105712891e+00) (2, 4.94134092330932617188e+00) (3, 2.27701592445373535156e+00) (4, 9.79339599609375000000e-01) (5, -1.19819152355194091797e+00) (6, -3.48777323961257934570e-01) (7, 1.44361782073974609375e+01) (8, 1.49781525135040283203e+00) (9, 1.13013577461242675781e+00) (10, -1.86694908142089843750e+00) (11, -2.09244203567504882812e+00) (12, -5.59270791709423065186e-02) (13, 8.45980405807495117188e-01) (14, -4.29977989196777343750e+00) (15, 1.72986358404159545898e-01) (16, -1.25914430618286132812e+00) (17, -3.01744556427001953125e+00) (18, -1.00195002555847167969e+00) (19, -3.13748121261596679688e-01) (20, -5.93944728374481201172e-01) (21, -1.03293466567993164062e+00) (22, -3.74703943729400634766e-01) (23, 3.94127845764160156250e+00) (24, 3.96305203437805175781e-01) (25, 4.80939567089080810547e-01) (0, 1.28269195556640625000e+00) (1, -2.57088088989257812500e+00) (2, -9.83704626560211181641e-01) (3, 2.51486846923828125000e+02) (4, 2.41733360290527343750e+00) (5, -1.67575395107269287109e+00) (6, -6.64225965738296508789e-03) (7, -4.40318679809570312500e+00) (8, 4.86479520797729492188e+00) (9, 1.89265811443328857422e+00) (10, -3.71154807507991790771e-02) (11, -5.44466413557529449463e-02) (12, 4.52647715806961059570e-01) (13, 1.64316809177398681641e+00) (14, 3.30562615394592285156e+00) (15, 1.06733810901641845703e+00) (16, -1.26471910476684570312e+01) (17, 3.07764649391174316406e+00) (18, 1.47016787528991699219e+00) (19, 1.50020179748535156250e+01) (20, 5.00324249267578125000e-01) (21, -7.98342764377593994141e-01) (22, 2.15274453163146972656e+00) (23, 2.54980325698852539062e+00) (24, 8.45247554779052734375e+00) (25, 2.93080836534500122070e-01) (0, 1.98944374918937683105e-01) (1, 2.11842656135559082031e+00) (2, 3.11517286300659179688e+00) (3, 2.06770944595336914062e+00) (4, 2.33635449409484863281e+00) (5, 5.21963953971862792969e-01) (6, 1.03386855125427246094e+00) (7, 1.01627385616302490234e+00) (8, 1.02395033836364746094e+00) (9, -1.59770816564559936523e-01) (10, 4.83399420976638793945e-01) (11, 1.28012627363204956055e-01) (12, 5.37457875907421112061e-02) (13, 1.25132119655609130859e+00) (14, 1.75047004222869873047e+00) (15, -3.69056046009063720703e-01) (16, 1.69565528631210327148e-02) (17, -1.70110613107681274414e-01) (18, 1.09443342685699462891e+00) (19, -3.05866420269012451172e-01) (20, -2.73676705360412597656e+00) (21, -2.52815425395965576172e-01) (22, -4.24151390790939331055e-01) (23, -6.13548398017883300781e-01) (24, -8.31478536128997802734e-02) (25, 6.12439930438995361328e-01) (0, -4.28073525428771972656e-01) (1, -2.46003881096839904785e-01) (2, -3.03480952978134155273e-01) (3, 1.16945660114288330078e+00) (4, 5.15456438064575195312e-01) (5, -1.88294172286987304688e-01) (6, -7.57514297962188720703e-01) (7, -2.48147577047348022461e-01) (8, 4.47900295257568359375e-01) (9, 4.62308019399642944336e-01) (10, -1.74400106072425842285e-01) (11, -3.20119947195053100586e-01) (12, -1.53350144624710083008e-01) (13, 1.71429306268692016602e-01) (14, 4.89212334156036376953e-01) (15, -3.76325666904449462891e-01) (16, -1.27724921703338623047e+00) (17, -1.39546049758791923523e-02) (18, -3.94303023815155029297e-01) (19, -1.21672526001930236816e-01) (20, -1.56859770417213439941e-01) (21, -3.47732573747634887695e-01) (22, -2.53860294818878173828e-01) (23, -3.08026939630508422852e-01) (24, 3.78986299037933349609e-01) (25, -2.70439296960830688477e-01) (0, 4.39353942871093750000e-01) (1, -3.23421210050582885742e-01) (2, -1.52105852961540222168e-01) (3, -1.17593109607696533203e-01) (4, 4.69874262809753417969e-01) (5, -3.42584460973739624023e-01) (6, -2.94465690851211547852e-01) (7, 5.45046746730804443359e-01) (8, 2.56212316453456878662e-02) (9, -1.47100985050201416016e-01) (10, 5.74327051639556884766e-01) (11, -3.08433502912521362305e-01) (12, 8.05483698844909667969e-01) (13, -3.06629985570907592773e-01) (14, -5.00370144844055175781e-01) (15, 2.52795720100402832031e+00) (16, -2.62384057044982910156e-01) (17, 1.51801973581314086914e-01) (18, -2.04380583018064498901e-02) (19, 4.72300529479980468750e-01) (20, 4.43854838609695434570e-01) (21, -2.73006647825241088867e-01) (22, 4.85457591712474822998e-02) (23, -3.18616390228271484375e-01) (24, 1.92570462822914123535e-01) (25, 4.88769710063934326172e-01) (0, 7.68741428852081298828e-01) (1, 1.20585381984710693359e-01) (2, 3.12077224254608154297e-01) (3, -3.28147202730178833008e-01) (4, -2.40726619958877563477e-01) (5, 8.12396764755249023438e-01) (6, -4.52174931764602661133e-01) (7, -1.30178183317184448242e-01) (8, -3.94083827733993530273e-01) (9, -4.03605908155441284180e-01) (10, 1.26380115747451782227e-01) (11, -3.16787123680114746094e-01) (12, -2.46601521968841552734e-01) (13, -3.18247139453887939453e-01) (14, -3.05692285299301147461e-01) (15, 3.86515587568283081055e-01) (16, -2.02925249934196472168e-01) (17, -2.50715106725692749023e-01) (18, -4.33361828327178955078e-01) (19, -3.38090658187866210938e-01) (20, -1.61936253309249877930e-01) (21, -3.46722871065139770508e-01) (22, -2.63180106878280639648e-01) (23, -3.75266581773757934570e-01) (24, -2.12741911411285400391e-01) (25, -2.68677830696105957031e-01) (0, 9.22108948230743408203e-01) (1, 9.57235872745513916016e-01) (2, -1.73734560608863830566e-01) (3, -3.00992220640182495117e-01) (4, -4.41105574369430541992e-01) (5, 5.37443101406097412109e-01) (6, 4.00133579969406127930e-01) (7, -9.14875924587249755859e-01) (8, -8.01925957202911376953e-01) (9, -2.08304375410079956055e-01) (10, 9.93443846702575683594e-01) (11, -2.12365359067916870117e-01) (12, -4.60796564817428588867e-01) (13, 1.34678155183792114258e-01) (14, 2.41867685317993164062e+00) (15, -2.46948623657226562500e+00) (16, -6.60649240016937255859e-01) (17, 1.02085697650909423828e+00) (18, 5.75556643307209014893e-02) (19, 3.39064598083496093750e-01) (20, -3.97403925657272338867e-01) (21, -2.13029742240905761719e-01) (22, 1.49374872446060180664e-01) (23, -3.16251367330551147461e-01) (24, 2.04174685478210449219e+00) (25, 4.24154922366142272949e-02) (0, 3.85497450828552246094e-01) (1, -1.77035379409790039062e+00) (2, 2.68885445594787597656e+00) (3, -2.95239686965942382812e-01) (4, -4.02764916419982910156e-01) (5, -2.15424537658691406250e-01) (6, -9.18723270297050476074e-02) (7, 2.42814496159553527832e-01) (8, -2.67118126153945922852e-01) (9, 1.16219627857208251953e+00) (10, -2.34172821044921875000e-01) (11, -3.93128603696823120117e-01) (12, 5.02684891223907470703e-01) (13, -2.22132489085197448730e-01) (14, 4.18320447206497192383e-01) (15, -7.25035667419433593750e-02) (16, 2.50745207071304321289e-01) (17, -7.16257616877555847168e-02) (18, 3.06936383247375488281e-01) (19, -5.95552563667297363281e-01) (20, -3.62946510314941406250e-01) (21, -1.89658865332603454590e-01) (22, -3.50921869277954101562e-01) (23, -1.09683476388454437256e-01) (24, 1.34365785121917724609e+00) (25, -1.96453914046287536621e-01) (0, -5.75137078762054443359e-01) (1, -3.13717699050903320312e+00) (2, 4.11630821228027343750e+00) (3, 2.74060630798339843750e+00) (4, 2.30330991744995117188e+00) (5, 2.19549506902694702148e-01) (6, -1.82681334018707275391e+00) (7, 7.38891422748565673828e-01) (8, 1.47852289676666259766e+00) (9, 2.54220604896545410156e+00) (10, 1.01527273654937744141e-01) (11, 5.22644259035587310791e-03) (12, 3.68542671203613281250e-01) (13, 1.96835935115814208984e+00) (14, 9.77742850780487060547e-01) (15, -3.17898422479629516602e-01) (16, -7.54032731056213378906e-01) (17, 5.70972919464111328125e-01) (18, 1.16403773427009582520e-01) (19, 4.17355030775070190430e-01) (20, 3.46125817298889160156e+00) (21, -3.08008700609207153320e-01) (22, -5.03167867660522460938e-01) (23, -5.99189519882202148438e-01) (24, -7.04215705394744873047e-01) (25, -2.71020948886871337891e-01) (0, 3.30938601493835449219e+00) (1, 1.85284113883972167969e+00) (2, 2.77791619300842285156e+00) (3, 6.49574947357177734375e+00) (4, 1.50000000000000000000e+03) (5, 1.80998671054840087891e+00) (6, 1.60324227809906005859e+00) (7, 1.30480155348777770996e-01) (8, 6.15702867507934570312e-01) (9, 9.13041687011718750000e+02) (10, 1.41472631835937500000e+03) (11, 1.13728404045104980469e+00) (12, 5.95934724807739257812e+00) (13, 9.71155464649200439453e-01) (14, 4.85474824905395507812e+00) (15, -6.24262951314449310303e-02) (16, -1.67278349399566650391e+00) (17, 1.67039573192596435547e+00) (18, -1.56295999884605407715e-01) (19, 1.84084200859069824219e+00) (20, -4.76564973592758178711e-01) (21, -2.55759239196777343750e-01) (22, -2.06955149769783020020e-01) (23, -2.61738657951354980469e-01) (24, -1.26975941658020019531e+00) (25, 7.97076299786567687988e-02) (0, 6.29310607910156250000e-01) (1, 1.03131823241710662842e-01) (2, 6.16940021514892578125e-01) (3, 6.47267401218414306641e-01) (4, 6.17953121662139892578e-01) (5, 5.10325968265533447266e-01) (6, 8.87410461902618408203e-01) (7, 4.78337705135345458984e-01) (8, 7.38257467746734619141e-01) (9, 5.63352286815643310547e-01) (10, 6.40253245830535888672e-01) (11, 6.30831420421600341797e-01) (12, 4.53341305255889892578e-01) (13, 7.57917165756225585938e-01) (14, 7.61901140213012695312e-01) (15, 8.42712938785552978516e-01) (16, 6.75708293914794921875e-01) (17, 8.97497296333312988281e-01) (18, 7.79851913452148437500e-01) (19, 1.02317824959754943848e-01) (20, 6.58423125743865966797e-01) (21, 5.49565374851226806641e-01) (22, 7.18761444091796875000e-01) (23, 7.18231320381164550781e-01) (24, 7.04276680946350097656e-01) (25, 6.56647562980651855469e-01) (0, 7.97013044357299804688e-02) (1, -1.13915681838989257812e+00) (2, 8.84209293872117996216e-03) (3, 9.65463891625404357910e-02) (4, 1.10499191284179687500e+00) (5, -6.39853999018669128418e-02) (6, 6.03196620941162109375e-02) (7, -1.36580741405487060547e+00) (8, 1.35833963751792907715e-01) (9, 1.83462828397750854492e-01) (10, -2.08840798586606979370e-02) (11, -8.26903581619262695312e-02) (12, 1.13378457725048065186e-01) (13, -5.71010470390319824219e-01) (14, 3.88115383684635162354e-02) (15, -1.25552728772163391113e-01) (16, 3.63828063011169433594e-01) (17, 5.99223911762237548828e-01) (18, 2.74142056703567504883e-01) (19, 3.77077728509902954102e-01) (20, -6.95060789585113525391e-02) (21, -2.03331574797630310059e-01) (22, 6.87013208866119384766e-01) (23, 3.14436614513397216797e-01) (24, 2.50592887401580810547e-01) (25, -1.91043794155120849609e-01) (0, 2.98446357250213623047e-01) (1, -2.52595633268356323242e-01) (2, -2.06945434212684631348e-01) (3, -3.67689013481140136719e-01) (4, -2.19958573579788208008e-01) (5, -2.25900158286094665527e-01) (6, -3.86104285717010498047e-01) (7, -2.39253848791122436523e-01) (8, -2.96164542436599731445e-01) (9, -2.10241794586181640625e-01) (10, -1.95569023489952087402e-01) (11, -1.52924522757530212402e-01) (12, -1.36830002069473266602e-01) (13, -2.10449188947677612305e-01) (14, -3.68831664323806762695e-01) (15, -2.38687366247177124023e-01) (16, -3.06209444999694824219e-01) (17, -2.42056593298912048340e-01) (18, -3.50845903158187866211e-01) (19, -3.42044621706008911133e-01) (20, -2.25699096918106079102e-01) (21, -2.68648266792297363281e-01) (22, -3.28777432441711425781e-01) (23, -3.16056728363037109375e-01) (24, -2.52363204956054687500e-01) (25, -3.08866977691650390625e-01) (0, 6.79233193397521972656e-01) (1, 2.62713909149169921875e+00) (2, 4.40644760131835937500e+01) (3, 5.45960128307342529297e-01) (4, 6.86843574047088623047e-01) (5, -1.98600012809038162231e-02) (6, 5.01889944076538085938e-01) (7, -1.23400723934173583984e+00) (8, 6.03108584880828857422e-01) (9, 7.53814220428466796875e-01) (10, -7.36338555812835693359e-01) (11, -7.25440084934234619141e-01) (12, -3.99060696363449096680e-01) (13, 2.42221374064683914185e-02) (14, 5.53317964076995849609e-01) (15, -7.49863743782043457031e-01) (16, -3.91149103641510009766e-01) (17, 2.48720884323120117188e-01) (18, -3.24635803699493408203e-02) (19, -3.50288659334182739258e-01) (20, -6.27448260784149169922e-02) (21, 2.65822553634643554688e+00) (22, -4.36473041772842407227e-01) (23, -2.99347817897796630859e-01) (24, -2.38935165107250213623e-02) (25, 2.16072469949722290039e-01) (0, -1.53353965282440185547e+00) (1, -1.93214881420135498047e+00) (2, -3.11196422576904296875e+00) (3, 8.68793070316314697266e-01) (4, 2.30743718147277832031e+00) (5, 2.92800188064575195312e-01) (6, -6.56152486801147460938e-01) (7, 3.12105089426040649414e-01) (8, 1.58845818042755126953e+00) (9, 3.59557189941406250000e+01) (10, -6.28281012177467346191e-02) (11, -3.14124464988708496094e-01) (12, -4.30294543504714965820e-01) (13, 2.70528745651245117188e+00) (14, -1.61665802001953125000e+01) (15, 3.02617692947387695312e+00) (16, 6.68676018714904785156e-01) (17, 1.86494618654251098633e-01) (18, 4.84983539581298828125e+00) (19, 1.19630038738250732422e+00) (20, 2.21808624267578125000e+00) (21, 6.96447134017944335938e+00) (22, 1.78471475839614868164e-01) (23, 1.55108556151390075684e-01) (24, 8.92856240272521972656e-01) (25, 2.36398220062255859375e-01) (0, 1.52639254927635192871e-01) (1, -5.16281664371490478516e-01) (2, 6.16564154624938964844e-01) (3, -4.55597072839736938477e-01) (4, -1.31536647677421569824e-01) (5, 1.50000000000000000000e+03) (6, 5.76236665248870849609e-01) (7, -2.90044508874416351318e-02) (8, -6.89838290214538574219e-01) (9, -4.95443075895309448242e-01) (10, 1.18754374980926513672e+00) (11, 2.83449101448059082031e+00) (12, 5.80952465534210205078e-01) (13, -4.01586234569549560547e-01) (14, -5.38217127323150634766e-01) (15, 1.16319561004638671875e+00) (16, -6.45650863647460937500e-01) (17, 1.06567811965942382812e+00) (18, -4.11204934120178222656e-01) (19, -4.49186980724334716797e-01) (20, 7.27427542209625244141e-01) (21, 1.37548899650573730469e+00) (22, 1.53719544410705566406e-01) (23, -5.28944432735443115234e-01) (24, -1.62008357048034667969e+00) (25, 1.27281352877616882324e-01) (0, -1.07436788082122802734e+00) (1, -8.44912707805633544922e-01) (2, 6.97380006313323974609e-01) (3, 1.38851916790008544922e+00) (4, 4.23738777637481689453e-01) (5, 8.76197755336761474609e-01) (6, -4.09904494881629943848e-02) (7, -1.84257066249847412109e+00) (8, -2.65018314123153686523e-01) (9, 4.94285494089126586914e-01) (10, 1.95306825637817382812e+00) (11, 9.94804620742797851562e-01) (12, 5.64601182937622070312e-01) (13, 6.70841991901397705078e-01) (14, 4.58967733383178710938e+00) (15, 1.92542374134063720703e+00) (16, 1.68793046474456787109e+00) (17, 7.13293910026550292969e-01) (18, 5.13488650321960449219e-01) (19, -1.53737902641296386719e-01) (20, 2.62209296226501464844e+00) (21, 9.25318956375122070312e-01) (22, -7.90741920471191406250e-01) (23, 4.05532300472259521484e-01) (24, 9.90694522857666015625e-01) (25, 6.80916905403137207031e-01) (0, 9.28616464138031005859e-01) (1, 8.63543450832366943359e-01) (2, -2.42605581879615783691e-01) (3, 9.18238401412963867188e-01) (4, 1.00304055213928222656e+00) (5, -4.74478363990783691406e-01) (6, 3.29199343919754028320e-01) (7, 1.22373430058360099792e-02) (8, -1.22314445674419403076e-01) (9, -4.40537184476852416992e-01) (10, -4.21078503131866455078e-01) (11, 5.29302000999450683594e-01) (12, 5.31210899353027343750e-01) (13, -2.31680020689964294434e-01) (14, -4.02782082557678222656e-01) (15, -3.59800696372985839844e-01) (16, -5.81513047218322753906e-02) (17, 3.63174490630626678467e-02) (18, -3.75655800104141235352e-01) (19, -2.11057320237159729004e-01) (20, -2.59468019008636474609e-01) (21, -2.04868853092193603516e-01) (22, 3.42608988285064697266e-01) (23, -2.68131226301193237305e-01) (24, -2.82695919275283813477e-01) (25, -3.30407500267028808594e-01) (0, 3.43959629535675048828e-01) (1, -2.51726675033569335938e+00) (2, 1.34932354092597961426e-01) (3, 1.25616455078125000000e+00) (4, -1.50000000000000000000e+03) (5, -4.11998927593231201172e-01) (6, -3.87812554836273193359e-01) (7, 2.02689456939697265625e+00) (8, 1.50000000000000000000e+03) (9, 9.42610561847686767578e-01) (10, 5.91482818126678466797e-01) (11, -1.96790382266044616699e-01) (12, -2.25222110748291015625e-01) (13, -7.46032059192657470703e-01) (14, -1.09558403491973876953e+00) (15, -7.15671718120574951172e-01) (16, 1.53441369533538818359e-01) (17, 2.55707561969757080078e-01) (18, -2.83305603079497814178e-03) (19, -3.15812319517135620117e-01) (20, -6.41115009784698486328e-02) (21, -2.33089447021484375000e-01) (22, -1.29174947738647460938e+00) (23, 5.40433943271636962891e-01) (24, 1.57729101181030273438e+00) (25, -2.37954169511795043945e-01) (0, 3.22997748851776123047e-01) (1, 2.12435770034790039062e+00) (2, 1.97515654563903808594e+00) (3, 2.89861112833023071289e-01) (4, 4.33314710855484008789e-01) (5, 6.06775462627410888672e-01) (6, 6.83215916156768798828e-01) (7, 8.33726167678833007812e-01) (8, 2.56961613893508911133e-01) (9, -3.96934598684310913086e-01) (10, 5.79429984092712402344e-01) (11, 1.61213314533233642578e+00) (12, 4.19665038585662841797e-01) (13, 2.06063747406005859375e-01) (14, -4.94303792715072631836e-01) (15, 1.55075564980506896973e-01) (16, -2.36807212233543395996e-01) (17, -3.17732602357864379883e-01) (18, 3.21795195341110229492e-01) (19, 3.25737714767456054688e-01) (20, 4.48424369096755981445e-01) (21, -3.11967611312866210938e-01) (22, 4.43773567676544189453e-01) (23, 7.35042095184326171875e-01) (24, 1.64626210927963256836e-01) (25, 4.57365185022354125977e-01) (0, 5.12012672424316406250e+00) (1, 5.20890283584594726562e+00) (2, 2.22536373138427734375e+00) (3, 4.87045168876647949219e-01) (4, 4.81859540939331054688e+00) (5, 1.60228267312049865723e-01) (6, 3.90183061361312866211e-01) (7, 8.09899747371673583984e-01) (8, 1.86540198326110839844e+00) (9, -7.18701705336570739746e-02) (10, -3.08076828718185424805e-01) (11, 5.44185876846313476562e-01) (12, -5.98437547683715820312e-01) (13, 1.12864434719085693359e-01) (14, 1.35336354374885559082e-01) (15, 6.50807917118072509766e-02) (16, -1.54952108860015869141e-01) (17, 1.36752950493246316910e-03) (18, -4.66991841793060302734e-01) (19, -4.23251464962959289551e-02) (20, -5.60967385768890380859e-01) (21, -5.29356062412261962891e-01) (22, -3.21125447750091552734e-01) (23, -4.57087576389312744141e-01) (24, -4.99446809291839599609e-01) (25, -1.95234715938568115234e-01) (0, -1.81742131710052490234e+00) (1, -1.05847823619842529297e+00) (2, -2.26050138473510742188e+00) (3, -2.09910571575164794922e-01) (4, -4.09500211477279663086e-01) (5, 5.28129696846008300781e-01) (6, -5.88492751121520996094e-02) (7, -3.11758965253829956055e-01) (8, -4.46908801794052124023e-01) (9, 1.00886642932891845703e-01) (10, 1.20874166488647460938e+00) (11, -5.42464375495910644531e-01) (12, 6.36119961738586425781e-01) (13, -1.21417038142681121826e-01) (14, 1.93458318710327148438e+00) (15, -1.11403679847717285156e+00) (16, -2.20343604683876037598e-01) (17, -2.49516498297452926636e-02) (18, 1.58358752727508544922e-01) (19, -1.10902023315429687500e+00) (20, -1.93758103996515274048e-02) (21, 7.20355927944183349609e-01) (22, 1.19729101657867431641e+00) (23, 1.11009716987609863281e+00) (24, -5.03835380077362060547e-01) (25, 4.78606313467025756836e-01) (0, -3.80088418722152709961e-01) (1, 4.08988952636718750000e+00) (2, 1.50000000000000000000e+03) (3, 7.03970909118652343750e-01) (4, -3.86791169643402099609e-01) (5, -1.81770846247673034668e-02) (6, -3.07405054569244384766e-01) (7, 1.51696288585662841797e+00) (8, -9.72441852092742919922e-01) (9, -4.02931600809097290039e-01) (10, -1.42889201641082763672e+00) (11, 4.11780029535293579102e-01) (12, -5.44244885444641113281e-01) (13, -4.45813179016113281250e-01) (14, -6.39700293540954589844e-02) (15, 6.60832524299621582031e-01) (16, 2.13553786277770996094e+00) (17, 3.23870301246643066406e+00) (18, 3.07138013839721679688e+00) (19, 3.66963386535644531250e+01) (20, 1.73075568675994873047e+00) (21, -1.05684149265289306641e+00) (22, 2.38249227404594421387e-01) (23, 1.15582025051116943359e+00) (24, 4.12410688400268554688e+00) (25, 6.83652818202972412109e-01) (0, 2.92329758405685424805e-01) (1, 6.68620169162750244141e-01) (2, -2.02925756573677062988e-01) (3, -2.86834567785263061523e-01) (4, -2.04215273261070251465e-01) (5, -3.32954615354537963867e-01) (6, -1.99125230312347412109e-01) (7, -1.71646386384963989258e-01) (8, -2.20696210861206054688e-01) (9, 4.52159225940704345703e-01) (10, -1.88642665743827819824e-01) (11, -2.91069626808166503906e-01) (12, -2.15144306421279907227e-01) (13, -2.59133398532867431641e-01) (14, 2.65628755092620849609e-01) (15, 3.10181498527526855469e-01) (16, -2.74822801351547241211e-01) (17, -3.24075818061828613281e-01) (18, -2.47388020157814025879e-01) (19, -3.81843298673629760742e-01) (20, -2.88105130195617675781e-01) (21, -2.54141986370086669922e-01) (22, -2.25663498044013977051e-01) (23, -2.02409163117408752441e-01) (24, -2.47636616230010986328e-01) (25, -2.74943500757217407227e-01) (0, -1.20749399065971374512e-02) (1, 7.37642526626586914062e-01) (2, -6.88010864257812500000e+02) (3, 5.11919736862182617188e-01) (4, -1.34784862399101257324e-01) (5, 6.34490549564361572266e-01) (6, -1.63214480876922607422e+00) (7, 6.82249546051025390625e-01) (8, 5.08848614990711212158e-02) (9, 9.96815025806427001953e-01) (10, -1.09467901289463043213e-01) (11, 2.15709254145622253418e-01) (12, -1.44750142097473144531e+00) (13, 1.19098871946334838867e-01) (14, -1.52894365787506103516e+00) (15, 4.53221589326858520508e-01) (16, 1.54100823402404785156e+00) (17, 9.11964327096939086914e-02) (18, -1.63648441433906555176e-01) (19, 1.13748955726623535156e+00) (20, -7.39215195178985595703e-01) (21, -3.01839977502822875977e-01) (22, -3.12176167964935302734e-01) (23, 5.24651110172271728516e-01) (24, 3.70516598224639892578e-01) (25, -2.23698288202285766602e-01) (0, -3.40874373912811279297e-01) (1, -8.73223125934600830078e-01) (2, -6.44595921039581298828e-01) (3, -7.43485569953918457031e-01) (4, -5.35231292247772216797e-01) (5, -3.50108504295349121094e-01) (6, -9.62921023368835449219e-01) (7, -1.49407303333282470703e+00) (8, -9.45948183536529541016e-01) (9, -4.47797358036041259766e-01) (10, 4.73069477081298828125e+00) (11, 4.28023934364318847656e-01) (12, 4.47633832693099975586e-01) (13, -1.11416494846343994141e+00) (14, 1.15290260314941406250e+00) (15, 2.10006642341613769531e+00) (16, 1.46809864044189453125e+00) (17, -2.02125930786132812500e+00) (18, 1.74526989459991455078e+00) (19, 2.02807736396789550781e+00) (20, 1.99071979522705078125e+00) (21, 1.10891759395599365234e+00) (22, -8.66561532020568847656e-01) (23, 1.84622740745544433594e+00) (24, 1.30760395526885986328e+00) (25, 4.74347352981567382812e-01) (0, -1.60056531429290771484e-01) (1, -1.96819797158241271973e-01) (2, -2.25877359509468078613e-01) (3, -3.36842566728591918945e-01) (4, -2.96435862779617309570e-01) (5, 1.24480748176574707031e+00) (6, 5.16654431819915771484e-01) (7, -1.10444769263267517090e-01) (8, -5.37753403186798095703e-01) (9, -3.09418380260467529297e-01) (10, 5.77312469482421875000e-01) (11, 3.90776723623275756836e-01) (12, -1.37412056326866149902e-01) (13, -3.78001630306243896484e-01) (14, -1.50917589664459228516e-01) (15, -2.93974667787551879883e-01) (16, 5.25956273078918457031e-01) (17, -5.24534173309803009033e-02) (18, -2.05491602420806884766e-01) (19, -1.55113413929939270020e-01) (20, -3.70002388954162597656e-01) (21, 4.55337733030319213867e-01) (22, -3.35732012987136840820e-01) (23, -2.98131018877029418945e-01) (24, -3.80135655403137207031e-01) (25, -2.76343226432800292969e-01) (0, -9.55080032348632812500e+00) (1, -9.65711236000061035156e-01) (2, 3.02309215068817138672e-01) (3, -4.08294647932052612305e-01) (4, -6.35830879211425781250e-01) (5, 3.47222495079040527344e+00) (6, -7.50495052337646484375e+00) (7, -3.57407689094543457031e-01) (8, -1.40126037597656250000e+00) (9, -1.06020772457122802734e+00) (10, -6.43761157989501953125e+00) (11, -8.72610390186309814453e-01) (12, -2.52447783946990966797e-01) (13, -1.17863237857818603516e+00) (14, -8.60093891620635986328e-01) (15, -4.34303617477416992188e+00) (16, -3.39427262544631958008e-01) (17, -5.19751369953155517578e-01) (18, -7.92814671993255615234e-01) (19, -5.77008783817291259766e-01) (20, 5.14578008651733398438e+00) (21, -2.19372183084487915039e-01) (22, -2.91987508535385131836e-01) (23, -2.35530868172645568848e-01) (24, -1.66687101125717163086e-01) (25, -3.81071388721466064453e-01) (0, -7.48320341110229492188e-01) (1, -6.71284735202789306641e-01) (2, -2.33207494020462036133e-01) (3, 6.50827884674072265625e-01) (4, 3.71549040079116821289e-01) (5, -2.10370182991027832031e-01) (6, 4.13007795810699462891e-01) (7, -9.32330965995788574219e-01) (8, 3.28975349664688110352e-01) (9, 5.46880424022674560547e-01) (10, -2.27413639426231384277e-01) (11, 2.06373900175094604492e-01) (12, -2.35964283347129821777e-01) (13, -7.62266442179679870605e-02) (14, 6.18925511837005615234e-01) (15, 4.78348016738891601562e-01) (16, -5.60026764869689941406e-01) (17, -3.44884335994720458984e-01) (18, -2.26509600877761840820e-01) (19, -4.23035889863967895508e-01) (20, -2.55509883165359497070e-01) (21, -3.12153697013854980469e-01) (22, -3.71692687273025512695e-01) (23, 3.87894123792648315430e-01) (24, 4.89803135395050048828e-01) (25, -2.04421058297157287598e-01) (0, 1.50734961032867431641e+00) (1, -1.61778882145881652832e-01) (2, -4.18110676109790802002e-02) (3, -7.64730712398886680603e-03) (4, -6.41047894954681396484e-01) (5, -1.61497488617897033691e-01) (6, -9.31143283843994140625e-01) (7, 8.03074002265930175781e-01) (8, 5.01111984252929687500e-01) (9, 3.61943304538726806641e-01) (10, -6.33717834949493408203e-01) (11, -1.87566012144088745117e-01) (12, -1.42839252948760986328e+00) (13, -1.98847249150276184082e-01) (14, 2.63997800648212432861e-02) (15, 2.76864856481552124023e-01) (16, -5.32758295536041259766e-01) (17, -9.26437824964523315430e-02) (18, 1.38534653186798095703e+00) (19, -2.20930624008178710938e+00) (20, -2.23345696926116943359e-01) (21, -1.33742064237594604492e-01) (22, 9.35176908969879150391e-01) (23, -4.29934740066528320312e-01) (24, 1.94098874926567077637e-01) (25, 8.79907160997390747070e-02) (0, 1.05665004253387451172e+00) (1, -7.64420568943023681641e-01) (2, -1.24902260303497314453e+00) (3, 1.37856518849730491638e-02) (4, -3.62815350294113159180e-01) (5, 4.40285301208496093750e+00) (6, -2.83215641975402832031e-01) (7, -1.37069261074066162109e+00) (8, 9.07886400818824768066e-02) (9, 2.28064641356468200684e-01) (10, -6.54709994792938232422e-01) (11, 2.09117561578750610352e-01) (12, 1.31498014926910400391e+00) (13, 1.47793138027191162109e+00) (14, -3.92416954040527343750e-01) (15, 7.94467210769653320312e-01) (16, -1.84042617678642272949e-01) (17, 4.37256067991256713867e-01) (18, 2.96419918537139892578e-01) (19, -1.91277313232421875000e+00) (20, 4.35880601406097412109e-01) (21, -4.02806907892227172852e-01) (22, 6.81753730773925781250e+00) (23, 7.34317660331726074219e-01) (24, -8.02937924861907958984e-01) (25, 6.56495690345764160156e-01) (0, -2.06072926521301269531e-01) (1, -1.85881569981575012207e-01) (2, 1.06318247318267822266e+00) (3, 4.04682457447052001953e-01) (4, 1.07743985950946807861e-01) (5, 8.78422319889068603516e-01) (6, 5.23642189800739288330e-02) (7, 3.82631719112396240234e-01) (8, 2.75161594152450561523e-01) (9, 1.10116936266422271729e-01) (10, 1.32477426528930664062e+00) (11, 2.87588328123092651367e-01) (12, -3.66145253181457519531e-01) (13, -1.17966878414154052734e+00) (14, 4.39973020553588867188e+00) (15, 5.62788009643554687500e-01) (16, 9.13393974304199218750e-01) (17, 3.13960075378417968750e-01) (18, 8.47299098968505859375e-01) (19, 5.19770860671997070312e-01) (20, 4.87904012203216552734e-01) (21, 3.88988852500915527344e-01) (22, -2.40201666951179504395e-01) (23, -3.33814591169357299805e-01) (24, -5.29388546943664550781e-01) (25, 4.88208621740341186523e-01) (0, -2.36244291067123413086e-01) (1, -2.78447180986404418945e-01) (2, 4.42395627498626708984e-01) (3, 3.97352762520313262939e-02) (4, -2.06692412495613098145e-01) (5, -2.18435198068618774414e-01) (6, -3.38546514511108398438e-01) (7, 5.81999659538269042969e-01) (8, 2.60047465562820434570e-01) (9, -1.49710118770599365234e-01) (10, 6.41340911388397216797e-01) (11, 3.05874854326248168945e-01) (12, -2.56037056446075439453e-01) (13, 4.33562010526657104492e-01) (14, 4.05743390321731567383e-01) (15, 3.88189792633056640625e-01) (16, 4.91349637508392333984e-01) (17, -1.25080943107604980469e-01) (18, 4.15033668279647827148e-01) (19, -3.97470712661743164062e-01) (20, 4.68834012746810913086e-01) (21, 5.46563982963562011719e-01) (22, 4.63132083415985107422e-01) (23, -2.70358800888061523438e-01) (24, 4.89420950412750244141e-01) (25, 5.27725994586944580078e-01) (0, 4.93794798851013183594e-01) (1, 8.52627456188201904297e-02) (2, 1.44781127572059631348e-01) (3, 7.64561355113983154297e-01) (4, 4.74419951438903808594e-01) (5, 1.12928116321563720703e+00) (6, -8.44933807849884033203e-01) (7, 6.14423274993896484375e-01) (8, -2.67903152853250503540e-02) (9, -9.57052826881408691406e-01) (10, -6.95097804069519042969e-01) (11, 7.61026203632354736328e-01) (12, 4.18198794126510620117e-01) (13, 4.29554516449570655823e-03) (14, -1.27143406867980957031e+00) (15, 1.44288849830627441406e+00) (16, -6.75212025642395019531e-01) (17, -6.66540190577507019043e-02) (18, 4.26157474517822265625e-01) (19, 1.36554930359125137329e-02) (20, -1.03660142421722412109e+00) (21, 4.52850222587585449219e-01) (22, -6.21468544006347656250e-01) (23, 1.10114395618438720703e-01) (24, 9.43505704402923583984e-01) (25, 4.52068895101547241211e-02) (0, -6.10555469989776611328e-01) (1, -1.84516757726669311523e-01) (2, -2.17850014567375183105e-01) (3, -3.96332859992980957031e-01) (4, -2.13665008544921875000e-01) (5, -3.32134246826171875000e+00) (6, -2.01481774449348449707e-01) (7, -2.27211281657218933105e-01) (8, 2.13537424802780151367e-01) (9, -2.17493131756782531738e-01) (10, 6.00080847740173339844e-01) (11, 4.56285268068313598633e-01) (12, 6.76240801811218261719e-01) (13, -1.27639323472976684570e-01) (14, 4.09239679574966430664e-01) (15, 5.35275638103485107422e-01) (16, 4.17828947305679321289e-01) (17, 6.19241058826446533203e-01) (18, 4.16113734245300292969e-01) (19, 4.19302016496658325195e-01) (20, -9.25225019454956054688e-02) (21, -2.46437996625900268555e-01) (22, -2.04546600580215454102e-01) (23, -1.81404650211334228516e-01) (24, 2.48175635933876037598e-01) (25, -2.27992713451385498047e-01) (0, 3.28555464744567871094e-01) (1, -2.50592440366744995117e-01) (2, 1.50604888796806335449e-01) (3, -3.70335638523101806641e-01) (4, 7.17442512512207031250e-01) (5, -3.54144603013992309570e-01) (6, -9.11679029464721679688e-01) (7, -8.05979669094085693359e-01) (8, 5.09534180164337158203e-01) (9, -1.01938414573669433594e+00) (10, -3.20394545793533325195e-01) (11, -6.82501137256622314453e-01) (12, -2.86487817764282226562e-01) (13, -3.03790494799613952637e-02) (14, 8.42411279678344726562e-01) (15, -5.37256896495819091797e-01) (16, 7.20027565956115722656e-01) (17, 6.00078403949737548828e-01) (18, -1.82601004838943481445e-01) (19, -6.92608118057250976562e-01) (20, 5.71611285209655761719e-01) (21, 1.62765741348266601562e-01) (22, -1.03638327121734619141e+00) (23, 9.22685623168945312500e-01) (24, -2.47055053710937500000e-01) (25, -7.61776790022850036621e-02) (0, -2.30825871229171752930e-01) (1, 3.52996379137039184570e-01) (2, -3.98935317993164062500e-01) (3, -2.25412473082542419434e-01) (4, -2.23055616021156311035e-01) (5, 4.02271509170532226562e-01) (6, -3.76727551221847534180e-01) (7, -2.34257519245147705078e-01) (8, -2.36326247453689575195e-01) (9, -3.16035568714141845703e-01) (10, -2.72715359926223754883e-01) (11, -4.60027694702148437500e-01) (12, -2.67476141452789306641e-01) (13, -2.93745964765548706055e-01) (14, -3.32090497016906738281e-01) (15, -3.83249908685684204102e-01) (16, -3.07485967874526977539e-01) (17, 4.02757316827774047852e-01) (18, 3.64622741937637329102e-01) (19, -2.63687103986740112305e-01) (20, -1.80891603231430053711e-01) (21, -2.33311727643013000488e-01) (22, -3.77641648054122924805e-01) (23, 5.07603526115417480469e-01) (24, -2.02973932027816772461e-01) (25, -2.30607271194458007812e-01) (0, 7.82826185226440429688e-01) (1, -3.14125806093215942383e-01) (2, -1.89967676997184753418e-01) (3, -2.50344753265380859375e-01) (4, 2.80193269252777099609e-01) (5, -3.60074460506439208984e-01) (6, 4.10506725311279296875e-01) (7, -3.98089617490768432617e-01) (8, 5.91233074665069580078e-02) (9, -3.53088319301605224609e-01) (10, 8.77571165561676025391e-01) (11, -3.89956623315811157227e-01) (12, 5.83021879196166992188e-01) (13, 5.89303433895111083984e-01) (14, 2.26537361741065979004e-01) (15, 3.56587409973144531250e-01) (16, -3.99910449981689453125e-01) (17, -3.53171229362487792969e-01) (18, 4.82274174690246582031e-01) (19, -3.00486177206039428711e-01) (20, -2.31979146599769592285e-01) (21, -2.93599307537078857422e-01) (22, 5.38846850395202636719e-01) (23, 5.61061978340148925781e-01) (24, 2.87271648645401000977e-01) (25, 4.73125129938125610352e-01) (0, -1.18129742145538330078e+00) (1, 8.73744189739227294922e-01) (2, -3.30467909574508666992e-01) (3, 6.99635371565818786621e-02) (4, 2.88392081856727600098e-02) (5, -5.23897588253021240234e-01) (6, -1.04862356185913085938e+00) (7, 5.36247205734252929688e+00) (8, -8.46706479787826538086e-02) (9, 2.16000333428382873535e-01) (10, 1.38091497421264648438e+01) (11, 2.13709396362304687500e+02) (12, 2.00668787956237792969e+00) (13, -6.06355965137481689453e-01) (14, 4.07593071460723876953e-01) (15, 6.84841036796569824219e-01) (16, 1.56416523456573486328e+00) (17, 1.44601190090179443359e+00) (18, 1.36314213275909423828e+00) (19, 1.81462037563323974609e+00) (20, 7.99500763416290283203e-01) (21, -1.18029963970184326172e+00) (22, 9.29887533187866210938e-01) (23, 1.78887510299682617188e+00) (24, 1.29243671894073486328e+00) (25, 6.19259119033813476562e-01) (0, 4.60784763097763061523e-01) (1, 8.02798926830291748047e-01) (2, 2.95877635478973388672e-01) (3, 3.21073621511459350586e-01) (4, 4.45514202117919921875e-01) (5, 4.83323752880096435547e-01) (6, 5.20512700080871582031e-01) (7, 5.20834565162658691406e-01) (8, 4.10109698772430419922e-01) (9, 4.80082869529724121094e-01) (10, -3.88738840818405151367e-01) (11, -3.24173003435134887695e-01) (12, 4.93281275033950805664e-01) (13, 5.11709332466125488281e-01) (14, 3.34421098232269287109e-01) (15, -3.45560997724533081055e-01) (16, 7.63175070285797119141e-01) (17, 5.04993498325347900391e-01) (18, 4.09811824560165405273e-01) (19, 4.68661874532699584961e-01) (20, 4.97586041688919067383e-01) (21, 4.63920205831527709961e-01) (22, 5.44955551624298095703e-01) (23, 4.52262759208679199219e-01) (24, 5.14006912708282470703e-01) (25, 4.33528393507003784180e-01) (0, 5.98315656185150146484e-01) (1, 1.50000000000000000000e+03) (2, 4.88260364532470703125e+00) (3, 7.75686979293823242188e+00) (4, -1.26258015632629394531e+00) (5, -2.43666815757751464844e+00) (6, -1.21868371963500976562e+00) (7, 2.18565273284912109375e+01) (8, 4.82081174850463867188e-02) (9, -2.19263553619384765625e+00) (10, 2.84019500017166137695e-01) (11, 1.37706720829010009766e+00) (12, 5.80647528171539306641e-01) (13, 6.83910727500915527344e-01) (14, 2.69449448585510253906e+00) (15, -2.67556738853454589844e+00) (16, 9.02552187442779541016e-01) (17, 2.31099438667297363281e+00) (18, 1.75772178173065185547e+00) (19, 1.08133673667907714844e+00) (20, -1.24774348735809326172e+00) (21, 1.78743875026702880859e+00) (22, 3.05724787712097167969e+00) (23, 2.71318578720092773438e+00) (24, 2.23451423645019531250e+00) (25, 1.11471796035766601562e+00) (0, -5.44872701168060302734e-01) (1, 5.50522863864898681641e-01) (2, 3.59193146228790283203e-01) (3, -1.88721805810928344727e-01) (4, -7.93901178985834121704e-03) (5, -2.43202257156372070312e+00) (6, 2.49639600515365600586e-01) (7, -3.40061694383621215820e-01) (8, 6.76306307315826416016e-01) (9, 1.51450857520103454590e-01) (10, 4.13345068693161010742e-01) (11, 7.23070502281188964844e-02) (12, -5.10765910148620605469e-01) (13, -1.40892878174781799316e-01) (14, -2.47920960187911987305e-01) (15, 6.80507600307464599609e-01) (16, -3.29201430082321166992e-01) (17, 8.18985924124717712402e-02) (18, -1.58762827515602111816e-01) (19, -2.01038017868995666504e-01) (20, -1.95632204413414001465e-01) (21, 1.10637855529785156250e+00) (22, 4.63202416896820068359e-01) (23, 2.36938446760177612305e-01) (24, 3.13976573944091796875e+00) (25, -4.42978680133819580078e-01) (0, 1.60212957859039306641e+00) (1, -4.42552357912063598633e-01) (2, -3.24306935071945190430e-01) (3, -3.26482385396957397461e-01) (4, -4.17967528104782104492e-01) (5, -2.50717788934707641602e-01) (6, 1.59271025657653808594e+00) (7, 2.00897723436355590820e-01) (8, -1.03647887706756591797e-01) (9, -2.58145600557327270508e-01) (10, 7.80214786529541015625e-01) (11, -5.52005171775817871094e-01) (12, -3.29201757907867431641e-01) (13, 5.89464187622070312500e-01) (14, 1.28928706049919128418e-01) (15, -1.91310524940490722656e-01) (16, 2.76033461093902587891e-01) (17, -3.11525762081146240234e-01) (18, 5.05976319313049316406e-01) (19, 2.70071506500244140625e-01) (20, 6.45741164684295654297e-01) (21, 9.19134497642517089844e-01) (22, -3.10518175363540649414e-01) (23, -3.87504965066909790039e-01) (24, -1.83738410472869873047e-01) (25, -2.43686676025390625000e-01) (0, 3.65053176879882812500e-01) (1, 4.63549941778182983398e-01) (2, 4.54405725002288818359e-01) (3, -3.09661030769348144531e-01) (4, 1.07405632734298706055e-01) (5, 3.82388025522232055664e-01) (6, 4.16467607021331787109e-01) (7, 3.80223989486694335938e-01) (8, 2.93964922428131103516e-01) (9, 3.90424847602844238281e-01) (10, 4.00553494691848754883e-01) (11, 5.34062922000885009766e-01) (12, 4.02752131223678588867e-01) (13, 4.26870405673980712891e-01) (14, 4.89106237888336181641e-01) (15, 4.86115336418151855469e-01) (16, 9.86184775829315185547e-01) (17, 5.47079801559448242188e-01) (18, 8.36691558361053466797e-01) (19, 4.02189642190933227539e-01) (20, 5.75638651847839355469e-01) (21, -4.11576390266418457031e-01) (22, 4.31001663208007812500e-01) (23, 4.39773201942443847656e-01) (24, 5.24076640605926513672e-01) (25, 5.15900433063507080078e-01) (0, 2.15361952781677246094e-01) (1, -3.56380760669708251953e-01) (2, 3.19522172212600708008e-01) (3, 1.10156778246164321899e-02) (4, 5.26700019836425781250e-01) (5, 2.85121530294418334961e-01) (6, -3.70619624853134155273e-01) (7, -3.03864061832427978516e-01) (8, -5.30449211597442626953e-01) (9, 5.30892550945281982422e-01) (10, 6.25797331333160400391e-01) (11, 7.94062137603759765625e-01) (12, 3.59859764575958251953e-01) (13, 1.03108954429626464844e+00) (14, 2.18400627374649047852e-01) (15, 5.22535979747772216797e-01) (16, -3.77516776323318481445e-01) (17, 4.01313573122024536133e-01) (18, 6.04371428489685058594e-02) (19, 1.27757334709167480469e+00) (20, 2.55467772483825683594e-01) (21, -3.57500910758972167969e-01) (22, 5.09557425975799560547e-01) (23, -3.24832469224929809570e-01) (24, -3.09405207633972167969e-01) (25, 5.03432452678680419922e-01) (0, 6.13899707794189453125e-01) (1, -3.34723055362701416016e-01) (2, 2.01298311352729797363e-01) (3, 4.01410311460494995117e-01) (4, -3.69899749755859375000e-01) (5, -3.60807478427886962891e-01) (6, 1.94835454225540161133e-01) (7, -1.79973638057708740234e+00) (8, 2.56222963333129882812e-01) (9, 1.31006491184234619141e+00) (10, 1.05395364761352539062e+00) (11, 5.25158345699310302734e-01) (12, -3.82398366928100585938e-02) (13, 7.76138186454772949219e-01) (14, 8.85413765907287597656e-01) (15, -4.14026498794555664062e-01) (16, -1.36638268828392028809e-01) (17, 8.62610042095184326172e-01) (18, 1.48660577833652496338e-02) (19, -1.39670491218566894531e-01) (20, -8.15566122531890869141e-01) (21, 5.29073655605316162109e-01) (22, -6.16723224520683288574e-02) (23, 3.91026943922042846680e-01) (24, -6.68878078460693359375e-01) (25, -1.94699451327323913574e-01) (0, -6.98583304882049560547e-01) (1, -1.06335985660552978516e+00) (2, -2.60977596044540405273e-01) (3, -2.62134337425231933594e+00) (4, 1.23041605949401855469e+00) (5, 2.42023810744285583496e-01) (6, -9.24129784107208251953e-01) (7, -2.97231584787368774414e-01) (8, 7.38316833972930908203e-01) (9, 7.43513286113739013672e-01) (10, 3.02372593432664871216e-02) (11, -1.76807999610900878906e-01) (12, -1.22494496405124664307e-01) (13, -1.82823762297630310059e-01) (14, -1.62490710616111755371e-01) (15, -2.10346102714538574219e-01) (16, -3.76424081623554229736e-02) (17, -4.45895373821258544922e-01) (18, -5.79298079013824462891e-01) (19, 1.32762223482131958008e-01) (20, -2.92966783046722412109e-01) (21, -2.68309384584426879883e-01) (22, 5.71208178997039794922e-01) (23, -2.51721501350402832031e-01) (24, 4.88484978675842285156e-01) (25, -2.79510557651519775391e-01) (0, -3.10486793518066406250e-01) (1, 6.74971818923950195312e-01) (2, 1.34236967563629150391e+00) (3, 3.03042054176330566406e-01) (4, 6.97164356708526611328e-01) (5, 4.08892899751663208008e-01) (6, -3.61032098531723022461e-01) (7, 7.25656747817993164062e-01) (8, -6.75951614975929260254e-02) (9, 2.69094765186309814453e-01) (10, -1.35190165042877197266e+00) (11, -3.95717084407806396484e-01) (12, -1.02517135441303253174e-01) (13, -6.50713294744491577148e-02) (14, 6.45372450351715087891e-01) (15, 2.12021708488464355469e-01) (16, 4.47557494044303894043e-02) (17, -4.45217072963714599609e-01) (18, -2.84225847572088241577e-02) (19, 9.07474756240844726562e-02) (20, -4.40960735082626342773e-01) (21, 3.60949516296386718750e-01) (22, 5.54623544216156005859e-01) (23, 1.00864374637603759766e+00) (24, -3.04195284843444824219e+00) (25, -2.80448645353317260742e-01) (0, -8.93298566341400146484e-01) (1, 6.39319643378257751465e-02) (2, -9.61463674902915954590e-02) (3, 6.65908336639404296875e-01) (4, -4.43794757127761840820e-01) (5, 5.50537109375000000000e-01) (6, -8.04634809494018554688e-01) (7, 1.27041980624198913574e-01) (8, -1.62740647792816162109e-01) (9, -3.53948414325714111328e-01) (10, 4.02628051757812500000e+02) (11, -4.47152793407440185547e-01) (12, -1.47471174597740173340e-01) (13, 5.18507719039916992188e-01) (14, 6.93909376859664916992e-02) (15, -1.41151869297027587891e+00) (16, -5.08678197860717773438e-01) (17, -6.80628418922424316406e-01) (18, 5.59325478971004486084e-02) (19, -1.93855047225952148438e+00) (20, -6.14707991480827331543e-02) (21, -2.14372217655181884766e-01) (22, 1.56537629663944244385e-02) (23, 1.07431329786777496338e-01) (24, -3.88786584138870239258e-01) (25, -1.64230331778526306152e-01) (0, -1.78497150540351867676e-01) (1, -1.74737334251403808594e-01) (2, -1.25001358985900878906e+00) (3, 4.08614486455917358398e-01) (4, -3.38628679513931274414e-01) (5, 1.54231220483779907227e-01) (6, -4.94967699050903320312e-01) (7, 6.34768903255462646484e-01) (8, -5.93976378440856933594e-01) (9, -5.34864962100982666016e-01) (10, 1.17857463657855987549e-01) (11, 1.80731192231178283691e-01) (12, -2.08204865455627441406e-01) (13, 3.89163158833980560303e-02) (14, 1.66519626975059509277e-01) (15, 2.98555564880371093750e+00) (16, 2.45555305480957031250e+00) (17, 4.89081025123596191406e-01) (18, -8.11785221099853515625e-01) (19, 9.82729122042655944824e-02) (20, 1.88450491428375244141e+00) (21, 1.82291364669799804688e+00) (22, 5.04529893398284912109e-01) (23, -2.94362843036651611328e-01) (24, -4.03621166944503784180e-01) (25, -1.90226554870605468750e-01) (0, -6.55981361865997314453e-01) (1, 9.21932101249694824219e-01) (2, -3.80044758319854736328e-01) (3, 4.39368009567260742188e-01) (4, 1.48879066109657287598e-01) (5, 9.35649216175079345703e-01) (6, 4.74200665950775146484e-01) (7, 7.07047164440155029297e-01) (8, 3.74985873699188232422e-01) (9, 4.56547707319259643555e-01) (10, 4.42819595336914062500e-01) (11, 4.99368399381637573242e-01) (12, 5.09036839008331298828e-01) (13, 3.87626886367797851562e-01) (14, 4.29614752531051635742e-01) (15, 4.37243372201919555664e-01) (16, 1.25774967670440673828e+00) (17, 2.74448704719543457031e+00) (18, 1.92326498031616210938e+00) (19, 4.32632982730865478516e-01) (20, 7.62243032455444335938e-01) (21, -3.99225920438766479492e-01) (22, 4.96969074010848999023e-01) (23, 4.43088799715042114258e-01) (24, 4.35849875211715698242e-01) (25, 5.31910717487335205078e-01) (0, 1.43959745764732360840e-01) (1, 6.80411994457244873047e-01) (2, 2.93080171104520559311e-04) (3, 7.92838573455810546875e-01) (4, 3.09704065322875976562e-01) (5, -4.35544133186340332031e-01) (6, 6.87482813373208045959e-03) (7, -2.24111638963222503662e-02) (8, -8.85772034525871276855e-02) (9, -4.85091358423233032227e-01) (10, -4.28646773099899291992e-01) (11, 2.19568476080894470215e-01) (12, -1.94401800632476806641e-01) (13, 7.47686326503753662109e-02) (14, -1.93975232541561126709e-02) (15, -1.23391532897949218750e+00) (16, -6.62222921848297119141e-01) (17, 9.23811197280883789062e-01) (18, 1.75372276306152343750e+01) (19, 6.57182312011718750000e+02) (20, -1.22123527526855468750e+00) (21, -7.70980656147003173828e-01) (22, 7.98677742481231689453e-01) (23, 1.10166716575622558594e+00) (24, 1.43768799304962158203e+00) (25, -5.39466030895709991455e-02) (0, -8.11389625072479248047e-01) (1, -2.66178131103515625000e+00) (2, -1.50000000000000000000e+03) (3, -1.73143732547760009766e+00) (4, -1.31808793544769287109e+00) (5, 1.37392950057983398438e+00) (6, -1.23028898239135742188e+00) (7, -3.17443823814392089844e+00) (8, -2.97887945175170898438e+00) (9, 3.54596447944641113281e+00) (10, -1.51844203472137451172e+00) (11, 3.23582828044891357422e-01) (12, -6.82620167732238769531e-01) (13, -1.24829363822937011719e+00) (14, -1.50000000000000000000e+03) (15, -1.18616056442260742188e+00) (16, -3.96862000226974487305e-01) (17, -5.33797800540924072266e-01) (18, 1.25544977188110351562e+00) (19, -9.84569013118743896484e-01) (20, 6.96818590164184570312e-01) (21, 2.99790829420089721680e-01) (22, -8.24843719601631164551e-02) (23, -1.41840016841888427734e+00) (24, 2.20414400100708007812e+00) (25, -1.79239392280578613281e-01) (0, -5.56289553642272949219e-02) (1, 1.08731603622436523438e+00) (2, 2.27574944496154785156e+00) (3, 3.13993740081787109375e+00) (4, 2.84572410583496093750e+00) (5, -1.95928156375885009766e-01) (6, -2.78414394706487655640e-02) (7, -4.50856745243072509766e-01) (8, 2.77144837379455566406e+00) (9, 2.75837779045104980469e+00) (10, 4.12391811609268188477e-01) (11, -4.83347088098526000977e-01) (12, -2.01299929618835449219e+00) (13, 1.13726568222045898438e+00) (14, -4.10938560962677001953e-01) (15, -1.88943243026733398438e+00) (16, -2.22786808013916015625e+00) (17, 4.65546876192092895508e-01) (18, -3.53902578353881835938e-01) (19, -8.55634272098541259766e-01) (20, -6.88957571983337402344e-01) (21, -6.62137925624847412109e-01) (22, -4.86713498830795288086e-01) (23, -3.86215388774871826172e-01) (24, 7.36534500122070312500e+00) (25, -2.13896274566650390625e-01) (0, -7.04297780990600585938e-01) (1, 5.55241525173187255859e-01) (2, -1.85749214142560958862e-02) (3, -9.86345410346984863281e-01) (4, -3.77107232809066772461e-01) (5, 6.31703212857246398926e-02) (6, 1.99970161914825439453e+00) (7, -6.77962124347686767578e-01) (8, 1.54074752330780029297e+00) (9, 7.48190805315971374512e-02) (10, 5.36462585449218750000e+02) (11, 6.77973091602325439453e-01) (12, -5.01268133521080017090e-02) (13, -7.82461285591125488281e-01) (14, 1.50000000000000000000e+03) (15, 1.10491776466369628906e+00) (16, 4.72497129440307617188e+00) (17, 1.40283393859863281250e+00) (18, 9.68643188476562500000e-01) (19, 8.15418437123298645020e-02) (20, 9.10333216190338134766e-01) (21, 4.71101140975952148438e+00) (22, 2.41093158721923828125e+00) (23, 1.66767954826354980469e+00) (24, -3.18922907114028930664e-01) (25, 6.50066733360290527344e-01) (26, 4.23386186361312866211e-01) (27, -2.81141638755798339844e-01) (28, 1.01057156920433044434e-01) (29, 3.46906960010528564453e-01) (30, 3.21020334959030151367e-01) (31, 2.51561075448989868164e-01) (32, -9.98154357075691223145e-02) (33, 1.12452454864978790283e-01) (34, 1.94333106279373168945e-01) (35, -1.97749719023704528809e-01) (36, 5.72531484067440032959e-02) (37, 6.51473924517631530762e-02) (38, 3.34444999694824218750e-01) (39, -1.00263193249702453613e-01) (40, -1.07830949127674102783e-01) (41, -1.27405077219009399414e-02) (42, 1.24065950512886047363e-01) (43, -4.10579949617385864258e-01) (44, 3.92781287431716918945e-01) (45, 4.94830816984176635742e-01) (46, 1.07651090621948242188e+00) (47, 4.06381398439407348633e-01) (48, 3.75080823898315429688e-01) (49, 2.79748756438493728638e-02) (50, -2.49317660927772521973e-02) (51, -2.33110394328832626343e-02) (52, 3.97304594516754150391e-01) (53, 5.28401553630828857422e-01) (54, 2.87476498633623123169e-02) (55, 3.78550998866558074951e-02) (56, -1.27456113696098327637e-01) (57, -1.86356395483016967773e-01) (58, 1.14954555034637451172e+00) (59, 2.81361877918243408203e-01) (60, -7.36460462212562561035e-02) (61, 3.86778354644775390625e-01) (62, -1.68194964528083801270e-01) (63, -7.66223371028900146484e-02) (64, 1.04372687637805938721e-01) (65, 1.53107494115829467773e-01) (66, 1.36881366372108459473e-01) (67, 2.90021866559982299805e-01) (68, 4.46872934699058532715e-02) (69, 3.93800996243953704834e-02) (70, 2.17194885015487670898e-01) (71, 5.65229840576648712158e-02) (72, 3.44062566757202148438e-01) (73, 2.94289916753768920898e-01) (74, 3.05798858404159545898e-01) (75, -1.75490036606788635254e-01) (76, 2.93329685926437377930e-01) (77, 3.93803596496582031250e-01) (78, 4.39359188079833984375e-01) (79, -3.17607331089675426483e-03) (80, 3.07046145200729370117e-01) (81, -3.93077693879604339600e-02) (82, -2.49683156609535217285e-01) (83, 8.71923565864562988281e-01) (84, 3.66775453090667724609e-01) (85, 4.39695894718170166016e-01) (86, 5.73269724845886230469e-01) (87, -1.54077947139739990234e-01) (88, 1.78275227546691894531e-01) (89, -6.92541226744651794434e-02) (90, 1.79127622395753860474e-02) (91, -4.62030053138732910156e-01) (92, -1.34164653718471527100e-02) (93, 7.65068903565406799316e-02) (94, -1.55656516551971435547e-01) (95, -9.57576259970664978027e-02) (96, 4.24295932054519653320e-01) (26, 4.11611795425415039062e-01) (27, 9.51377749443054199219e-02) (28, 4.86244767904281616211e-01) (29, 6.12102329730987548828e-01) (30, 4.48134541511535644531e-03) (31, -2.99279272556304931641e-01) (32, 9.66186597943305969238e-02) (33, -1.18177406489849090576e-01) (34, 8.88336420059204101562e-01) (35, 5.13634264469146728516e-01) (36, -1.83209314942359924316e-01) (37, 1.57579984515905380249e-02) (38, 3.66067558526992797852e-01) (39, -1.82722166180610656738e-01) (40, -1.87471941113471984863e-01) (41, -3.64793427288532257080e-02) (42, -2.94462125748395919800e-02) (43, 1.41949996352195739746e-01) (44, 5.68394102156162261963e-02) (45, 2.64514029026031494141e-01) (46, 6.79152131080627441406e-01) (47, 2.21838101744651794434e-01) (48, -2.67973512411117553711e-01) (49, 2.52874314785003662109e-01) (50, -3.24927680194377899170e-02) (51, -3.09299170970916748047e-01) (52, -2.84986346960067749023e-01) (53, 5.61960101127624511719e-01) (54, 6.13199174404144287109e-01) (55, 1.39780968427658081055e-01) (56, 2.42465868592262268066e-01) (57, -2.51647233963012695312e-01) (58, 1.05235195159912109375e+00) (59, -1.13843239843845367432e-01) (60, 3.53227734565734863281e-01) (61, -9.17478501796722412109e-01) (62, -1.77315399050712585449e-01) (63, -2.15911135077476501465e-01) (64, 8.21644961833953857422e-01) (65, 4.71183329820632934570e-01) (66, 2.31397092342376708984e-01) (67, 5.32966375350952148438e-01) (68, 2.33640477061271667480e-01) (69, -3.01651090383529663086e-01) (70, 1.55144795775413513184e-01) (71, -2.32626095414161682129e-01) (72, 2.81038805842399597168e-02) (73, 3.50219339132308959961e-01) (74, -1.59517586231231689453e-01) (75, 5.69485664367675781250e-01) (76, 4.63423967361450195312e-01) (77, 7.78814613819122314453e-01) (78, 4.06504541635513305664e-01) (79, -2.84285068511962890625e-01) (80, 5.32006263732910156250e-01) (81, -2.34159424901008605957e-01) (82, 4.00107085704803466797e-01) (83, -3.56755733489990234375e-01) (84, 5.14900386333465576172e-01) (85, 4.35626864433288574219e-01) (86, -1.53049185872077941895e-01) (87, 8.39308500289916992188e-02) (88, 4.06343787908554077148e-01) (89, 4.77874875068664550781e-02) (90, -1.71405330300331115723e-01) (91, 5.54191529750823974609e-01) (92, 9.82820242643356323242e-02) (93, -1.37308359146118164062e-01) (94, 2.10474148392677307129e-01) (95, -1.93995550274848937988e-01) (96, 4.40261691808700561523e-01) (26, 3.61688137054443359375e-01) (27, 3.44964474439620971680e-01) (28, 2.58818138390779495239e-02) (29, 2.72253692150115966797e-01) (30, 3.44773381948471069336e-01) (31, -2.53690391778945922852e-01) (32, 1.05529107153415679932e-01) (33, 2.25784983485937118530e-02) (34, 9.04088854789733886719e-01) (35, 4.47262734174728393555e-01) (36, 4.34069782495498657227e-01) (37, -2.57376044988632202148e-01) (38, 1.06315225362777709961e-01) (39, -2.00280919671058654785e-01) (40, -2.69729226827621459961e-01) (41, 2.88114286959171295166e-02) (42, -1.40911877155303955078e-01) (43, 1.09866313636302947998e-01) (44, 3.60270708799362182617e-01) (45, 4.20591503381729125977e-01) (46, 7.33457446098327636719e-01) (47, -2.43677511811256408691e-01) (48, 7.51048028469085693359e-01) (49, 2.57031828165054321289e-01) (50, 3.85907217860221862793e-02) (51, -8.08355137705802917480e-02) (52, 4.83036518096923828125e-01) (53, 5.47684252262115478516e-01) (54, 3.88682365417480468750e-01) (55, -1.90322753041982650757e-02) (56, 1.68758139014244079590e-01) (57, -9.08469632267951965332e-02) (58, 4.79529976844787597656e-01) (59, -2.10829541087150573730e-01) (60, 4.68360692262649536133e-01) (61, -1.57234334945678710938e+00) (62, -9.05148208141326904297e-01) (63, 3.41453142464160919189e-02) (64, 5.00286638736724853516e-01) (65, -3.26532781124114990234e-01) (66, -1.08186958823353052139e-03) (67, 5.16603946685791015625e-01) (68, 8.49654302000999450684e-02) (69, -4.23133939504623413086e-01) (70, 1.28224030137062072754e-01) (71, -9.81269851326942443848e-02) (72, 4.93140578269958496094e-01) (73, 4.28271532058715820312e-01) (74, -2.79034171253442764282e-02) (75, -1.14778339862823486328e-01) (76, 8.90101552009582519531e-01) (77, 4.90040868520736694336e-01) (78, 3.64412605762481689453e-01) (79, -1.66657909750938415527e-01) (80, -9.46404635906219482422e-02) (81, -6.40190765261650085449e-02) (82, 1.99895739555358886719e-01) (83, 5.23573517799377441406e-01) (84, 4.71840471029281616211e-01) (85, 5.07464289665222167969e-01) (86, 1.36898443102836608887e-01) (87, 3.92836928367614746094e-01) (88, 6.50399267673492431641e-01) (89, -3.10867369174957275391e-01) (90, -2.22088679671287536621e-01) (91, 2.46784001588821411133e-01) (92, 1.37811144813895225525e-02) (93, -3.82348090410232543945e-01) (94, 3.40834289789199829102e-01) (95, -1.07452809810638427734e-01) (96, 3.04947584867477416992e-01) (26, 2.50737905502319335938e-01) (27, 1.52303683757781982422e+00) (28, 1.26255124807357788086e-01) (29, 3.58220160007476806641e-01) (30, 4.38804596662521362305e-01) (31, -3.92554283142089843750e-01) (32, 3.78817290067672729492e-01) (33, -1.01825892925262451172e-01) (34, 7.05808699131011962891e-01) (35, 4.00409609079360961914e-01) (36, 7.92157799005508422852e-02) (37, 1.63621276617050170898e-01) (38, 5.16748130321502685547e-01) (39, -1.73403754830360412598e-01) (40, -1.97715729475021362305e-01) (41, -1.21255040168762207031e-01) (42, -3.36638726294040679932e-02) (43, -2.25179642438888549805e-02) (44, 1.05310881137847900391e+00) (45, 5.50451219081878662109e-01) (46, 6.12451732158660888672e-01) (47, -8.14140811562538146973e-02) (48, 4.25488799810409545898e-01) (49, 2.23633542656898498535e-01) (50, 2.98444069921970367432e-02) (51, -2.79481172561645507812e-01) (52, 5.34593641757965087891e-01) (53, 7.43697643280029296875e-01) (54, 3.17476540803909301758e-01) (55, 1.52051460463553667068e-03) (56, 1.65118798613548278809e-02) (57, -2.32140958309173583984e-01) (58, 2.94241714477539062500e+00) (59, 2.51998633146286010742e-01) (60, 5.08415997028350830078e-01) (61, -2.34340476989746093750e+00) (62, -3.31596463918685913086e-01) (63, -4.60071638226509094238e-02) (64, 6.47469639778137207031e-01) (65, 1.71380758285522460938e-01) (66, -4.75662164390087127686e-02) (67, 5.59175133705139160156e-01) (68, 3.65884788334369659424e-02) (69, 7.59882807731628417969e-01) (70, 1.64834961295127868652e-01) (71, -2.27740198373794555664e-01) (72, 5.02098917961120605469e-01) (73, 4.46600973606109619141e-01) (74, 6.28073990345001220703e-01) (75, -4.53436195850372314453e-01) (76, 9.83865618705749511719e-01) (77, 8.76628100872039794922e-01) (78, 3.88606995344161987305e-01) (79, -1.67413353919982910156e-01) (80, 5.31499266624450683594e-01) (81, -3.04336696863174438477e-02) (82, -1.15424789488315582275e-01) (83, 1.03343176841735839844e+00) (84, 3.71237814426422119141e-01) (85, 5.52025973796844482422e-01) (86, 2.55186885595321655273e-01) (87, 1.95877492427825927734e-01) (88, 1.66502758860588073730e-01) (89, -1.89615525305271148682e-02) (90, 1.82793706655502319336e-01) (91, 4.35337215662002563477e-01) (92, -2.97322012484073638916e-02) (93, -2.34645277261734008789e-01) (94, 2.15098381042480468750e-01) (95, -3.44322949647903442383e-01) (96, 4.12106573581695556641e-01) (26, -1.26138985157012939453e-01) (27, -4.28689606487751007080e-02) (28, -8.06507989764213562012e-02) (29, 4.41033899784088134766e-01) (30, 5.32310724258422851562e-01) (31, -3.47382903099060058594e-01) (32, 3.66997867822647094727e-02) (33, -2.01328605413436889648e-01) (34, -4.96285974979400634766e-01) (35, 6.07477962970733642578e-01) (36, 2.78302729129791259766e-01) (37, -1.56426295638084411621e-01) (38, 3.87679070234298706055e-01) (39, -1.12679392099380493164e-01) (40, -2.18081012368202209473e-01) (41, 1.20231874287128448486e-01) (42, -3.78722846508026123047e-02) (43, 3.47459107637405395508e-01) (44, 4.66126978397369384766e-01) (45, 5.19391477108001708984e-01) (46, 4.78269577026367187500e-01) (47, -2.18696266412734985352e-01) (48, -2.41096332669258117676e-01) (49, 2.91155755519866943359e-01) (50, 3.27399489469826221466e-03) (51, -2.31867566704750061035e-01) (52, 1.42747497558593750000e+00) (53, 6.95561826229095458984e-01) (54, 3.98215234279632568359e-01) (55, 1.50682494044303894043e-01) (56, 1.75976499915122985840e-01) (57, -1.16740271449089050293e-01) (58, 1.40320527553558349609e+00) (59, -4.02309596538543701172e-01) (60, -2.24454954266548156738e-01) (61, 1.57282412052154541016e-01) (62, 4.16309982538223266602e-01) (63, -9.69363451004028320312e-02) (64, 4.42560404539108276367e-01) (65, 8.27438682317733764648e-02) (66, 2.14188560843467712402e-01) (67, 6.23413264751434326172e-01) (68, 2.67071217298507690430e-01) (69, 4.62788045406341552734e-01) (70, 9.78355780243873596191e-02) (71, -2.39500656723976135254e-01) (72, -3.82256843149662017822e-02) (73, 4.41459327936172485352e-01) (74, 1.29437685012817382812e-01) (75, 5.74719250202178955078e-01) (76, 6.49838745594024658203e-01) (77, 6.15145385265350341797e-01) (78, 3.98523092269897460938e-01) (79, -2.37158149480819702148e-01) (80, 5.03798902034759521484e-01) (81, -2.88349807262420654297e-01) (82, 8.12726616859436035156e-02) (83, 5.37311434745788574219e-01) (84, 5.56041657924652099609e-01) (85, 5.13016223907470703125e-01) (86, -6.15588068962097167969e-01) (87, 6.13691151142120361328e-01) (88, 4.56131607294082641602e-01) (89, -2.42802053689956665039e-01) (90, 8.76217931509017944336e-02) (91, 4.61682051420211791992e-01) (92, 8.07736534625291824341e-03) (93, -6.07965327799320220947e-02) (94, 2.14350938796997070312e-01) (95, -2.92849481105804443359e-01) (96, 3.99183660745620727539e-01) (26, -1.19177676737308502197e-01) (27, -2.03055128455162048340e-01) (28, -4.21763136982917785645e-02) (29, -1.82045131921768188477e-01) (30, -7.95996248722076416016e-01) (31, 3.79608899354934692383e-01) (32, -9.96534824371337890625e-02) (33, -2.01202571392059326172e-01) (34, 7.44555115699768066406e-01) (35, -1.80892720818519592285e-01) (36, 7.77333796024322509766e-01) (37, 2.63345658779144287109e-01) (38, 3.72417896986007690430e-01) (39, 1.81901022791862487793e-01) (40, -1.90366968512535095215e-01) (41, 6.48680552840232849121e-02) (42, -2.06212438642978668213e-02) (43, -2.19187185168266296387e-01) (44, 6.01163506507873535156e-01) (45, 3.60316157341003417969e-01) (46, 7.16270625591278076172e-01) (47, 6.05783045291900634766e-01) (48, 1.98437467217445373535e-01) (49, 2.13051699101924896240e-02) (50, 8.48847925662994384766e-02) (51, -1.58961355686187744141e-01) (52, 5.72669915854930877686e-02) (53, 6.52091443538665771484e-01) (54, 1.72895640134811401367e-01) (55, 8.61827433109283447266e-02) (56, 4.64835017919540405273e-01) (57, 5.63245773315429687500e-01) (58, 2.29779690504074096680e-01) (59, 2.53014773130416870117e-01) (60, 3.92108112573623657227e-01) (61, 9.41681116819381713867e-02) (62, 2.26638004183769226074e-01) (63, -1.78051918745040893555e-01) (64, -2.01914440840482711792e-02) (65, 2.49464437365531921387e-02) (66, -1.30624067969620227814e-03) (67, 9.47591006755828857422e-01) (68, -2.93584436178207397461e-01) (69, -1.01082645356655120850e-01) (70, -1.50209248065948486328e-01) (71, -8.51810351014137268066e-02) (72, 3.88490438461303710938e-01) (73, 3.76137465238571166992e-01) (74, 1.78650289773941040039e-01) (75, -6.74323439598083496094e-01) (76, 1.12825036048889160156e-01) (77, 7.26262509822845458984e-01) (78, 3.41912925243377685547e-01) (79, -6.36451691389083862305e-02) (80, 5.03538370132446289062e-01) (81, 2.29652300477027893066e-02) (82, -5.09436666965484619141e-01) (83, 7.20917701721191406250e-01) (84, 4.45250332355499267578e-01) (85, -2.30586379766464233398e-01) (86, -3.04756313562393188477e-01) (87, 5.73287844657897949219e-01) (88, 5.07113814353942871094e-01) (89, -3.21379527449607849121e-02) (90, -2.42050036787986755371e-01) (91, 4.09231960773468017578e-01) (92, -5.79177923500537872314e-02) (93, 1.28482118248939514160e-01) (94, -4.08007055521011352539e-02) (95, -3.03141921758651733398e-01) (96, 4.19026583433151245117e-01) (26, 5.66094279289245605469e-01) (27, -1.19899183511734008789e-01) (28, -2.06933002918958663940e-02) (29, 7.52412796020507812500e-01) (30, 6.25476717948913574219e-01) (31, 3.56119602918624877930e-01) (32, -3.01883339881896972656e-01) (33, -5.44609010219573974609e-01) (34, 4.68011528253555297852e-01) (35, 5.49782335758209228516e-01) (36, -1.17288529872894287109e+00) (37, 4.07784074544906616211e-01) (38, 3.74728947877883911133e-01) (39, -1.86247885227203369141e-01) (40, 4.89530228078365325928e-02) (41, -1.22667655348777770996e-01) (42, -7.98111140727996826172e-01) (43, -3.90456110239028930664e-01) (44, 7.71399199962615966797e-01) (45, 4.02919501066207885742e-01) (46, 6.06088638305664062500e-01) (47, 2.27667406201362609863e-01) (48, 6.41702771186828613281e-01) (49, -2.11477771401405334473e-01) (50, -2.20932692289352416992e-01) (51, -2.44490042328834533691e-01) (52, 2.75907218456268310547e-01) (53, 6.23902499675750732422e-01) (54, -1.31803345680236816406e+00) (55, 4.55424606800079345703e-01) (56, 2.60581314563751220703e-01) (57, -1.11633434891700744629e-01) (58, 8.61218273639678955078e-01) (59, -3.52498725987970829010e-03) (60, 4.97289419174194335938e-01) (61, 1.52250766754150390625e+00) (62, 5.05897998809814453125e-01) (63, 1.50400519371032714844e-01) (64, 6.69156014919281005859e-01) (65, -9.27915871143341064453e-01) (66, -8.76936167478561401367e-02) (67, 1.00234568119049072266e+00) (68, 8.72478485107421875000e-01) (69, 2.10457825660705566406e+00) (70, -6.73923671245574951172e-01) (71, -3.51386576890945434570e-01) (72, 1.84444054961204528809e-01) (73, 3.87652933597564697266e-01) (74, -4.34361547231674194336e-02) (75, -1.14083433151245117188e+00) (76, -8.78132522106170654297e-01) (77, 6.39383077621459960938e-01) (78, 4.78158831596374511719e-01) (79, -2.65410959720611572266e-01) (80, 5.54715156555175781250e-01) (81, 5.01699820160865783691e-02) (82, 1.32605016231536865234e+00) (83, 1.05161392688751220703e+00) (84, 4.06782001256942749023e-01) (85, 3.36082696914672851562e-01) (86, 2.26480317115783691406e+00) (87, -3.32535415887832641602e-01) (88, -1.81868392974138259888e-03) (89, -2.20407471060752868652e-01) (90, -6.17693424224853515625e-01) (91, 4.15055304765701293945e-01) (92, 3.12730967998504638672e-01) (93, -3.22701334953308105469e-01) (94, -1.13141231238842010498e-01) (95, -2.57201820611953735352e-01) (96, 4.60660755634307861328e-01) (26, 6.69959008693695068359e-01) (27, -2.37524509429931640625e+00) (28, -3.12949389219284057617e-01) (29, -1.60551226139068603516e+00) (30, 3.93143415451049804688e-01) (31, 6.13156139850616455078e-01) (32, 7.53331065177917480469e-01) (33, 2.66321096569299697876e-02) (34, 1.06008338928222656250e+00) (35, 3.40772211551666259766e-01) (36, 1.17798335850238800049e-01) (37, -5.72964847087860107422e-01) (38, 5.33348262310028076172e-01) (39, -3.76596719026565551758e-01) (40, -4.15724217891693115234e-01) (41, 2.86599963903427124023e-01) (42, 4.76236104965209960938e-01) (43, 7.16617226600646972656e-01) (44, 5.88455975055694580078e-01) (45, 5.01049816608428955078e-01) (46, 6.03587269783020019531e-01) (47, 2.62923687696456909180e-02) (48, 5.00166237354278564453e-01) (49, 1.79168775677680969238e-01) (50, -2.07920111715793609619e-02) (51, -2.46975630521774291992e-01) (52, -4.53067094087600708008e-01) (53, 6.18552803993225097656e-01) (54, 4.96675550937652587891e-01) (55, -3.71865928173065185547e-01) (56, -2.57793009281158447266e-01) (57, -2.19587400555610656738e-01) (58, 3.08023244142532348633e-01) (59, -6.56904041767120361328e-01) (60, 4.63185280561447143555e-01) (61, 7.91012421250343322754e-02) (62, 3.89264672994613647461e-01) (63, -2.57603287696838378906e-01) (64, 7.02732503414154052734e-01) (65, 1.77454638481140136719e+00) (66, -2.04167023301124572754e-01) (67, 6.62558913230895996094e-01) (68, 1.58248022198677062988e-02) (69, 2.48309805989265441895e-01) (70, 7.19005703926086425781e-01) (71, 1.32142722606658935547e-01) (72, 4.90333288908004760742e-01) (73, 5.72336435317993164062e-01) (74, -6.43366754055023193359e-01) (75, 9.75844979286193847656e-01) (76, -9.74549174308776855469e-01) (77, 8.06615293025970458984e-01) (78, 3.94442617893218994141e-01) (79, 3.08084692806005477905e-02) (80, 4.20022100210189819336e-01) (81, -3.02646070718765258789e-01) (82, 4.24346506595611572266e-01) (83, 2.67207950353622436523e-01) (84, 4.25396889448165893555e-01) (85, 3.50362926721572875977e-01) (86, -1.40120089054107666016e+00) (87, -1.32565057277679443359e+00) (88, 1.02930736541748046875e+00) (89, 1.30999134853482246399e-02) (90, 2.36133426427841186523e-01) (91, 4.66751426458358764648e-01) (92, 1.13226242363452911377e-01) (93, -3.95058654248714447021e-02) (94, 1.65201365947723388672e-01) (95, -1.45943522453308105469e-01) (96, 3.68461012840270996094e-01) (26, 4.03354763984680175781e-01) (27, 1.44016075134277343750e+00) (28, -3.30278463661670684814e-02) (29, 5.87300777435302734375e-01) (30, 5.11808872222900390625e-01) (31, 5.77842473983764648438e-01) (32, -4.18397277593612670898e-01) (33, -1.71810388565063476562e-01) (34, 1.41968309879302978516e+00) (35, 4.23875868320465087891e-01) (36, 1.20885342359542846680e-01) (37, 3.59515875577926635742e-01) (38, 4.43398267030715942383e-01) (39, 4.18877482414245605469e-01) (40, -1.24754451215267181396e-01) (41, -4.23837423324584960938e-01) (42, 3.62718433141708374023e-01) (43, 3.89535099267959594727e-01) (44, 7.22097277641296386719e-01) (45, 4.70998674631118774414e-01) (46, 5.82023859024047851562e-01) (47, -1.10199177265167236328e+00) (48, -1.24647378921508789062e+00) (49, 8.52363854646682739258e-02) (50, -3.53959053754806518555e-01) (51, -2.20457881689071655273e-01) (52, 4.19011980295181274414e-01) (53, 5.94906985759735107422e-01) (54, 8.64288032054901123047e-01) (55, 3.08099746704101562500e-01) (56, -1.05145305395126342773e-01) (57, -3.03515017032623291016e-01) (58, 5.44882833957672119141e-01) (59, 2.56770896911621093750e+00) (60, 4.55759048461914062500e-01) (61, 1.83634293079376220703e+00) (62, 1.53888249397277832031e+00) (63, -3.22971761226654052734e-01) (64, 5.92097282409667968750e-01) (65, -1.31320142745971679688e+00) (66, 5.33040225505828857422e-01) (67, 9.35225188732147216797e-01) (68, 4.90383177995681762695e-01) (69, 7.98498690128326416016e-01) (70, -6.85647964477539062500e-01) (71, -3.09601932764053344727e-01) (72, 4.86272215843200683594e-01) (73, 4.51634377241134643555e-01) (74, 4.95594710111618041992e-01) (75, 1.55215620994567871094e+00) (76, 1.00603568553924560547e+00) (77, 5.55016994476318359375e-01) (78, 4.63839441537857055664e-01) (79, -2.36762717366218566895e-01) (80, 5.22554159164428710938e-01) (81, -8.96720111370086669922e-01) (82, -2.99839287996292114258e-01) (83, 6.19465291500091552734e-01) (84, 4.50933665037155151367e-01) (85, 3.48830759525299072266e-01) (86, 1.06366431713104248047e+00) (87, 2.76195883750915527344e+00) (88, -4.62053716182708740234e-01) (89, 4.46721678599715232849e-03) (90, 3.40696685016155242920e-02) (91, 4.98350232839584350586e-01) (92, 6.35193064808845520020e-02) (93, -5.30207991600036621094e-01) (94, 2.58539915084838867188e-01) (95, -1.84785187244415283203e-01) (96, 4.15480792522430419922e-01) (26, 2.92361676692962646484e-01) (27, 5.99058032035827636719e-01) (28, -1.72712594270706176758e-01) (29, 4.17352586984634399414e-01) (30, -1.55153825879096984863e-01) (31, 2.76969105005264282227e-01) (32, 8.08084979653358459473e-02) (33, -3.16117070615291595459e-02) (34, -1.30708038806915283203e-01) (35, 4.47924524545669555664e-01) (36, -1.58139020204544067383e-01) (37, 3.31467688083648681641e-01) (38, 3.52618217468261718750e-01) (39, -2.76545763015747070312e-01) (40, -3.66624265909194946289e-01) (41, 3.67920726537704467773e-01) (42, -8.54400470852851867676e-02) (43, -2.63341069221496582031e-01) (44, 8.09123575687408447266e-01) (45, -9.45639461278915405273e-02) (46, -1.61583676934242248535e-01) (47, 7.45803341269493103027e-02) (48, 1.17686796188354492188e+00) (49, 4.51633632183074951172e-01) (50, 4.49837356805801391602e-01) (51, -3.14608454704284667969e-01) (52, 1.59971833229064941406e-01) (53, 7.29570806026458740234e-01) (54, 4.11364823579788208008e-01) (55, 1.42989635467529296875e-01) (56, 2.10544303059577941895e-01) (57, -2.79125809669494628906e-01) (58, 1.04268789291381835938e+00) (59, 1.63897220045328140259e-02) (60, 3.73821139335632324219e-01) (61, 2.06390798091888427734e-01) (62, 4.51182097196578979492e-01) (63, -2.02040240168571472168e-01) (64, 8.74645471572875976562e-01) (65, 7.62881815433502197266e-01) (66, 6.30077794194221496582e-02) (67, 7.43297994136810302734e-01) (68, 3.21335405111312866211e-01) (69, 7.78566777706146240234e-01) (70, 2.61822402477264404297e-01) (71, -2.61971265077590942383e-01) (72, 3.79355639219284057617e-01) (73, 4.35084372758865356445e-01) (74, -5.50045549869537353516e-01) (75, 4.90844637155532836914e-01) (76, -2.49958351254463195801e-01) (77, 5.95759987831115722656e-01) (78, 3.13574254512786865234e-01) (79, -1.47333458065986633301e-01) (80, 5.13945162296295166016e-01) (81, -2.54327744245529174805e-01) (82, 6.76381409168243408203e-01) (83, 2.25803196430206298828e-01) (84, 5.10676860809326171875e-01) (85, 5.90705335140228271484e-01) (86, 1.12942814826965332031e+00) (87, 6.13333404064178466797e-01) (88, -3.53761374950408935547e-01) (89, 5.76940514147281646729e-02) (90, -2.37012103199958801270e-01) (91, 4.60209131240844726562e-01) (92, -5.92405982315540313721e-02) (93, 5.32661557197570800781e-01) (94, -7.83005893230438232422e-01) (95, -4.22163724899291992188e-01) (96, 4.52225595712661743164e-01) (26, -1.51740327477455139160e-01) (27, 1.73631049692630767822e-02) (28, -1.31105303764343261719e-01) (29, 2.72858947515487670898e-01) (30, 9.76985543966293334961e-02) (31, 1.77493542432785034180e-01) (32, 8.28534364700317382812e-02) (33, -4.91482615470886230469e-02) (34, 9.03222322463989257812e-01) (35, 2.73464351892471313477e-01) (36, 9.73637327551841735840e-02) (37, -3.63672524690628051758e-01) (38, 3.07233721017837524414e-01) (39, 8.33337157964706420898e-02) (40, -7.42946714162826538086e-02) (41, -3.91056109219789505005e-03) (42, -2.40625813603401184082e-02) (43, -9.68094110488891601562e-01) (44, 4.88731533288955688477e-01) (45, 4.64001566171646118164e-01) (46, 5.32935917377471923828e-01) (47, -9.14375409483909606934e-02) (48, 1.90557494759559631348e-01) (49, 2.16318741440773010254e-01) (50, 1.53823032975196838379e-01) (51, -4.13249209523200988770e-02) (52, 1.86194524168968200684e-01) (53, 5.13215005397796630859e-01) (54, 3.48605632781982421875e-01) (55, 8.29117074608802795410e-02) (56, 1.68729484081268310547e-01) (57, -7.66476318240165710449e-02) (58, 2.10299283266067504883e-01) (59, -2.97155361622571945190e-02) (60, 4.06425207853317260742e-01) (61, 5.77354617416858673096e-02) (62, -5.50318546593189239502e-02) (63, -2.85017248243093490601e-02) (64, 4.41901326179504394531e-01) (65, -6.23542480170726776123e-02) (66, 2.54827231168746948242e-01) (67, 1.11914777755737304688e+00) (68, -1.51338398456573486328e+00) (69, 2.33426272869110107422e-01) (70, -3.36305499076843261719e-01) (71, -1.48273944854736328125e-01) (72, 3.54630589485168457031e-01) (73, 3.53016346693038940430e-01) (74, -5.40700376033782958984e-01) (75, 4.38843786716461181641e-01) (76, 3.52430373430252075195e-01) (77, 1.07236921787261962891e+00) (78, 2.69564658403396606445e-01) (79, -8.55466872453689575195e-02) (80, -1.68702960014343261719e-01) (81, -1.83656394481658935547e-01) (82, -4.26730394363403320312e-01) (83, 6.49012804031372070312e-01) (84, 4.38488662242889404297e-01) (85, 4.14988785982131958008e-01) (86, -7.75042414665222167969e-01) (87, 4.29782271385192871094e-01) (88, -2.75609016418457031250e-01) (89, 2.08258080482482910156e+00) (90, 2.22959607839584350586e-01) (91, 4.42126452922821044922e-01) (92, -1.53823345899581909180e-02) (93, -9.06661450862884521484e-02) (94, 1.80897742509841918945e-01) (95, -8.30782353878021240234e-02) (96, 3.61241579055786132812e-01) (26, 1.59715592861175537109e-01) (27, -7.65204429626464843750e-01) (28, 1.38802361488342285156e+00) (29, 5.46649992465972900391e-01) (30, 7.30821907520294189453e-01) (31, 8.47054898738861083984e-01) (32, 4.88804578781127929688e-01) (33, -5.68087816238403320312e-01) (34, 6.90208137035369873047e-01) (35, 3.75474065542221069336e-01) (36, 1.67440533638000488281e+00) (37, -4.12888497114181518555e-01) (38, 5.23890197277069091797e-01) (39, -3.28475058078765869141e-01) (40, 7.95660614967346191406e-01) (41, 3.39807346463203430176e-02) (42, -3.15813839435577392578e-01) (43, -1.34211972355842590332e-01) (44, -4.07439507544040679932e-02) (45, 2.92857736349105834961e-01) (46, 6.88724577426910400391e-01) (47, 6.73457160592079162598e-02) (48, 2.78577685356140136719e-01) (49, -3.28158080577850341797e-01) (50, -2.98738777637481689453e-01) (51, -1.66032925248146057129e-01) (52, -1.65794968605041503906e-01) (53, 6.78397595882415771484e-01) (54, -7.11970269680023193359e-01) (55, 9.93882834911346435547e-01) (56, 1.33303344249725341797e+00) (57, -2.25776776671409606934e-01) (58, 6.63970947265625000000e-01) (59, 7.90062546730041503906e-02) (60, 4.73114609718322753906e-01) (61, 7.93838441371917724609e-01) (62, -1.63592487573623657227e-01) (63, 2.78760105371475219727e-01) (64, 5.53088545799255371094e-01) (65, 2.29354321956634521484e-01) (66, 2.31357023119926452637e-01) (67, 8.43083083629608154297e-01) (68, 1.05211019515991210938e+00) (69, 1.41344892978668212891e+00) (70, 1.14386349916458129883e-01) (71, -3.70715826749801635742e-01) (72, 8.47571432590484619141e-01) (73, 5.06700217723846435547e-01) (74, 1.11041083931922912598e-01) (75, 1.10816621780395507812e+00) (76, -1.14940309524536132812e+00) (77, 6.10566556453704833984e-01) (78, 4.51824903488159179688e-01) (79, -1.49804818630218505859e+00) (80, 3.29031080007553100586e-01) (81, 5.12975394725799560547e-01) (82, -6.27931952476501464844e-01) (83, -3.68331789970397949219e-01) (84, 4.20709013938903808594e-01) (85, 4.45452004671096801758e-01) (86, 1.18302309513092041016e+00) (87, 2.63891369104385375977e-01) (88, -3.67463156580924987793e-02) (89, -3.63559760153293609619e-02) (90, -1.39582291245460510254e-01) (91, 4.48054701089859008789e-01) (92, 4.41920787096023559570e-01) (93, -1.42982155084609985352e-01) (94, 4.60135191679000854492e-02) (95, -2.84816082566976547241e-02) (96, 4.62219297885894775391e-01) (26, 1.00397370755672454834e-01) (27, -1.57090568542480468750e+00) (28, 7.09931313991546630859e-01) (29, -2.07269644737243652344e+00) (30, 2.82287925481796264648e-01) (31, 2.81695395708084106445e-01) (32, 1.92072391510009765625e-01) (33, 2.47466772794723510742e-01) (34, 2.50852871686220169067e-02) (35, 4.97194945812225341797e-01) (36, -4.14302617311477661133e-01) (37, 4.80068713426589965820e-01) (38, -1.22607380151748657227e-01) (39, 1.63595497608184814453e+00) (40, 3.62141355872154235840e-02) (41, 8.64138841629028320312e-01) (42, -1.28072798252105712891e-01) (43, 2.48017624020576477051e-01) (44, 7.41007626056671142578e-01) (45, 5.00030040740966796875e-01) (46, 8.70050370693206787109e-01) (47, -1.78232657909393310547e+00) (48, 1.56368970870971679688e+00) (49, -1.83762812614440917969e+00) (50, 1.60375189781188964844e+00) (51, -3.48812520503997802734e-01) (52, 8.07846933603286743164e-02) (53, 7.64197289943695068359e-01) (54, 7.05898284912109375000e-01) (55, -4.74865406751632690430e-01) (56, -1.99872016906738281250e-01) (57, -2.36446727067232131958e-02) (58, 1.01133632659912109375e+00) (59, 1.03256094455718994141e+00) (60, 4.90889221429824829102e-01) (61, 5.55413961410522460938e-01) (62, 1.32762563228607177734e+00) (63, 6.20280742645263671875e-01) (64, 7.65815436840057373047e-01) (65, -5.73772311210632324219e-01) (66, -8.38937401771545410156e-01) (67, 2.93636679649353027344e-01) (68, 1.11793839931488037109e+00) (69, 2.01444968581199645996e-01) (70, -1.04707622528076171875e+00) (71, 6.99782311916351318359e-01) (72, -6.50324285030364990234e-01) (73, -1.15579098463058471680e-01) (74, 1.00221467018127441406e+00) (75, 2.42120742797851562500e+00) (76, -1.26601421833038330078e+00) (77, 2.77654856443405151367e-01) (78, 4.31327730417251586914e-01) (79, 1.13305842876434326172e+00) (80, 4.85491991043090820312e-01) (81, -5.84959745407104492188e-01) (82, 3.31411093473434448242e-01) (83, 3.48377799987792968750e+00) (84, 5.02997636795043945312e-01) (85, 5.37368416786193847656e-01) (86, -8.57911050319671630859e-01) (87, -9.05486345291137695312e-02) (88, 1.23802888393402099609e+00) (89, 9.18540805578231811523e-02) (90, 4.55352738499641418457e-02) (91, 5.68168878555297851562e-01) (92, -4.20474916696548461914e-01) (93, -1.94825947284698486328e-01) (94, 4.30896997451782226562e-01) (95, 1.44614189863204956055e-01) (96, 4.05826956033706665039e-01) (26, 1.59678959846496582031e+00) (27, 3.21311622858047485352e-01) (28, -1.36801803112030029297e+00) (29, 4.90802854299545288086e-01) (30, 1.16627562046051025391e+00) (31, 5.51832973957061767578e-01) (32, -1.49873733520507812500e+00) (33, -3.54214221239089965820e-01) (34, 8.93798828125000000000e-01) (35, 5.27882456779479980469e-01) (36, 5.90675175189971923828e-01) (37, -2.56537236273288726807e-02) (38, 4.94927674531936645508e-01) (39, -4.33575481176376342773e-01) (40, -3.73816400766372680664e-01) (41, -9.15706813335418701172e-01) (42, 1.09355902671813964844e+00) (43, 4.90418732166290283203e-01) (44, 6.41879141330718994141e-01) (45, 3.52984547615051269531e-01) (46, -1.72614157199859619141e-01) (47, -1.05510123074054718018e-01) (48, 8.83535683155059814453e-01) (49, 1.61255562305450439453e+00) (50, 1.98664113879203796387e-01) (51, -1.92832991480827331543e-01) (52, -3.43751692771911621094e+00) (53, 6.89186990261077880859e-01) (54, -1.57724663615226745605e-01) (55, -8.15201997756958007812e-01) (56, -6.73022329807281494141e-01) (57, -4.28407788276672363281e-01) (58, 9.28992927074432373047e-01) (59, -9.11017596721649169922e-01) (60, 5.56052029132843017578e-01) (61, 4.20563876628875732422e-01) (62, 1.52351009845733642578e+00) (63, -7.58003056049346923828e-01) (64, 7.15622365474700927734e-01) (65, 1.94848823547363281250e+00) (66, 8.22107315063476562500e-01) (67, 5.79691290855407714844e-01) (68, 2.85386666655540466309e-02) (69, 3.46170544624328613281e-01) (70, -8.51887226104736328125e-01) (71, -2.50971853733062744141e-01) (72, -3.07143807411193847656e-01) (73, 5.27793049812316894531e-01) (74, 6.60440206527709960938e-01) (75, 9.84877824783325195312e-01) (76, 1.73501920700073242188e+00) (77, 7.05445230007171630859e-01) (78, 5.65524995326995849609e-01) (79, -6.81295156478881835938e-01) (80, 5.00750601291656494141e-01) (81, 2.36780717968940734863e-02) (82, 3.46640765666961669922e-01) (83, 5.94036221504211425781e-01) (84, 5.15601575374603271484e-01) (85, 4.13222461938858032227e-01) (86, 5.57460367679595947266e-01) (87, 6.21347486972808837891e-01) (88, 5.48747301101684570312e-01) (89, 1.40599712729454040527e-01) (90, 5.32822370529174804688e-01) (91, 4.58605915307998657227e-01) (92, -4.62204337120056152344e-01) (93, 8.83833616971969604492e-02) (94, 7.15711295604705810547e-01) (95, -1.95559352636337280273e-01) (96, 5.40470957756042480469e-01) (26, 3.87627273797988891602e-01) (27, 1.45841449499130249023e-01) (28, 5.63338957726955413818e-02) (29, 2.44022458791732788086e-01) (30, 4.66662019491195678711e-01) (31, 3.89083653688430786133e-01) (32, -7.06499163061380386353e-03) (33, -7.60933831334114074707e-02) (34, 6.36342227458953857422e-01) (35, 5.34357488155364990234e-01) (36, 5.64107894897460937500e-01) (37, 6.31861865520477294922e-01) (38, 5.46421110630035400391e-01) (39, -1.79165810346603393555e-01) (40, -2.22484752535820007324e-01) (41, 1.68546870350837707520e-01) (42, -1.94746002554893493652e-01) (43, 5.06712794303894042969e-01) (44, 2.28740549087524414062e+00) (45, 3.82683038711547851562e-01) (46, 7.00947701930999755859e-01) (47, 1.70453608036041259766e+00) (48, 6.98798358440399169922e-01) (49, 5.37089824676513671875e-01) (50, 2.92100280523300170898e-01) (51, -3.35807532072067260742e-01) (52, 3.40811789035797119141e-01) (53, 5.91286420822143554688e-01) (54, 5.72354793548583984375e-01) (55, -6.72186836600303649902e-02) (56, 